{"learner":{"attributes":{"best_iteration":"1","best_score":"3.0684692370433395"},"feature_names":[],"feature_types":[],"gradient_booster":{"model":{"gbtree_model_param":{"num_parallel_tree":"1","num_trees":"102"},"iteration_indptr":[0,1,2,3,4,5,6,7,8,9,10,11,12,13,14,15,16,17,18,19,20,21,22,23,24,25,26,27,28,29,30,31,32,33,34,35,36,37,38,39,40,41,42,43,44,45,46,47,48,49,50,51,52,53,54,55,56,57,58,59,60,61,62,63,64,65,66,67,68,69,70,71,72,73,74,75,76,77,78,79,80,81,82,83,84,85,86,87,88,89,90,91,92,93,94,95,96,97,98,99,100,101,102],"tree_info":[0,0,0,0,0,0,0,0,0,0,0,0,0,0,0,0,0,0,0,0,0,0,0,0,0,0,0,0,0,0,0,0,0,0,0,0,0,0,0,0,0,0,0,0,0,0,0,0,0,0,0,0,0,0,0,0,0,0,0,0,0,0,0,0,0,0,0,0,0,0,0,0,0,0,0,0,0,0,0,0,0,0,0,0,0,0,0,0,0,0,0,0,0,0,0,0,0,0,0,0,0,0],"trees":[{"base_weights":[-2.0069338E-2,5.3793777E-2,-2.3012638E0,1.3135264E0,1.1811127E-3,-6.666056E0,-1.723503E0,1.912675E0,-2.712231E-1,-3.099719E-1,1.2083115E-1,-8.349158E0,-0E0,-1.111014E-1,-1.4161289E0,2.1566513E0,-2.129213E0,-2.7797647E0,9.074133E-1,-1.9039936E-1,-1.262724E0,-7.8579426E-1,1.7285448E-1,-4.6262426E0,-2.2552636E-1,2.8662318E-1,-2.1294725E0,1.0924093E0,2.9953196E0,-0E0,-6.0518622E-2,-7.715115E-2,-1.0914377E0,-2.6471332E-2,1.7558748E0,1.366114E0,-2.3435661E-1,-2.0868425E0,4.0510893E-1,5.362586E-1,-1.223118E0,9.7289926E-1,1.11462556E-1,-1.0026664E-2,-9.858008E-2,-7.6808822E-3,9.9540704E-1,-3.78931E0,-5.4724133E-1,-3.791486E-2,2.156212E-2,6.506877E-2,2.3033569E-2,-0E0,-2.374007E-2,1.9096186E-2,-2.2390043E-2,3.2367364E-2,-0E0,-0E0,5.438739E-2,-5.964723E-3,2.3904836E-3,-2.5636109E-2,-1.12483874E-1,1.380314E-3,3.6955453E-2,4.8251785E-2,3.0610405E-3,-1.28183905E-2,-4.182966E-2,2.4584148E-3,2.5496222E-2,1.6924914E-2,1.0385099E-3,2.9222071E-2,1.1716015E-3,-1.165778E-2,-7.671125E-2,1.0114345E-1,-2.2786196E-2],"categories":[],"categories_nodes":[],"categories_segments":[],"categories_sizes":[],"default_left":[0,0,0,0,0,0,0,0,0,0,0,0,0,0,0,0,0,0,0,0,0,0,0,0,0,0,0,0,0,0,0,0,0,0,0,0,0,0,0,0,0,0,0,0,0,0,0,0,0,0,0,0,0,0,0,0,0,0,0,0,0,0,0,0,0,0,0,0,0,0,0,0,0,0,0,0,0,0,0,0,0],"id":0,"left_children":[1,3,5,7,9,11,13,15,17,19,21,23,-1,-1,25,27,29,31,33,35,37,39,41,43,-1,45,47,49,51,-1,-1,-1,53,55,57,59,61,63,65,67,69,71,73,-1,-1,-1,75,77,79,-1,-1,-1,-1,-1,-1,-1,-1,-1,-1,-1,-1,-1,-1,-1,-1,-1,-1,-1,-1,-1,-1,-1,-1,-1,-1,-1,-1,-1,-1,-1,-1],"loss_changes":[7.142132E2,2.6931973E2,3.1359845E2,1.573193E2,1.4599135E2,1.6870386E2,1.7674387E2,1.2169943E2,1.3770117E2,1.21850815E2,1.3329134E2,1.8346613E2,0E0,0E0,1.4135263E2,9.246216E1,2.7893555E1,4.174996E1,2.6785713E1,6.514873E1,1.6783076E2,8.99347E1,1.3052869E2,4.749269E1,0E0,1.9851164E1,2.0506439E2,5.4760082E1,9.742273E1,0E0,0E0,0E0,4.2296753E0,2.82571E1,7.7460365E0,7.2414734E1,5.4430138E1,1.6152231E2,2.148299E1,2.8193615E1,6.129956E1,9.9803375E1,1.0767713E2,0E0,0E0,0E0,1.2665253E1,1.2268591E2,2.7809598E2,0E0,0E0,0E0,0E0,0E0,0E0,0E0,0E0,0E0,0E0,0E0,0E0,0E0,0E0,0E0,0E0,0E0,0E0,0E0,0E0,0E0,0E0,0E0,0E0,0E0,0E0,0E0,0E0,0E0,0E0,0E0,0E0],"parents":[2147483647,0,0,1,1,2,2,3,3,4,4,5,5,6,6,7,7,8,8,9,9,10,10,11,11,14,14,15,15,16,16,17,17,18,18,19,19,20,20,21,21,22,22,23,23,25,25,26,26,27,27,28,28,32,32,33,33,34,34,35,35,36,36,37,37,38,38,39,39,40,40,41,41,42,42,46,46,47,47,48,48],"right_children":[2,4,6,8,10,12,14,16,18,20,22,24,-1,-1,26,28,30,32,34,36,38,40,42,44,-1,46,48,50,52,-1,-1,-1,54,56,58,60,62,64,66,68,70,72,74,-1,-1,-1,76,78,80,-1,-1,-1,-1,-1,-1,-1,-1,-1,-1,-1,-1,-1,-1,-1,-1,-1,-1,-1,-1,-1,-1,-1,-1,-1,-1,-1,-1,-1,-1,-1,-1],"split_conditions":[5.126236E2,8.71E1,-1.5029779E-1,1.0268009E0,-1.1083513E-1,1.5311E2,-3.9833707E-1,2.705407E2,1.1012552E0,3.2883652E2,8.974E1,5.357178E2,-0E0,-1.111014E-1,1.3753E2,1.2669116E2,-9.5810574E-1,8.01658E1,5.8451496E-2,8.902804E1,1.69905E2,8.708383E1,-1.9663451E0,-2.2863053E-1,-2.2552636E-1,1.228545E2,1.445325E2,-3.3372527E-1,8.711008E1,-0E0,-6.0518622E-2,-7.715115E-2,-4.9115915E-2,9.0781136E1,3.661756E0,-1.5250167E-1,2.0649068E2,4.3632416E-3,-1.2922446E-1,-5.585711E-1,8.94635E1,-5.5697378E-2,9.261615E1,-1.0026664E-2,-9.858008E-2,-7.6808822E-3,1.36865E2,-2.6895502E-1,1.4545226E2,-3.791486E-2,2.156212E-2,6.506877E-2,2.3033569E-2,-0E0,-2.374007E-2,1.9096186E-2,-2.2390043E-2,3.2367364E-2,-0E0,-0E0,5.438739E-2,-5.964723E-3,2.3904836E-3,-2.5636109E-2,-1.12483874E-1,1.380314E-3,3.6955453E-2,4.8251785E-2,3.0610405E-3,-1.28183905E-2,-4.182966E-2,2.4584148E-3,2.5496222E-2,1.6924914E-2,1.0385099E-3,2.9222071E-2,1.1716015E-3,-1.165778E-2,-7.671125E-2,1.0114345E-1,-2.2786196E-2],"split_indices":[21,2,11,18,11,1,10,21,16,21,3,21,0,0,3,21,16,1,9,13,1,14,18,7,0,1,2,12,8,0,0,0,9,21,18,11,21,12,11,17,1,6,14,0,0,0,1,20,13,0,0,0,0,0,0,0,0,0,0,0,0,0,0,0,0,0,0,0,0,0,0,0,0,0,0,0,0,0,0,0,0],"split_type":[0,0,0,0,0,0,0,0,0,0,0,0,0,0,0,0,0,0,0,0,0,0,0,0,0,0,0,0,0,0,0,0,0,0,0,0,0,0,0,0,0,0,0,0,0,0,0,0,0,0,0,0,0,0,0,0,0,0,0,0,0,0,0,0,0,0,0,0,0,0,0,0,0,0,0,0,0,0,0,0,0],"sum_hessian":[4.22E3,4.088E3,1.32E2,1.62E2,3.926E3,1.4E1,1.18E2,1.18E2,4.4E1,1.087E3,2.839E3,1.1E1,3E0,5E0,1.13E2,1.12E2,6E0,1.4E1,3E1,9.68E2,1.19E2,1.52E2,2.687E3,8E0,3E0,3.3E1,8E1,5.1E1,6.1E1,3E0,3E0,5E0,9E0,1.4E1,1.6E1,2.5E1,9.43E2,8E1,3.9E1,3.7E1,1.15E2,1.89E2,2.498E3,3E0,5E0,1.5E1,1.8E1,3.8E1,4.2E1,3E0,4.8E1,3.3E1,2.8E1,3E0,6E0,7E0,7E0,1.3E1,3E0,1.6E1,9E0,6.85E2,2.58E2,7.5E1,5E0,3.5E1,4E0,3E0,3.4E1,9.2E1,2.3E1,8.6E1,1.03E2,1.08E2,2.39E3,8E0,1E1,1.1E1,2.7E1,4E0,3.8E1],"tree_param":{"num_deleted":"0","num_feature":"22","num_nodes":"81","size_leaf_vector":"1"}},{"base_weights":[-1.990923E-3,1.4866453E0,-6.1306342E-2,2.0455322E0,-1.14516646E-1,-8.424093E-1,3.2992907E-2,-4.0238395E-2,2.237236E0,-1.2053148E0,1.4862266E0,1.4546074E-1,-2.109245E0,-1.944318E-1,1.4289235E-1,3.072126E0,1.1278126E0,-5.5127453E-2,-2.7292016E-1,4.2149503E-2,8.138701E-1,-2.8725314E0,5.4973555E-1,-1.5404352E0,-4.153493E0,3.245892E-1,-2.818294E-1,-5.9000526E-2,3.56239E-1,3.9249623E0,1.5972666E0,-3.746551E-2,1.4168648E0,3.5116907E-2,-9.2128456E-1,-0E0,2.0933636E-2,-1.7291988E0,-1.22112535E-1,3.9045727E-1,5.1701245E0,-2.7827158E0,-6.5040755E-1,-1.0948744E1,-1.5803236E0,-1.2085017E-1,1.2660149E0,-4.8387063E-1,1.187049E-2,9.1672486E-1,-1.2460971E-1,5.3135675E-1,-4.0505797E-2,4.7412362E-2,9.6449114E-2,6.360124E-2,1.1857432E-2,7.329017E-3,2.8471936E-2,-0E0,-2.3066472E-2,-4.9526114E-2,9.710392E-3,1.8890213E-2,-8.909312E-3,1.2405063E-1,1.284608E-2,-7.20376E-2,-1.7976949E-2,-5.1169515E-2,-1.7957075E-3,-6.000423E-2,-2.8968132E-1,-4.331153E-2,3.194549E-2,3.8154777E-2,-4.240127E-3,1.076521E-1,1.2327686E-2,-8.511641E-3,1.1705294E-2,3.168176E-3,-1.7287133E-2,7.300675E-3,4.7390692E-2,-6.3673E-3,1.1960187E-3,5.1861256E-3,2.057191E-2,2.0327544E-2,-3.488611E-3],"categories":[],"categories_nodes":[],"categories_segments":[],"categories_sizes":[],"default_left":[0,0,0,0,0,0,0,0,0,0,0,0,0,0,0,0,0,0,0,0,0,0,0,0,0,0,0,0,0,0,0,0,0,0,0,0,0,0,0,0,0,0,0,0,0,0,0,0,0,0,0,0,0,0,0,0,0,0,0,0,0,0,0,0,0,0,0,0,0,0,0,0,0,0,0,0,0,0,0,0,0,0,0,0,0,0,0,0,0,0,0],"id":1,"left_children":[1,3,5,7,9,11,13,-1,15,17,19,21,23,25,27,29,31,-1,33,-1,35,37,39,41,43,45,47,49,51,53,55,-1,57,-1,59,-1,-1,61,-1,63,65,67,69,71,73,75,77,79,81,83,85,87,89,-1,-1,-1,-1,-1,-1,-1,-1,-1,-1,-1,-1,-1,-1,-1,-1,-1,-1,-1,-1,-1,-1,-1,-1,-1,-1,-1,-1,-1,-1,-1,-1,-1,-1,-1,-1,-1,-1],"loss_changes":[3.7096506E2,1.4672809E2,3.0018344E2,1.1137018E2,7.459148E1,5.521425E2,9.051179E1,0E0,9.8720276E1,5.0509483E1,7.246147E0,2.9982623E2,2.1097852E2,5.341998E1,1.0579901E2,6.865631E1,5.495591E1,0E0,3.2902634E1,0E0,3.9270744E0,1.3880017E2,1.5208304E2,1.6298953E2,6.8352185E2,7.204347E1,6.054062E1,7.943048E1,8.353253E1,5.024524E1,4.471338E1,0E0,1.5139572E1,0E0,7.3498554E0,0E0,0E0,8.98792E1,0E0,1.6933405E2,6.648372E1,1.7574606E2,1.2326309E2,4.9565417E2,1.4047968E2,4.1944206E1,1.3230685E2,4.5745438E1,8.6777306E1,6.833964E1,6.7632385E1,1.2744992E2,8.835686E1,0E0,0E0,0E0,0E0,0E0,0E0,0E0,0E0,0E0,0E0,0E0,0E0,0E0,0E0,0E0,0E0,0E0,0E0,0E0,0E0,0E0,0E0,0E0,0E0,0E0,0E0,0E0,0E0,0E0,0E0,0E0,0E0,0E0,0E0,0E0,0E0,0E0,0E0],"parents":[2147483647,0,0,1,1,2,2,3,3,4,4,5,5,6,6,8,8,9,9,10,10,11,11,12,12,13,13,14,14,15,15,16,16,18,18,20,20,21,21,22,22,23,23,24,24,25,25,26,26,27,27,28,28,29,29,30,30,32,32,34,34,37,37,39,39,40,40,41,41,42,42,43,43,44,44,45,45,46,46,47,47,48,48,49,49,50,50,51,51,52,52],"right_children":[2,4,6,8,10,12,14,-1,16,18,20,22,24,26,28,30,32,-1,34,-1,36,38,40,42,44,46,48,50,52,54,56,-1,58,-1,60,-1,-1,62,-1,64,66,68,70,72,74,76,78,80,82,84,86,88,90,-1,-1,-1,-1,-1,-1,-1,-1,-1,-1,-1,-1,-1,-1,-1,-1,-1,-1,-1,-1,-1,-1,-1,-1,-1,-1,-1,-1,-1,-1,-1,-1,-1,-1,-1,-1,-1,-1],"split_conditions":[8.7365E1,1.0268009E0,3.6635643E-1,2.7564287E-1,8.7026376E-1,1.3753E2,-9.3274534E-2,-4.0238395E-2,6.2886846E-1,7.9428E1,3.035028E6,8.93235E1,1.4890106E2,-6.321351E-1,3.125681E6,2.7117106E-1,-3.3372527E-1,-5.5127453E-2,-4.8163274E-1,4.2149503E-2,1.6468088E-1,8.9077E1,1.1788508E-1,1.711077E6,1.52765E2,-1.775049E-1,1.5438072E-1,3.918469E-1,2.0755856E-1,-7.386405E-1,-3.2261357E-1,-3.746551E-2,-3.6697248E-1,3.5116907E-2,-9.328153E-3,-0E0,2.0933636E-2,8.7838776E1,-1.22112535E-1,8.802904E-2,1.147245E6,1.4380762E2,-2.8052962E-1,1.4954E2,1.697817E6,-1.1271726E0,-1.2783982E0,1.7396E2,1.0269566E0,1.2241655E-1,1.2020397E2,1.358706E-1,9.401523E1,4.7412362E-2,9.6449114E-2,6.360124E-2,1.1857432E-2,7.329017E-3,2.8471936E-2,-0E0,-2.3066472E-2,-4.9526114E-2,9.710392E-3,1.8890213E-2,-8.909312E-3,1.2405063E-1,1.284608E-2,-7.20376E-2,-1.7976949E-2,-5.1169515E-2,-1.7957075E-3,-6.000423E-2,-2.8968132E-1,-4.331153E-2,3.194549E-2,3.8154777E-2,-4.240127E-3,1.076521E-1,1.2327686E-2,-8.511641E-3,1.1705294E-2,3.168176E-3,-1.7287133E-2,7.300675E-3,4.7390692E-2,-6.3673E-3,1.1960187E-3,5.1861256E-3,2.057191E-2,2.0327544E-2,-3.488611E-3],"split_indices":[0,18,15,15,15,3,12,0,15,2,4,14,14,10,4,17,12,0,17,0,9,0,11,4,0,12,17,15,12,18,10,0,10,0,12,0,0,14,0,16,4,8,6,0,4,6,17,0,15,11,14,12,14,0,0,0,0,0,0,0,0,0,0,0,0,0,0,0,0,0,0,0,0,0,0,0,0,0,0,0,0,0,0,0,0,0,0,0,0,0,0],"split_type":[0,0,0,0,0,0,0,0,0,0,0,0,0,0,0,0,0,0,0,0,0,0,0,0,0,0,0,0,0,0,0,0,0,0,0,0,0,0,0,0,0,0,0,0,0,0,0,0,0,0,0,0,0,0,0,0,0,0,0,0,0,0,0,0,0,0,0,0,0,0,0,0,0,0,0,0,0,0,0,0,0,0,0,0,0,0,0,0,0,0,0],"sum_hessian":[4.22E3,1.6E2,4.06E3,1.19E2,4.1E1,4.38E2,3.622E3,4E0,1.15E2,2.5E1,1.6E1,2.46E2,1.92E2,1.176E3,2.446E3,6.4E1,5.1E1,6E0,1.9E1,4E0,1.2E1,2.8E1,2.18E2,1.52E2,4E1,1.67E2,1.009E3,1.254E3,1.192E3,3.9E1,2.5E1,3E0,4.8E1,3E0,1.6E1,6E0,6E0,2.4E1,4E0,2.12E2,6E0,6.2E1,9E1,1E1,3E1,1.13E2,5.4E1,6E2,4.09E2,7.7E1,1.177E3,8.29E2,3.63E2,3E1,9E0,5E0,2E1,1.6E1,3.2E1,7E0,9E0,1.5E1,9E0,1.15E2,9.7E1,3E0,3E0,2.8E1,3.4E1,1.4E1,7.6E1,6E0,4E0,2.3E1,7E0,5E0,1.08E2,3E0,5.1E1,5.73E2,2.7E1,3.51E2,5.8E1,6.5E1,1.2E1,4.91E2,6.86E2,6.64E2,1.65E2,4.2E1,3.21E2],"tree_param":{"num_deleted":"0","num_feature":"22","num_nodes":"91","size_leaf_vector":"1"}},{"base_weights":[9.367185E-3,8.106163E-2,-1.7118815E0,1.4687202E0,2.9846782E-2,-5.153668E0,-1.2634948E0,2.0489275E0,-5.2361655E-1,-2.7859896E-1,1.4987382E-1,-9.983686E-1,-6.9065595E0,-5.6718016E0,-9.392733E-1,1.2766166E0,3.5094585E0,-1.8926575E0,6.491804E-1,-1.3663678E0,-2.2890992E-1,7.0508236E-1,6.0795616E-2,-2.7137456E-2,-0E0,-3.8201742E-2,-1.5975386E-1,-1.06079884E-1,-3.125431E-2,-1.7456828E0,2.5004867E-1,-1.1930263E0,1.5623815E0,-3.5306832E-1,4.285441E0,-5.1561736E-2,-2.9487693E-1,1.4243401E0,-1.382601E-1,1.0620067E0,-2.363718E0,-7.681307E-1,-1.2061379E-1,1.8898631E0,4.1034707E-1,-9.034921E-1,1.2481275E-1,2.2599156E-1,-3.2665884E0,9.989066E-2,-2.9495594E-1,1.6478136E-2,-4.709396E-2,6.916682E-2,2.104589E-2,9.060749E-3,-2.3820948E-2,7.40559E-2,9.485401E-3,-2.6242794E-2,7.13718E-3,-0E0,3.700798E-2,-2.1039544E-2,7.3593305E-3,4.3255126E-4,4.1794676E-2,-5.4792214E-2,-2.2920272E-3,1.3492771E-2,-1.47592565E-2,-3.8309016E-3,5.556259E-3,1.4557948E-2,7.047122E-2,3.5577875E-3,4.3460883E-2,-7.001741E-2,-9.551341E-3,1.7604321E-2,1.2295665E-3,9.968974E-3,-4.92505E-2,-2.506596E-3,-6.284981E-2,8.612846E-2,-1.1944955E-2],"categories":[],"categories_nodes":[],"categories_segments":[],"categories_sizes":[],"default_left":[0,0,0,0,0,0,0,0,0,0,0,0,0,0,0,0,0,0,0,0,0,0,0,0,0,0,0,0,0,0,0,0,0,0,0,0,0,0,0,0,0,0,0,0,0,0,0,0,0,0,0,0,0,0,0,0,0,0,0,0,0,0,0,0,0,0,0,0,0,0,0,0,0,0,0,0,0,0,0,0,0,0,0,0,0,0,0],"id":2,"left_children":[1,3,5,7,9,11,13,15,17,19,21,23,25,27,29,31,33,35,37,39,41,43,45,-1,-1,-1,-1,-1,-1,47,49,51,53,55,57,-1,59,61,63,65,67,69,71,73,75,77,79,81,83,-1,85,-1,-1,-1,-1,-1,-1,-1,-1,-1,-1,-1,-1,-1,-1,-1,-1,-1,-1,-1,-1,-1,-1,-1,-1,-1,-1,-1,-1,-1,-1,-1,-1,-1,-1,-1,-1],"loss_changes":[5.245995E2,2.8927292E2,2.4785913E2,1.705336E2,1.4625713E2,1.2134143E2,2.0363766E2,1.1701126E2,5.566763E1,5.7379982E1,1.3992719E2,5.0168786E0,1.5219464E2,1.6866028E1,1.3943358E2,5.5846207E1,1.20227264E2,3.0424805E1,1.2793024E1,1.1776603E2,6.061033E1,1.3318132E2,1.5090204E2,0E0,0E0,0E0,0E0,0E0,0E0,2.623426E2,2.038775E2,3.816605E1,2.9218292E1,9.668645E0,4.441913E1,0E0,1.163628E1,1.3273436E1,8.331796E0,1.9777407E1,8.115796E1,5.1606316E1,5.2605236E1,1.8237744E2,1.3235541E2,1.495435E2,1.04936356E2,5.1664593E1,1.09653015E2,0E0,1.4547124E2,0E0,0E0,0E0,0E0,0E0,0E0,0E0,0E0,0E0,0E0,0E0,0E0,0E0,0E0,0E0,0E0,0E0,0E0,0E0,0E0,0E0,0E0,0E0,0E0,0E0,0E0,0E0,0E0,0E0,0E0,0E0,0E0,0E0,0E0,0E0,0E0],"parents":[2147483647,0,0,1,1,2,2,3,3,4,4,5,5,6,6,7,7,8,8,9,9,10,10,11,11,12,12,13,13,14,14,15,15,16,16,17,17,18,18,19,19,20,20,21,21,22,22,29,29,30,30,31,31,32,32,33,33,34,34,36,36,37,37,38,38,39,39,40,40,41,41,42,42,43,43,44,44,45,45,46,46,47,47,48,48,50,50],"right_children":[2,4,6,8,10,12,14,16,18,20,22,24,26,28,30,32,34,36,38,40,42,44,46,-1,-1,-1,-1,-1,-1,48,50,52,54,56,58,-1,60,62,64,66,68,70,72,74,76,78,80,82,84,-1,86,-1,-1,-1,-1,-1,-1,-1,-1,-1,-1,-1,-1,-1,-1,-1,-1,-1,-1,-1,-1,-1,-1,-1,-1,-1,-1,-1,-1,-1,-1,-1,-1,-1,-1,-1,-1],"split_conditions":[4.8824316E2,8.7205E1,-2.9648992E-1,1.0268009E0,-1.1507483E-1,1.4237E2,-3.9833707E-1,8.223597E-3,1.2164217E0,3.68382E-1,-9.5810574E-1,-3.9833707E-1,1.48046E6,1.4954E2,1.445325E2,3.8632447E-1,8.11008E1,8.1385E1,-9.914302E-4,1.18775E2,-3.7170774E-1,5.6037235E-1,9.006E1,-2.7137456E-2,-0E0,-3.8201742E-2,-1.5975386E-1,-1.06079884E-1,-3.125431E-2,1.3693E2,1.4542668E2,-1.0911605E-1,7.818194E1,7.845E1,8.711008E1,-5.1561736E-2,4.1329607E-1,1.9781888E-2,4.576084E-2,3.4059614E-1,4.2340683E2,-6.327672E-1,9.7168535E-2,-1.7669155E-1,1.4542668E2,3.3201727E-1,9.261615E1,2.630903E-1,-5.822286E-1,9.989066E-2,2.131489E-1,1.6478136E-2,-4.709396E-2,6.916682E-2,2.104589E-2,9.060749E-3,-2.3820948E-2,7.40559E-2,9.485401E-3,-2.6242794E-2,7.13718E-3,-0E0,3.700798E-2,-2.1039544E-2,7.3593305E-3,4.3255126E-4,4.1794676E-2,-5.4792214E-2,-2.2920272E-3,1.3492771E-2,-1.47592565E-2,-3.8309016E-3,5.556259E-3,1.4557948E-2,7.047122E-2,3.5577875E-3,4.3460883E-2,-7.001741E-2,-9.551341E-3,1.7604321E-2,1.2295665E-3,9.968974E-3,-4.92505E-2,-2.506596E-3,-6.284981E-2,8.612846E-2,-1.1944955E-2],"split_indices":[21,0,9,18,12,0,10,7,16,15,16,9,4,0,2,15,2,0,12,0,12,15,3,0,0,0,0,0,0,2,14,11,8,0,8,0,15,7,12,15,21,20,20,20,14,15,14,15,16,0,15,0,0,0,0,0,0,0,0,0,0,0,0,0,0,0,0,0,0,0,0,0,0,0,0,0,0,0,0,0,0,0,0,0,0,0,0],"split_type":[0,0,0,0,0,0,0,0,0,0,0,0,0,0,0,0,0,0,0,0,0,0,0,0,0,0,0,0,0,0,0,0,0,0,0,0,0,0,0,0,0,0,0,0,0,0,0,0,0,0,0,0,0,0,0,0,0,0,0,0,0,0,0,0,0,0,0,0,0,0,0,0,0,0,0,0,0,0,0,0,0,0,0,0,0,0,0],"sum_hessian":[4.266E3,4.097E3,1.69E2,1.44E2,3.953E3,1.8E1,1.51E2,1.12E2,3.2E1,1.104E3,2.849E3,6E0,1.2E1,9E0,1.42E2,7.5E1,3.7E1,1.5E1,1.7E1,4.6E1,1.058E3,3.91E2,2.458E3,3E0,3E0,6E0,6E0,6E0,3E0,8.5E1,5.7E1,7E0,6.8E1,6E0,3.1E1,7E0,8E0,9E0,8E0,1.3E1,3.3E1,1.74E2,8.84E2,7.6E1,3.15E2,1.51E2,2.307E3,3.7E1,4.8E1,4E0,5.3E1,3E0,4E0,3E0,6.5E1,3E0,3E0,2.7E1,4E0,3E0,5E0,4E0,5E0,3E0,5E0,9E0,4E0,2.1E1,1.2E1,1.6E1,1.58E2,7.03E2,1.81E2,5.7E1,1.9E1,2.94E2,2.1E1,1E1,1.41E2,9.9E1,2.208E3,3.4E1,3E0,1E1,3.8E1,3E0,5E1],"tree_param":{"num_deleted":"0","num_feature":"22","num_nodes":"87","size_leaf_vector":"1"}},{"base_weights":[-1.2414965E-2,2.1316545E-1,-5.071247E-1,1.3658977E-1,1.442118E0,-2.3151844E0,-1.661149E-1,1.1597584E0,4.625823E-2,1.9001775E0,-2.4813391E-2,-3.5129852E0,-1.2244107E0,-1.8965842E0,-7.462035E-2,1.7336112E0,-2.7272648E-1,5.3548586E-1,-1.0989692E-1,1.1417732E0,2.9726548E0,1.100545E-2,-3.948408E-1,-2.645922E0,-6.6012774E0,-2.2363048E0,-9.4345935E-2,-2.5163062E0,-0E0,-2.96738E-1,3.7438175E-1,-1.96239E0,1.9489139E0,-1.3532419E0,1.3096563E0,2.756375E0,2.847869E-1,-1.1368911E0,-4.4545736E-2,4.754137E-2,8.370163E-1,6.112952E0,1.7732685E0,-1.0101513E-2,1.4776242E-3,-3.9618316E0,-1.2020315E0,-2.4097061E-1,-2.8300285E0,-1.0474311E0,-3.3114014E0,-2.1029038E0,5.451628E-1,-1.3159695E0,-3.9800668E0,2.097753E-2,-4.9074104E-1,-3.305697E-1,5.6273434E-2,6.1915946E-1,-5.1243925E-1,1.2197176E-2,-5.7527076E-2,3.231127E-2,-1.0670184E-2,-3.2432944E-2,1.8009871E-2,1.3497515E-2,5.0784003E-2,7.066339E-2,1.3056938E-3,-2.691605E-2,7.2957077E-3,-2.0257324E-2,-0E0,-2.946125E-4,-3.5660062E-2,1.6971964E-3,2.8412132E-2,4.8399556E-2,1.4749943E-1,6.544146E-2,1.6743378E-3,-8.556509E-2,-3.433511E-2,-6.4080404E-3,-1.00812644E-1,-6.2319167E-2,-2.1116652E-2,-4.1708414E-2,7.144448E-3,-8.396418E-2,-3.5365567E-2,1.3326413E-3,-8.230947E-2,2.4154745E-2,-1.0637676E-2,1.5629196E-3,-3.6758035E-2,-7.90873E-2,-0E0,2.3682532E-3,-1.5503589E-2,-1.0731483E-2,-1.5527809E-3,-6.59465E-4,1.4370625E-2,5.7644523E-3,-1.4456452E-2],"categories":[],"categories_nodes":[],"categories_segments":[],"categories_sizes":[],"default_left":[0,0,0,0,0,0,0,0,0,0,0,0,0,0,0,0,0,0,0,0,0,0,0,0,0,0,0,0,0,0,0,0,0,0,0,0,0,0,0,0,0,0,0,0,0,0,0,0,0,0,0,0,0,0,0,0,0,0,0,0,0,0,0,0,0,0,0,0,0,0,0,0,0,0,0,0,0,0,0,0,0,0,0,0,0,0,0,0,0,0,0,0,0,0,0,0,0,0,0,0,0,0,0,0,0,0,0,0,0],"id":3,"left_children":[1,3,5,7,9,11,13,15,17,19,21,23,25,27,29,31,33,35,37,39,41,-1,43,45,47,49,51,53,55,57,59,61,63,65,67,69,71,73,75,-1,77,79,81,-1,-1,83,85,-1,87,89,91,93,95,97,99,-1,101,103,-1,105,107,-1,-1,-1,-1,-1,-1,-1,-1,-1,-1,-1,-1,-1,-1,-1,-1,-1,-1,-1,-1,-1,-1,-1,-1,-1,-1,-1,-1,-1,-1,-1,-1,-1,-1,-1,-1,-1,-1,-1,-1,-1,-1,-1,-1,-1,-1,-1,-1],"loss_changes":[4.7721582E2,2.7380222E2,8.22621E2,2.5376665E2,1.1731821E2,2.6675696E2,1.7608295E2,1.855957E2,1.9471858E2,9.800983E1,1.092821E1,2.3918396E2,1.2597049E2,6.4366135E1,1.0711249E2,1.3089966E2,1.1108202E2,3.3885678E2,1.2763058E2,3.8420685E1,1.7901956E2,0E0,4.344105E0,1.4076068E2,6.3341833E2,6.646216E1,7.3670265E1,6.1938354E1,1.001544E1,9.2119545E1,7.7271835E1,4.8795834E1,5.171234E1,7.425993E1,1.4486748E1,2.870367E2,2.0325185E2,2.111589E1,1.01205025E2,0E0,4.744109E1,9.630139E1,1.5512286E2,0E0,0E0,8.840643E1,1.5490575E2,0E0,1.5410973E1,7.726431E1,4.337436E1,1.0388916E2,5.3709957E1,3.9838497E1,7.3903595E1,0E0,5.081974E0,5.799695E1,0E0,5.6819153E1,2.8757744E1,0E0,0E0,0E0,0E0,0E0,0E0,0E0,0E0,0E0,0E0,0E0,0E0,0E0,0E0,0E0,0E0,0E0,0E0,0E0,0E0,0E0,0E0,0E0,0E0,0E0,0E0,0E0,0E0,0E0,0E0,0E0,0E0,0E0,0E0,0E0,0E0,0E0,0E0,0E0,0E0,0E0,0E0,0E0,0E0,0E0,0E0,0E0,0E0],"parents":[2147483647,0,0,1,1,2,2,3,3,4,4,5,5,6,6,7,7,8,8,9,9,10,10,11,11,12,12,13,13,14,14,15,15,16,16,17,17,18,18,19,19,20,20,22,22,23,23,24,24,25,25,26,26,27,27,28,28,29,29,30,30,31,31,32,32,33,33,34,34,35,35,36,36,37,37,38,38,40,40,41,41,42,42,45,45,46,46,48,48,49,49,50,50,51,51,52,52,53,53,54,54,56,56,57,57,59,59,60,60],"right_children":[2,4,6,8,10,12,14,16,18,20,22,24,26,28,30,32,34,36,38,40,42,-1,44,46,48,50,52,54,56,58,60,62,64,66,68,70,72,74,76,-1,78,80,82,-1,-1,84,86,-1,88,90,92,94,96,98,100,-1,102,104,-1,106,108,-1,-1,-1,-1,-1,-1,-1,-1,-1,-1,-1,-1,-1,-1,-1,-1,-1,-1,-1,-1,-1,-1,-1,-1,-1,-1,-1,-1,-1,-1,-1,-1,-1,-1,-1,-1,-1,-1,-1,-1,-1,-1,-1,-1,-1,-1,-1,-1],"split_conditions":[1.3640125E2,1.353E2,3.6635643E-1,8.75124E1,8.511177E-1,-7.075192E-2,1.36744E2,9.690322E-1,5.2932507E-1,1.363168E2,1.35333E2,1.4896036E2,1.8261E6,2.2606103E0,8.8291734E-2,2.8377634E-1,8.3789326E-2,-1.0504353E0,5.729063E-1,3.2495454E-1,8.368785E-2,1.100545E-2,1.3677E2,-1.5023286E-2,-5.26371E-1,-5.287481E-2,-1.332863E-1,3.36182E6,1.391045E2,9.412141E-1,2.0021126E0,8.619E1,8.78975E1,1.4122472E0,8.8055944E-1,1.1799E2,8.856944E1,1.3221E2,1.363945E2,4.754137E-2,5.6891894E-1,6.162759E-1,4.1329607E-1,-1.0101513E-2,1.4776242E-3,1.68322E6,3.508583E-1,-2.4097061E-1,3.337276E-1,-1.07919365E-1,1.5784664E-1,-1.585219E-1,1.9781888E-2,1.362938E2,8.6149883E-1,2.097753E-2,5.96689E-1,4.987303E-1,5.6273434E-2,-1.20553516E-1,-1.4280678E-1,1.2197176E-2,-5.7527076E-2,3.231127E-2,-1.0670184E-2,-3.2432944E-2,1.8009871E-2,1.3497515E-2,5.0784003E-2,7.066339E-2,1.3056938E-3,-2.691605E-2,7.2957077E-3,-2.0257324E-2,-0E0,-2.946125E-4,-3.5660062E-2,1.6971964E-3,2.8412132E-2,4.8399556E-2,1.4749943E-1,6.544146E-2,1.6743378E-3,-8.556509E-2,-3.433511E-2,-6.4080404E-3,-1.00812644E-1,-6.2319167E-2,-2.1116652E-2,-4.1708414E-2,7.144448E-3,-8.396418E-2,-3.5365567E-2,1.3326413E-3,-8.230947E-2,2.4154745E-2,-1.0637676E-2,1.5629196E-3,-3.6758035E-2,-7.90873E-2,-0E0,2.3682532E-3,-1.5503589E-2,-1.0731483E-2,-1.5527809E-3,-6.59465E-4,1.4370625E-2,5.7644523E-3,-1.4456452E-2],"split_indices":[8,1,15,2,15,17,14,18,15,3,2,8,4,18,7,15,11,16,15,15,20,0,2,9,20,11,11,4,1,6,16,3,3,16,17,1,13,1,14,0,15,15,15,0,0,4,15,0,16,7,16,11,7,14,15,0,15,15,0,9,6,0,0,0,0,0,0,0,0,0,0,0,0,0,0,0,0,0,0,0,0,0,0,0,0,0,0,0,0,0,0,0,0,0,0,0,0,0,0,0,0,0,0,0,0,0,0,0,0],"split_type":[0,0,0,0,0,0,0,0,0,0,0,0,0,0,0,0,0,0,0,0,0,0,0,0,0,0,0,0,0,0,0,0,0,0,0,0,0,0,0,0,0,0,0,0,0,0,0,0,0,0,0,0,0,0,0,0,0,0,0,0,0,0,0,0,0,0,0,0,0,0,0,0,0,0,0,0,0,0,0,0,0,0,0,0,0,0,0,0,0,0,0,0,0,0,0,0,0,0,0,0,0,0,0,0,0,0,0,0,0],"sum_hessian":[4.271E3,2.932E3,1.339E3,2.762E3,1.7E2,2.11E2,1.128E3,2.22E2,2.54E3,1.3E2,4E1,9.9E1,1.12E2,5.5E1,1.073E3,1.59E2,6.3E1,6.16E2,1.924E3,7.8E1,5.2E1,1.2E1,2.8E1,7.9E1,2E1,5.8E1,5.4E1,4.1E1,1.4E1,7.2E2,3.53E2,8E0,1.51E2,3.8E1,2.5E1,6.1E1,5.55E2,1.13E2,1.811E3,9E0,6.9E1,1.3E1,3.9E1,2E1,8E0,4E1,3.9E1,5E0,1.5E1,2.9E1,2.9E1,1.3E1,4.1E1,2.4E1,1.7E1,3E0,1.1E1,7.15E2,5E0,2.78E2,7.5E1,3E0,5E0,1.45E2,6E0,3E1,8E0,2.2E1,3E0,3.6E1,2.5E1,4.5E1,5.1E2,9.9E1,1.4E1,1.792E3,1.9E1,4.1E1,2.8E1,8E0,5E0,1.5E1,2.4E1,2E1,2E1,3.5E1,4E0,7E0,8E0,1.4E1,1.5E1,8E0,2.1E1,8E0,5E0,2.3E1,1.8E1,1E1,1.4E1,1.3E1,4E0,4E0,7E0,2.78E2,4.37E2,8.6E1,1.92E2,2.3E1,5.2E1],"tree_param":{"num_deleted":"0","num_feature":"22","num_nodes":"109","size_leaf_vector":"1"}},{"base_weights":[3.0259175E-2,9.85068E-2,-1.7217976E0,1.249933E0,5.0499786E-2,-4.7407184E0,-1.2202749E0,-1.532377E-1,1.9585038E0,1.5292002E-1,-1.8842414E-1,-1.0326712E-2,-5.8311925E0,-9.302908E-2,-9.1380584E-1,2.4919016E0,-1.237774E0,-1.628185E0,2.2325246E0,1.0664065E-1,1.7069511E0,-3.52112E-1,8.1817234E-1,-7.084074E0,-0E0,-1.8981365E0,3.4940384E-2,5.9080236E-2,-1.1149365E-3,-7.3892705E-2,-1.8119723E-1,1.2052618E-2,-5.446928E-2,7.9799247E-1,2.6720626E0,-2.495086E0,1.5342948E-1,6.574942E-1,4.7149487E0,-7.899849E-1,-1.6553274E-1,2.5503406E-1,1.7696544E0,-1.6792733E-2,-8.519569E0,1.5970773E-1,-4.5066104E0,-1.1729519E0,1.4331462E0,1.1356255E-2,-1.1745545E-2,2.3485363E-2,1.5057175E-3,4.9136367E-2,9.085215E-3,-1.7469835E-2,-7.837058E-2,-6.0086517E-4,7.6455935E-3,3.3223845E-2,-6.494944E-3,3.358805E-2,1.1693551E-1,-1.4777668E-2,1.8524738E-2,-8.3032396E-4,-3.2474335E-2,-3.51753E-2,6.473614E-3,6.293472E-2,1.512067E-2,-1.5563986E-1,-5.026238E-2,1.1671357E-2,-9.033125E-3,-4.3655946E-3,-7.993952E-2,-0E0,-4.790353E-2,-3.1476427E-2,3.4208115E-2],"categories":[],"categories_nodes":[],"categories_segments":[],"categories_sizes":[],"default_left":[0,0,0,0,0,0,0,0,0,0,0,0,0,0,0,0,0,0,0,0,0,0,0,0,0,0,0,0,0,0,0,0,0,0,0,0,0,0,0,0,0,0,0,0,0,0,0,0,0,0,0,0,0,0,0,0,0,0,0,0,0,0,0,0,0,0,0,0,0,0,0,0,0,0,0,0,0,0,0,0,0],"id":4,"left_children":[1,3,5,7,9,11,13,15,17,19,21,-1,23,-1,25,27,29,31,33,35,37,39,41,43,-1,45,47,-1,-1,-1,49,-1,-1,51,53,55,57,59,61,63,65,67,69,-1,71,73,75,77,79,-1,-1,-1,-1,-1,-1,-1,-1,-1,-1,-1,-1,-1,-1,-1,-1,-1,-1,-1,-1,-1,-1,-1,-1,-1,-1,-1,-1,-1,-1,-1,-1],"loss_changes":[5.0709915E2,2.2484833E2,2.275185E2,1.6461281E2,9.632157E1,8.564438E1,1.8643134E2,1.5896242E2,1.1130908E2,1.95996E2,1.937643E2,0E0,1.2372754E2,0E0,1.2474408E2,5.79153E1,1.4049104E2,4.158237E1,5.7806946E1,3.2383978E2,2.3939275E2,8.156995E1,8.4822174E1,9.929962E1,0E0,3.5490085E2,1.1500268E2,0E0,0E0,0E0,1.7145391E1,0E0,0E0,1.0676722E1,7.0089294E1,1.4997342E2,1.7082336E2,9.774449E1,1.14331055E2,9.411716E1,1.509749E2,4.0599815E1,9.851158E1,0E0,3.68808E1,1.6677757E1,6.704236E1,8.197463E1,8.806576E1,0E0,0E0,0E0,0E0,0E0,0E0,0E0,0E0,0E0,0E0,0E0,0E0,0E0,0E0,0E0,0E0,0E0,0E0,0E0,0E0,0E0,0E0,0E0,0E0,0E0,0E0,0E0,0E0,0E0,0E0,0E0,0E0],"parents":[2147483647,0,0,1,1,2,2,3,3,4,4,5,5,6,6,7,7,8,8,9,9,10,10,12,12,14,14,15,15,16,16,17,17,18,18,19,19,20,20,21,21,22,22,23,23,25,25,26,26,30,30,33,33,34,34,35,35,36,36,37,37,38,38,39,39,40,40,41,41,42,42,44,44,45,45,46,46,47,47,48,48],"right_children":[2,4,6,8,10,12,14,16,18,20,22,-1,24,-1,26,28,30,32,34,36,38,40,42,44,-1,46,48,-1,-1,-1,50,-1,-1,52,54,56,58,60,62,64,66,68,70,-1,72,74,76,78,80,-1,-1,-1,-1,-1,-1,-1,-1,-1,-1,-1,-1,-1,-1,-1,-1,-1,-1,-1,-1,-1,-1,-1,-1,-1,-1,-1,-1,-1,-1,-1,-1],"split_conditions":[4.8824316E2,8.7205E1,-2.502912E-1,8.1385E1,1.3640125E2,2.4012288E-1,-3.9833707E-1,7.845E1,2.7564287E-1,3.769395E2,4.1074935E-1,-1.0326712E-2,2.928942E-1,-9.302908E-2,1.4380762E2,-8.770405E-2,6.380007E-1,8.61966E1,-1.6150655E-1,3.3201727E-1,1.2464E2,4.7154266E-1,1.468726E2,-7.7583057E-1,-0E0,1.3693E2,1.697817E6,5.9080236E-2,-1.1149365E-3,-7.3892705E-2,-6.7792493E-1,1.2052618E-2,-5.446928E-2,7.1946096E-1,1.1922419E0,1.5784664E-1,1.8279785E2,2.792271E-1,5.419587E-2,1.7709816E2,1.8272E2,-6.7792493E-1,1.5642E2,-1.6792733E-2,5.5834064E2,-9.328153E-3,-1.6352771E-1,1.7655E2,-1.886922E-1,1.1356255E-2,-1.1745545E-2,2.3485363E-2,1.5057175E-3,4.9136367E-2,9.085215E-3,-1.7469835E-2,-7.837058E-2,-6.0086517E-4,7.6455935E-3,3.3223845E-2,-6.494944E-3,3.358805E-2,1.1693551E-1,-1.4777668E-2,1.8524738E-2,-8.3032396E-4,-3.2474335E-2,-3.51753E-2,6.473614E-3,6.293472E-2,1.512067E-2,-1.5563986E-1,-5.026238E-2,1.1671357E-2,-9.033125E-3,-4.3655946E-3,-7.993952E-2,-0E0,-4.790353E-2,-3.1476427E-2,3.4208115E-2],"split_indices":[21,0,10,0,8,15,9,0,15,21,10,0,15,0,8,11,15,0,11,15,0,15,13,16,0,2,4,0,0,0,9,0,0,15,18,16,21,15,7,8,1,6,1,0,21,11,7,1,9,0,0,0,0,0,0,0,0,0,0,0,0,0,0,0,0,0,0,0,0,0,0,0,0,0,0,0,0,0,0,0,0],"split_type":[0,0,0,0,0,0,0,0,0,0,0,0,0,0,0,0,0,0,0,0,0,0,0,0,0,0,0,0,0,0,0,0,0,0,0,0,0,0,0,0,0,0,0,0,0,0,0,0,0,0,0,0,0,0,0,0,0,0,0,0,0,0,0,0,0,0,0,0,0,0,0,0,0,0,0,0,0,0,0,0,0],"sum_hessian":[4.256E3,4.098E3,1.58E2,1.62E2,3.936E3,2.1E1,1.37E2,5.4E1,1.08E2,2.759E3,1.177E3,5E0,1.6E1,7E0,1.3E2,1.5E1,3.9E1,7E0,1.01E2,2.681E3,7.8E1,1.014E3,1.63E2,1.3E1,3E0,6.4E1,6.6E1,1E1,5E0,8E0,3.1E1,3E0,4E0,2.5E1,7.6E1,4.6E1,2.635E3,5.9E1,1.9E1,3E2,7.14E2,1.04E2,5.9E1,3E0,1E1,3.6E1,2.8E1,3.5E1,3.1E1,1.1E1,2E1,1.1E1,1.4E1,6.1E1,1.5E1,3.1E1,1.5E1,1.676E3,9.59E2,2.5E1,3.4E1,1.1E1,8E0,2.79E2,2.1E1,6.76E2,3.8E1,5E0,9.9E1,1.4E1,4.5E1,7E0,3E0,2.1E1,1.5E1,4E0,2.4E1,2.2E1,1.3E1,5E0,2.6E1],"tree_param":{"num_deleted":"0","num_feature":"22","num_nodes":"81","size_leaf_vector":"1"}},{"base_weights":[5.202287E-3,7.521907E-2,-1.7076447E0,1.4217888E0,1.9198129E-2,-4.848846E0,-1.3564785E0,2.0944235E0,-5.1918143E-1,-1.364092E-2,1.0786135E0,-6.9868463E-1,-7.8771777E0,-2.0278566E0,2.4108523E-1,2.3234146E0,-3.880943E-2,-2.7594087E0,4.231456E-1,-6.1185795E-1,2.9024392E-2,2.201996E0,-3.6886698E-3,-2.2429226E-2,1.096496E-3,-2.2988135E-2,-1.6628982E-1,-5.213191E0,-1.671503E0,-5.90719E-1,1.5949466E0,1.021631E0,3.1472669E0,-6.627952E-2,-1.802449E-2,-5.09324E-1,1.4768518E0,-3.3804503E-1,-3.3098946E0,1.334038E0,-1.4726161E-2,1.4759761E0,4.5734925E0,-6.1342794E-1,6.2005643E-2,-3.0391322E-2,-6.1720476E0,-2.8793797E0,-9.0472144E-1,2.3456758E-3,-1.7020954E0,-9.582083E-3,2.591858E0,6.1057095E-4,2.4766397E-2,-1.1383296E-2,5.325464E-2,-2.5885096E-2,1.0676861E-2,-0E0,2.8985737E-2,9.950249E-3,-9.282598E-3,9.237828E-4,-6.746519E-2,1.2808063E-2,5.775737E-2,7.8012454E-5,-2.1902315E-2,3.719234E-2,-5.442379E-3,1.1912334E-1,2.4590418E-2,-2.005875E-2,2.3549102E-2,-1.3221121E-1,-3.21965E-2,-5.671041E-2,-5.56228E-3,1.9069124E-2,-2.371261E-2,-4.7263447E-2,-0E0,7.807015E-2,4.940541E-3],"categories":[],"categories_nodes":[],"categories_segments":[],"categories_sizes":[],"default_left":[0,0,0,0,0,0,0,0,0,0,0,0,0,0,0,0,0,0,0,0,0,0,0,0,0,0,0,0,0,0,0,0,0,0,0,0,0,0,0,0,0,0,0,0,0,0,0,0,0,0,0,0,0,0,0,0,0,0,0,0,0,0,0,0,0,0,0,0,0,0,0,0,0,0,0,0,0,0,0,0,0,0,0,0,0],"id":5,"left_children":[1,3,5,7,9,11,13,15,17,19,21,23,25,27,29,31,-1,33,35,37,39,41,43,-1,-1,-1,-1,45,47,49,51,53,55,-1,-1,57,59,61,63,65,67,69,71,73,-1,-1,75,77,79,-1,81,-1,83,-1,-1,-1,-1,-1,-1,-1,-1,-1,-1,-1,-1,-1,-1,-1,-1,-1,-1,-1,-1,-1,-1,-1,-1,-1,-1,-1,-1,-1,-1,-1,-1],"loss_changes":[5.0687766E2,3.0575107E2,1.6884933E2,2.1448999E2,1.3765102E2,1.8423892E2,1.6466049E2,1.3216467E2,9.266385E1,9.7725266E1,1.4745108E2,6.3633947E0,1.2876837E2,1.0429031E2,5.280392E1,1.1595276E2,0E0,1.932032E1,3.1383265E1,1.8260553E2,2.0410953E2,8.732556E1,1.4580046E2,0E0,0E0,0E0,0E0,9.325134E0,8.339145E1,2.525156E1,4.357729E1,2.3932903E1,7.76886E1,0E0,0E0,2.4205994E1,8.615112E0,5.8656624E1,8.4038086E1,1.32196E2,9.575196E1,8.11155E1,9.5539856E1,7.848567E1,0E0,0E0,3.5554688E1,6.3981445E1,8.312723E1,0E0,2.912415E1,0E0,6.2704338E1,0E0,0E0,0E0,0E0,0E0,0E0,0E0,0E0,0E0,0E0,0E0,0E0,0E0,0E0,0E0,0E0,0E0,0E0,0E0,0E0,0E0,0E0,0E0,0E0,0E0,0E0,0E0,0E0,0E0,0E0,0E0,0E0],"parents":[2147483647,0,0,1,1,2,2,3,3,4,4,5,5,6,6,7,7,8,8,9,9,10,10,11,11,12,12,13,13,14,14,15,15,17,17,18,18,19,19,20,20,21,21,22,22,27,27,28,28,29,29,30,30,31,31,32,32,35,35,36,36,37,37,38,38,39,39,40,40,41,41,42,42,43,43,46,46,47,47,48,48,50,50,52,52],"right_children":[2,4,6,8,10,12,14,16,18,20,22,24,26,28,30,32,-1,34,36,38,40,42,44,-1,-1,-1,-1,46,48,50,52,54,56,-1,-1,58,60,62,64,66,68,70,72,74,-1,-1,76,78,80,-1,82,-1,84,-1,-1,-1,-1,-1,-1,-1,-1,-1,-1,-1,-1,-1,-1,-1,-1,-1,-1,-1,-1,-1,-1,-1,-1,-1,-1,-1,-1,-1,-1,-1,-1],"split_conditions":[4.8824316E2,8.72328E1,-2.9648992E-1,1.0268009E0,4.2340683E2,1.4313E2,1.3184357E-1,2.705407E2,1.1258918E0,9.0785E1,1.4227704E2,-3.9192224E-1,-5.0134844E-1,-3.9833707E-1,1.454E2,1.2589611E2,-3.880943E-2,3.3883158E-2,2.1559657E-1,2.705407E2,9.401523E1,2.4570163E-2,7.739198E-1,-2.2429226E-2,1.096496E-3,-2.2988135E-2,-1.6628982E-1,-7.4726444E-1,-8.027561E-2,1.371595E2,-2.5062034E-1,8.131962E1,7.808953E1,-6.627952E-2,-1.802449E-2,8.636797E-2,-1.06353246E-1,8.721716E1,-8.768111E-2,1.8000397E2,1.8272E2,-4.2317342E-2,1.53922E6,1.7746E2,6.2005643E-2,-3.0391322E-2,3.626657E-2,1.8126497E-1,-9.09885E-2,2.3456758E-3,1.4326E2,-9.582083E-3,4.885761E-3,6.1057095E-4,2.4766397E-2,-1.1383296E-2,5.325464E-2,-2.5885096E-2,1.0676861E-2,-0E0,2.8985737E-2,9.950249E-3,-9.282598E-3,9.237828E-4,-6.746519E-2,1.2808063E-2,5.775737E-2,7.8012454E-5,-2.1902315E-2,3.719234E-2,-5.442379E-3,1.1912334E-1,2.4590418E-2,-2.005875E-2,2.3549102E-2,-1.3221121E-1,-3.21965E-2,-5.671041E-2,-5.56228E-3,1.9069124E-2,-2.371261E-2,-4.7263447E-2,-0E0,7.807015E-2,4.940541E-3],"split_indices":[21,5,9,18,21,0,10,21,16,3,13,9,9,10,2,21,0,20,9,21,14,11,16,0,0,0,0,16,6,0,20,14,14,0,0,11,12,14,12,21,1,12,4,0,0,0,12,9,9,0,1,0,20,0,0,0,0,0,0,0,0,0,0,0,0,0,0,0,0,0,0,0,0,0,0,0,0,0,0,0,0,0,0,0,0],"split_type":[0,0,0,0,0,0,0,0,0,0,0,0,0,0,0,0,0,0,0,0,0,0,0,0,0,0,0,0,0,0,0,0,0,0,0,0,0,0,0,0,0,0,0,0,0,0,0,0,0,0,0,0,0,0,0,0,0,0,0,0,0,0,0,0,0,0,0,0,0,0,0,0,0,0,0,0,0,0,0,0,0,0,0,0,0],"sum_hessian":[4.242E3,4.077E3,1.65E2,1.61E2,3.916E3,1.5E1,1.5E2,1.2E2,4.1E1,3.798E3,1.18E2,7E0,8E0,1.06E2,4.4E1,1.15E2,5E0,1.2E1,2.9E1,2.54E2,3.544E3,5.8E1,6E1,4E0,3E0,3E0,5E0,9E0,9.7E1,2.7E1,1.7E1,4.6E1,6.9E1,5E0,7E0,1.5E1,1.4E1,2.32E2,2.2E1,1.15E2,3.429E3,4.6E1,1.2E1,5.3E1,7E0,3E0,6E0,3.6E1,6.1E1,1.6E1,1.1E1,5E0,1.2E1,1.8E1,2.8E1,4E0,6.5E1,8E0,7E0,3E0,1.1E1,4.7E1,1.85E2,5E0,1.7E1,9.6E1,1.9E1,3.381E3,4.8E1,3.1E1,1.5E1,5E0,7E0,4.1E1,1.2E1,3E0,3E0,2.7E1,9E0,1.3E1,4.8E1,6E0,5E0,5E0,7E0],"tree_param":{"num_deleted":"0","num_feature":"22","num_nodes":"85","size_leaf_vector":"1"}},{"base_weights":[-1.7700639E-2,4.8933055E-2,-1.8597223E0,1.341519E0,8.831424E-4,6.1961357E-2,-3.1859484E0,2.037924E0,-7.8815806E-1,1.162676E-1,-2.6320857E-1,-5.4468393E-1,9.319699E-2,-4.7872744E0,-1.5953676E0,1.2196267E0,3.3571074E0,-1.7639732E0,1.2045621E0,5.4486033E-2,9.919472E-1,-1.73418E0,-1.1679321E-1,7.7554727E-1,-2.148753E0,5.728214E-3,-5.668373E0,-4.297866E0,-0E0,6.7166865E-2,8.4624976E-1,3.7246338E-1,3.8226705E0,-6.4244255E-2,-5.5717844E-1,-0E0,2.860036E-2,8.545137E-2,-1.4461894E0,4.3379145E0,6.972648E-1,-9.934914E-1,-4.2080684E0,-1.1995137E0,1.89679E-2,2.1329163E-2,-0E0,-2.67602E0,-0E0,-2.3022275E0,-6.9615035E0,-1.8883796E-2,-5.767668E0,9.8363805E-1,-2.463397E0,-3.2758944E-2,1.7127026E-2,3.1988956E-2,-1.6696207E-2,2.4829663E-2,7.186964E-2,6.883407E-3,-1.8739348E-2,4.1975044E-3,-1.9409321E-3,-6.0562897E-3,-4.1594107E-2,8.804313E-2,-0E0,-2.0549851E-3,2.1791356E-2,2.9405926E-3,-3.4515798E-2,-1.825562E-1,-3.9699048E-2,-2.7004609E-2,1.2550578E-3,-1.9902743E-3,1.5270459E-2,-1.0350711E-3,-5.01357E-2,-2.4041454E-3,-6.598743E-2,-1.6069326E-1,-5.8794636E-2,-1.3750243E-1,-5.3138684E-2,-1.3906143E-3,5.4551404E-2,-5.68685E-2,-8.5980175E-3],"categories":[],"categories_nodes":[],"categories_segments":[],"categories_sizes":[],"default_left":[0,0,0,0,0,0,0,0,0,0,0,0,0,0,0,0,0,0,0,0,0,0,0,0,0,0,0,0,0,0,0,0,0,0,0,0,0,0,0,0,0,0,0,0,0,0,0,0,0,0,0,0,0,0,0,0,0,0,0,0,0,0,0,0,0,0,0,0,0,0,0,0,0,0,0,0,0,0,0,0,0,0,0,0,0,0,0,0,0,0,0],"id":6,"left_children":[1,3,5,7,9,11,13,15,17,19,21,23,-1,25,27,29,31,33,35,37,39,41,43,45,47,-1,49,51,53,-1,55,57,59,-1,61,-1,-1,63,65,67,69,71,73,75,77,-1,-1,79,-1,81,83,-1,85,87,89,-1,-1,-1,-1,-1,-1,-1,-1,-1,-1,-1,-1,-1,-1,-1,-1,-1,-1,-1,-1,-1,-1,-1,-1,-1,-1,-1,-1,-1,-1,-1,-1,-1,-1,-1,-1],"loss_changes":[5.2012256E2,2.5111879E2,3.8125787E2,2.181076E2,1.1950301E2,2.285642E2,2.0857013E2,1.0892981E2,7.2643326E1,1.4667822E2,2.5393246E2,1.2183318E2,0E0,2.0383264E2,1.9614935E2,7.048664E1,5.016992E1,6.26625E1,9.3611145E0,1.1728435E2,1.6711366E2,1.8533084E2,1.6101366E2,1.4912601E1,3.0210976E1,0E0,1.3372961E2,6.1350464E1,7.555207E1,0E0,4.8216244E1,2.0154358E1,4.6121582E1,0E0,1.3009364E1,0E0,0E0,9.682034E1,6.0820526E1,8.599628E1,9.795817E1,1.2385709E2,2.5199399E2,8.510501E1,1.3670648E2,0E0,0E0,2.4924759E1,0E0,4.320508E1,2.2154517E2,0E0,3.4555206E1,6.3809513E1,1.2920536E1,0E0,0E0,0E0,0E0,0E0,0E0,0E0,0E0,0E0,0E0,0E0,0E0,0E0,0E0,0E0,0E0,0E0,0E0,0E0,0E0,0E0,0E0,0E0,0E0,0E0,0E0,0E0,0E0,0E0,0E0,0E0,0E0,0E0,0E0,0E0,0E0],"parents":[2147483647,0,0,1,1,2,2,3,3,4,4,5,5,6,6,7,7,8,8,9,9,10,10,11,11,13,13,14,14,15,15,16,16,17,17,18,18,19,19,20,20,21,21,22,22,23,23,24,24,26,26,27,27,28,28,30,30,31,31,32,32,34,34,37,37,38,38,39,39,40,40,41,41,42,42,43,43,44,44,47,47,49,49,50,50,52,52,53,53,54,54],"right_children":[2,4,6,8,10,12,14,16,18,20,22,24,-1,26,28,30,32,34,36,38,40,42,44,46,48,-1,50,52,54,-1,56,58,60,-1,62,-1,-1,64,66,68,70,72,74,76,78,-1,-1,80,-1,82,84,-1,86,88,90,-1,-1,-1,-1,-1,-1,-1,-1,-1,-1,-1,-1,-1,-1,-1,-1,-1,-1,-1,-1,-1,-1,-1,-1,-1,-1,-1,-1,-1,-1,-1,-1,-1,-1,-1,-1],"split_conditions":[5.02169E2,8.7205E1,2.4012288E-1,1.0722449E0,1.3640125E2,1.47105E2,1.445665E2,-1.4824619E-2,9.3800384E-1,1.3466049E2,3.7513217E-1,1.3693E2,9.319699E-2,1.3615546E2,-6.583931E-2,7.818194E1,8.1385E1,8.01658E1,-1.9062461E-2,1.3425972E2,1.3383829E2,1.4780606E2,1.379255E2,-5.591865E-2,6.956956E-2,5.728214E-3,-1.6352771E-1,1.4896036E2,1.7675E2,6.7166865E-2,2.7564287E-1,7.8652E1,-5.3164124E-1,-6.4244255E-2,-1.0661086E-1,-0E0,2.860036E-2,2.1312161E-1,-8.62002E-2,8.511177E-1,2.1913382E2,3.4378946E-1,3.1775853E-1,1.324391E-1,4.1074935E-1,2.1329163E-2,-0E0,-1.47163E-1,-0E0,-1.24557905E-1,-3.915935E-2,-1.8883796E-2,1.52765E2,1.00041956E-1,1.7746E2,-3.2758944E-2,1.7127026E-2,3.1988956E-2,-1.6696207E-2,2.4829663E-2,7.186964E-2,6.883407E-3,-1.8739348E-2,4.1975044E-3,-1.9409321E-3,-6.0562897E-3,-4.1594107E-2,8.804313E-2,-0E0,-2.0549851E-3,2.1791356E-2,2.9405926E-3,-3.4515798E-2,-1.825562E-1,-3.9699048E-2,-2.7004609E-2,1.2550578E-3,-1.9902743E-3,1.5270459E-2,-1.0350711E-3,-5.01357E-2,-2.4041454E-3,-6.598743E-2,-1.6069326E-1,-5.8794636E-2,-1.3750243E-1,-5.3138684E-2,-1.3906143E-3,5.4551404E-2,-5.68685E-2,-8.5980175E-3],"split_indices":[21,0,15,18,8,0,0,7,15,8,15,2,0,8,10,8,0,1,11,14,14,14,8,12,12,0,7,8,0,0,15,1,16,0,6,0,0,16,12,15,21,15,15,7,10,0,0,10,0,12,7,0,0,9,0,0,0,0,0,0,0,0,0,0,0,0,0,0,0,0,0,0,0,0,0,0,0,0,0,0,0,0,0,0,0,0,0,0,0,0,0],"split_type":[0,0,0,0,0,0,0,0,0,0,0,0,0,0,0,0,0,0,0,0,0,0,0,0,0,0,0,0,0,0,0,0,0,0,0,0,0,0,0,0,0,0,0,0,0,0,0,0,0,0,0,0,0,0,0,0,0,0,0,0,0,0,0,0,0,0,0,0,0,0,0,0,0,0,0,0,0,0,0,0,0,0,0,0,0,0,0,0,0,0,0],"sum_hessian":[4.217E3,4.07E3,1.47E2,1.44E2,3.926E3,6E1,8.7E1,1.09E2,3.5E1,2.736E3,1.19E3,5.5E1,5E0,4.2E1,4.5E1,6.9E1,4E1,2.4E1,1.1E1,2.558E3,1.78E2,1.06E2,1.084E3,3E1,2.5E1,6E0,3.6E1,1.6E1,2.9E1,6E0,6.3E1,6E0,3.4E1,7E0,1.7E1,4E0,7E0,2.508E3,5E1,1.3E1,1.65E2,8.3E1,2.3E1,1.21E2,9.63E2,1.7E1,1.3E1,2E1,5E0,1.1E1,2.5E1,6E0,1E1,2.1E1,8E0,4E0,5.9E1,3E0,3E0,1E1,2.4E1,6E0,1.1E1,1.341E3,1.167E3,2.8E1,2.2E1,1E1,3E0,7.5E1,9E1,4.2E1,4.1E1,3E0,2E1,8.6E1,3.5E1,8.35E2,1.28E2,4E0,1.6E1,6E0,5E0,1.1E1,1.4E1,3E0,7E0,1.5E1,6E0,4E0,4E0],"tree_param":{"num_deleted":"0","num_feature":"22","num_nodes":"91","size_leaf_vector":"1"}},{"base_weights":[2.4361387E-2,9.153879E-2,-1.7241396E0,9.8862004E-1,4.3073934E-2,-7.4370694E0,-1.3282019E0,1.3932351E0,-2.1108901E-2,-8.6183417E-1,8.063787E-2,-4.0514603E-2,-1.80554E-1,3.155965E-1,-1.9764024E0,-1.6488137E0,1.5807867E0,-1.7374816E0,1.1036968E0,-4.9386704E-1,-3.7976768E0,1.2109294E0,3.1769358E-2,1.106045E0,-2.4539787E-1,-3.9904106E0,-1.8209435E-1,1.2736567E-2,-5.0524067E-2,-3.81094E-2,1.6911854E0,-5.176847E-2,1.3740689E-1,-0E0,1.3443507E0,-6.5237087E-1,7.546332E-2,-8.155831E-1,-1.0791359E-1,-4.9746838E-1,1.9350486E0,1.2315074E0,3.2288344E-3,-0E0,2.0709952E-2,-1.1111039E-2,2.9578364E-1,-7.8247313E-4,-4.486774E0,9.779923E-2,-7.832338E-1,9.928372E-3,3.3980083E-2,2.086667E-2,-3.572464E-2,2.4327144E-2,-0E0,-1.5678016E-3,-2.4466934E-2,-3.3176634E-2,2.124528E-2,-3.611659E-2,-0E0,9.0198874E-2,1.0591013E-2,1.4958032E-2,9.685352E-2,1.8611479E-3,-3.3364228E-3,1.9214926E-2,-3.533915E-3,-1.1208867E-1,-4.2403042E-2,6.686277E-2,-2.1812823E-2],"categories":[],"categories_nodes":[],"categories_segments":[],"categories_sizes":[],"default_left":[0,0,0,0,0,0,0,0,0,0,0,0,0,0,0,0,0,0,0,0,0,0,0,0,0,0,0,0,0,0,0,0,0,0,0,0,0,0,0,0,0,0,0,0,0,0,0,0,0,0,0,0,0,0,0,0,0,0,0,0,0,0,0,0,0,0,0,0,0,0,0,0,0,0,0],"id":7,"left_children":[1,3,5,7,9,11,13,15,17,19,21,-1,-1,23,25,27,29,31,33,35,37,39,41,43,45,47,49,-1,-1,-1,51,-1,53,-1,55,57,-1,59,-1,61,63,65,67,-1,-1,-1,69,-1,71,-1,73,-1,-1,-1,-1,-1,-1,-1,-1,-1,-1,-1,-1,-1,-1,-1,-1,-1,-1,-1,-1,-1,-1,-1,-1],"loss_changes":[5.0794354E2,1.8045494E2,3.411748E2,8.878854E1,1.3401057E2,1.5233832E2,1.635617E2,8.965454E1,1.2030527E2,1.6226718E2,2.0903609E2,0E0,0E0,2.0407333E1,3.8767896E2,4.066287E1,6.733472E1,7.8404594E1,1.0925011E1,1.1669638E2,1.4228532E2,1.9691904E2,1.23665436E2,4.9053326E0,7.033504E0,9.361798E1,2.261586E2,0E0,0E0,0E0,6.787781E1,0E0,3.647516E1,0E0,7.1187363E0,6.740465E1,0E0,3.2111984E1,0E0,4.167102E1,5.239205E2,9.9191124E1,8.991761E1,0E0,0E0,0E0,6.9026666E0,0E0,1.8318451E2,0E0,1.7309033E2,0E0,0E0,0E0,0E0,0E0,0E0,0E0,0E0,0E0,0E0,0E0,0E0,0E0,0E0,0E0,0E0,0E0,0E0,0E0,0E0,0E0,0E0,0E0,0E0],"parents":[2147483647,0,0,1,1,2,2,3,3,4,4,5,5,6,6,7,7,8,8,9,9,10,10,13,13,14,14,15,15,16,16,17,17,18,18,19,19,20,20,21,21,22,22,23,23,24,24,25,25,26,26,30,30,32,32,34,34,35,35,37,37,39,39,40,40,41,41,42,42,46,46,48,48,50,50],"right_children":[2,4,6,8,10,12,14,16,18,20,22,-1,-1,24,26,28,30,32,34,36,38,40,42,44,46,48,50,-1,-1,-1,52,-1,54,-1,56,58,-1,60,-1,62,64,66,68,-1,-1,-1,70,-1,72,-1,74,-1,-1,-1,-1,-1,-1,-1,-1,-1,-1,-1,-1,-1,-1,-1,-1,-1,-1,-1,-1,-1,-1,-1,-1],"split_conditions":[5.02169E2,8.75124E1,-2.2863053E-1,1.0268009E0,9.002E1,-2.491467E-1,1.3693E2,2.928942E-1,1.1258918E0,2.5457436E2,9.401523E1,-4.0514603E-2,-1.80554E-1,-3.4282956E-2,1.445325E2,-9.5232E-2,-3.3372527E-1,3.85286E-2,2.8884321E-2,3.268796E-1,7.606573E-1,-4.07462E-2,3.043072E-1,-4.502716E-1,1.0256147E-2,-1.6352771E-1,1.454812E2,1.2736567E-2,-5.0524067E-2,-3.81094E-2,1.174231E2,-5.176847E-2,1.4510254E0,-0E0,3.7308376E0,8.90664E1,7.546332E-2,8.81245E1,-1.0791359E-1,3.4378946E-1,5.320837E-1,1.1788508E-1,1.3640125E2,-0E0,2.0709952E-2,-1.1111039E-2,5.878007E-1,-7.8247313E-4,5.5834064E2,9.779923E-2,2.131489E-1,9.928372E-3,3.3980083E-2,2.086667E-2,-3.572464E-2,2.4327144E-2,-0E0,-1.5678016E-3,-2.4466934E-2,-3.3176634E-2,2.124528E-2,-3.611659E-2,-0E0,9.0198874E-2,1.0591013E-2,1.4958032E-2,9.685352E-2,1.8611479E-3,-3.3364228E-3,1.9214926E-2,-3.533915E-3,-1.1208867E-1,-4.2403042E-2,6.686277E-2,-2.1812823E-2],"split_indices":[21,2,7,18,0,7,2,15,16,21,14,0,0,12,2,11,12,11,7,7,16,12,15,20,7,7,8,0,0,0,21,0,18,0,18,5,0,1,0,15,15,12,8,0,0,0,16,0,21,0,15,0,0,0,0,0,0,0,0,0,0,0,0,0,0,0,0,0,0,0,0,0,0,0,0],"split_type":[0,0,0,0,0,0,0,0,0,0,0,0,0,0,0,0,0,0,0,0,0,0,0,0,0,0,0,0,0,0,0,0,0,0,0,0,0,0,0,0,0,0,0,0,0,0,0,0,0,0,0,0,0,0,0,0,0,0,0,0,0,0,0,0,0,0,0,0,0,0,0,0,0,0,0],"sum_hessian":[4.34E3,4.181E3,1.59E2,2.12E2,3.969E3,9E0,1.5E2,1.52E2,6E1,1.56E2,3.813E3,5E0,4E0,4.2E1,1.08E2,8E0,1.44E2,2.4E1,3.6E1,1.4E2,1.6E1,1.56E2,3.657E3,1.8E1,2.4E1,5E1,5.8E1,3E0,5E0,3E0,1.41E2,1.3E1,1.1E1,6E0,3E1,1.37E2,3E0,9E0,7E0,4.6E1,1.1E2,8.3E1,3.574E3,3E0,1.5E1,1.4E1,1E1,6E0,4.4E1,4E0,5.4E1,4.6E1,9.5E1,8E0,3E0,2.5E1,5E0,8.7E1,5E1,6E0,3E0,9E0,3.7E1,2.6E1,8.4E1,8E1,3E0,2.333E3,1.241E3,4E0,6E0,1.6E1,2.8E1,5E0,4.9E1],"tree_param":{"num_deleted":"0","num_feature":"22","num_nodes":"75","size_leaf_vector":"1"}},{"base_weights":[4.021931E-3,6.784353E-2,-1.45773E0,1.2148168E0,2.4629671E-2,-5.8793173E0,-1.1212196E0,1.7093221E0,-4.2660406E-1,2.531269E0,1.4015756E-2,-3.8113718E0,-1.3773578E-1,-3.254084E0,-6.1465627E-1,8.397076E-1,2.8447578E0,-2.567764E0,9.5729655E-1,-0E0,8.983756E-2,-7.6660925E-1,4.197071E-2,-2.3269149E-2,-8.023271E-2,-5.9490585E-1,-5.976362E0,-7.8951305E-1,7.879912E-2,1.3497144E0,-1.0613759E0,3.4016454E-1,3.4624162E0,-5.9164897E-2,-9.876797E-3,3.1017202E-1,3.6262516E-2,-1.790471E-2,1.0996453E-2,-6.1346654E-2,-6.549441E-1,5.9562482E-2,-1.1211995E0,1.2027057E-3,-4.9150053E-2,-3.1096978E0,-1.7028312E-1,-3.0661624E-2,-1.7359018E0,1.5268951E-2,4.5696676E-2,2.4508173E-3,-4.5883507E-2,2.2922516E-2,-1.5608275E-3,2.8073834E-2,8.03614E-2,2.921032E-2,-1.4031149E-3,-7.817765E-3,-2.6874518E-2,-1.3817599E-3,2.9594395E-3,-4.458459E-2,-0E0,-6.345113E-2,-1.7629666E-3,-5.4969504E-2,4.7307163E-3,-3.5312396E-2,4.702926E-2],"categories":[],"categories_nodes":[],"categories_segments":[],"categories_sizes":[],"default_left":[0,0,0,0,0,0,0,0,0,0,0,0,0,0,0,0,0,0,0,0,0,0,0,0,0,0,0,0,0,0,0,0,0,0,0,0,0,0,0,0,0,0,0,0,0,0,0,0,0,0,0,0,0,0,0,0,0,0,0,0,0,0,0,0,0,0,0,0,0,0,0],"id":8,"left_children":[1,3,5,7,9,11,13,15,17,19,21,23,-1,25,27,29,31,33,35,37,-1,39,41,-1,-1,43,45,47,-1,49,51,53,55,-1,-1,57,-1,-1,-1,-1,59,61,63,-1,-1,65,-1,67,69,-1,-1,-1,-1,-1,-1,-1,-1,-1,-1,-1,-1,-1,-1,-1,-1,-1,-1,-1,-1,-1,-1],"loss_changes":[3.924631E2,1.9911862E2,2.4655688E2,1.20804504E2,1.0059483E2,2.4636688E1,1.7135591E2,1.04531555E2,1.05001526E2,1.2811345E2,8.398923E1,1.1825104E1,0E0,2.1224576E2,1.3197536E2,6.567451E1,6.818329E1,2.5066994E1,1.4461103E1,8.6503E0,0E0,3.8649185E1,7.559821E1,0E0,0E0,3.326554E1,1.6126495E2,9.244689E1,0E0,2.3302788E1,3.5939556E1,7.33478E0,8.878107E1,0E0,0E0,1.2409231E1,0E0,0E0,0E0,0E0,1.7686138E1,7.1494415E1,1.1006711E2,0E0,0E0,2.5577072E1,0E0,9.249264E1,1.5050081E2,0E0,0E0,0E0,0E0,0E0,0E0,0E0,0E0,0E0,0E0,0E0,0E0,0E0,0E0,0E0,0E0,0E0,0E0,0E0,0E0,0E0,0E0],"parents":[2147483647,0,0,1,1,2,2,3,3,4,4,5,5,6,6,7,7,8,8,9,9,10,10,11,11,13,13,14,14,15,15,16,16,17,17,18,18,19,19,21,21,22,22,25,25,26,26,27,27,29,29,30,30,31,31,32,32,35,35,40,40,41,41,42,42,45,45,47,47,48,48],"right_children":[2,4,6,8,10,12,14,16,18,20,22,24,-1,26,28,30,32,34,36,38,-1,40,42,-1,-1,44,46,48,-1,50,52,54,56,-1,-1,58,-1,-1,-1,-1,60,62,64,-1,-1,66,-1,68,70,-1,-1,-1,-1,-1,-1,-1,-1,-1,-1,-1,-1,-1,-1,-1,-1,-1,-1,-1,-1,-1,-1],"split_conditions":[4.7661023E2,8.72328E1,-2.968225E-1,1.0268009E0,2.7564287E-1,-3.0745944E-1,-1.0778448E-1,-3.4282956E-2,1.2164217E0,-4.633372E-2,-4.1185978E-1,-3.2287396E-3,-1.3773578E-1,-1.7397317E-1,2.2551475E-1,-8.694001E-1,8.131962E1,8.1385E1,3.926899E-1,9.074E1,8.983756E-2,8.976E1,1.82155E2,-2.3269149E-2,-8.023271E-2,-1.7644463E-1,1.48407E2,1.0588169E-3,7.879912E-2,-1.1302419E0,-8.111499E-2,-2.8825286E-1,-1.0068853E-1,-5.9164897E-2,-9.876797E-3,7.845E1,3.6262516E-2,-1.790471E-2,1.0996453E-2,-6.1346654E-2,2.207838E-1,1.8131578E2,3.4382312E2,1.2027057E-3,-4.9150053E-2,-1.2219449E-1,-1.7028312E-1,-2.9648992E-1,4.158215E-1,1.5268951E-2,4.5696676E-2,2.4508173E-3,-4.5883507E-2,2.2922516E-2,-1.5608275E-3,2.8073834E-2,8.03614E-2,2.921032E-2,-1.4031149E-3,-7.817765E-3,-2.6874518E-2,-1.3817599E-3,2.9594395E-3,-4.458459E-2,-0E0,-6.345113E-2,-1.7629666E-3,-5.4969504E-2,4.7307163E-3,-3.5312396E-2,4.702926E-2],"split_indices":[21,5,6,18,15,6,11,7,16,11,12,12,0,12,12,16,14,0,9,0,0,2,0,0,0,16,0,11,0,16,7,16,16,0,0,0,0,0,0,0,7,21,21,0,0,12,0,9,9,0,0,0,0,0,0,0,0,0,0,0,0,0,0,0,0,0,0,0,0,0,0],"split_type":[0,0,0,0,0,0,0,0,0,0,0,0,0,0,0,0,0,0,0,0,0,0,0,0,0,0,0,0,0,0,0,0,0,0,0,0,0,0,0,0,0,0,0,0,0,0,0,0,0,0,0,0,0,0,0,0,0,0,0,0,0,0,0,0,0,0,0,0,0,0,0],"sum_hessian":[4.224E3,4.049E3,1.75E2,1.45E2,3.904E3,1.1E1,1.64E2,1.12E2,3.3E1,1.5E1,3.889E3,8E0,3E0,3E1,1.34E2,6.5E1,4.7E1,1.3E1,2E1,9E0,6E0,1.32E2,3.757E3,4E0,4E0,1.6E1,1.4E1,1.31E2,3E0,5.2E1,1.3E1,1E1,3.7E1,7E0,6E0,1.5E1,5E0,3E0,6E0,3E0,1.29E2,3.703E3,5.4E1,1.3E1,3E0,1E1,4E0,7.4E1,5.7E1,4.4E1,8E0,8E0,5E0,3E0,7E0,2E1,1.7E1,3E0,1.2E1,1.15E2,1.4E1,1.727E3,1.976E3,2.1E1,3.3E1,7E0,3E0,6E0,6.8E1,5.2E1,5E0],"tree_param":{"num_deleted":"0","num_feature":"22","num_nodes":"71","size_leaf_vector":"1"}},{"base_weights":[1.4759811E-2,7.735841E-2,-1.7869856E0,1.3448081E0,2.5651433E-2,-3.566549E-1,-2.907811E0,1.8245959E0,-2.6453248E-1,-2.6812035E-1,9.8028466E-2,-8.7087905E-1,8.8646874E-2,-6.818365E0,-2.019268E0,2.2029347E0,7.645772E-1,-1.5504421E0,9.6698153E-1,-9.710124E-3,-7.273938E-1,2.4227355E-1,-1.4711328E-1,2.4300705E-1,-2.3885932E0,-1.1637058E-2,-8.300244E0,-3.4561725E0,-4.4159782E-1,1.0738019E0,2.7867E0,-3.0892303E-2,1.1212441E0,-5.9910387E-2,-6.083783E-1,3.749251E-2,1.9693635E-1,8.511953E-1,-2.0124614E-1,-6.1669488E-2,-9.536196E-1,1.8657264E-1,1.8286762E0,-1.3999823E0,-2.5233382E-2,2.356257E-2,-3.4518248E-1,5.995462E-2,-3.5544488E0,-1.5756933E-1,-6.126844E-2,1.4437628E-2,-4.2875204E0,-1.5515643E0,1.0839307E0,5.0725475E-2,-0E0,5.2996285E-2,2.8097168E-2,5.2042385E-3,2.6906008E-2,1.4262775E-2,-2.1238146E-2,-4.32928E-3,1.7080534E-2,5.8742515E-3,3.800032E-2,-1.8247991E-4,-1.2143544E-2,-8.775343E-3,1.45346215E-2,-1.7830934E-2,-4.3969788E-3,6.0016402E-5,9.600802E-3,6.6703066E-2,1.2801651E-2,-1.220296E-2,-6.892311E-2,-2.5470448E-3,1.5605105E-2,-1.23932315E-2,1.0564801E-2,1.1602743E-2,-1.0291384E-2,-6.690754E-2,-2.5346318E-2,-2.0619873E-2,-8.269962E-2,1.16126E-2,-5.0796263E-2,4.922636E-2,-1.9476421E-2],"categories":[],"categories_nodes":[],"categories_segments":[],"categories_sizes":[],"default_left":[0,0,0,0,0,0,0,0,0,0,0,0,0,0,0,0,0,0,0,0,0,0,0,0,0,0,0,0,0,0,0,0,0,0,0,0,0,0,0,0,0,0,0,0,0,0,0,0,0,0,0,0,0,0,0,0,0,0,0,0,0,0,0,0,0,0,0,0,0,0,0,0,0,0,0,0,0,0,0,0,0,0,0,0,0,0,0,0,0,0,0,0,0],"id":9,"left_children":[1,3,5,7,9,11,13,15,17,19,21,23,-1,25,27,29,31,33,35,37,39,41,43,45,47,-1,49,51,53,55,57,-1,59,-1,61,-1,63,65,67,69,71,73,75,77,79,-1,81,83,85,-1,-1,-1,87,89,91,-1,-1,-1,-1,-1,-1,-1,-1,-1,-1,-1,-1,-1,-1,-1,-1,-1,-1,-1,-1,-1,-1,-1,-1,-1,-1,-1,-1,-1,-1,-1,-1,-1,-1,-1,-1,-1,-1],"loss_changes":[4.7693893E2,2.672975E2,2.2239642E2,1.2596356E2,8.372825E1,1.9705397E2,2.4991107E2,4.4303955E1,6.0688324E1,9.125737E1,1.1228229E2,1.0465263E2,0E0,1.080589E2,1.430586E2,5.1496582E1,3.521517E1,3.293126E1,1.7163605E1,8.176844E1,4.05027E1,1.7381552E2,1.7709525E2,2.8030611E1,7.876277E1,0E0,3.038794E1,1.3174106E2,5.7992504E1,7.76908E1,2.2341919E1,0E0,1.1987415E1,0E0,1.888058E1,0E0,7.2752843E0,6.316169E1,4.3914684E1,3.6288956E1,2.400882E1,1.5066792E2,1.5523056E2,1.8198236E2,1.5041676E2,0E0,1.1651108E1,4.97464E0,1.1192139E1,0E0,0E0,0E0,7.172339E1,8.352918E1,7.353448E1,0E0,0E0,0E0,0E0,0E0,0E0,0E0,0E0,0E0,0E0,0E0,0E0,0E0,0E0,0E0,0E0,0E0,0E0,0E0,0E0,0E0,0E0,0E0,0E0,0E0,0E0,0E0,0E0,0E0,0E0,0E0,0E0,0E0,0E0,0E0,0E0,0E0,0E0],"parents":[2147483647,0,0,1,1,2,2,3,3,4,4,5,5,6,6,7,7,8,8,9,9,10,10,11,11,13,13,14,14,15,15,16,16,17,17,18,18,19,19,20,20,21,21,22,22,23,23,24,24,26,26,27,27,28,28,29,29,30,30,32,32,34,34,36,36,37,37,38,38,39,39,40,40,41,41,42,42,43,43,44,44,46,46,47,47,48,48,52,52,53,53,54,54],"right_children":[2,4,6,8,10,12,14,16,18,20,22,24,-1,26,28,30,32,34,36,38,40,42,44,46,48,-1,50,52,54,56,58,-1,60,-1,62,-1,64,66,68,70,72,74,76,78,80,-1,82,84,86,-1,-1,-1,88,90,92,-1,-1,-1,-1,-1,-1,-1,-1,-1,-1,-1,-1,-1,-1,-1,-1,-1,-1,-1,-1,-1,-1,-1,-1,-1,-1,-1,-1,-1,-1,-1,-1,-1,-1,-1,-1,-1,-1],"split_conditions":[5.02169E2,8.72328E1,2.4012288E-1,1.1400883E0,1.1647423E2,1.47145E2,-2.3495702E-1,8.749986E1,1.4122472E0,1.0039545E2,1.3640125E2,1.371565E2,8.8646874E-2,-1.4183609E-1,1.455038E2,8.12835E1,3.68382E-1,8.01658E1,3.035028E6,9.409136E1,-1.5332056E0,1.363168E2,3.706299E-1,-5.591865E-2,-6.350316E-2,-1.1637058E-2,2.34692E6,1.350755E2,1.5511E6,7.818194E1,8.709357E1,-3.0892303E-2,-1.8498186E0,-5.9910387E-2,-1.0661086E-1,3.749251E-2,2.3000896E0,9.268322E1,1.2389586E0,-4.828025E-2,2.3987387E-1,3.917908E6,8.368785E-2,2.8929606E-1,4.6786505E-1,2.356257E-2,-9.914302E-4,1.45634E2,7.724913E-2,-1.5756933E-1,-6.126844E-2,1.4437628E-2,-1.6352771E-1,1.7655E2,4.825738E-2,5.0725475E-2,-0E0,5.2996285E-2,2.8097168E-2,5.2042385E-3,2.6906008E-2,1.4262775E-2,-2.1238146E-2,-4.32928E-3,1.7080534E-2,5.8742515E-3,3.800032E-2,-1.8247991E-4,-1.2143544E-2,-8.775343E-3,1.45346215E-2,-1.7830934E-2,-4.3969788E-3,6.0016402E-5,9.600802E-3,6.6703066E-2,1.2801651E-2,-1.220296E-2,-6.892311E-2,-2.5470448E-3,1.5605105E-2,-1.23932315E-2,1.0564801E-2,1.1602743E-2,-1.0291384E-2,-6.690754E-2,-2.5346318E-2,-2.0619873E-2,-8.269962E-2,1.16126E-2,-5.0796263E-2,4.922636E-2,-1.9476421E-2],"split_indices":[21,5,15,18,21,1,10,13,16,21,8,3,0,12,5,3,15,1,4,13,18,3,15,12,7,0,4,1,4,8,13,0,16,0,6,0,18,21,18,12,12,4,20,9,10,0,7,1,6,0,0,0,7,1,11,0,0,0,0,0,0,0,0,0,0,0,0,0,0,0,0,0,0,0,0,0,0,0,0,0,0,0,0,0,0,0,0,0,0,0,0,0,0],"split_type":[0,0,0,0,0,0,0,0,0,0,0,0,0,0,0,0,0,0,0,0,0,0,0,0,0,0,0,0,0,0,0,0,0,0,0,0,0,0,0,0,0,0,0,0,0,0,0,0,0,0,0,0,0,0,0,0,0,0,0,0,0,0,0,0,0,0,0,0,0,0,0,0,0,0,0,0,0,0,0,0,0,0,0,0,0,0,0,0,0,0,0,0,0],"sum_hessian":[4.246E3,4.105E3,1.41E2,1.59E2,3.946E3,6.3E1,7.8E1,1.23E2,3.6E1,7.76E2,3.17E3,5.9E1,4E0,1.3E1,6.5E1,8.9E1,3.4E1,1.8E1,1.8E1,4.99E2,2.77E2,1.999E3,1.171E3,3.4E1,2.5E1,3E0,1E1,3.3E1,3.2E1,3.2E1,5.7E1,3E0,3.1E1,4E0,1.4E1,5E0,1.3E1,8.9E1,4.1E2,7.2E1,2.05E2,1.933E3,6.6E1,1.02E2,1.069E3,1.1E1,2.3E1,8E0,1.7E1,6E0,4E0,5E0,2.8E1,1.9E1,1.3E1,1E1,2.2E1,3.3E1,2.4E1,1.5E1,1.6E1,4E0,1E1,8E0,5E0,7E1,1.9E1,3.11E2,9.9E1,4.9E1,2.3E1,1.58E2,4.7E1,1.358E3,5.75E2,1.8E1,4.8E1,8.6E1,1.6E1,9.44E2,1.25E2,1.7E1,6E0,5E0,3E0,1.1E1,6E0,8E0,2E1,8E0,1.1E1,7E0,6E0],"tree_param":{"num_deleted":"0","num_feature":"22","num_nodes":"93","size_leaf_vector":"1"}},{"base_weights":[-1.1044908E-3,7.094275E-2,-1.9261587E0,1.2444233E0,2.22796E-2,-7.6332426E0,-1.552281E0,1.039404E-2,1.9458977E0,-6.216717E-1,6.304717E-2,-5.6550163E-3,-1.720708E-1,3.7036204E-1,-2.326329E0,2.1105688E0,-1.1404886E0,7.7404094E-1,2.7664504E0,-1.9489138E-1,-1.930314E0,1.1350127E0,1.4909223E-2,1.2380105E0,-1.6052611E-1,-4.4706173E0,-3.135811E-1,5.7712764E-2,-2.8201444E-2,-1.7083023E-1,-6.600263E-2,1.1089188E0,-9.758073E-1,3.5337453E0,1.1532137E0,2.3263113E0,-4.5156205E-1,-1.3965471E0,-1.077177E-1,-4.0296155E-1,1.7488757E0,-3.1213075E-1,9.889343E-2,6.196982E-3,2.8157512E-2,-1.7042741E-2,3.196508E-1,-1.8730661E-3,-5.0327797E0,-2.146225E0,1.4838502E0,1.4606508E-2,-1.6250778E-2,-1.37035865E-2,1.2135669E-2,1.972235E-2,-3.1672833E-3,1.1852655E-2,-4.3712143E-2,3.9974626E-2,7.56294E-2,3.361595E-2,1.8872E-3,1.2425817E-2,5.1426176E-2,-9.308865E-3,4.998754E-2,-1.2741774E-2,-5.2759007E-2,-2.7889337E-2,1.29219955E-2,1.2387434E-2,8.7642975E-2,-1.0692264E-3,-8.169465E-3,4.680481E-3,-1.984011E-3,1.0782778E-2,-4.081797E-3,-9.027813E-2,-1.2101228E-2,-7.0428103E-3,-6.2071454E-2,-8.077232E-3,6.729383E-2],"categories":[],"categories_nodes":[],"categories_segments":[],"categories_sizes":[],"default_left":[0,0,0,0,0,0,0,0,0,0,0,0,0,0,0,0,0,0,0,0,0,0,0,0,0,0,0,0,0,0,0,0,0,0,0,0,0,0,0,0,0,0,0,0,0,0,0,0,0,0,0,0,0,0,0,0,0,0,0,0,0,0,0,0,0,0,0,0,0,0,0,0,0,0,0,0,0,0,0,0,0,0,0,0,0],"id":10,"left_children":[1,3,5,7,9,11,13,15,17,19,21,-1,-1,23,25,27,29,31,33,35,37,39,41,43,45,47,49,-1,51,53,-1,55,57,59,61,63,65,67,-1,69,71,73,75,-1,-1,-1,77,-1,79,81,83,-1,-1,-1,-1,-1,-1,-1,-1,-1,-1,-1,-1,-1,-1,-1,-1,-1,-1,-1,-1,-1,-1,-1,-1,-1,-1,-1,-1,-1,-1,-1,-1,-1,-1],"loss_changes":[5.8793274E2,2.307079E2,3.033186E2,1.3679742E2,1.0194002E2,2.0236823E2,2.1904465E2,1.4843507E2,9.145758E1,1.2590386E2,1.8835146E2,0E0,0E0,2.0893856E1,4.4117395E2,7.932993E1,1.1032731E2,2.6953428E1,6.3087555E1,1.12455345E2,1.2867842E2,1.5057333E2,9.6517944E1,4.567381E0,1.2929434E1,1.149848E2,1.8488564E2,0E0,1.0780354E1,2.1538471E1,0E0,9.311344E0,2.665165E1,2.8404419E1,1.8478888E1,1.5906654E1,8.37121E1,5.178762E1,0E0,7.921949E1,4.0472284E2,3.6119415E1,1.2778653E2,0E0,0E0,0E0,4.3798485E0,0E0,1.280133E2,7.936168E1,1.6518916E2,0E0,0E0,0E0,0E0,0E0,0E0,0E0,0E0,0E0,0E0,0E0,0E0,0E0,0E0,0E0,0E0,0E0,0E0,0E0,0E0,0E0,0E0,0E0,0E0,0E0,0E0,0E0,0E0,0E0,0E0,0E0,0E0,0E0,0E0],"parents":[2147483647,0,0,1,1,2,2,3,3,4,4,5,5,6,6,7,7,8,8,9,9,10,10,13,13,14,14,15,15,16,16,17,17,18,18,19,19,20,20,21,21,22,22,23,23,24,24,25,25,26,26,28,28,29,29,31,31,32,32,33,33,34,34,35,35,36,36,37,37,39,39,40,40,41,41,42,42,46,46,48,48,49,49,50,50],"right_children":[2,4,6,8,10,12,14,16,18,20,22,-1,-1,24,26,28,30,32,34,36,38,40,42,44,46,48,50,-1,52,54,-1,56,58,60,62,64,66,68,-1,70,72,74,76,-1,-1,-1,78,-1,80,82,84,-1,-1,-1,-1,-1,-1,-1,-1,-1,-1,-1,-1,-1,-1,-1,-1,-1,-1,-1,-1,-1,-1,-1,-1,-1,-1,-1,-1,-1,-1,-1,-1,-1,-1],"split_conditions":[5.02169E2,8.7205E1,-2.2863053E-1,8.131962E1,9.006E1,-2.5311148E-1,1.3693E2,7.845E1,-1.9019498E0,8.8779755E1,9.401523E1,-5.6550163E-3,-1.720708E-1,-5.78545E-2,1.441015E2,-8.768111E-2,1.1939423E2,2.705407E2,3.6896324E-1,-9.5810574E-1,2.3276683E2,-4.07462E-2,1.2253754E2,-9.5230095E-2,1.2233465E2,-1.6352771E-1,1.6254E6,5.7712764E-2,7.361001E1,7.663172E-2,-6.600263E-2,8.93235E1,8.61966E1,-1.0068853E-1,-1.5574591E-1,8.72065E1,3.488125E-1,9.037612E1,-1.077177E-1,2.984868E6,1.7647142E2,9.3945694E1,1.3383829E2,6.196982E-3,2.8157512E-2,-1.7042741E-2,1.3656992E2,-1.8730661E-3,6.956956E-2,1.7617E2,4.905195E-1,1.4606508E-2,-1.6250778E-2,-1.37035865E-2,1.2135669E-2,1.972235E-2,-3.1672833E-3,1.1852655E-2,-4.3712143E-2,3.9974626E-2,7.56294E-2,3.361595E-2,1.8872E-3,1.2425817E-2,5.1426176E-2,-9.308865E-3,4.998754E-2,-1.2741774E-2,-5.2759007E-2,-2.7889337E-2,1.29219955E-2,1.2387434E-2,8.7642975E-2,-1.0692264E-3,-8.169465E-3,4.680481E-3,-1.984011E-3,1.0782778E-2,-4.081797E-3,-9.027813E-2,-1.2101228E-2,-7.0428103E-3,-6.2071454E-2,-8.077232E-3,6.729383E-2],"split_indices":[21,0,7,14,3,11,2,0,18,8,14,0,0,12,2,12,21,21,16,16,21,12,21,12,14,7,4,0,21,12,0,14,0,16,6,2,7,8,0,4,21,21,14,0,0,0,8,0,12,0,18,0,0,0,0,0,0,0,0,0,0,0,0,0,0,0,0,0,0,0,0,0,0,0,0,0,0,0,0,0,0,0,0,0,0],"split_type":[0,0,0,0,0,0,0,0,0,0,0,0,0,0,0,0,0,0,0,0,0,0,0,0,0,0,0,0,0,0,0,0,0,0,0,0,0,0,0,0,0,0,0,0,0,0,0,0,0,0,0,0,0,0,0,0,0,0,0,0,0,0,0,0,0,0,0,0,0,0,0,0,0,0,0,0,0,0,0,0,0,0,0,0,0],"sum_hessian":[4.22E3,4.068E3,1.52E2,1.6E2,3.908E3,8E0,1.44E2,5.9E1,1.01E2,2.3E2,3.678E3,3E0,5E0,4.1E1,1.03E2,2.1E1,3.8E1,4.3E1,5.8E1,1.75E2,5.5E1,1.56E2,3.522E3,1.6E1,2.5E1,4.9E1,5.4E1,1.2E1,9E0,3E1,8E0,3.7E1,6E0,3.8E1,2E1,1.5E1,1.6E2,5.1E1,4E0,4.4E1,1.12E2,7.16E2,2.806E3,8E0,8E0,9E0,1.6E1,6E0,4.3E1,2.7E1,2.7E1,4E0,5E0,1.8E1,1.2E1,3.4E1,3E0,3E0,3E0,2.4E1,1.4E1,9E0,1.1E1,7E0,8E0,1.55E2,5E0,4.1E1,1E1,2.1E1,2.3E1,9.1E1,2.1E1,3.36E2,3.8E2,1.488E3,1.318E3,1.1E1,5E0,3.6E1,7E0,1.5E1,1.2E1,1.6E1,1.1E1],"tree_param":{"num_deleted":"0","num_feature":"22","num_nodes":"85","size_leaf_vector":"1"}},{"base_weights":[9.318672E-3,7.659633E-2,-1.7400341E0,1.1144626E0,3.3580314E-2,1.4993532E-1,-2.5124595E0,1.8162559E0,-5.6327856E-1,-7.306213E-1,8.39188E-2,-4.1613545E-2,4.3551046E-1,-3.9768085E0,-1.1100544E0,2.0471764E0,-1.8673847E0,1.1854068E0,-1.9007388E0,-3.881944E-1,-3.517205E0,1.6727811E0,4.9786467E-2,2.0367073E-2,-7.916045E-2,-4.4337863E-1,-4.554906E0,-5.303091E0,-4.233676E-1,-1.4352276E-2,2.210623E0,-0E0,-5.3145807E-2,1.58992E0,-0E0,-2.4498851E0,4.766082E-3,-4.542657E-1,4.617896E-2,3.5911095E-3,-4.483175E0,-5.161742E-1,3.3566864E0,7.3492473E-1,5.326106E-3,1.5607882E-2,-3.6454752E-1,3.582794E-4,-1.6911263E-2,-1.2693515E-1,-3.5630517E0,-3.7258606E-2,-1.1480786E-1,-1.4512385E-3,-8.154331E-2,1.6729385E-2,4.419473E-2,3.155497E-3,3.013667E-2,-0E0,-4.474369E-2,-8.772288E-3,2.6237689E-2,-3.2116923E-2,-8.944543E-2,3.8217444E-3,-1.9959647E-2,2.3915429E-2,1.1723685E-1,6.502887E-3,3.4467425E-2,1.9834663E-3,-3.918497E-3,-1.0421945E-2,1.4514727E-2,-6.628054E-2,-1.1748419E-2,-8.952147E-3,3.8598664E-2],"categories":[],"categories_nodes":[],"categories_segments":[],"categories_sizes":[],"default_left":[0,0,0,0,0,0,0,0,0,0,0,0,0,0,0,0,0,0,0,0,0,0,0,0,0,0,0,0,0,0,0,0,0,0,0,0,0,0,0,0,0,0,0,0,0,0,0,0,0,0,0,0,0,0,0,0,0,0,0,0,0,0,0,0,0,0,0,0,0,0,0,0,0,0,0,0,0,0,0],"id":11,"left_children":[1,3,5,7,9,11,13,15,17,19,21,-1,23,25,27,29,31,33,35,37,39,41,43,-1,45,47,49,51,53,-1,55,-1,-1,57,-1,59,-1,61,-1,-1,63,65,67,69,71,-1,73,-1,-1,-1,75,-1,-1,77,-1,-1,-1,-1,-1,-1,-1,-1,-1,-1,-1,-1,-1,-1,-1,-1,-1,-1,-1,-1,-1,-1,-1,-1,-1],"loss_changes":[4.9888654E2,1.815341E2,2.3251312E2,1.932638E2,1.5075554E2,3.520032E1,2.1918439E2,1.0164395E2,1.1520499E2,2.2456406E2,1.982578E2,0E0,2.0891329E1,1.0187421E2,1.6025961E2,5.641931E1,2.1574333E1,1.0880901E1,3.732244E1,4.604473E1,1.0036893E2,2.8892767E2,1.0937712E2,0E0,7.8324394E0,4.0558968E0,1.20557495E2,1.8412933E1,9.853638E1,0E0,6.563788E1,0E0,0E0,4.444214E0,0E0,2.6239105E1,0E0,4.8728104E1,0E0,0E0,4.2220184E1,2.1331928E1,3.1063217E2,9.844042E1,1.06149155E2,0E0,9.264013E0,0E0,0E0,0E0,6.3493286E1,0E0,0E0,6.822355E1,0E0,0E0,0E0,0E0,0E0,0E0,0E0,0E0,0E0,0E0,0E0,0E0,0E0,0E0,0E0,0E0,0E0,0E0,0E0,0E0,0E0,0E0,0E0,0E0,0E0],"parents":[2147483647,0,0,1,1,2,2,3,3,4,4,5,5,6,6,7,7,8,8,9,9,10,10,12,12,13,13,14,14,15,15,16,16,17,17,18,18,19,19,20,20,21,21,22,22,24,24,25,25,26,26,27,27,28,28,30,30,33,33,35,35,37,37,40,40,41,41,42,42,43,43,44,44,46,46,50,50,53,53],"right_children":[2,4,6,8,10,12,14,16,18,20,22,-1,24,26,28,30,32,34,36,38,40,42,44,-1,46,48,50,52,54,-1,56,-1,-1,58,-1,60,-1,62,-1,-1,64,66,68,70,72,-1,74,-1,-1,-1,76,-1,-1,78,-1,-1,-1,-1,-1,-1,-1,-1,-1,-1,-1,-1,-1,-1,-1,-1,-1,-1,-1,-1,-1,-1,-1,-1,-1],"split_conditions":[5.02169E2,8.7365E1,1.37306E2,7.647247E-1,9.113E1,-6.008244E-1,1.441015E2,2.811569E2,9.0781136E1,2.705407E2,9.353E1,-4.1613545E-2,-5.9471354E-2,-5.932442E-1,-3.013798E-1,7.808953E1,8.64305E1,8.254519E1,2.7919197E-1,5.217324E-1,-8.768111E-2,-7.033536E-2,1.37976E6,2.0367073E-2,5.224934E2,1.406175E2,5.357178E2,1.44324E6,1.889899E2,-1.4352276E-2,1.2669116E2,-0E0,-5.3145807E-2,1.5459587E-3,-0E0,-1.0661086E-1,4.766082E-3,2.6199167E2,4.617896E-2,3.5911095E-3,8.81245E1,9.261615E1,1.8204045E2,4.2340683E2,1.3630074E2,1.5607882E-2,6.632051E2,3.582794E-4,-1.6911263E-2,-1.2693515E-1,6.956956E-2,-3.7258606E-2,-1.1480786E-1,6.632051E2,-8.154331E-2,1.6729385E-2,4.419473E-2,3.155497E-3,3.013667E-2,-0E0,-4.474369E-2,-8.772288E-3,2.6237689E-2,-3.2116923E-2,-8.944543E-2,3.8217444E-3,-1.9959647E-2,2.3915429E-2,1.1723685E-1,6.502887E-3,3.4467425E-2,1.9834663E-3,-3.918497E-3,-1.0421945E-2,1.4514727E-2,-6.628054E-2,-1.1748419E-2,-8.952147E-3,3.8598664E-2],"split_indices":[21,0,0,18,3,16,2,21,21,21,0,0,12,20,9,14,0,21,9,20,12,12,4,0,21,0,21,4,0,0,21,0,0,20,0,10,0,21,0,0,1,14,21,21,13,0,21,0,0,0,12,0,0,21,0,0,0,0,0,0,0,0,0,0,0,0,0,0,0,0,0,0,0,0,0,0,0,0,0],"split_type":[0,0,0,0,0,0,0,0,0,0,0,0,0,0,0,0,0,0,0,0,0,0,0,0,0,0,0,0,0,0,0,0,0,0,0,0,0,0,0,0,0,0,0,0,0,0,0,0,0,0,0,0,0,0,0,0,0,0,0,0,0,0,0,0,0,0,0,0,0,0,0,0,0,0,0,0,0,0,0],"sum_hessian":[4.255E3,4.099E3,1.56E2,1.61E2,3.938E3,4.5E1,1.11E2,1.14E2,4.7E1,2.41E2,3.697E3,3E0,4.2E1,5.3E1,5.8E1,1.08E2,6E0,2E1,2.7E1,2.16E2,2.5E1,7.6E1,3.621E3,1.6E1,2.6E1,8E0,4.5E1,7E0,5.1E1,5E0,1.03E2,3E0,3E0,1.5E1,5E0,2.2E1,5E0,2.13E2,3E0,5E0,2E1,3.3E1,4.3E1,2.18E2,3.403E3,4E0,2.2E1,4E0,4E0,8E0,3.7E1,4E0,3E0,4.8E1,3E0,3.8E1,6.5E1,4E0,1.1E1,3E0,1.9E1,2.04E2,9E0,8E0,1.2E1,1.6E1,1.7E1,3.1E1,1.2E1,1.81E2,3.7E1,2.311E3,1.092E3,1.9E1,3E0,2.9E1,8E0,4E1,8E0],"tree_param":{"num_deleted":"0","num_feature":"22","num_nodes":"79","size_leaf_vector":"1"}},{"base_weights":[-1.2537432E-2,5.3821795E-2,-1.4789298E0,1.2372867E0,1.0632247E-2,-6.784685E0,-1.1969602E0,-4.251676E-2,1.9615098E0,-5.8808666E-1,4.56088E-2,-3.795552E-2,-1.7766505E-1,-3.3996146E0,-7.730795E-1,2.1550884E0,-1.3057522E0,-1.443414E-1,2.3579328E0,-1.2215414E-1,-2.0320518E0,1.111544E0,-0E0,-2.856425E-1,-4.57042E0,-9.297084E-1,7.73201E-2,5.9710853E-2,1.0011287E0,-5.691358E-2,-1.3004498E-1,4.73949E-1,-2.7206965E-2,3.250717E0,1.072108E0,-7.464096E-1,6.767699E-1,-1.15699075E-1,-1.2815653E0,-2.5144186E0,1.390883E0,2.7621648E0,-1.2286605E-2,5.4421555E-3,-2.3363097E-2,-5.9582796E0,-9.753436E-1,-1.2202604E0,1.8523933E0,-0E0,2.374913E-2,1.0078196E-2,-2.2038545E-2,-1.2643306E-2,2.3537777E-2,6.1557673E-2,2.1047954E-2,2.2696938E-2,-0E0,-1.8676745E-2,2.5836146E-3,4.508609E-3,3.8921315E-2,-3.206977E-2,8.0822414E-5,-5.4466724E-2,-1.4384885E-2,1.12839155E-2,6.542829E-2,8.477659E-3,8.391103E-2,-4.995667E-3,1.1257809E-3,-3.7128683E-2,-1.0988508E-1,2.7960225E-3,-3.464278E-2,-1.0588727E-1,-1.6155139E-2,3.974506E-2,-0E0],"categories":[],"categories_nodes":[],"categories_segments":[],"categories_sizes":[],"default_left":[0,0,0,0,0,0,0,0,0,0,0,0,0,0,0,0,0,0,0,0,0,0,0,0,0,0,0,0,0,0,0,0,0,0,0,0,0,0,0,0,0,0,0,0,0,0,0,0,0,0,0,0,0,0,0,0,0,0,0,0,0,0,0,0,0,0,0,0,0,0,0,0,0,0,0,0,0,0,0,0,0],"id":12,"left_children":[1,3,5,7,9,11,13,15,17,19,21,-1,-1,23,25,27,29,31,33,35,37,39,41,43,45,47,-1,-1,49,-1,51,53,-1,55,57,59,61,-1,63,65,67,69,71,-1,-1,73,75,77,79,-1,-1,-1,-1,-1,-1,-1,-1,-1,-1,-1,-1,-1,-1,-1,-1,-1,-1,-1,-1,-1,-1,-1,-1,-1,-1,-1,-1,-1,-1,-1,-1],"loss_changes":[4.178927E2,2.074383E2,2.6024045E2,1.3503532E2,8.2004425E1,1.3515366E2,1.5829742E2,1.4580463E2,7.992276E1,1.4229124E2,1.8120969E2,0E0,0E0,9.443576E1,1.3463232E2,2.6710274E1,8.815104E1,1.719334E1,8.062903E1,8.283556E1,1.8963481E2,1.5680255E2,1.2223294E2,8.846398E0,8.512811E1,1.2093281E2,0E0,0E0,5.4313116E0,0E0,2.5672192E1,1.6599325E1,0E0,4.7463196E1,1.37488785E1,4.0093582E1,4.6459866E1,0E0,4.935817E1,8.300735E0,2.5827597E2,8.216965E1,9.3006454E1,0E0,0E0,2.6062744E1,1.298016E1,1.2229942E2,1.6666634E1,0E0,0E0,0E0,0E0,0E0,0E0,0E0,0E0,0E0,0E0,0E0,0E0,0E0,0E0,0E0,0E0,0E0,0E0,0E0,0E0,0E0,0E0,0E0,0E0,0E0,0E0,0E0,0E0,0E0,0E0,0E0,0E0],"parents":[2147483647,0,0,1,1,2,2,3,3,4,4,5,5,6,6,7,7,8,8,9,9,10,10,13,13,14,14,15,15,16,16,17,17,18,18,19,19,20,20,21,21,22,22,23,23,24,24,25,25,28,28,30,30,31,31,33,33,34,34,35,35,36,36,38,38,39,39,40,40,41,41,42,42,45,45,46,46,47,47,48,48],"right_children":[2,4,6,8,10,12,14,16,18,20,22,-1,-1,24,26,28,30,32,34,36,38,40,42,44,46,48,-1,-1,50,-1,52,54,-1,56,58,60,62,-1,64,66,68,70,72,-1,-1,74,76,78,80,-1,-1,-1,-1,-1,-1,-1,-1,-1,-1,-1,-1,-1,-1,-1,-1,-1,-1,-1,-1,-1,-1,-1,-1,-1,-1,-1,-1,-1,-1,-1,-1],"split_conditions":[4.7661023E2,8.7205E1,-7.889067E-1,8.131962E1,9.006E1,1.672734E6,-9.53617E-1,-4.3998456E-1,4.2782146E-1,8.94635E1,9.401523E1,-3.795552E-2,-1.7766505E-1,-8.62002E-2,2.2551475E-1,7.818194E1,8.245999E-1,7.9705216E-2,8.711008E1,5.924955E-1,3.5456178E-1,1.896229E6,2.7564287E-1,1.468045E2,5.419587E-2,3.5206234E-1,7.73201E-2,5.9710853E-2,6.9418204E-1,-5.691358E-2,7.96591E1,-9.5810574E-1,-2.7206965E-2,6.3442737E-1,-1.276927E-1,8.83194E1,1.328766E2,-1.15699075E-1,8.974E1,1.49528E6,1.9848958E2,-1.727785E-2,1.2334347E2,5.4421555E-3,-2.3363097E-2,-5.52211E-3,1.4394E2,-2.4187106E-1,5.5834064E2,-0E0,2.374913E-2,1.0078196E-2,-2.2038545E-2,-1.2643306E-2,2.3537777E-2,6.1557673E-2,2.1047954E-2,2.2696938E-2,-0E0,-1.8676745E-2,2.5836146E-3,4.508609E-3,3.8921315E-2,-3.206977E-2,8.0822414E-5,-5.4466724E-2,-1.4384885E-2,1.12839155E-2,6.542829E-2,8.477659E-3,8.391103E-2,-4.995667E-3,1.1257809E-3,-3.7128683E-2,-1.0988508E-1,2.7960225E-3,-3.464278E-2,-1.0588727E-1,-1.6155139E-2,3.974506E-2,-0E0],"split_indices":[21,0,20,14,3,4,17,16,15,1,14,0,0,12,12,8,15,20,8,15,15,4,15,0,11,9,0,0,15,0,13,16,0,16,20,14,21,0,3,4,21,11,21,0,0,11,0,12,21,0,0,0,0,0,0,0,0,0,0,0,0,0,0,0,0,0,0,0,0,0,0,0,0,0,0,0,0,0,0,0,0],"split_type":[0,0,0,0,0,0,0,0,0,0,0,0,0,0,0,0,0,0,0,0,0,0,0,0,0,0,0,0,0,0,0,0,0,0,0,0,0,0,0,0,0,0,0,0,0,0,0,0,0,0,0,0,0,0,0,0,0,0,0,0,0,0,0,0,0,0,0,0,0,0,0,0,0,0,0,0,0,0,0,0,0],"sum_hessian":[4.274E3,4.089E3,1.85E2,1.42E2,3.947E3,8E0,1.77E2,5.1E1,9.1E1,2.15E2,3.732E3,5E0,3E0,2.7E1,1.5E2,1.8E1,3.3E1,1.4E1,7.7E1,1.64E2,5.1E1,1.52E2,3.58E3,8E0,1.9E1,1.47E2,3E0,6E0,1.2E1,1E1,2.3E1,1E1,4E0,4.4E1,3.3E1,9.3E1,7.1E1,5E0,4.6E1,1E1,1.42E2,1.5E1,3.565E3,5E0,3E0,1.3E1,6E0,1.34E2,1.3E1,5E0,7E0,1.4E1,9E0,4E0,6E0,3.1E1,1.3E1,2.4E1,9E0,6.3E1,3E1,6E1,1.1E1,2.9E1,1.7E1,5E0,5E0,1.16E2,2.6E1,9E0,6E0,7.7E2,2.795E3,4E0,9E0,3E0,3E0,3E0,1.31E2,9E0,4E0],"tree_param":{"num_deleted":"0","num_feature":"22","num_nodes":"81","size_leaf_vector":"1"}},{"base_weights":[6.9538127E-3,5.7464782E-2,-1.5025839E0,1.03731E0,1.6559971E-2,-4.029301E0,-9.790881E-1,1.6168987E0,-4.692169E-1,-2.2126906E-1,1.1055194E-1,-7.1307964E0,-2.1628947E0,6.614333E-1,-1.6830333E0,-1.180682E0,1.7853041E0,-1.9295759E0,7.8203297E-1,-1.6555114E-1,-1.6253769E0,6.099941E-1,2.4297595E-2,-2.6754338E-2,-1.8537714E-1,-7.817847E-3,-5.640257E-2,8.143999E-2,3.8197994E-2,-2.3163373E0,2.0479545E-1,1.1862026E-2,-4.9347002E-2,7.908219E-1,2.4782684E0,-6.594017E-2,-5.0037134E-1,3.457079E-2,2.530614E-1,1.8147861E0,-2.037064E-1,6.3491625E-1,-2.1320298E0,3.188044E0,5.2990896E-1,-8.2358116E-1,7.403139E-2,3.704425E-2,-2.3744859E-1,-3.10578E0,-6.8485415E-1,2.762123E0,-2.2532125E0,-4.0566355E-2,1.7070746E-2,6.4938135E-2,3.132091E-2,2.060273E-2,-1.825449E-2,1.2412761E-2,-1.0698637E-2,-6.0652145E-3,5.8938924E-2,-5.685916E-3,2.3851793E-3,-1.4414544E-3,2.6813863E-2,-4.297052E-2,-9.518256E-3,7.9873174E-2,1.4285735E-2,6.328364E-3,3.0305078E-2,-5.772058E-2,-6.132154E-3,2.0635054E-2,3.930321E-4,-1.585318E-2,1.5810419E-2,-7.6211467E-3,-6.2563024E-2,5.444581E-2,-3.413461E-2,-0E0,8.1271924E-2,-4.481109E-2,-1.0827505E-2],"categories":[],"categories_nodes":[],"categories_segments":[],"categories_sizes":[],"default_left":[0,0,0,0,0,0,0,0,0,0,0,0,0,0,0,0,0,0,0,0,0,0,0,0,0,0,0,0,0,0,0,0,0,0,0,0,0,0,0,0,0,0,0,0,0,0,0,0,0,0,0,0,0,0,0,0,0,0,0,0,0,0,0,0,0,0,0,0,0,0,0,0,0,0,0,0,0,0,0,0,0,0,0,0,0,0,0],"id":13,"left_children":[1,3,5,7,9,11,13,15,17,19,21,23,25,27,29,31,33,35,37,39,41,43,45,-1,-1,-1,-1,-1,47,49,51,-1,-1,53,55,-1,57,-1,59,61,63,65,67,69,71,73,75,-1,77,79,81,83,85,-1,-1,-1,-1,-1,-1,-1,-1,-1,-1,-1,-1,-1,-1,-1,-1,-1,-1,-1,-1,-1,-1,-1,-1,-1,-1,-1,-1,-1,-1,-1,-1,-1,-1],"loss_changes":[3.2494885E2,1.6488379E2,1.7229916E2,1.4622173E2,8.893858E1,1.06276764E2,1.362718E2,5.929062E1,8.686961E1,8.54572E1,1.2237658E2,1.6765817E2,3.1471619E1,9.233074E1,1.011358E2,3.208954E1,7.247339E1,6.3948418E1,1.5216869E1,8.018918E1,5.1247147E1,8.012506E1,1.0206956E2,0E0,0E0,0E0,0E0,0E0,2.384317E1,7.2907715E1,1.3826056E2,0E0,0E0,5.1055176E1,3.6462677E1,0E0,1.9491388E1,0E0,1.0813717E1,9.197762E1,6.1312733E1,8.498747E0,2.7146942E1,4.0226494E1,6.790258E1,1.5921756E2,1.3901845E2,0E0,2.9160568E1,8.916281E1,1.4321529E2,7.782469E1,4.090397E0,0E0,0E0,0E0,0E0,0E0,0E0,0E0,0E0,0E0,0E0,0E0,0E0,0E0,0E0,0E0,0E0,0E0,0E0,0E0,0E0,0E0,0E0,0E0,0E0,0E0,0E0,0E0,0E0,0E0,0E0,0E0,0E0,0E0,0E0],"parents":[2147483647,0,0,1,1,2,2,3,3,4,4,5,5,6,6,7,7,8,8,9,9,10,10,11,11,12,12,13,13,14,14,15,15,16,16,17,17,18,18,19,19,20,20,21,21,22,22,28,28,29,29,30,30,33,33,34,34,36,36,38,38,39,39,40,40,41,41,42,42,43,43,44,44,45,45,46,46,48,48,49,49,50,50,51,51,52,52],"right_children":[2,4,6,8,10,12,14,16,18,20,22,24,26,28,30,32,34,36,38,40,42,44,46,-1,-1,-1,-1,-1,48,50,52,-1,-1,54,56,-1,58,-1,60,62,64,66,68,70,72,74,76,-1,78,80,82,84,86,-1,-1,-1,-1,-1,-1,-1,-1,-1,-1,-1,-1,-1,-1,-1,-1,-1,-1,-1,-1,-1,-1,-1,-1,-1,-1,-1,-1,-1,-1,-1,-1,-1,-1],"split_conditions":[5.02169E2,8.71E1,-1.1861444E-1,1.0268009E0,-1.1507483E-1,-1.646644E-1,-5.78545E-2,2.7564287E-1,1.2789869E0,9.412141E-1,-9.189293E-1,-1.2509052E-1,-1.9663451E0,2.131489E-1,6.956956E-2,8.61966E1,1.2669116E2,7.9726E1,7.845E1,-1.6424196E0,-1.9019498E0,-1.6424196E0,9.006E1,-2.6754338E-2,-1.8537714E-1,-7.817847E-3,-5.640257E-2,8.143999E-2,-2.4501993E-1,1.86802E6,5.504165E-2,1.1862026E-2,-4.9347002E-2,6.813683E-1,1.4709995E2,-6.594017E-2,-1.0661086E-1,3.457079E-2,9.0781136E1,-3.960452E-1,-7.070361E-3,-2.875138E0,1.218505E2,-2.1903276E-1,1.46498E2,3.3201727E-1,9.388E1,3.704425E-2,1.140576E-1,1.3676466E2,2.158918E6,1.4647226E-1,9.503714E-2,-4.0566355E-2,1.7070746E-2,6.4938135E-2,3.132091E-2,2.060273E-2,-1.825449E-2,1.2412761E-2,-1.0698637E-2,-6.0652145E-3,5.8938924E-2,-5.685916E-3,2.3851793E-3,-1.4414544E-3,2.6813863E-2,-4.297052E-2,-9.518256E-3,7.9873174E-2,1.4285735E-2,6.328364E-3,3.0305078E-2,-5.772058E-2,-6.132154E-3,2.0635054E-2,3.930321E-4,-1.585318E-2,1.5810419E-2,-7.6211467E-3,-6.2563024E-2,5.444581E-2,-3.413461E-2,-0E0,8.1271924E-2,-4.481109E-2,-1.0827505E-2],"split_indices":[21,2,12,18,12,17,12,15,16,9,16,6,18,15,12,0,21,0,0,17,18,17,3,0,0,0,0,0,9,4,20,0,0,15,21,0,6,0,21,20,7,18,0,9,0,15,0,0,9,8,4,16,7,0,0,0,0,0,0,0,0,0,0,0,0,0,0,0,0,0,0,0,0,0,0,0,0,0,0,0,0,0,0,0,0,0,0],"split_type":[0,0,0,0,0,0,0,0,0,0,0,0,0,0,0,0,0,0,0,0,0,0,0,0,0,0,0,0,0,0,0,0,0,0,0,0,0,0,0,0,0,0,0,0,0,0,0,0,0,0,0,0,0,0,0,0,0,0,0,0,0,0,0,0,0,0,0,0,0,0,0,0,0,0,0,0,0,0,0,0,0,0,0,0,0,0,0],"sum_hessian":[4.284E3,4.147E3,1.37E2,1.64E2,3.983E3,2.2E1,1.15E2,1.19E2,4.5E1,1.124E3,2.859E3,7E0,1.5E1,3.4E1,8.1E1,6E0,1.13E2,2.1E1,2.4E1,1.083E3,4.1E1,4.18E2,2.441E3,4E0,3E0,8E0,7E0,3E0,3.1E1,6.1E1,2E1,3E0,3E0,4.8E1,6.5E1,7E0,1.4E1,5E0,1.9E1,1.9E1,1.064E3,7E0,3.4E1,1.1E1,4.07E2,1.33E2,2.308E3,3E0,2.8E1,4E1,2.1E1,1E1,1E1,3E0,4.5E1,1.2E1,5.3E1,3E0,1.1E1,1.3E1,6E0,9E0,1E1,7.36E2,3.28E2,4E0,3E0,2.3E1,1.1E1,5E0,6E0,3.76E2,3.1E1,1.6E1,1.17E2,8.5E1,2.223E3,1.8E1,1E1,1.1E1,2.9E1,5E0,1.6E1,5E0,5E0,6E0,4E0],"tree_param":{"num_deleted":"0","num_feature":"22","num_nodes":"87","size_leaf_vector":"1"}},{"base_weights":[-1.7026799E-2,5.5992357E-2,-1.6581136E0,1.33064E0,7.267288E-3,-4.485273E0,-9.9452764E-1,5.699556E-2,1.9607112E0,-2.4010208E-1,1.2759604E-1,-2.2927063E0,-9.4258E0,-2.5397184E-1,-2.0992935E0,2.3127213E0,-1.0994897E0,8.027599E-1,2.9280417E0,1.4954021E0,-2.9245892E-1,1.5535817E-1,-1.748893E0,3.972492E-3,-3.3709478E0,-2.7154127E-1,-1.6719004E-2,8.1068504E-1,-1.2093941E0,-2.7913442E0,1.4464058E0,5.3671848E-2,-4.5661307E-3,-6.3047886E-2,-1.4572372E-1,1.1325903E0,-2.2399552E-2,3.4036784E0,6.9124126E-1,6.409066E-1,3.623956E0,-1.786723E-1,-6.128152E-1,-6.276963E-1,2.0562519E-1,2.3064863E-2,-2.1027448E0,-1.0574212E0,-5.441745E0,-0E0,8.8765725E-2,-2.5669484E0,3.8416095E-2,-3.897805E0,-1.2723638E0,7.161754E-2,-5.509708E-3,-1.2110717E-2,1.1321855E-2,1.9908939E-2,-3.530336E-3,5.949491E-2,2.0347163E-2,3.5283558E-2,-1.20679885E-2,-1.0337362E-2,1.5733516E-2,8.464609E-2,-1.40433E-3,2.0101327E-2,-3.4692811E-3,-1.7602885E-2,-1.7370443E-3,1.2360067E-2,-1.7974962E-2,2.6460044E-2,2.3448437E-3,-7.413649E-2,-1.9231172E-2,-3.989365E-2,-0E0,-1.1665222E-1,-3.2853328E-2,1.0960885E-2,-2.0789107E-2,-3.448815E-3,-6.4636044E-2,-1.0138822E-2,3.4219973E-2,-1.1365803E-2,-7.026483E-2,-0E0,-3.26835E-2],"categories":[],"categories_nodes":[],"categories_segments":[],"categories_sizes":[],"default_left":[0,0,0,0,0,0,0,0,0,0,0,0,0,0,0,0,0,0,0,0,0,0,0,0,0,0,0,0,0,0,0,0,0,0,0,0,0,0,0,0,0,0,0,0,0,0,0,0,0,0,0,0,0,0,0,0,0,0,0,0,0,0,0,0,0,0,0,0,0,0,0,0,0,0,0,0,0,0,0,0,0,0,0,0,0,0,0,0,0,0,0,0,0],"id":14,"left_children":[1,3,5,7,9,11,13,15,17,19,21,23,25,27,29,31,33,35,37,39,41,43,45,-1,47,-1,-1,49,51,53,55,-1,-1,-1,57,59,-1,61,63,65,67,69,71,73,75,-1,77,79,81,83,-1,85,87,89,91,-1,-1,-1,-1,-1,-1,-1,-1,-1,-1,-1,-1,-1,-1,-1,-1,-1,-1,-1,-1,-1,-1,-1,-1,-1,-1,-1,-1,-1,-1,-1,-1,-1,-1,-1,-1,-1,-1],"loss_changes":[5.1177692E2,2.5117313E2,3.3008453E2,1.1683734E2,1.16683784E2,3.3220062E2,1.18338196E2,1.3688744E2,1.03818756E2,1.1526739E2,1.3595247E2,7.3339035E1,6.214446E2,9.395755E1,1.5021454E2,5.7666435E1,8.928496E1,3.5814354E1,4.8847443E1,5.9530884E1,4.4262314E1,1.0219578E2,4.708686E1,0E0,7.21953E1,0E0,0E0,1.642721E2,8.625646E1,7.26084E1,6.32396E1,0E0,0E0,0E0,1.53981285E1,9.776714E0,0E0,2.5561554E1,2.8740479E1,1.4455401E1,7.381625E1,5.7960533E1,8.172042E1,1.1735683E2,1.9968242E2,0E0,6.731654E1,1.4687275E1,3.3471863E1,3.5780342E1,0E0,8.201204E1,4.1798397E1,4.372812E1,2.4029049E1,0E0,0E0,0E0,0E0,0E0,0E0,0E0,0E0,0E0,0E0,0E0,0E0,0E0,0E0,0E0,0E0,0E0,0E0,0E0,0E0,0E0,0E0,0E0,0E0,0E0,0E0,0E0,0E0,0E0,0E0,0E0,0E0,0E0,0E0,0E0,0E0,0E0,0E0],"parents":[2147483647,0,0,1,1,2,2,3,3,4,4,5,5,6,6,7,7,8,8,9,9,10,10,11,11,12,12,13,13,14,14,15,15,16,16,17,17,18,18,19,19,20,20,21,21,22,22,24,24,27,27,28,28,29,29,30,30,34,34,35,35,37,37,38,38,39,39,40,40,41,41,42,42,43,43,44,44,46,46,47,47,48,48,49,49,51,51,52,52,53,53,54,54],"right_children":[2,4,6,8,10,12,14,16,18,20,22,24,26,28,30,32,34,36,38,40,42,44,46,-1,48,-1,-1,50,52,54,56,-1,-1,-1,58,60,-1,62,64,66,68,70,72,74,76,-1,78,80,82,84,-1,86,88,90,92,-1,-1,-1,-1,-1,-1,-1,-1,-1,-1,-1,-1,-1,-1,-1,-1,-1,-1,-1,-1,-1,-1,-1,-1,-1,-1,-1,-1,-1,-1,-1,-1,-1,-1,-1,-1,-1,-1],"split_conditions":[4.7661023E2,8.72328E1,-1.17088675E-1,8.131962E1,-9.004917E-2,1.497E2,1.0588169E-3,7.84484E1,-1.7353011E0,-9.47063E-1,1.823184E2,5.126236E2,1.539E2,2.4012288E-1,3.5206234E-1,-4.828025E-2,6.380007E-1,-1.0266752E0,1.1922419E0,-1.0753075E0,8.802904E-2,9.006E1,4.1749328E-1,3.972492E-3,-2.921501E0,-2.7154127E-1,-1.6719004E-2,1.4663E2,2.792271E-1,6.7461886E-2,-2.4423141E-2,5.3671848E-2,-4.5661307E-3,-6.3047886E-2,7.663172E-2,8.996393E1,-2.2399552E-2,6.956956E-2,-2.1050839E-1,1.0133041E2,1.3849269E-1,3.3201727E-1,1.2376996E2,8.708383E1,9.348E1,2.3064863E-2,1.83925E2,-2.491467E-1,1.4135E2,1.3665E2,8.8765725E-2,2.525577E-1,1.0767923E-1,1.3711E2,7.1910776E-2,7.161754E-2,-5.509708E-3,-1.2110717E-2,1.1321855E-2,1.9908939E-2,-3.530336E-3,5.949491E-2,2.0347163E-2,3.5283558E-2,-1.20679885E-2,-1.0337362E-2,1.5733516E-2,8.464609E-2,-1.40433E-3,2.0101327E-2,-3.4692811E-3,-1.7602885E-2,-1.7370443E-3,1.2360067E-2,-1.7974962E-2,2.6460044E-2,2.3448437E-3,-7.413649E-2,-1.9231172E-2,-3.989365E-2,-0E0,-1.1665222E-1,-3.2853328E-2,1.0960885E-2,-2.0789107E-2,-3.448815E-3,-6.4636044E-2,-1.0138822E-2,3.4219973E-2,-1.1365803E-2,-7.026483E-2,-0E0,-3.26835E-2],"split_indices":[21,5,7,14,12,2,11,3,18,9,5,21,2,15,10,11,15,16,18,16,16,3,15,0,18,0,0,2,15,12,7,0,0,0,12,14,0,12,6,21,11,15,8,14,2,0,3,7,2,2,0,15,10,2,11,0,0,0,0,0,0,0,0,0,0,0,0,0,0,0,0,0,0,0,0,0,0,0,0,0,0,0,0,0,0,0,0,0,0,0,0,0,0],"split_type":[0,0,0,0,0,0,0,0,0,0,0,0,0,0,0,0,0,0,0,0,0,0,0,0,0,0,0,0,0,0,0,0,0,0,0,0,0,0,0,0,0,0,0,0,0,0,0,0,0,0,0,0,0,0,0,0,0,0,0,0,0,0,0,0,0,0,0,0,0,0,0,0,0,0,0,0,0,0,0,0,0,0,0,0,0,0,0,0,0,0,0,0,0],"sum_hessian":[4.252E3,4.071E3,1.81E2,1.48E2,3.923E3,3.3E1,1.48E2,5E1,9.8E1,1.28E3,2.643E3,2.4E1,9E0,9E1,5.8E1,1.7E1,3.3E1,4.6E1,5.2E1,3.6E1,1.244E3,2.606E3,3.7E1,7E0,1.7E1,4E0,5E0,4.2E1,4.8E1,4.9E1,9E0,1.2E1,5E0,7E0,2.6E1,4.1E1,5E0,4.2E1,1E1,2.7E1,9E0,9.22E2,3.22E2,1.55E2,2.451E3,3E0,3.4E1,9E0,8E0,3.7E1,5E0,2.3E1,2.5E1,2.7E1,2.2E1,3E0,6E0,1.6E1,1E1,3.8E1,3E0,3.4E1,8E0,5E0,5E0,5E0,2.2E1,6E0,3E0,2.5E1,8.97E2,1.57E2,1.65E2,4.1E1,1.14E2,8.6E1,2.365E3,7E0,2.7E1,3E0,6E0,4E0,4E0,2.5E1,1.2E1,1E1,1.3E1,1.9E1,6E0,5E0,2.2E1,9E0,1.3E1],"tree_param":{"num_deleted":"0","num_feature":"22","num_nodes":"93","size_leaf_vector":"1"}},{"base_weights":[-2.1867141E-2,2.9879637E-2,-1.5275419E0,1.1742266E0,-1.4069957E-2,-4.697753E0,-9.604974E-1,-5.1686388E-2,1.3244393E0,-6.7867184E-1,2.378819E-2,-1.0371991E0,-6.371958E0,-2.9095905E0,-5.38435E-1,1.8929791E0,-9.072994E-2,-2.4550189E-1,-1.975318E0,1.1118506E0,-1.6895566E-2,-3.178825E-2,-0E0,-1.2801079E-2,-7.704631E0,-1.5104816E0,-9.332285E-2,2.7293023E-1,-2.1379323E0,-3.717414E-2,2.0504675E0,9.250582E-1,-9.8680633E-1,1.7209782E-1,-9.4966775E-1,-1.1345977E-1,-1.2523726E0,-7.551466E-1,1.7058247E0,9.401006E-2,-2.3948736E-1,-1.8269062E-1,-5.6441694E-2,-7.21284E-2,-3.515644E-1,-4.6013862E-2,3.2629008E0,-8.693422E-2,-1.6098055E0,1.715113E-2,4.072079E-2,-3.2441574E-4,2.601889E-2,-4.7243137E-2,-1.1408513E-3,3.2920614E-2,-1.0949023E-3,-6.0686106E-3,-3.4838527E-2,4.9050994E-2,-2.5605526E-2,-3.5523377E-2,-4.5050294E-3,6.36149E-2,1.6286481E-2,9.559974E-3,-7.564842E-4,-2.1005847E-2,-2.0497255E-3,7.0935357E-3,-1.4097875E-2,-4.19212E-2,4.054865E-3,-0E0,9.014421E-2,-4.5230012E-2,-9.871619E-3],"categories":[],"categories_nodes":[],"categories_segments":[],"categories_sizes":[],"default_left":[0,0,0,0,0,0,0,0,0,0,0,0,0,0,0,0,0,0,0,0,0,0,0,0,0,0,0,0,0,0,0,0,0,0,0,0,0,0,0,0,0,0,0,0,0,0,0,0,0,0,0,0,0,0,0,0,0,0,0,0,0,0,0,0,0,0,0,0,0,0,0,0,0,0,0,0,0],"id":15,"left_children":[1,3,5,7,9,11,13,-1,15,17,19,21,23,25,27,29,31,33,35,37,39,-1,-1,-1,41,43,-1,45,47,-1,49,51,53,55,57,-1,59,61,63,65,67,-1,-1,-1,69,71,73,-1,75,-1,-1,-1,-1,-1,-1,-1,-1,-1,-1,-1,-1,-1,-1,-1,-1,-1,-1,-1,-1,-1,-1,-1,-1,-1,-1,-1,-1],"loss_changes":[3.3285986E2,2.0800627E2,2.4363354E2,1.0468881E2,1.00338806E2,1.126134E2,9.441102E1,0E0,1.2231671E2,1.1742227E2,1.6697624E2,7.836665E0,8.627661E1,7.180376E1,1.352548E2,7.622177E1,4.0041267E1,4.9069473E1,1.8310268E2,1.5320522E2,8.92022E1,0E0,0E0,0E0,1.1924567E2,4.9590416E1,0E0,6.90673E1,4.562796E1,0E0,4.7785614E1,1.6148005E1,4.04646E1,5.0603493E1,4.037671E1,0E0,8.4818634E1,1.94665E1,1.5257147E2,1.782937E2,1.4188907E2,0E0,0E0,0E0,6.725773E0,5.379572E1,5.7800697E1,0E0,3.395839E1,0E0,0E0,0E0,0E0,0E0,0E0,0E0,0E0,0E0,0E0,0E0,0E0,0E0,0E0,0E0,0E0,0E0,0E0,0E0,0E0,0E0,0E0,0E0,0E0,0E0,0E0,0E0,0E0],"parents":[2147483647,0,0,1,1,2,2,3,3,4,4,5,5,6,6,8,8,9,9,10,10,11,11,12,12,13,13,14,14,15,15,16,16,17,17,18,18,19,19,20,20,24,24,25,25,27,27,28,28,30,30,31,31,32,32,33,33,34,34,36,36,37,37,38,38,39,39,40,40,44,44,45,45,46,46,48,48],"right_children":[2,4,6,8,10,12,14,-1,16,18,20,22,24,26,28,30,32,34,36,38,40,-1,-1,-1,42,44,-1,46,48,-1,50,52,54,56,58,-1,60,62,64,66,68,-1,-1,-1,70,72,74,-1,76,-1,-1,-1,-1,-1,-1,-1,-1,-1,-1,-1,-1,-1,-1,-1,-1,-1,-1,-1,-1,-1,-1,-1,-1,-1,-1,-1,-1],"split_conditions":[5.02169E2,8.72328E1,-2.502912E-1,2.7564287E-1,9.002E1,1.4313E2,-1.2059729E-1,-5.1686388E-2,1.0268009E0,8.90664E1,9.358485E1,1.3938E2,-8.843114E-1,-5.7652915E-1,1.4555095E-2,-3.3372527E-1,9.0781136E1,1.8690355E2,3.5456178E-1,-1.3736536E-1,1.3640125E2,-3.178825E-2,-0E0,-1.2801079E-2,-2.4423141E-2,1.4139279E2,-9.332285E-2,1.0256147E-2,-1.9210155E-1,-3.717414E-2,1.2143709E2,3.134522E-2,7.97517E1,-5.798907E-1,3.5793576E-1,-1.1345977E-1,8.711008E1,9.039E1,5.089324E-1,5.12076E-1,3.7513217E-1,-1.8269062E-1,-5.6441694E-2,-7.21284E-2,5.224934E2,-1.1728524E0,1.753639E6,-8.693422E-2,1.44324E6,1.715113E-2,4.072079E-2,-3.2441574E-4,2.601889E-2,-4.7243137E-2,-1.1408513E-3,3.2920614E-2,-1.0949023E-3,-6.0686106E-3,-3.4838527E-2,4.9050994E-2,-2.5605526E-2,-3.5523377E-2,-4.5050294E-3,6.36149E-2,1.6286481E-2,9.559974E-3,-7.564842E-4,-2.1005847E-2,-2.0497255E-3,7.0935357E-3,-1.4097875E-2,-4.19212E-2,4.054865E-3,-0E0,9.014421E-2,-4.5230012E-2,-9.871619E-3],"split_indices":[21,5,9,15,0,0,7,0,18,5,14,0,16,20,11,12,21,21,15,20,8,0,0,0,7,14,0,12,16,0,21,7,5,10,16,0,8,3,15,15,15,0,0,0,21,17,4,0,4,0,0,0,0,0,0,0,0,0,0,0,0,0,0,0,0,0,0,0,0,0,0,0,0,0,0,0,0],"split_type":[0,0,0,0,0,0,0,0,0,0,0,0,0,0,0,0,0,0,0,0,0,0,0,0,0,0,0,0,0,0,0,0,0,0,0,0,0,0,0,0,0,0,0,0,0,0,0,0,0,0,0,0,0,0,0,0,0,0,0,0,0,0,0,0,0,0,0,0,0,0,0,0,0,0,0,0,0],"sum_hessian":[4.246E3,4.105E3,1.41E2,1.52E2,3.953E3,2E1,1.21E2,4E0,1.48E2,2.14E2,3.739E3,7E0,1.3E1,2E1,1.01E2,1.06E2,4.2E1,1.62E2,5.2E1,1.35E2,3.604E3,3E0,4E0,3E0,1E1,1.5E1,5E0,6.7E1,3.4E1,3E0,1.03E2,1.9E1,2.3E1,1.01E2,6.1E1,5E0,4.7E1,3.2E1,1.03E2,2.402E3,1.202E3,4E0,6E0,3E0,1.2E1,6.1E1,6E0,3E0,3.1E1,4E1,6.3E1,8E0,1.1E1,6E0,1.7E1,1.1E1,9E1,4.4E1,1.7E1,3E0,4.4E1,6E0,2.6E1,2.1E1,8.2E1,5.19E2,1.883E3,1.05E2,1.097E3,4E0,8E0,6E0,5.5E1,3E0,3E0,1.2E1,1.9E1],"tree_param":{"num_deleted":"0","num_feature":"22","num_nodes":"77","size_leaf_vector":"1"}},{"base_weights":[2.656426E-2,8.142683E-2,-1.3276924E0,1.3301797E0,3.4975175E-2,-1.555505E-1,-2.1229796E0,1.9374992E0,-1.7428915E-1,-8.01868E-1,8.162917E-2,-5.9455043E-1,8.25016E-2,-3.5020814E0,-9.38335E-1,2.3216767E0,5.812559E-1,-8.6747456E-1,1.746274E0,-1.8553154E0,-2.0053688E-1,1.0822684E0,4.47604E-2,4.8609164E-1,-1.961256E0,-4.564613E0,-1.64996E0,8.814134E-2,-1.4566474E0,-1.0508467E-2,2.5047207E0,9.052038E-1,-1.6137278E-2,-2.6755562E0,1.3669634E-2,3.631234E-2,-0E0,-1.4337122E0,-9.720968E-2,5.700433E-1,-1.1131248E0,-2.0557438E-1,1.9222589E0,-1.8666103E-1,1.5355122E-1,1.4190029E0,-1.8502052E-1,-3.3230376E0,-5.729738E-1,-6.828413E0,-2.7705503E0,6.2344726E-3,-2.1723688E0,-2.507081E0,-0E0,2.3277976E-2,4.7444206E-2,7.5514484E-3,3.1215776E-2,-6.363341E-2,7.253906E-3,2.725042E-2,-6.1395285E-3,-8.693649E-3,-3.5646856E-2,1.7133962E-2,-7.457357E-3,-8.090116E-3,-4.73228E-2,-5.3336482E-2,2.7836068E-3,9.1025926E-2,1.0548658E-2,-1.7355995E-3,-1.7537057E-2,8.640516E-3,8.105025E-4,3.682592E-3,2.8428826E-2,-1.0564401E-2,4.597113E-3,-1.8635878E-2,-6.620672E-2,1.4405255E-2,-2.640731E-2,-1.23025075E-1,-4.2740956E-2,-6.505782E-3,-7.3144004E-2,-9.285779E-3,-4.718354E-2,-1.1235425E-2,-6.8915725E-2,1.4981396E-2,-5.157617E-2],"categories":[],"categories_nodes":[],"categories_segments":[],"categories_sizes":[],"default_left":[0,0,0,0,0,0,0,0,0,0,0,0,0,0,0,0,0,0,0,0,0,0,0,0,0,0,0,0,0,0,0,0,0,0,0,0,0,0,0,0,0,0,0,0,0,0,0,0,0,0,0,0,0,0,0,0,0,0,0,0,0,0,0,0,0,0,0,0,0,0,0,0,0,0,0,0,0,0,0,0,0,0,0,0,0,0,0,0,0,0,0,0,0,0,0],"id":16,"left_children":[1,3,5,7,9,11,13,15,17,19,21,23,-1,25,27,29,31,33,35,37,39,41,43,45,47,49,51,-1,53,-1,55,57,-1,59,61,-1,-1,63,-1,65,67,69,71,73,75,77,79,81,83,85,87,-1,89,91,93,-1,-1,-1,-1,-1,-1,-1,-1,-1,-1,-1,-1,-1,-1,-1,-1,-1,-1,-1,-1,-1,-1,-1,-1,-1,-1,-1,-1,-1,-1,-1,-1,-1,-1,-1,-1,-1,-1,-1,-1],"loss_changes":[3.130045E2,2.3428946E2,1.4959735E2,1.35022E2,1.5241595E2,1.5930508E2,1.4957547E2,4.915732E1,5.616178E1,1.2747386E2,1.357834E2,9.724722E1,0E0,7.136511E1,1.866127E2,4.7781616E1,1.3780055E1,5.435073E1,9.6487465E0,1.1804294E2,9.479312E1,1.4423575E2,9.0392456E1,2.4339916E1,4.792663E1,7.9167786E1,2.23166E1,0E0,8.0144356E1,0E0,3.1072388E1,6.021961E0,0E0,5.4639557E1,1.7867079E1,0E0,0E0,4.6550674E1,0E0,4.108987E1,6.466285E1,6.8798676E1,3.7755423E2,7.924649E1,9.868187E1,4.5502853E0,5.622207E0,1.5515167E1,2.917443E1,1.3089294E1,6.804878E1,0E0,1.3718559E1,9.256221E1,7.060828E1,0E0,0E0,0E0,0E0,0E0,0E0,0E0,0E0,0E0,0E0,0E0,0E0,0E0,0E0,0E0,0E0,0E0,0E0,0E0,0E0,0E0,0E0,0E0,0E0,0E0,0E0,0E0,0E0,0E0,0E0,0E0,0E0,0E0,0E0,0E0,0E0,0E0,0E0,0E0,0E0],"parents":[2147483647,0,0,1,1,2,2,3,3,4,4,5,5,6,6,7,7,8,8,9,9,10,10,11,11,13,13,14,14,15,15,16,16,17,17,18,18,19,19,20,20,21,21,22,22,23,23,24,24,25,25,26,26,28,28,30,30,31,31,33,33,34,34,37,37,39,39,40,40,41,41,42,42,43,43,44,44,45,45,46,46,47,47,48,48,49,49,50,50,52,52,53,53,54,54],"right_children":[2,4,6,8,10,12,14,16,18,20,22,24,-1,26,28,30,32,34,36,38,40,42,44,46,48,50,52,-1,54,-1,56,58,-1,60,62,-1,-1,64,-1,66,68,70,72,74,76,78,80,82,84,86,88,-1,90,92,94,-1,-1,-1,-1,-1,-1,-1,-1,-1,-1,-1,-1,-1,-1,-1,-1,-1,-1,-1,-1,-1,-1,-1,-1,-1,-1,-1,-1,-1,-1,-1,-1,-1,-1,-1,-1,-1,-1,-1,-1],"split_conditions":[4.8824316E2,8.7205E1,2.4012288E-1,1.0268009E0,9.006E1,1.47105E2,1.441015E2,8.7838776E1,3.926899E-1,4.7357517E-1,9.3694756E1,1.3693E2,8.25016E-2,3.915427E-2,1.454812E2,7.808953E1,6.593118E6,8.01658E1,5.436123E-1,8.93998E1,7.7918637E-1,-5.42411E-2,-9.799645E-2,-5.591865E-2,1.4380762E2,1.8261E6,1.276635E2,8.814134E-2,3.3782402E-1,-1.0508467E-2,1.1939423E2,8.833339E1,-1.6137278E-2,8.636797E-2,-4.8163274E-1,3.631234E-2,-0E0,2.8884321E-2,-9.720968E-2,1.4709995E2,1.0841837E2,2.792271E-1,4.639702E-1,3.697598E2,-2.9462574E-2,2.2166215E-1,2.5175327E-2,1.28146E6,1.448793E2,-4.8294075E-2,3.070815E6,6.2344726E-3,-9.5230095E-2,1.4896036E2,1.836849E2,2.3277976E-2,4.7444206E-2,7.5514484E-3,3.1215776E-2,-6.363341E-2,7.253906E-3,2.725042E-2,-6.1395285E-3,-8.693649E-3,-3.5646856E-2,1.7133962E-2,-7.457357E-3,-8.090116E-3,-4.73228E-2,-5.3336482E-2,2.7836068E-3,9.1025926E-2,1.0548658E-2,-1.7355995E-3,-1.7537057E-2,8.640516E-3,8.105025E-4,3.682592E-3,2.8428826E-2,-1.0564401E-2,4.597113E-3,-1.8635878E-2,-6.620672E-2,1.4405255E-2,-2.640731E-2,-1.23025075E-1,-4.2740956E-2,-6.505782E-3,-7.3144004E-2,-9.285779E-3,-4.718354E-2,-1.1235425E-2,-6.8915725E-2,1.4981396E-2,-5.157617E-2],"split_indices":[21,0,15,18,3,0,2,14,9,15,8,2,0,9,8,14,4,1,17,3,15,12,12,12,8,4,0,0,15,0,21,8,0,7,17,0,0,12,0,21,21,15,15,21,12,15,9,4,3,7,4,0,12,8,14,0,0,0,0,0,0,0,0,0,0,0,0,0,0,0,0,0,0,0,0,0,0,0,0,0,0,0,0,0,0,0,0,0,0,0,0,0,0,0,0],"split_type":[0,0,0,0,0,0,0,0,0,0,0,0,0,0,0,0,0,0,0,0,0,0,0,0,0,0,0,0,0,0,0,0,0,0,0,0,0,0,0,0,0,0,0,0,0,0,0,0,0,0,0,0,0,0,0,0,0,0,0,0,0,0,0,0,0,0,0,0,0,0,0,0,0,0,0,0,0,0,0,0,0,0,0,0,0,0,0,0,0,0,0,0,0,0,0],"sum_hessian":[4.232E3,4.069E3,1.63E2,1.44E2,3.925E3,6.7E1,9.6E1,1.03E2,4.1E1,2.05E2,3.72E3,6.3E1,4E0,4.3E1,5.3E1,7.9E1,2.4E1,3.1E1,1E1,7.3E1,1.32E2,1.3E2,3.59E3,3.5E1,2.8E1,2.6E1,1.7E1,3E0,5E1,4E0,7.5E1,2.1E1,3E0,1E1,2.1E1,7E0,3E0,6.8E1,5E0,7.1E1,6.1E1,5.1E1,7.9E1,1.144E3,2.446E3,1.5E1,2E1,1.3E1,1.5E1,1E1,1.6E1,3E0,1.4E1,2.9E1,2.1E1,2.8E1,4.7E1,1.7E1,4E0,7E0,3E0,4E0,1.7E1,3.5E1,3.3E1,4.8E1,2.3E1,4.8E1,1.3E1,5E0,4.6E1,1.8E1,6.1E1,1.061E3,8.3E1,4.92E2,1.954E3,5E0,1E1,1.1E1,9E0,5E0,8E0,6E0,9E0,7E0,3E0,8E0,8E0,6E0,8E0,1.6E1,1.3E1,1.7E1,4E0],"tree_param":{"num_deleted":"0","num_feature":"22","num_nodes":"95","size_leaf_vector":"1"}},{"base_weights":[-8.968508E-3,-1.1221589E0,4.7124255E-2,-8.9509594E-1,-1.8759552E-1,9.382837E-1,6.964403E-4,2.1518166E-1,-2.3258774E0,1.3682593E0,-1.7316766E-1,-1.0043677E0,4.0796857E-2,-2.7423837E0,5.724326E-1,-3.7125807E0,3.005283E-1,1.489563E0,-7.0829564E-1,-2.1808963E0,9.099178E-1,-2.5987203E0,-6.569808E-1,1.1034217E0,-1.3410273E-3,1.1535761E-2,-6.4471506E-2,1.4110246E-1,1.9954449E0,-2.253345E-3,-4.255641E0,9.068822E-2,-4.4263956E-1,1.1985248E0,2.6299243E0,-2.325921E-2,-0E0,-5.7311855E-2,-1.3628864E0,3.2247934E-2,4.6279278E-1,-1.335907E0,-8.586607E-2,-6.9678925E-2,-4.7949782E-1,3.196114E0,3.713422E-1,-1.183462E0,1.9777972E-2,8.546446E-3,-2.2508778E-2,7.26577E-2,7.338203E-3,-4.265349E-2,-1.05402514E-1,2.2335835E-2,-3.14946E-2,1.5262446E-2,5.407688E-2,5.360978E-2,-0E0,-4.02366E-2,-2.0468722E-3,-1.7165473E-3,2.100184E-2,-3.1431515E-2,1.1071817E-2,3.262727E-2,-1.0896788E-2,-4.937627E-3,8.596821E-2,-5.387689E-3,1.7039904E-2,-6.1235163E-2,-7.908982E-3,2.0161187E-3,-2.6661432E-3],"categories":[],"categories_nodes":[],"categories_segments":[],"categories_sizes":[],"default_left":[0,0,0,0,0,0,0,0,0,0,0,0,0,0,0,0,0,0,0,0,0,0,0,0,0,0,0,0,0,0,0,0,0,0,0,0,0,0,0,0,0,0,0,0,0,0,0,0,0,0,0,0,0,0,0,0,0,0,0,0,0,0,0,0,0,0,0,0,0,0,0,0,0,0,0,0,0],"id":17,"left_children":[1,3,5,7,-1,9,11,13,15,17,19,21,23,25,27,29,31,33,35,37,39,41,43,45,47,-1,-1,49,51,-1,53,-1,55,57,59,-1,-1,-1,61,-1,63,65,-1,-1,67,69,71,73,75,-1,-1,-1,-1,-1,-1,-1,-1,-1,-1,-1,-1,-1,-1,-1,-1,-1,-1,-1,-1,-1,-1,-1,-1,-1,-1,-1,-1],"loss_changes":[2.641188E2,4.7543073E2,1.6449855E2,3.2081622E2,0E0,9.587958E1,1.5231741E2,1.1805224E2,3.2575488E2,3.8012848E1,1.2300772E2,7.448457E1,1.6551913E2,6.502941E1,5.9568783E1,1.0606732E2,1.3607507E2,3.7215668E1,4.785959E0,1.312632E1,1.4436605E1,7.572096E1,7.336562E1,2.102361E2,8.9515495E1,0E0,0E0,5.1065514E1,8.446615E1,0E0,1.6028339E2,0E0,8.600862E1,4.6548553E1,5.592743E1,0E0,0E0,0E0,1.8584492E1,0E0,1.5860317E1,2.9314014E1,0E0,0E0,6.5345764E1,3.003126E2,5.6016693E1,1.0915721E2,7.218559E1,0E0,0E0,0E0,0E0,0E0,0E0,0E0,0E0,0E0,0E0,0E0,0E0,0E0,0E0,0E0,0E0,0E0,0E0,0E0,0E0,0E0,0E0,0E0,0E0,0E0,0E0,0E0,0E0],"parents":[2147483647,0,0,1,1,2,2,3,3,5,5,6,6,7,7,8,8,9,9,10,10,11,11,12,12,13,13,14,14,15,15,16,16,17,17,18,18,19,19,20,20,21,21,22,22,23,23,24,24,27,27,28,28,30,30,32,32,33,33,34,34,38,38,40,40,41,41,44,44,45,45,46,46,47,47,48,48],"right_children":[2,4,6,8,-1,10,12,14,16,18,20,22,24,26,28,30,32,34,36,38,40,42,44,46,48,-1,-1,50,52,-1,54,-1,56,58,60,-1,-1,-1,62,-1,64,66,-1,-1,68,70,72,74,76,-1,-1,-1,-1,-1,-1,-1,-1,-1,-1,-1,-1,-1,-1,-1,-1,-1,-1,-1,-1,-1,-1,-1,-1,-1,-1,-1,-1],"split_conditions":[2.928942E-1,1.4890996E2,8.75124E1,1.3693E2,-1.8759552E-1,1.0268009E0,9.006E1,9.072424E1,1.445325E2,8.78975E1,1.1258918E0,4.0362796E-1,9.401523E1,8.619E1,6.6885375E-3,-1.6352771E-1,1.4545226E2,4.528268E-2,-1.3334201E-1,3.85286E-2,1.5431951E0,8.93998E1,-2.0444508E0,5.089324E-1,9.475472E1,1.1535761E-2,-6.4471506E-2,2.5210774E-1,1.5511E6,-2.253345E-3,2.525577E-1,9.068822E-2,-1.3685091E-1,8.7358E1,8.6892E1,-2.325921E-2,-0E0,-5.7311855E-2,4.3163902E-1,3.2247934E-2,2.0727149E-1,3.1775677E-1,-8.586607E-2,-6.9678925E-2,-1.2691798E0,-4.07462E-2,1.358706E-1,6.0536784E-1,1.3612544E2,8.546446E-3,-2.2508778E-2,7.26577E-2,7.338203E-3,-4.265349E-2,-1.05402514E-1,2.2335835E-2,-3.14946E-2,1.5262446E-2,5.407688E-2,5.360978E-2,-0E0,-4.02366E-2,-2.0468722E-3,-1.7165473E-3,2.100184E-2,-3.1431515E-2,1.1071817E-2,3.262727E-2,-1.0896788E-2,-4.937627E-3,8.596821E-2,-5.387689E-3,1.7039904E-2,-6.1235163E-2,-7.908982E-3,2.0161187E-3,-2.6661432E-3],"split_indices":[15,13,2,2,0,18,3,8,2,3,16,15,14,3,7,7,13,20,7,7,18,3,16,15,8,0,0,16,4,0,15,0,16,2,2,0,0,0,15,0,9,20,0,0,16,12,7,15,14,0,0,0,0,0,0,0,0,0,0,0,0,0,0,0,0,0,0,0,0,0,0,0,0,0,0,0,0],"split_type":[0,0,0,0,0,0,0,0,0,0,0,0,0,0,0,0,0,0,0,0,0,0,0,0,0,0,0,0,0,0,0,0,0,0,0,0,0,0,0,0,0,0,0,0,0,0,0,0,0,0,0,0,0,0,0,0,0,0,0,0,0,0,0,0,0,0,0,0,0,0,0,0,0,0,0,0,0],"sum_hessian":[4.206E3,2.02E2,4.004E3,1.99E2,3E0,1.96E2,3.808E3,1.12E2,8.7E1,1.42E2,5.4E1,1.44E2,3.664E3,1.1E1,1.01E2,5.7E1,3E1,1.35E2,7E0,1.9E1,3.5E1,2.4E1,1.2E2,1.4E2,3.524E3,3E0,8E0,7.9E1,2.2E1,8E0,4.9E1,3E0,2.7E1,1.1E2,2.5E1,3E0,4E0,5E0,1.4E1,8E0,2.7E1,1.8E1,6E0,4E0,1.16E2,3.5E1,1.05E2,6.2E1,3.462E3,6.4E1,1.5E1,7E0,1.5E1,3.2E1,1.7E1,1.2E1,1.5E1,1.02E2,8E0,1.9E1,6E0,6E0,8E0,1.6E1,1.1E1,1.4E1,4E0,8E0,1.08E2,1.4E1,2.1E1,5.2E1,5.3E1,1.1E1,5.1E1,2.204E3,1.258E3],"tree_param":{"num_deleted":"0","num_feature":"22","num_nodes":"77","size_leaf_vector":"1"}},{"base_weights":[-3.935797E-2,7.5746938E-3,-1.6711277E0,9.24259E-1,-2.5325399E-2,-7.809309E0,-1.2715375E0,1.5166692E0,-8.115679E-1,-7.948825E-1,1.9109525E-2,-2.000283E-1,-9.335652E-3,-4.0284753E0,-8.0195844E-1,-2.195799E0,1.7657597E0,-2.035213E0,6.7069465E-1,-3.8098478E0,-4.687891E-1,1.1889616E0,-2.6833002E-2,-2.9407341E-3,-4.805192E0,-1.3283738E-1,-2.8384814E0,-4.648619E-3,-5.0578486E-2,3.0789726E0,1.2190181E0,-6.2256828E-2,-6.9107145E-1,-5.654652E-4,2.26241E-2,3.3623038E-3,-4.565422E0,3.6381924E-1,-9.006251E-1,2.9414828E0,4.9886233E-1,1.4900789E0,-3.8499314E-2,-2.0885427E-2,-5.5937676E0,-1.1360207E0,1.9096054E0,5.766375E-1,-6.799419E-2,5.2136008E-2,1.4199773E-2,1.1860281E-2,3.72072E-2,-2.4721924E-2,8.537665E-3,-4.8190895E-2,-1.0669244E-1,1.6731668E-2,-9.994125E-3,4.1272496E-3,-1.9358438E-2,-7.6537733E-3,1.0096679E-1,-6.0280496E-3,1.7788988E-2,5.1678278E-2,-1.506059E-3,-8.175451E-3,-3.8994793E-5,-3.2830976E-2,-1.0344026E-1,3.8953396E-3,-4.2080652E-2,-1.0629923E-2,5.8860555E-2,-3.1765134E-3,2.103007E-2],"categories":[],"categories_nodes":[],"categories_segments":[],"categories_sizes":[],"default_left":[0,0,0,0,0,0,0,0,0,0,0,0,0,0,0,0,0,0,0,0,0,0,0,0,0,0,0,0,0,0,0,0,0,0,0,0,0,0,0,0,0,0,0,0,0,0,0,0,0,0,0,0,0,0,0,0,0,0,0,0,0,0,0,0,0,0,0,0,0,0,0,0,0,0,0,0,0],"id":18,"left_children":[1,3,5,7,9,11,13,15,17,19,21,-1,-1,23,25,27,29,31,33,35,37,39,41,-1,43,45,47,-1,-1,49,51,-1,53,-1,-1,-1,55,57,59,61,63,65,67,-1,69,71,73,75,-1,-1,-1,-1,-1,-1,-1,-1,-1,-1,-1,-1,-1,-1,-1,-1,-1,-1,-1,-1,-1,-1,-1,-1,-1,-1,-1,-1,-1],"loss_changes":[3.2861594E2,1.26152275E2,2.7312793E2,1.511296E2,1.3778831E2,2.2649963E2,1.3825601E2,1.0388454E2,7.006629E1,2.090628E2,2.0473125E2,0E0,0E0,4.0310577E1,1.3066953E2,8.330997E0,6.48389E1,4.6402794E1,1.119643E1,7.023126E1,7.289195E1,1.682896E2,6.2573235E1,0E0,1.9402466E1,1.5668806E2,1.3142337E2,0E0,0E0,8.0946045E0,3.4332764E1,0E0,1.7577839E1,0E0,0E0,0E0,2.7443878E1,4.953628E1,5.4195564E1,4.9440207E2,6.0927986E1,8.230122E1,6.243537E1,0E0,1.1470001E1,1.1609573E2,1.2675998E2,6.5091333E0,0E0,0E0,0E0,0E0,0E0,0E0,0E0,0E0,0E0,0E0,0E0,0E0,0E0,0E0,0E0,0E0,0E0,0E0,0E0,0E0,0E0,0E0,0E0,0E0,0E0,0E0,0E0,0E0,0E0],"parents":[2147483647,0,0,1,1,2,2,3,3,4,4,5,5,6,6,7,7,8,8,9,9,10,10,13,13,14,14,15,15,16,16,17,17,18,18,19,19,20,20,21,21,22,22,24,24,25,25,26,26,29,29,30,30,32,32,36,36,37,37,38,38,39,39,40,40,41,41,42,42,44,44,45,45,46,46,47,47],"right_children":[2,4,6,8,10,12,14,16,18,20,22,-1,-1,24,26,28,30,32,34,36,38,40,42,-1,44,46,48,-1,-1,50,52,-1,54,-1,-1,-1,56,58,60,62,64,66,68,-1,70,72,74,76,-1,-1,-1,-1,-1,-1,-1,-1,-1,-1,-1,-1,-1,-1,-1,-1,-1,-1,-1,-1,-1,-1,-1,-1,-1,-1,-1,-1,-1],"split_conditions":[5.224934E2,8.7205E1,-2.2863053E-1,9.690322E-1,9.006E1,-1.3579214E-1,-2.502912E-1,2.7564287E-1,1.4122472E0,3.3201727E-1,9.401523E1,-2.000283E-1,-9.335652E-3,5.357178E2,1.9781888E-2,8.64305E1,4.5225534E-1,7.9726E1,1.2454151E0,2.5173682E-3,8.75124E1,4.6123335E-1,2.7564287E-1,-2.9407341E-3,2.2166215E-1,1.44936E2,1.37306E2,-4.648619E-3,-5.0578486E-2,1.3091148E0,-9.328153E-3,-6.2256828E-2,4.7821708E-2,-5.654652E-4,2.26241E-2,3.3623038E-3,8.83585E1,-9.914302E-4,8.774571E1,-5.42411E-2,1.0366262E0,1.2222713E2,3.6635643E-1,-2.0885427E-2,-6.144877E-2,1.36954E2,-7.794883E-2,1.3615546E2,-6.799419E-2,5.2136008E-2,1.4199773E-2,1.1860281E-2,3.72072E-2,-2.4721924E-2,8.537665E-3,-4.8190895E-2,-1.0669244E-1,1.6731668E-2,-9.994125E-3,4.1272496E-3,-1.9358438E-2,-7.6537733E-3,1.0096679E-1,-6.0280496E-3,1.7788988E-2,5.1678278E-2,-1.506059E-3,-8.175451E-3,-3.8994793E-5,-3.2830976E-2,-1.0344026E-1,3.8953396E-3,-4.2080652E-2,-1.0629923E-2,5.8860555E-2,-3.1765134E-3,2.103007E-2],"split_indices":[21,0,7,18,3,10,9,15,16,15,14,0,0,21,7,0,15,0,15,11,2,15,15,0,15,0,0,0,0,17,7,0,10,0,0,0,1,7,8,11,16,14,15,0,11,0,7,8,0,0,0,0,0,0,0,0,0,0,0,0,0,0,0,0,0,0,0,0,0,0,0,0,0,0,0,0,0],"split_type":[0,0,0,0,0,0,0,0,0,0,0,0,0,0,0,0,0,0,0,0,0,0,0,0,0,0,0,0,0,0,0,0,0,0,0,0,0,0,0,0,0,0,0,0,0,0,0,0,0,0,0,0,0,0,0,0,0,0,0,0,0,0,0,0,0,0,0,0,0,0,0,0,0,0,0,0,0],"sum_hessian":[4.262E3,4.143E3,1.19E2,1.44E2,3.999E3,6E0,1.13E2,1.08E2,3.6E1,2.19E2,3.78E3,3E0,3E0,1.5E1,9.8E1,6E0,1.02E2,2E1,1.6E1,2E1,1.99E2,1.43E2,3.637E3,3E0,1.2E1,7.5E1,2.3E1,3E0,3E0,2.8E1,7.4E1,7E0,1.3E1,8E0,8E0,3E0,1.7E1,6.7E1,1.32E2,3.9E1,1.04E2,2.6E1,3.611E3,3E0,9E0,5.1E1,2.4E1,7E0,1.6E1,2.4E1,4E0,5.5E1,1.9E1,8E0,5E0,1.2E1,5E0,4E1,2.7E1,2.9E1,1.03E2,2E1,1.9E1,4.3E1,6.1E1,1.2E1,1.4E1,2.46E2,3.365E3,3E0,6E0,2.7E1,2.4E1,1E1,1.4E1,3E0,4E0],"tree_param":{"num_deleted":"0","num_feature":"22","num_nodes":"77","size_leaf_vector":"1"}},{"base_weights":[3.4280263E-3,6.5542676E-2,-1.6392508E0,1.0347666E0,3.367387E-2,-4.4766183E0,-9.9218047E-1,1.860482E0,-8.6042814E-2,1.2022614E-1,-1.5642E-1,-6.110776E0,-3.3627762E-3,-4.199446E0,-5.153402E-1,8.9518386E-1,3.4073627E0,-2.1331148E0,5.0324094E-1,5.1598325E-2,1.206927E0,-3.3208528E-1,4.5691496E-1,-8.773782E0,-1.7630366E0,-4.6111012E-1,-9.801975E-2,2.2161272E-1,-1.9916711E0,1.8325897E0,-5.63584E-1,1.7334865E0,4.877174E0,-4.916151E-2,-9.987862E-3,2.7079183E-1,3.7585523E-2,2.5252825E-1,-1.7569953E-1,6.952413E-2,1.0890055E0,-1.3497579E0,-2.0454794E-1,1.3280098E0,-9.2747204E-2,-3.0507185E-2,-1.6712238E-1,6.697995E-4,-5.445912E-2,2.4694127E-3,-2.0196244E-2,-6.702495E-1,1.4819821E0,-3.358417E0,-7.9159915E-1,5.7844765E-2,1.45255895E-2,-6.1054286E-2,1.8351719E-2,3.6955547E-2,-4.3440224E-3,8.787183E-2,2.0149037E-2,8.7869335E-3,-1.2664415E-2,1.5028778E-2,1.9345031E-4,-5.995151E-3,5.8938693E-3,1.4692213E-2,5.1285952E-2,-9.278951E-3,-5.1416516E-2,-2.287218E-2,-8.315155E-4,2.6234312E-2,2.7054965E-3,7.917245E-3,-9.299904E-3,-8.978079E-4,-6.802037E-2,-2.1583124E-3,7.363662E-2,-0E0,-6.2328987E-2,2.42219E-2,-3.235777E-2],"categories":[],"categories_nodes":[],"categories_segments":[],"categories_sizes":[],"default_left":[0,0,0,0,0,0,0,0,0,0,0,0,0,0,0,0,0,0,0,0,0,0,0,0,0,0,0,0,0,0,0,0,0,0,0,0,0,0,0,0,0,0,0,0,0,0,0,0,0,0,0,0,0,0,0,0,0,0,0,0,0,0,0,0,0,0,0,0,0,0,0,0,0,0,0,0,0,0,0,0,0,0,0,0,0,0,0],"id":19,"left_children":[1,3,5,7,9,11,13,15,17,19,21,23,-1,25,27,29,31,33,35,37,39,41,43,45,47,49,-1,51,53,55,57,59,61,-1,-1,63,-1,65,67,-1,69,71,73,75,77,-1,-1,-1,-1,-1,-1,79,81,83,85,-1,-1,-1,-1,-1,-1,-1,-1,-1,-1,-1,-1,-1,-1,-1,-1,-1,-1,-1,-1,-1,-1,-1,-1,-1,-1,-1,-1,-1,-1,-1,-1],"loss_changes":[4.3121527E2,1.2498907E2,2.7141562E2,1.2176709E2,6.519057E1,1.8526624E2,1.8604971E2,1.0350018E2,6.939718E1,2.0184647E2,1.331475E2,2.0277478E2,0E0,1.1270499E2,1.2448967E2,6.8178955E1,5.225412E1,1.2888847E1,1.4964922E1,1.1746707E2,4.99243E1,1.2272715E2,1.3287057E2,1.21531006E2,3.246876E1,5.2367945E0,0E0,8.623485E1,5.4398026E1,4.138993E1,1.1826193E2,2.2389534E1,2.190207E1,0E0,0E0,1.2751375E1,0E0,2.3194495E2,1.3890018E2,0E0,4.2534195E1,1.487629E2,1.616325E2,4.093515E1,5.110832E1,0E0,0E0,0E0,0E0,0E0,0E0,9.3420944E1,1.7403467E2,3.1331528E1,6.966557E1,0E0,0E0,0E0,0E0,0E0,0E0,0E0,0E0,0E0,0E0,0E0,0E0,0E0,0E0,0E0,0E0,0E0,0E0,0E0,0E0,0E0,0E0,0E0,0E0,0E0,0E0,0E0,0E0,0E0,0E0,0E0,0E0],"parents":[2147483647,0,0,1,1,2,2,3,3,4,4,5,5,6,6,7,7,8,8,9,9,10,10,11,11,13,13,14,14,15,15,16,16,17,17,18,18,19,19,20,20,21,21,22,22,23,23,24,24,25,25,27,27,28,28,29,29,30,30,31,31,32,32,35,35,37,37,38,38,40,40,41,41,42,42,43,43,44,44,51,51,52,52,53,53,54,54],"right_children":[2,4,6,8,10,12,14,16,18,20,22,24,-1,26,28,30,32,34,36,38,40,42,44,46,48,50,-1,52,54,56,58,60,62,-1,-1,64,-1,66,68,-1,70,72,74,76,78,-1,-1,-1,-1,-1,-1,80,82,84,86,-1,-1,-1,-1,-1,-1,-1,-1,-1,-1,-1,-1,-1,-1,-1,-1,-1,-1,-1,-1,-1,-1,-1,-1,-1,-1,-1,-1,-1,-1,-1,-1],"split_conditions":[5.02169E2,8.711008E1,-1.1078647E-1,1.3341398E0,1.3630074E2,7.724913E-2,-2.502912E-1,8.623606E1,1.2789869E0,1.3466049E2,1.6103333E-1,3.9086495E-2,-3.3627762E-3,2.4012288E-1,2.4570163E-2,1.1065181E-1,8.223597E-3,8.01658E1,9.412141E-1,2.250045E-1,-9.47063E-1,1.37808E2,2.2811061E-1,5.224934E2,-6.6741717E-1,-2.4423141E-2,-9.801975E-2,1.672734E6,1.9053917E0,7.818194E1,8.01658E1,8.72955E1,6.407126E-1,-4.916151E-2,-9.987862E-3,8.87215E1,3.7585523E-2,5.320837E-1,1.2212E2,6.952413E-2,5.590429E-1,3.742832E6,3.7860453E-1,3.3405438E2,6.407126E-1,-3.0507185E-2,-1.6712238E-1,6.697995E-4,-5.445912E-2,2.4694127E-3,-2.0196244E-2,2.9635903E-1,1.45634E2,1.37746E2,2.7934403E0,5.7844765E-2,1.45255895E-2,-6.1054286E-2,1.8351719E-2,3.6955547E-2,-4.3440224E-3,8.787183E-2,2.0149037E-2,8.7869335E-3,-1.2664415E-2,1.5028778E-2,1.9345031E-4,-5.995151E-3,5.8938693E-3,1.4692213E-2,5.1285952E-2,-9.278951E-3,-5.1416516E-2,-2.287218E-2,-8.315155E-4,2.6234312E-2,2.7054965E-3,7.917245E-3,-9.299904E-3,-8.978079E-4,-6.802037E-2,-2.1583124E-3,7.363662E-2,-0E0,-6.2328987E-2,2.42219E-2,-3.235777E-2],"split_indices":[21,8,12,18,13,9,10,8,16,8,7,6,0,15,11,9,11,1,9,18,9,13,7,21,16,12,0,4,18,8,1,1,15,0,0,1,0,15,2,0,20,4,15,21,15,0,0,0,0,0,0,16,1,1,18,0,0,0,0,0,0,0,0,0,0,0,0,0,0,0,0,0,0,0,0,0,0,0,0,0,0,0,0,0,0,0,0],"split_type":[0,0,0,0,0,0,0,0,0,0,0,0,0,0,0,0,0,0,0,0,0,0,0,0,0,0,0,0,0,0,0,0,0,0,0,0,0,0,0,0,0,0,0,0,0,0,0,0,0,0,0,0,0,0,0,0,0,0,0,0,0,0,0,0,0,0,0,0,0,0,0,0,0,0,0,0,0,0,0,0,0,0,0,0,0,0,0],"sum_hessian":[4.244E3,4.091E3,1.53E2,1.28E2,3.963E3,2.7E1,1.26E2,7.4E1,5.4E1,2.728E3,1.235E3,1.9E1,8E0,1.5E1,1.11E2,4.7E1,2.7E1,1.2E1,4.2E1,2.568E3,1.6E2,9.62E2,2.73E2,1.1E1,8E0,6E0,9E0,7.4E1,3.7E1,2.9E1,1.8E1,1.4E1,1.3E1,6E0,6E0,3.9E1,3E0,1.366E3,1.202E3,4E0,1.56E2,1.05E2,8.57E2,1.06E2,1.67E2,3E0,8E0,4E0,4E0,3E0,3E0,4.3E1,3.1E1,1.6E1,2.1E1,8E0,2.1E1,6E0,1.2E1,1.1E1,3E0,1E1,3E0,3.2E1,7E0,3.43E2,1.023E3,8.75E2,3.27E2,1.48E2,8E0,7.7E1,2.8E1,9E1,7.67E2,8E1,2.6E1,7.5E1,9.2E1,3.8E1,5E0,2.1E1,1E1,3E0,1.3E1,7E0,1.4E1],"tree_param":{"num_deleted":"0","num_feature":"22","num_nodes":"87","size_leaf_vector":"1"}},{"base_weights":[-9.218829E-3,4.7318198E-2,-1.6420346E0,1.0516332E0,-1.1382419E-2,-5.1619277E0,-1.2118945E0,1.3247007E0,-3.59248E-1,-8.7388265E-1,2.2950707E-2,-6.66819E-3,-7.3713775E0,-4.1201296E0,-8.124754E-1,-1.5758258E0,1.4495105E0,-1.6180793E0,1.5410263E-2,-5.349025E-1,-3.1226864E0,-2.3044325E-1,1.4883037E-1,-9.383844E0,-2.7039351E-2,-0E0,-5.622155E0,-1.4907483E0,5.672621E-1,4.192271E-3,-4.688441E-2,1.9038402E0,9.244163E-1,1.2814029E-1,-4.1674957E-2,-7.031664E-1,5.7085097E-2,-9.9410534E-2,-9.904908E-2,-0E0,-5.048299E-1,1.6206406E0,9.3235694E-2,-7.085673E-2,-1.8174113E-1,-1.6120167E-1,-2.0543154E-2,4.8781645E-1,-3.2302828E0,-2.0450966E0,3.3566859E0,9.888078E-3,4.1456632E-2,2.0782499E-2,-0E0,-6.7177936E-3,1.750863E-2,-4.497316E-3,-2.8190713E-2,-2.6648562E-2,2.9940598E-2,-5.2904193E-3,8.244846E-3,-5.171536E-3,-2.9368628E-2,4.7704615E-3,5.03624E-2,1.1803396E-2,3.841278E-4,-5.386267E-3,1.8740311E-2,-0E0,-5.4313764E-2,-1.0901375E-2,-4.641533E-2,-0E0,7.073037E-2],"categories":[],"categories_nodes":[],"categories_segments":[],"categories_sizes":[],"default_left":[0,0,0,0,0,0,0,0,0,0,0,0,0,0,0,0,0,0,0,