{"learner":{"attributes":{"best_iteration":"0","best_score":"3.096598450623283"},"feature_names":[],"feature_types":[],"gradient_booster":{"model":{"gbtree_model_param":{"num_parallel_tree":"1","num_trees":"101"},"iteration_indptr":[0,1,2,3,4,5,6,7,8,9,10,11,12,13,14,15,16,17,18,19,20,21,22,23,24,25,26,27,28,29,30,31,32,33,34,35,36,37,38,39,40,41,42,43,44,45,46,47,48,49,50,51,52,53,54,55,56,57,58,59,60,61,62,63,64,65,66,67,68,69,70,71,72,73,74,75,76,77,78,79,80,81,82,83,84,85,86,87,88,89,90,91,92,93,94,95,96,97,98,99,100,101],"tree_info":[0,0,0,0,0,0,0,0,0,0,0,0,0,0,0,0,0,0,0,0,0,0,0,0,0,0,0,0,0,0,0,0,0,0,0,0,0,0,0,0,0,0,0,0,0,0,0,0,0,0,0,0,0,0,0,0,0,0,0,0,0,0,0,0,0,0,0,0,0,0,0,0,0,0,0,0,0,0,0,0,0,0,0,0,0,0,0,0,0,0,0,0,0,0,0,0,0,0,0,0,0],"trees":[{"base_weights":[-1.2068894E-2,6.3514486E-2,-2.3340764E0,1.4385399E0,1.742744E-2,-5.6567383E0,-1.6583588E0,2.144103E0,-3.5456917E-1,-3.095572E-1,1.4719158E-1,-9.1401825E0,-1.3246241E0,6.6331905E-1,-2.3953574E0,-3.791852E-2,2.3156006E0,-2.7455034E0,8.0495876E-1,-1.8394963E-1,-9.2099375E-1,-7.1197444E-1,1.9370766E-1,-3.6181163E-2,-1.1799464E1,5.3502982E-3,-2.063183E0,1.6785898E0,-4.2783827E-2,-1.9817308E-1,-2.932725E0,2.8283436E0,7.6039946E-1,-7.7155195E-2,-1.325353E-2,-3.173325E-1,1.748591E0,-2.1404366E-1,3.5109925E0,1.9693034E0,-1.1150814E0,-4.1581836E-1,-3.2433636E0,2.3415448E-1,-9.2261225E-1,-2.2556502E-1,-7.239294E-2,-4.2568296E-2,-3.7676818E-3,5.043827E-1,9.097646E-2,-8.131066E-1,3.6862624E-1,-3.6790638E0,-4.750552E-1,2.7476097E-2,5.9172012E-2,2.206336E-2,-2.4278006E-2,1.5779834E-2,-2.2394283E-2,3.261181E-2,-0E0,1.881431E-2,-4.078475E-3,8.560698E-2,-0E0,-5.0913816E-4,4.698638E-2,-3.3038545E-2,-4.056229E-3,5.2222577E-3,-2.265562E-2,-9.693053E-3,-5.7841074E-2,1.6812677E-2,2.9074692E-3,-3.0188423E-2,2.8745919E-3,-3.4606785E-2,1.851074E-2,-2.0037219E-2,8.491285E-5,2.0898424E-2,-9.514137E-3,-6.5557376E-2,1.9459277E-2,1.9371016E-2,-3.550181E-2],"categories":[],"categories_nodes":[],"categories_segments":[],"categories_sizes":[],"default_left":[0,0,0,0,0,0,0,0,0,0,0,0,0,0,0,0,0,0,0,0,0,0,0,0,0,0,0,0,0,0,0,0,0,0,0,0,0,0,0,0,0,0,0,0,0,0,0,0,0,0,0,0,0,0,0,0,0,0,0,0,0,0,0,0,0,0,0,0,0,0,0,0,0,0,0,0,0,0,0,0,0,0,0,0,0,0,0,0,0],"id":0,"left_children":[1,3,5,7,9,11,13,15,17,19,21,23,25,27,29,-1,31,33,35,37,39,41,43,-1,45,-1,47,49,-1,51,53,55,57,-1,-1,59,61,63,65,67,69,71,73,75,77,-1,-1,-1,-1,79,-1,81,83,85,87,-1,-1,-1,-1,-1,-1,-1,-1,-1,-1,-1,-1,-1,-1,-1,-1,-1,-1,-1,-1,-1,-1,-1,-1,-1,-1,-1,-1,-1,-1,-1,-1,-1,-1],"loss_changes":[8.1247345E2,2.8118375E2,3.0938965E2,1.8513626E2,1.8330415E2,3.3650262E2,2.1410818E2,8.673874E1,1.181178E2,9.2576485E1,1.233162E2,1.9083472E2,1.7595219E1,1.06541306E2,1.06359924E2,0E0,7.3854126E1,4.673488E1,3.1962934E1,1.0990088E2,1.17084946E2,1.1243955E2,1.3215631E2,0E0,8.189075E1,0E0,6.400982E0,1.0581665E2,0E0,7.808399E0,1.3049048E2,6.3619568E1,4.2688152E1,0E0,0E0,2.114953E1,7.7794724E0,6.708889E1,5.094851E1,3.0911026E1,1.6346227E2,1.13017044E2,1.1623444E1,1.12817245E2,1.16746956E2,0E0,0E0,0E0,0E0,3.8195625E1,0E0,5.865913E0,1.1157736E1,1.5509015E2,6.2544468E1,0E0,0E0,0E0,0E0,0E0,0E0,0E0,0E0,0E0,0E0,0E0,0E0,0E0,0E0,0E0,0E0,0E0,0E0,0E0,0E0,0E0,0E0,0E0,0E0,0E0,0E0,0E0,0E0,0E0,0E0,0E0,0E0,0E0,0E0],"parents":[2147483647,0,0,1,1,2,2,3,3,4,4,5,5,6,6,7,7,8,8,9,9,10,10,11,11,12,12,13,13,14,14,16,16,17,17,18,18,19,19,20,20,21,21,22,22,24,24,26,26,27,27,29,29,30,30,31,31,32,32,35,35,36,36,37,37,38,38,39,39,40,40,41,41,42,42,43,43,44,44,49,49,51,51,52,52,53,53,54,54],"right_children":[2,4,6,8,10,12,14,16,18,20,22,24,26,28,30,-1,32,34,36,38,40,42,44,-1,46,-1,48,50,-1,52,54,56,58,-1,-1,60,62,64,66,68,70,72,74,76,78,-1,-1,-1,-1,80,-1,82,84,86,88,-1,-1,-1,-1,-1,-1,-1,-1,-1,-1,-1,-1,-1,-1,-1,-1,-1,-1,-1,-1,-1,-1,-1,-1,-1,-1,-1,-1,-1,-1,-1,-1,-1,-1],"split_conditions":[5.156698E2,8.6842E1,-1.0948168E-1,1.072297E0,-1.0948168E-1,8.046266E-2,-5.9081066E-2,-3.2724562E-1,1.0919532E0,3.1457883E2,8.9272E1,-7.73919E-1,1.405E2,-6.581931E-4,1.3672078E2,-3.791852E-2,8.77124E1,8.04705E1,5.7776142E-2,3.0848474E2,1.1771E2,2.689991E2,1.756715E2,-3.6181163E-2,2.7298536E-2,5.3502982E-3,1.478325E2,6.6120447E2,-4.2783827E-2,-6.581931E-4,6.846086E-2,8.6123535E1,-7.741039E-2,-7.7155195E-2,-1.325353E-2,9.074666E1,3.7048192E0,8.894926E1,1.9097723E-1,1.12652176E2,1.5937E2,8.81005E1,-2.6397654E-3,-2.2706473E0,4.115828E-2,-2.2556502E-1,-7.239294E-2,-4.2568296E-2,-3.7676818E-3,-2.4402522E-1,9.097646E-2,1.2058898E-1,4.3160524E-2,3.5206234E-1,4.9456716E-2,2.7476097E-2,5.9172012E-2,2.206336E-2,-2.4278006E-2,1.5779834E-2,-2.2394283E-2,3.261181E-2,-0E0,1.881431E-2,-4.078475E-3,8.560698E-2,-0E0,-5.0913816E-4,4.698638E-2,-3.3038545E-2,-4.056229E-3,5.2222577E-3,-2.265562E-2,-9.693053E-3,-5.7841074E-2,1.6812677E-2,2.9074692E-3,-3.0188423E-2,2.8745919E-3,-3.4606785E-2,1.851074E-2,-2.0037219E-2,8.491285E-5,2.0898424E-2,-9.514137E-3,-6.5557376E-2,1.9459277E-2,1.9371016E-2,-3.550181E-2],"split_indices":[21,2,12,18,11,9,12,12,16,21,2,16,1,7,8,0,13,1,9,21,1,21,8,0,6,0,2,21,0,7,12,8,11,0,0,21,18,8,10,8,1,2,12,18,7,0,0,0,0,10,0,10,11,10,7,0,0,0,0,0,0,0,0,0,0,0,0,0,0,0,0,0,0,0,0,0,0,0,0,0,0,0,0,0,0,0,0,0,0],"split_type":[0,0,0,0,0,0,0,0,0,0,0,0,0,0,0,0,0,0,0,0,0,0,0,0,0,0,0,0,0,0,0,0,0,0,0,0,0,0,0,0,0,0,0,0,0,0,0,0,0,0,0,0,0,0,0,0,0,0,0,0,0,0,0,0,0,0,0,0,0,0,0,0,0,0,0,0,0,0,0,0,0,0,0,0,0,0,0,0,0],"sum_hessian":[4.611E3,4.466E3,1.45E2,1.43E2,4.323E3,2.3E1,1.22E2,1.03E2,4E1,1.225E3,3.098E3,1.2E1,1.1E1,2.9E1,9.3E1,3E0,1E2,1.3E1,2.7E1,1.019E3,2.06E2,1.57E2,2.941E3,4E0,8E0,3E0,8E0,2.3E1,6E0,1.9E1,7.4E1,7.4E1,2.6E1,5E0,8E0,1.2E1,1.5E1,1.012E3,7E0,1.2E1,1.94E2,1.42E2,1.5E1,2.84E3,1.01E2,5E0,3E0,5E0,3E0,1.9E1,4E0,1E1,9E0,5.6E1,1.8E1,3.7E1,3.7E1,2.1E1,5E0,5E0,7E0,1.2E1,3E0,3.1E1,9.81E2,4E0,3E0,4E0,8E0,8.8E1,1.06E2,8.2E1,6E1,3E0,1.2E1,1.5E2,2.69E3,5.3E1,4.8E1,3E0,1.6E1,7E0,3E0,5E0,4E0,5.1E1,5E0,9E0,9E0],"tree_param":{"num_deleted":"0","num_feature":"22","num_nodes":"89","size_leaf_vector":"1"}},{"base_weights":[2.917153E-3,1.5321822E0,-5.111282E-2,2.0589352E0,-4.055365E-2,-1.0307071E0,2.0948315E-2,-4.0653087E-2,2.2539172E0,-1.107286E0,1.5501082E0,-8.92165E0,-8.4031826E-1,6.441052E-2,-9.075757E-1,3.121007E0,1.120622E0,-2.5103996E0,2.7807933E-1,4.22401E-2,8.40467E-1,-4.8291467E-2,-1.9161537E-1,4.6701252E-2,-1.7853489E0,-2.4018314E-1,1.8965062E-1,-1.1812416E0,2.9683724E-1,3.9252937E0,1.6629114E0,-2.3714963E-2,1.3977247E0,-6.0614042E-2,-9.1741123E-4,3.5070878E-2,-6.2641473E-3,-0E0,2.0926185E-2,-4.16844E0,6.7436904E-1,-3.6339906E-1,-2.578629E0,1.382093E-1,-3.8950893E-1,1.2153362E-1,7.363233E-1,-8.280196E-1,-2.383381E0,1.2130288E0,-1.8397555E-2,4.7360472E-2,9.6631296E-2,6.358261E-2,1.2489095E-2,5.8112484E-3,2.832331E-2,-3.5764612E-2,-1.1206855E-1,6.9262674E-3,1.2402483E-1,8.469131E-2,-1.2964575E-2,-1.490839E-1,-3.3530917E-2,6.427502E-2,1.3236395E-3,-1.8783076E-2,-4.079654E-3,2.1018153E-3,-3.6116797E-2,1.5030396E-1,9.597951E-3,-1.9926654E-2,-9.474469E-4,-6.1449092E-2,-6.4311745E-3,3.280619E-2,-0E0],"categories":[],"categories_nodes":[],"categories_segments":[],"categories_sizes":[],"default_left":[0,0,0,0,0,0,0,0,0,0,0,0,0,0,0,0,0,0,0,0,0,0,0,0,0,0,0,0,0,0,0,0,0,0,0,0,0,0,0,0,0,0,0,0,0,0,0,0,0,0,0,0,0,0,0,0,0,0,0,0,0,0,0,0,0,0,0,0,0,0,0,0,0,0,0,0,0,0,0],"id":1,"left_children":[1,3,5,7,9,11,13,-1,15,17,19,21,23,25,27,29,31,33,35,-1,37,-1,-1,39,41,43,45,47,49,51,53,-1,55,-1,-1,-1,-1,-1,-1,57,59,61,63,65,67,69,71,73,75,77,-1,-1,-1,-1,-1,-1,-1,-1,-1,-1,-1,-1,-1,-1,-1,-1,-1,-1,-1,-1,-1,-1,-1,-1,-1,-1,-1,-1,-1],"loss_changes":[3.823802E2,1.3352036E2,3.1522855E2,1.1329913E2,6.88518E1,4.4000156E2,1.6612575E2,0E0,1.0419531E2,5.20251E1,6.3800163E0,8.0118835E1,2.5374522E2,1.5100192E2,6.209857E1,6.1627136E1,3.986944E1,3.833568E1,2.0550974E1,0E0,4.05474E0,0E0,0E0,4.081451E2,1.5996973E2,6.540641E1,1.0341385E2,5.810344E1,4.7304066E1,5.095343E1,4.2549416E1,0E0,1.7061607E1,0E0,0E0,0E0,0E0,0E0,0E0,8.500845E1,2.138494E2,1.443715E2,2.4429956E2,6.312754E1,8.4160194E1,7.756112E1,3.146304E2,3.9174294E1,9.3823135E1,2.4926434E1,0E0,0E0,0E0,0E0,0E0,0E0,0E0,0E0,0E0,0E0,0E0,0E0,0E0,0E0,0E0,0E0,0E0,0E0,0E0,0E0,0E0,0E0,0E0,0E0,0E0,0E0,0E0,0E0,0E0],"parents":[2147483647,0,0,1,1,2,2,3,3,4,4,5,5,6,6,8,8,9,9,10,10,11,11,12,12,13,13,14,14,15,15,16,16,17,17,18,18,20,20,23,23,24,24,25,25,26,26,27,27,28,28,29,29,30,30,32,32,39,39,40,40,41,41,42,42,43,43,44,44,45,45,46,46,47,47,48,48,49,49],"right_children":[2,4,6,8,10,12,14,-1,16,18,20,22,24,26,28,30,32,34,36,-1,38,-1,-1,40,42,44,46,48,50,52,54,-1,56,-1,-1,-1,-1,-1,-1,58,60,62,64,66,68,70,72,74,76,78,-1,-1,-1,-1,-1,-1,-1,-1,-1,-1,-1,-1,-1,-1,-1,-1,-1,-1,-1,-1,-1,-1,-1,-1,-1,-1,-1,-1,-1],"split_conditions":[8.73493E1,1.0280066E0,3.2495454E-1,2.7773213E-1,8.704601E-1,-2.280008E-1,1.756715E2,-4.0653087E-2,6.283695E-1,8.6123535E1,3.035028E6,1.419515E2,1.371534E2,-1.1396528E-1,1.9602206E-1,2.738837E-1,-3.2724562E-1,8.269414E-1,-2.100121E-1,4.22401E-2,1.6615711E-1,-4.8291467E-2,-1.9161537E-1,9.072165E1,-6.823334E-2,-3.6517054E-1,1.5758229E2,1.9097723E-1,1.8512E2,-7.472628E-1,-3.2622615E-1,-2.3714963E-2,-3.6517054E-1,-6.0614042E-2,-9.1741123E-4,3.5070878E-2,-6.2641473E-3,-0E0,2.0926185E-2,8.806E1,1.1933587E-1,2.1351014E-1,-1.658705E-1,-1.8643329E0,-4.4761735E-1,1.5644775E2,1.565605E2,-2.6185567E-2,3.6262414E-1,1.6355016E0,-1.8397555E-2,4.7360472E-2,9.6631296E-2,6.358261E-2,1.2489095E-2,5.8112484E-3,2.832331E-2,-3.5764612E-2,-1.1206855E-1,6.9262674E-3,1.2402483E-1,8.469131E-2,-1.2964575E-2,-1.490839E-1,-3.3530917E-2,6.427502E-2,1.3236395E-3,-1.8783076E-2,-4.079654E-3,2.1018153E-3,-3.6116797E-2,1.5030396E-1,9.597951E-3,-1.9926654E-2,-9.474469E-4,-6.1449092E-2,-6.4311745E-3,3.280619E-2,-0E0],"split_indices":[0,18,15,15,15,7,8,0,15,8,4,0,5,12,7,17,12,15,6,0,9,0,0,8,12,10,14,6,0,18,10,0,10,0,0,0,0,0,0,3,11,15,7,17,20,14,8,6,6,16,0,0,0,0,0,0,0,0,0,0,0,0,0,0,0,0,0,0,0,0,0,0,0,0,0,0,0,0,0],"split_type":[0,0,0,0,0,0,0,0,0,0,0,0,0,0,0,0,0,0,0,0,0,0,0,0,0,0,0,0,0,0,0,0,0,0,0,0,0,0,0,0,0,0,0,0,0,0,0,0,0,0,0,0,0,0,0,0,0,0,0,0,0,0,0,0,0,0,0,0,0,0,0,0,0,0,0,0,0,0,0],"sum_hessian":[4.603E3,1.57E2,4.446E3,1.18E2,3.9E1,3.05E2,4.141E3,4E0,1.14E2,2.4E1,1.5E1,6E0,2.99E2,3.958E3,1.83E2,6.3E1,5.1E1,1.2E1,1.2E1,4E0,1.1E1,3E0,3E0,1.54E2,1.45E2,1.15E3,2.808E3,1.5E2,3.3E1,3.9E1,2.4E1,4E0,4.7E1,7E0,5E0,3E0,9E0,5E0,6E0,1.9E1,1.35E2,5.3E1,9.2E1,3.23E2,8.27E2,2.5E3,3.08E2,1.18E2,3.2E1,2.1E1,1.2E1,3E1,9E0,5E0,1.9E1,1.5E1,3.2E1,1.3E1,6E0,1.32E2,3E0,3E0,5E1,4E0,8.8E1,3E0,3.2E2,1.1E2,7.17E2,2.488E3,1.2E1,3E0,3.05E2,7.3E1,4.5E1,1.7E1,1.5E1,1.2E1,9E0],"tree_param":{"num_deleted":"0","num_feature":"22","num_nodes":"79","size_leaf_vector":"1"}},{"base_weights":[2.8070046E-3,6.845067E-2,-1.9820075E0,1.5394344E0,2.0510063E-2,-7.226893E-3,-2.8886464E0,2.106314E0,-4.9854758E-1,-3.0233058E-1,1.4845482E-1,2.6350157E0,-1.4489136E0,-6.3689213E0,-2.0965114E0,1.53693E0,3.7792113E0,-1.7719173E0,8.9109534E-1,-8.31633E-1,-2.0089354E-1,-7.606422E-1,2.0183225E-1,1.1606904E0,8.937785E-2,-4.3762904E-1,-2.48525E0,-2.6574733E0,-8.3937E0,-3.8930526E0,-8.3512545E-1,1.9277276E0,4.1156137E-1,1.294431E0,4.695589E0,-4.8330586E-2,-0E0,1.5000957E0,-0E0,-1.566805E-1,-1.2753261E0,6.9334276E-2,-2.1967253E-1,-4.6494228E-1,-4.575391E0,1.5176649E0,1.5134992E-1,2.709333E-2,-0E0,-1.3604121E-2,9.529199E-3,-5.1230166E-2,-0E0,-3.5755467E-3,-7.392175E-2,-1.6835578E-1,-6.9349945E-2,1.670955E-2,-4.829775E0,1.0158558E-1,-1.6199116E0,6.960662E-2,2.6612053E-2,-2.6715083E-2,1.3335338E-2,3.558376E-2,-2.7631081E-3,4.4595826E-2,9.2956565E-2,1.9013345E-2,-1.271347E-2,-0E0,4.212664E-2,-5.1698882E-2,-0E0,6.7362483E-3,-2.5340414E-2,-1.2632157E-2,-1.721103E-3,9.899538E-3,-1.6193181E-2,-8.713292E-2,-2.8396131E-2,-1.1587545E-2,3.7034746E-2,-1.7846603E-2,2.788772E-3,-1.0665833E-2,-8.762602E-2,-4.034372E-2,5.1428317E-3],"categories":[],"categories_nodes":[],"categories_segments":[],"categories_sizes":[],"default_left":[0,0,0,0,0,0,0,0,0,0,0,0,0,0,0,0,0,0,0,0,0,0,0,0,0,0,0,0,0,0,0,0,0,0,0,0,0,0,0,0,0,0,0,0,0,0,0,0,0,0,0,0,0,0,0,0,0,0,0,0,0,0,0,0,0,0,0,0,0,0,0,0,0,0,0,0,0,0,0,0,0,0,0,0,0,0,0,0,0,0,0],"id":2,"left_children":[1,3,5,7,9,11,13,15,17,19,21,23,25,27,29,31,33,35,37,39,41,43,45,47,-1,49,51,53,55,57,59,61,63,65,67,-1,69,71,-1,73,75,-1,77,79,81,83,85,-1,-1,-1,-1,-1,-1,-1,-1,-1,-1,-1,87,-1,89,-1,-1,-1,-1,-1,-1,-1,-1,-1,-1,-1,-1,-1,-1,-1,-1,-1,-1,-1,-1,-1,-1,-1,-1,-1,-1,-1,-1,-1,-1],"loss_changes":[6.0221674E2,3.1481192E2,2.611593E2,1.6589825E2,1.796473E2,1.8476465E2,2.5475977E2,9.334564E1,5.7397766E1,6.471545E1,1.508743E2,6.212018E1,2.8703506E1,9.95246E1,1.8109006E2,3.360692E1,4.790863E1,4.2209156E1,8.269624E0,5.665555E1,8.602337E1,1.8547891E2,1.9359589E2,6.5142403E0,0E0,9.008126E0,2.565696E1,3.2742374E1,3.845575E1,1.6759216E2,2.974166E2,1.9777802E1,2.2815434E1,1.606142E1,1.6435028E1,0E0,9.148633E0,1.5929075E1,0E0,4.1388123E1,7.1743E1,0E0,6.550359E1,1.0246048E2,1.4042007E1,2.1246321E2,9.961707E1,0E0,0E0,0E0,0E0,0E0,0E0,0E0,0E0,0E0,0E0,0E0,8.2502014E1,0E0,9.203966E1,0E0,0E0,0E0,0E0,0E0,0E0,0E0,0E0,0E0,0E0,0E0,0E0,0E0,0E0,0E0,0E0,0E0,0E0,0E0,0E0,0E0,0E0,0E0,0E0,0E0,0E0,0E0,0E0,0E0,0E0],"parents":[2147483647,0,0,1,1,2,2,3,3,4,4,5,5,6,6,7,7,8,8,9,9,10,10,11,11,12,12,13,13,14,14,15,15,16,16,17,17,18,18,19,19,20,20,21,21,22,22,23,23,25,25,26,26,27,27,28,28,29,29,30,30,31,31,32,32,33,33,34,34,36,36,37,37,39,39,40,40,42,42,43,43,44,44,45,45,46,46,58,58,60,60],"right_children":[2,4,6,8,10,12,14,16,18,20,22,24,26,28,30,32,34,36,38,40,42,44,46,48,-1,50,52,54,56,58,60,62,64,66,68,-1,70,72,-1,74,76,-1,78,80,82,84,86,-1,-1,-1,-1,-1,-1,-1,-1,-1,-1,-1,88,-1,90,-1,-1,-1,-1,-1,-1,-1,-1,-1,-1,-1,-1,-1,-1,-1,-1,-1,-1,-1,-1,-1,-1,-1,-1,-1,-1,-1,-1,-1,-1],"split_conditions":[5.156698E2,8.6842E1,2.3326728E-1,1.1514652E0,-1.1396528E-1,-5.717366E-2,-2.4402522E-1,4.1853447E-2,1.5698136E0,-4.4761735E-1,8.994E1,1.455025E2,1.371595E2,5.3917725E2,1.448395E2,4.14068E6,8.6123535E1,8.25215E1,-9.914302E-4,-2.8701788E-1,-1.8643329E0,2.6524536E2,9.368E1,1.3173464E-2,8.937785E-2,1.101598E-2,6.846086E-2,-1.8343426E-1,-9.198432E-2,1.3672078E2,1.4545226E2,7.824868E1,4.5201898E-1,1.00260675E-2,4.7931486E-1,-4.8330586E-2,-1.0599879E-1,1.9906176E-2,-0E0,1.2531E6,3.4522742E-1,6.9334276E-2,-3.761039E-1,8.80605E1,3.0105768E-2,-4.1478813E-2,9.5455E1,2.709333E-2,-0E0,-1.3604121E-2,9.529199E-3,-5.1230166E-2,-0E0,-3.5755467E-3,-7.392175E-2,-1.6835578E-1,-6.9349945E-2,1.670955E-2,-7.4467E-1,1.0158558E-1,1.859663E6,6.960662E-2,2.6612053E-2,-2.6715083E-2,1.3335338E-2,3.558376E-2,-2.7631081E-3,4.4595826E-2,9.2956565E-2,1.9013345E-2,-1.271347E-2,-0E0,4.212664E-2,-5.1698882E-2,-0E0,6.7362483E-3,-2.5340414E-2,-1.2632157E-2,-1.721103E-3,9.899538E-3,-1.6193181E-2,-8.713292E-2,-2.8396131E-2,-1.1587545E-2,3.7034746E-2,-1.7846603E-2,2.788772E-3,-1.0665833E-2,-8.762602E-2,-4.034372E-2,5.1428317E-3],"split_indices":[21,2,15,18,12,12,9,20,16,20,3,0,0,21,0,4,8,0,12,12,17,21,0,9,0,7,12,7,20,8,14,8,15,9,15,0,10,7,0,4,15,0,12,0,6,12,3,0,0,0,0,0,0,0,0,0,0,0,16,0,4,0,0,0,0,0,0,0,0,0,0,0,0,0,0,0,0,0,0,0,0,0,0,0,0,0,0,0,0,0,0],"split_type":[0,0,0,0,0,0,0,0,0,0,0,0,0,0,0,0,0,0,0,0,0,0,0,0,0,0,0,0,0,0,0,0,0,0,0,0,0,0,0,0,0,0,0,0,0,0,0,0,0,0,0,0,0,0,0,0,0,0,0,0,0,0,0,0,0,0,0,0,0,0,0,0,0,0,0,0,0,0,0,0,0,0,0,0,0,0,0,0,0,0,0],"sum_hessian":[4.639E3,4.492E3,1.47E2,1.4E2,4.352E3,4.7E1,1E2,1.1E2,3E1,1.232E3,3.12E3,1.6E1,3.1E1,1.7E1,8.3E1,8.4E1,2.6E1,1.6E1,1.4E1,1.95E2,1.037E3,1.71E2,2.949E3,1.2E1,4E0,1.7E1,1.4E1,7E0,1E1,3.3E1,5E1,6.1E1,2.3E1,8E0,1.8E1,9E0,7E0,8E0,6E0,7.9E1,1.16E2,3E0,1.034E3,1.6E2,1.1E1,1.07E2,2.842E3,7E0,5E0,1.3E1,4E0,1E1,4E0,4E0,3E0,5E0,5E0,5E0,2.8E1,4E0,4.6E1,3E0,5.8E1,3E0,2E1,5E0,3E0,9E0,9E0,3E0,4E0,4E0,4E0,3E0,7.6E1,1.9E1,9.7E1,1.59E2,8.75E2,5.4E1,1.06E2,7E0,4E0,2.9E1,7.8E1,5.7E1,2.785E3,5E0,2.3E1,3.1E1,1.5E1],"tree_param":{"num_deleted":"0","num_feature":"22","num_nodes":"91","size_leaf_vector":"1"}},{"base_weights":[-6.4826626E-3,-1.5345321E0,5.3407185E-2,3.338959E-1,-3.2983057E0,1.2888108E0,-8.727779E-3,-3.1048462E0,8.4239304E-1,-1.028095E0,-4.4345307E0,1.9481741E0,-2.7698356E-1,3.087532E-2,-9.451568E-1,1.11258915E-2,-7.478508E-2,6.334857E-2,5.921228E-1,-2.1828613E0,8.474556E-2,-5.836286E0,-1.4991422E0,2.069738E0,-6.864358E-1,-1.3568937E0,1.3046466E0,-2.260087E-1,1.5784761E-1,-1.9702241E0,-4.5738512E-1,1.1983563E0,-6.9596463E-1,-0E0,-5.2816723E-2,-6.639155E0,-0E0,-2.6786602E0,1.0585258E0,-0E0,2.170908E0,1.5972108E-3,-2.551108E-2,-2.0812333E0,1.1486869E0,8.618793E-1,5.0541338E-2,1.7907895E0,-2.4942999E-1,-1.0170093E0,2.107437E-1,-3.1000304E0,-8.8597465E-1,-0E0,-1.4329E0,5.5055316E-3,4.524932E-2,-1.9208577E-2,-0E0,9.65802E-3,-1.4387529E-2,-1.3454723E-1,-4.6447504E-2,-7.5088735E-3,-5.630929E-2,3.0264078E-2,-0E0,-2.4844456E-2,3.2834418E-2,4.489044E-2,2.446007E-2,-7.183899E-2,-1.7291104E-2,-0E0,2.6809912E-2,-1.7760726E-4,1.7392427E-2,2.5693078E-3,7.467775E-2,-7.1940674E-3,-7.584537E-4,-1.8006617E-2,3.18391E-2,3.1542625E-2,2.2289336E-3,-1.0091166E-1,-3.352681E-2,1.857556E-3,-2.7140748E-2,2.011255E-2,-1.0182474E-2,-5.8028564E-2,-5.016209E-3],"categories":[],"categories_nodes":[],"categories_segments":[],"categories_sizes":[],"default_left":[0,0,0,0,0,0,0,0,0,0,0,0,0,0,0,0,0,0,0,0,0,0,0,0,0,0,0,0,0,0,0,0,0,0,0,0,0,0,0,0,0,0,0,0,0,0,0,0,0,0,0,0,0,0,0,0,0,0,0,0,0,0,0,0,0,0,0,0,0,0,0,0,0,0,0,0,0,0,0,0,0,0,0,0,0,0,0,0,0,0,0,0,0],"id":3,"left_children":[1,3,5,7,9,11,13,15,17,19,21,23,25,27,29,-1,-1,-1,31,33,-1,35,37,39,41,43,45,47,49,51,53,55,57,59,-1,61,-1,63,65,67,69,-1,-1,71,73,75,-1,77,79,81,83,85,87,89,91,-1,-1,-1,-1,-1,-1,-1,-1,-1,-1,-1,-1,-1,-1,-1,-1,-1,-1,-1,-1,-1,-1,-1,-1,-1,-1,-1,-1,-1,-1,-1,-1,-1,-1,-1,-1,-1,-1],"loss_changes":[4.26875E2,5.846896E2,3.446198E2,1.4987694E2,2.2326648E2,2.2457639E2,1.589599E2,7.900734E1,5.2895733E1,2.4538086E2,2.2895642E2,5.1789734E1,1.10978E2,1.330555E2,8.300575E1,0E0,0E0,0E0,5.7621628E1,7.241278E1,0E0,1.7975708E2,6.7975815E1,2.9626709E1,7.322213E0,7.415871E1,1.4309391E1,6.2072716E1,1.6913428E2,5.9592453E1,5.282612E1,6.670515E1,1.0016965E1,6.8691454E0,0E0,2.1449707E2,0E0,2.364164E1,7.0677977E0,3.0031757E1,4.9187805E1,0E0,0E0,6.3799423E1,5.7503014E0,6.4881325E0,0E0,6.5700455E1,5.595349E1,5.000528E1,3.1899188E2,5.8887955E1,2.795237E1,7.023872E1,9.008271E1,0E0,0E0,0E0,0E0,0E0,0E0,0E0,0E0,0E0,0E0,0E0,0E0,0E0,0E0,0E0,0E0,0E0,0E0,0E0,0E0,0E0,0E0,0E0,0E0,0E0,0E0,0E0,0E0,0E0,0E0,0E0,0E0,0E0,0E0,0E0,0E0,0E0,0E0],"parents":[2147483647,0,0,1,1,2,2,3,3,4,4,5,5,6,6,7,7,8,8,9,9,10,10,11,11,12,12,13,13,14,14,18,18,19,19,21,21,22,22,23,23,24,24,25,25,26,26,27,27,28,28,29,29,30,30,31,31,32,32,33,33,35,35,37,37,38,38,39,39,40,40,43,43,44,44,45,45,47,47,48,48,49,49,50,50,51,51,52,52,53,53,54,54],"right_children":[2,4,6,8,10,12,14,16,18,20,22,24,26,28,30,-1,-1,-1,32,34,-1,36,38,40,42,44,46,48,50,52,54,56,58,60,-1,62,-1,64,66,68,70,-1,-1,72,74,76,-1,78,80,82,84,86,88,90,92,-1,-1,-1,-1,-1,-1,-1,-1,-1,-1,-1,-1,-1,-1,-1,-1,-1,-1,-1,-1,-1,-1,-1,-1,-1,-1,-1,-1,-1,-1,-1,-1,-1,-1,-1,-1,-1,-1],"split_conditions":[2.8796905E-1,1.3672078E2,8.75178E1,9.14845E1,2.3326728E-1,9.521803E-1,1.756715E2,-1.2007198E-1,1.0492E2,1.472322E2,9.161517E-2,8.79155E1,8.4355436E-2,-9.032863E-2,1.781E2,1.11258915E-2,-7.478508E-2,6.334857E-2,2.6275453E-1,-7.741039E-2,8.474556E-2,3.428856E6,1.45615E2,7.816086E1,8.823485E1,1.4190694E0,8.741323E-1,-1.8643329E0,8.994E1,1.81854E6,1.8504492E2,-4.796944E-2,2.6142E6,1.45615E2,-5.2816723E-2,-3.9552033E-2,-0E0,-7.741039E-2,1.483995E2,4.7279537E-1,8.702595E1,1.5972108E-3,-2.551108E-2,8.04705E1,1.8030672E0,1.032842E0,5.0541338E-2,2.5100973E-1,-4.967957E-3,3.268796E-1,9.407E1,-3.911945E-1,-5.1623434E-1,4.4120803E-1,4.9731204E-1,5.5055316E-3,4.524932E-2,-1.9208577E-2,-0E0,9.65802E-3,-1.4387529E-2,-1.3454723E-1,-4.6447504E-2,-7.5088735E-3,-5.630929E-2,3.0264078E-2,-0E0,-2.4844456E-2,3.2834418E-2,4.489044E-2,2.446007E-2,-7.183899E-2,-1.7291104E-2,-0E0,2.6809912E-2,-1.7760726E-4,1.7392427E-2,2.5693078E-3,7.467775E-2,-7.1940674E-3,-7.584537E-4,-1.8006617E-2,3.18391E-2,3.1542625E-2,2.2289336E-3,-1.0091166E-1,-3.352681E-2,1.857556E-3,-2.7140748E-2,2.011255E-2,-1.0182474E-2,-5.8028564E-2,-5.016209E-3],"split_indices":[15,8,2,1,15,18,8,7,1,1,9,3,11,11,1,0,0,0,16,7,0,4,1,14,8,16,17,17,3,4,14,16,4,1,0,7,0,11,1,15,8,0,0,1,16,16,0,9,6,7,1,7,20,15,15,0,0,0,0,0,0,0,0,0,0,0,0,0,0,0,0,0,0,0,0,0,0,0,0,0,0,0,0,0,0,0,0,0,0,0,0,0,0],"split_type":[0,0,0,0,0,0,0,0,0,0,0,0,0,0,0,0,0,0,0,0,0,0,0,0,0,0,0,0,0,0,0,0,0,0,0,0,0,0,0,0,0,0,0,0,0,0,0,0,0,0,0,0,0,0,0,0,0,0,0,0,0,0,0,0,0,0,0,0,0,0,0,0,0,0,0,0,0,0,0,0,0,0,0,0,0,0,0,0,0,0,0,0,0],"sum_hessian":[4.642E3,1.75E2,4.467E3,8.5E1,9E1,2.14E2,4.253E3,1E1,7.5E1,3.1E1,5.9E1,1.51E2,6.3E1,4.08E3,1.73E2,3E0,7E0,4E0,7.1E1,2.7E1,4E0,3.9E1,2E1,1.45E2,6E0,3.8E1,2.5E1,1.346E3,2.734E3,5.4E1,1.19E2,4.9E1,2.2E1,1E1,1.7E1,3.4E1,5E0,1.4E1,6E0,7E0,1.38E2,3E0,3E0,3E1,8E0,2.2E1,3E0,1.4E1,1.332E3,1.16E2,2.618E3,2.5E1,2.9E1,8.2E1,3.7E1,3.4E1,1.5E1,1.3E1,9E0,6E0,4E0,2.1E1,1.3E1,5E0,9E0,3E0,3E0,4E0,3E0,6.1E1,7.7E1,7E0,2.3E1,3E0,5E0,4E0,1.8E1,1E1,4E0,6.45E2,6.87E2,1.12E2,4E0,9.3E1,2.525E3,4E0,2.1E1,1.3E1,1.6E1,2.7E1,5.5E1,1.1E1,2.6E1],"tree_param":{"num_deleted":"0","num_feature":"22","num_nodes":"93","size_leaf_vector":"1"}},{"base_weights":[2.7710496E-2,9.8243736E-2,-1.9789176E0,1.2806946E0,5.5035066E-2,4.2875177E-1,-2.5378227E0,1.9227166E0,-4.9229568E-1,9.4558895E-2,-9.412742E-1,1.233272E0,-7.5859027E-3,-4.1793118E0,-1.2681237E0,-1.1102521E0,2.109485E0,-2.0849104E0,3.3044377E-1,-8.869364E-2,2.5767618E-1,-2.0954368E0,-5.548319E-1,-0E0,2.4535865E-2,-2.3041532E0,-5.8664827E0,5.689479E-2,-1.6169702E0,1.0994029E-2,-4.654513E-2,1.0131168E0,2.8923895E0,-3.364468E0,2.6892365E-3,1.0254791E0,-5.74375E-1,-5.333296E-1,9.294679E-3,-1.6528932E0,3.2344547E-1,-1.020205E-1,-1.531976E0,5.511171E-1,-1.0968422E0,1.0524967E-3,-3.3226318E0,-1.8154072E0,-7.0764766E0,5.7832018E-2,-1.9272299E0,-4.1900333E-2,2.0993957E-2,3.692951E-2,7.556757E-2,-6.2912874E-2,-1.6501738E-2,-0E0,2.2913411E-2,-1.9393781E-2,1.1757797E-2,3.6078563E-3,-1.3274388E-2,7.2084367E-3,-1.4645059E-3,-1.6849171E-2,-1.2047807E-1,2.8415883E-2,3.5216305E-3,-3.0318527E-2,5.791176E-4,-4.8058536E-3,2.2572806E-2,-5.142229E-2,-5.4939766E-3,-5.9003614E-2,-3.6380873E-3,-5.3305764E-2,-0E0,-1.2659916E-1,-4.6117216E-2,-4.619043E-2,-3.7904594E-3],"categories":[],"categories_nodes":[],"categories_segments":[],"categories_sizes":[],"default_left":[0,0,0,0,0,0,0,0,0,0,0,0,0,0,0,0,0,0,0,0,0,0,0,0,0,0,0,0,0,0,0,0,0,0,0,0,0,0,0,0,0,0,0,0,0,0,0,0,0,0,0,0,0,0,0,0,0,0,0,0,0,0,0,0,0,0,0,0,0,0,0,0,0,0,0,0,0,0,0,0,0,0,0],"id":4,"left_children":[1,3,5,7,9,11,13,15,17,19,21,23,-1,25,27,29,31,33,35,37,39,41,43,-1,-1,45,47,-1,49,-1,-1,51,53,55,-1,57,59,61,63,65,67,-1,69,71,73,-1,75,77,79,-1,81,-1,-1,-1,-1,-1,-1,-1,-1,-1,-1,-1,-1,-1,-1,-1,-1,-1,-1,-1,-1,-1,-1,-1,-1,-1,-1,-1,-1,-1,-1,-1,-1],"loss_changes":[6.543424E2,2.2726376E2,2.1494012E2,1.8139023E2,1.6938538E2,2.3571224E1,2.5465192E2,6.918878E1,5.7872364E1,1.2470577E2,6.862146E1,8.700222E0,0E0,1.5052356E2,1.2976224E2,2.8531425E1,8.658328E1,4.7824677E1,1.8715721E1,8.598286E1,2.7612173E2,8.0118805E1,7.617401E1,0E0,0E0,7.18988E1,1.1339551E2,0E0,1.2002289E2,0E0,0E0,6.0600605E1,4.4436584E1,4.730217E0,0E0,7.935299E0,1.2121389E1,8.731068E1,7.533557E1,2.3451164E2,3.0960425E2,0E0,2.6324493E1,3.3377155E1,1.3329895E2,0E0,2.2250854E1,1.9885273E1,5.2438477E1,0E0,1.1163997E2,0E0,0E0,0E0,0E0,0E0,0E0,0E0,0E0,0E0,0E0,0E0,0E0,0E0,0E0,0E0,0E0,0E0,0E0,0E0,0E0,0E0,0E0,0E0,0E0,0E0,0E0,0E0,0E0,0E0,0E0,0E0,0E0],"parents":[2147483647,0,0,1,1,2,2,3,3,4,4,5,5,6,6,7,7,8,8,9,9,10,10,11,11,13,13,14,14,15,15,16,16,17,17,18,18,19,19,20,20,21,21,22,22,25,25,26,26,28,28,31,31,32,32,33,33,35,35,36,36,37,37,38,38,39,39,40,40,42,42,43,43,44,44,46,46,47,47,48,48,50,50],"right_children":[2,4,6,8,10,12,14,16,18,20,22,24,-1,26,28,30,32,34,36,38,40,42,44,-1,-1,46,48,-1,50,-1,-1,52,54,56,-1,58,60,62,64,66,68,-1,70,72,74,-1,76,78,80,-1,82,-1,-1,-1,-1,-1,-1,-1,-1,-1,-1,-1,-1,-1,-1,-1,-1,-1,-1,-1,-1,-1,-1,-1,-1,-1,-1,-1,-1,-1,-1,-1,-1],"split_conditions":[5.0981668E2,8.6842E1,1.3672078E2,1.1514652E0,1.756715E2,2.7251706E-1,1.44705E2,2.7773213E-1,1.1165388E0,1.8280457E2,-2.4306114E-1,-4.2862594E-1,-7.5859027E-3,2.4459285E-1,2.1351014E-1,8.63085E1,1.27122E2,8.6123535E1,9.074666E1,7.0138484E-1,8.92255E1,1.063279E6,-2.1233383E-1,-0E0,2.4535865E-2,-4.144719E-2,-1.6297291E-1,5.689479E-2,1.4549193E2,1.0994029E-2,-4.654513E-2,6.8077064E-1,-1.115188E-1,8.4546834E-2,2.6892365E-3,-1.9048242E-2,8.25215E1,9.422077E1,9.849854E1,8.95909E1,1.0428E2,-1.020205E-1,1.8512E2,-2.3332755E-1,-1.2234331E-2,1.0524967E-3,1.4386359E2,-2.4306114E-1,1.6200498E-1,5.7832018E-2,1.6677E2,-4.1900333E-2,2.0993957E-2,3.692951E-2,7.556757E-2,-6.2912874E-2,-1.6501738E-2,-0E0,2.2913411E-2,-1.9393781E-2,1.1757797E-2,3.6078563E-3,-1.3274388E-2,7.2084367E-3,-1.4645059E-3,-1.6849171E-2,-1.2047807E-1,2.8415883E-2,3.5216305E-3,-3.0318527E-2,5.791176E-4,-4.8058536E-3,2.2572806E-2,-5.142229E-2,-5.4939766E-3,-5.9003614E-2,-3.6380873E-3,-5.3305764E-2,-0E0,-1.2659916E-1,-4.6117216E-2,-4.619043E-2,-3.7904594E-3],"split_indices":[21,2,8,18,8,16,2,15,16,21,11,20,0,15,15,0,21,8,21,15,13,4,20,0,0,11,7,0,8,0,0,15,16,7,0,11,0,13,8,1,2,0,0,7,20,0,13,7,16,0,1,0,0,0,0,0,0,0,0,0,0,0,0,0,0,0,0,0,0,0,0,0,0,0,0,0,0,0,0,0,0,0,0],"split_type":[0,0,0,0,0,0,0,0,0,0,0,0,0,0,0,0,0,0,0,0,0,0,0,0,0,0,0,0,0,0,0,0,0,0,0,0,0,0,0,0,0,0,0,0,0,0,0,0,0,0,0,0,0,0,0,0,0,0,0,0,0,0,0,0,0,0,0,0,0,0,0,0,0,0,0,0,0,0,0,0,0,0,0],"sum_hessian":[4.638E3,4.482E3,1.56E2,1.56E2,4.326E3,2.9E1,1.27E2,1.15E2,4.1E1,4.163E3,1.63E2,1.6E1,1.3E1,5.4E1,7.3E1,6E0,1.09E2,1.4E1,2.7E1,1.957E3,2.206E3,3.9E1,1.24E2,3E0,1.3E1,2.7E1,2.7E1,4E0,6.9E1,3E0,3E0,4.7E1,6.2E1,9E0,5E0,1.6E1,1.1E1,3.55E2,1.602E3,7.2E1,2.134E3,3E0,3.6E1,4E1,8.4E1,8E0,1.9E1,7E0,2E1,3E0,6.6E1,3E0,4.4E1,5.1E1,1.1E1,6E0,3E0,5E0,1.1E1,8E0,3E0,1.03E2,2.52E2,2.99E2,1.303E3,6.7E1,5E0,1.29E2,2.005E3,2.9E1,7E0,2E1,2E1,2E1,6.4E1,1.6E1,3E0,3E0,4E0,1.5E1,5E0,4E1,2.6E1],"tree_param":{"num_deleted":"0","num_feature":"22","num_nodes":"83","size_leaf_vector":"1"}},{"base_weights":[5.4754787E-3,7.3502466E-2,-1.8236305E0,1.4861747E0,2.160061E-2,-3.3981893E-2,-2.4050004E0,2.1823418E0,-4.411272E-1,-2.634833E-1,1.5028724E-1,-7.974626E-2,4.487287E-1,-4.196725E0,-1.2032471E0,1.0197508E0,2.8879778E0,-2.7167609E0,4.0964645E-1,1.7092294E0,-2.8963763E-1,-7.636559E-1,2.1641375E-1,2.0806897E-2,-4.696695E-2,-4.6416098E-1,-5.233204E0,9.967733E-2,-1.7274027E0,1.793396E0,4.146676E-1,3.1022513E0,-1.8227214E-2,-6.635886E-2,-1.3209514E-2,-5.1937044E-1,1.3946431E0,1.0477956E-1,6.933958E-2,-3.8097447E-1,8.757653E-2,-3.1379282E-1,-4.144658E0,2.0813274E0,1.7034341E-1,-5.373865E-1,3.4788823E-1,2.2553785E-3,-1.7265052E-2,-7.426866E0,-2.5936599E0,-2.2752876E0,1.0970445E0,5.0643902E-2,1.2230281E-2,-5.1934947E-3,1.996621E-2,4.1833494E-2,9.056749E-2,-2.5967812E-2,1.0455424E-2,-0E0,2.6949946E-2,2.0330857E-2,-1.1715005E-2,-3.3767833E-3,-1.2205371E-2,-1.1791012E-2,8.611449E-3,1.4946523E-2,-1.0387955E-2,-5.019937E-2,-1.0366822E-1,1.862165E-2,6.74448E-2,1.9552985E-3,1.482289E-2,2.5088117E-3,-1.3922358E-2,1.1391246E-2,-5.8284295E-3,-1.6880715E-1,-6.539422E-2,-5.9677914E-2,-4.2620064E-3,5.5766203E-3,-5.0696667E-2,6.762132E-2,-4.750468E-3],"categories":[],"categories_nodes":[],"categories_segments":[],"categories_sizes":[],"default_left":[0,0,0,0,0,0,0,0,0,0,0,0,0,0,0,0,0,0,0,0,0,0,0,0,0,0,0,0,0,0,0,0,0,0,0,0,0,0,0,0,0,0,0,0,0,0,0,0,0,0,0,0,0,0,0,0,0,0,0,0,0,0,0,0,0,0,0,0,0,0,0,0,0,0,0,0,0,0,0,0,0,0,0,0,0,0,0,0,0],"id":5,"left_children":[1,3,5,7,9,11,13,15,17,19,21,-1,23,25,27,29,31,33,35,37,39,41,43,-1,45,47,49,-1,51,53,55,57,-1,-1,-1,59,61,63,-1,65,67,69,71,73,75,77,79,-1,-1,81,83,85,87,-1,-1,-1,-1,-1,-1,-1,-1,-1,-1,-1,-1,-1,-1,-1,-1,-1,-1,-1,-1,-1,-1,-1,-1,-1,-1,-1,-1,-1,-1,-1,-1,-1,-1,-1,-1],"loss_changes":[5.724883E2,3.2460123E2,1.6841736E2,2.1373181E2,1.5756918E2,1.10941246E2,2.5516803E2,8.731207E1,8.523408E1,6.747543E1,1.7864471E2,0E0,1.8786232E1,1.7976166E2,3.0667487E2,1.7972244E1,6.758496E1,2.4357185E1,3.0132793E1,6.807427E1,4.5815994E1,2.9564835E2,2.3450449E2,0E0,5.2521806E0,6.055863E0,1.8858679E2,0E0,1.15224396E2,2.0194515E1,1.968295E1,5.1737366E1,0E0,0E0,0E0,2.4046017E1,7.594078E0,1.3883556E1,0E0,6.880313E1,9.991629E1,7.939E1,2.025766E1,1.1924548E2,9.3396965E1,4.2809935E0,4.284855E0,0E0,0E0,1.5655933E2,4.7855927E1,1.6096164E2,6.061243E1,0E0,0E0,0E0,0E0,0E0,0E0,0E0,0E0,0E0,0E0,0E0,0E0,0E0,0E0,0E0,0E0,0E0,0E0,0E0,0E0,0E0,0E0,0E0,0E0,0E0,0E0,0E0,0E0,0E0,0E0,0E0,0E0,0E0,0E0,0E0,0E0],"parents":[2147483647,0,0,1,1,2,2,3,3,4,4,5,5,6,6,7,7,8,8,9,9,10,10,12,12,13,13,14,14,15,15,16,16,17,17,18,18,19,19,20,20,21,21,22,22,24,24,25,25,26,26,28,28,29,29,30,30,31,31,35,35,36,36,37,37,39,39,40,40,41,41,42,42,43,43,44,44,45,45,46,46,49,49,50,50,51,51,52,52],"right_children":[2,4,6,8,10,12,14,16,18,20,22,-1,24,26,28,30,32,34,36,38,40,42,44,-1,46,48,50,-1,52,54,56,58,-1,-1,-1,60,62,64,-1,66,68,70,72,74,76,78,80,-1,-1,82,84,86,88,-1,-1,-1,-1,-1,-1,-1,-1,-1,-1,-1,-1,-1,-1,-1,-1,-1,-1,-1,-1,-1,-1,-1,-1,-1,-1,-1,-1,-1,-1,-1,-1,-1,-1,-1,-1],"split_conditions":[5.0981668E2,8.6842E1,1.371534E2,1.0280066E0,-9.861657E-2,-7.236134E-1,1.4445E2,1.2558781E2,1.1165388E0,-1.8643329E0,9.074E1,-7.974626E-2,-5.717366E-2,-5.914078E-1,1.4547118E2,8.695356E1,2.709959E2,3.513235E-2,2.1528526E-1,2.5100973E-1,1.1591449E-1,2.689991E2,9.368E1,2.0806897E-2,1.2298E2,1.404548E2,5.784305E2,9.967733E-2,8.2318944E-1,-7.0201755E-2,8.624E1,2.6148248E-1,-1.8227214E-2,-6.635886E-2,-1.3209514E-2,8.708628E-2,-1.065066E-1,4.58266E6,6.933958E-2,-4.6777245E-1,1.4842204E2,8.701172E1,6.261567E-2,1.7726613E2,4.2153613E2,-4.10421E-1,5.823089E-1,2.2553785E-3,-1.7265052E-2,-2.450901E-2,1.4386359E2,-1.0836011E0,7.164478E-2,5.0643902E-2,1.2230281E-2,-5.1934947E-3,1.996621E-2,4.1833494E-2,9.056749E-2,-2.5967812E-2,1.0455424E-2,-0E0,2.6949946E-2,2.0330857E-2,-1.1715005E-2,-3.3767833E-3,-1.2205371E-2,-1.1791012E-2,8.611449E-3,1.4946523E-2,-1.0387955E-2,-5.019937E-2,-1.0366822E-1,1.862165E-2,6.74448E-2,1.9552985E-3,1.482289E-2,2.5088117E-3,-1.3922358E-2,1.1391246E-2,-5.8284295E-3,-1.6880715E-1,-6.539422E-2,-5.9677914E-2,-4.2620064E-3,5.5766203E-3,-5.0696667E-2,6.762132E-2,-4.750468E-3],"split_indices":[21,2,5,18,12,16,2,21,16,17,3,0,12,20,13,21,21,20,9,9,20,21,0,0,0,0,21,0,16,12,1,10,0,0,0,11,12,4,0,18,21,13,11,21,21,20,16,0,0,11,13,18,20,0,0,0,0,0,0,0,0,0,0,0,0,0,0,0,0,0,0,0,0,0,0,0,0,0,0,0,0,0,0,0,0,0,0,0,0],"split_type":[0,0,0,0,0,0,0,0,0,0,0,0,0,0,0,0,0,0,0,0,0,0,0,0,0,0,0,0,0,0,0,0,0,0,0,0,0,0,0,0,0,0,0,0,0,0,0,0,0,0,0,0,0,0,0,0,0,0,0,0,0,0,0,0,0,0,0,0,0,0,0,0,0,0,0,0,0,0,0,0,0,0,0,0,0,0,0,0,0],"sum_hessian":[4.617E3,4.453E3,1.64E2,1.56E2,4.297E3,4.1E1,1.23E2,1.15E2,4.1E1,1.333E3,2.964E3,3E0,3.8E1,4.8E1,7.5E1,4.5E1,7E1,1.1E1,3E1,1.6E1,1.317E3,1.98E2,2.766E3,1.4E1,2.4E1,1.1E1,3.7E1,4E0,7.1E1,1.8E1,2.7E1,6.7E1,3E0,5E0,6E0,1.5E1,1.5E1,1.1E1,5E0,1.063E3,2.54E2,1.76E2,2.2E1,6.5E1,2.701E3,1.2E1,1.2E1,5E0,6E0,1.9E1,1.8E1,6E1,1.1E1,6E0,1.2E1,1.4E1,1.3E1,6E1,7E0,8E0,7E0,3E0,1.2E1,5E0,6E0,7.57E2,3.06E2,8.9E1,1.65E2,3.7E1,1.39E2,1.8E1,4E0,4.8E1,1.7E1,2.556E3,1.45E2,3E0,9E0,9E0,3E0,8E0,1.1E1,1.1E1,7E0,1.6E1,4.4E1,3E0,8E0],"tree_param":{"num_deleted":"0","num_feature":"22","num_nodes":"89","size_leaf_vector":"1"}},{"base_weights":[-9.011985E-3,6.167074E-2,-1.9520595E0,1.2595793E0,1.7698463E-2,-1.6536234E-1,-3.1047776E0,1.9309161E0,-8.423919E-1,5.7592213E-2,-8.538114E-1,-7.7118564E-1,8.9725025E-2,-3.9646828E0,-7.46261E-2,-3.99434E-2,2.1605458E0,-1.900046E0,1.2397765E0,-2.1870922E-1,1.8195379E-1,-2.0222855E0,-3.2561904E-1,5.470217E-1,-2.244966E0,-4.4410634E0,-0E0,-1.048327E0,4.149967E-2,1.623357E0,3.6401768E0,-2.4060562E0,7.013536E-3,-0E0,2.831588E-2,1.2453878E-1,-3.56879E-1,-6.836783E-1,2.3633547E-1,-4.9753413E0,-1.5565534E0,-7.5730664E-1,8.3167297E-1,1.3319346E0,-2.2880686E-3,5.990605E-3,-2.8625402E0,-1.9932701E-3,-4.8361607E0,1.91058E-2,-2.6199602E-2,-3.0426197E-2,-0E0,-2.4211233E-2,2.8278174E-2,4.4778444E-2,1.1711415E-1,-4.648161E-2,-0E0,-1.0172362E-3,3.546496E-2,-6.551488E-3,1.4347559E-2,-2.2713046E-3,-2.8174087E-2,2.8429732E-2,2.7843583E-3,-2.6128286E-2,-1.0542004E-1,-5.0285067E-2,-1.6289167E-2,1.874229E-3,-2.7193E-2,-8.835594E-3,4.074644E-2,3.0640867E-2,7.5905826E-3,-5.3115975E-2,-0E0,-2.3470832E-2,-8.71216E-2,1.32051315E-2,-1.7593952E-2],"categories":[],"categories_nodes":[],"categories_segments":[],"categories_sizes":[],"default_left":[0,0,0,0,0,0,0,0,0,0,0,0,0,0,0,0,0,0,0,0,0,0,0,0,0,0,0,0,0,0,0,0,0,0,0,0,0,0,0,0,0,0,0,0,0,0,0,0,0,0,0,0,0,0,0,0,0,0,0,0,0,0,0,0,0,0,0,0,0,0,0,0,0,0,0,0,0,0,0,0,0,0,0],"id":6,"left_children":[1,3,5,7,9,11,13,15,17,19,21,23,-1,25,27,-1,29,31,33,35,37,39,41,43,45,47,49,51,-1,53,55,57,-1,-1,-1,59,61,63,65,67,69,71,73,75,-1,-1,77,-1,79,-1,-1,-1,81,-1,-1,-1,-1,-1,-1,-1,-1,-1,-1,-1,-1,-1,-1,-1,-1,-1,-1,-1,-1,-1,-1,-1,-1,-1,-1,-1,-1,-1,-1],"loss_changes":[6.336084E2,2.3189832E2,3.2886517E2,2.2300813E2,1.4779547E2,2.3056087E2,2.4976337E2,1.2739557E2,8.6660416E1,1.4066408E2,1.11128296E2,1.19812904E2,0E0,1.4634656E2,6.1674934E1,0E0,7.820703E1,3.4387566E1,9.558828E0,6.0474598E1,1.326573E2,6.258992E1,6.5425E1,1.9100574E1,5.1223328E1,1.0884851E2,2.0051352E1,1.8093254E1,0E0,5.446776E1,5.2477814E1,3.2157936E1,0E0,0E0,0E0,1.5046616E2,7.254734E1,9.741377E1,2.4157314E2,1.9274323E1,3.4850143E1,8.5212685E1,9.094849E1,4.467163E0,0E0,0E0,3.484369E1,0E0,1.3698486E2,0E0,0E0,0E0,9.280817E0,0E0,0E0,0E0,0E0,0E0,0E0,0E0,0E0,0E0,0E0,0E0,0E0,0E0,0E0,0E0,0E0,0E0,0E0,0E0,0E0,0E0,0E0,0E0,0E0,0E0,0E0,0E0,0E0,0E0,0E0],"parents":[2147483647,0,0,1,1,2,2,3,3,4,4,5,5,6,6,7,7,8,8,9,9,10,10,11,11,13,13,14,14,16,16,17,17,18,18,19,19,20,20,21,21,22,22,23,23,24,24,25,25,26,26,27,27,29,29,30,30,31,31,35,35,36,36,37,37,38,38,39,39,40,40,41,41,42,42,43,43,46,46,48,48,52,52],"right_children":[2,4,6,8,10,12,14,16,18,20,22,24,-1,26,28,-1,30,32,34,36,38,40,42,44,46,48,50,52,-1,54,56,58,-1,-1,-1,60,62,64,66,68,70,72,74,76,-1,-1,78,-1,80,-1,-1,-1,82,-1,-1,-1,-1,-1,-1,-1,-1,-1,-1,-1,-1,-1,-1,-1,-1,-1,-1,-1,-1,-1,-1,-1,-1,-1,-1,-1,-1,-1,-1],"split_conditions":[5.0981668E2,8.73493E1,2.4459285E-1,1.072297E0,1.7522635E2,1.472555E2,7.0094675E-2,2.7773213E-1,9.383552E-1,-9.861657E-2,-2.3332755E-1,1.3672078E2,8.9725025E-2,3.167246E-1,1.3392828E-1,-3.99434E-2,2.5548968E-2,3.7517142E-1,-1.9048242E-2,1.1354749E2,8.994E1,1.756715E2,4.3187015E2,-5.717366E-2,-1.42342E-1,-3.0261323E0,5.610528E2,1.6486E2,4.149967E-2,-3.2724562E-1,8.687E1,9.8044045E-2,7.013536E-3,-0E0,2.831588E-2,2.1238045E2,1.67055E2,1.9753452E2,9.368E1,1.7677174E2,4.3309206E-1,1.7977126E2,1.8077339E2,7.699167E-2,-2.2880686E-3,5.990605E-3,6.846086E-2,-1.9932701E-3,-2.3469208E-1,1.91058E-2,-2.6199602E-2,-3.0426197E-2,2.256016E-1,-2.4211233E-2,2.8278174E-2,4.4778444E-2,1.1711415E-1,-4.648161E-2,-0E0,-1.0172362E-3,3.546496E-2,-6.551488E-3,1.4347559E-2,-2.2713046E-3,-2.8174087E-2,2.8429732E-2,2.7843583E-3,-2.6128286E-2,-1.0542004E-1,-5.0285067E-2,-1.6289167E-2,1.874229E-3,-2.7193E-2,-8.835594E-3,4.074644E-2,3.0640867E-2,7.5905826E-3,-5.3115975E-2,-0E0,-2.3470832E-2,-8.71216E-2,1.32051315E-2,-1.7593952E-2],"split_indices":[21,0,15,18,8,0,12,15,15,12,7,8,0,9,9,0,7,9,11,14,3,14,21,12,10,18,21,0,0,12,0,7,0,0,0,21,2,21,0,8,15,8,13,9,0,0,12,0,6,0,0,0,6,0,0,0,0,0,0,0,0,0,0,0,0,0,0,0,0,0,0,0,0,0,0,0,0,0,0,0,0,0,0],"split_type":[0,0,0,0,0,0,0,0,0,0,0,0,0,0,0,0,0,0,0,0,0,0,0,0,0,0,0,0,0,0,0,0,0,0,0,0,0,0,0,0,0,0,0,0,0,0,0,0,0,0,0,0,0,0,0,0,0,0,0,0,0,0,0,0,0,0,0,0,0,0,0,0,0,0,0,0,0,0,0,0,0,0,0],"sum_hessian":[4.594E3,4.433E3,1.61E2,1.55E2,4.278E3,6.4E1,9.7E1,1.18E2,3.7E1,4.093E3,1.85E2,5.9E1,5E0,7.5E1,2.2E1,5E0,1.13E2,2.5E1,1.2E1,1.267E3,2.826E3,5.6E1,1.29E2,3.1E1,2.8E1,6.7E1,8E0,1.7E1,5E0,8.5E1,2.8E1,2.1E1,4E0,4E0,8E0,3.61E2,9.06E2,1.65E2,2.661E3,6E0,5E1,9.5E1,3.4E1,1.5E1,1.6E1,5E0,2.3E1,6E0,6.1E1,5E0,3E0,9E0,8E0,4E0,8.1E1,2.5E1,3E0,1.7E1,4E0,3.32E2,2.9E1,8.65E2,4.1E1,1.13E2,5.2E1,9.2E1,2.569E3,3E0,3E0,1E1,4E1,5E1,4.5E1,1.9E1,1.5E1,7E0,8E0,1.9E1,4E0,1.2E1,4.9E1,5E0,3E0],"tree_param":{"num_deleted":"0","num_feature":"22","num_nodes":"83","size_leaf_vector":"1"}},{"base_weights":[3.373362E-2,9.756946E-2,-1.8766587E0,1.197925E0,6.145431E-2,-7.547421E0,-1.460484E0,-0E0,1.9479759E0,1.0041692E-1,-8.836673E-1,-4.134698E-2,-1.8301514E-1,-3.860064E-1,-2.2177985E0,2.1681552E0,-1.1931418E0,-2.1543961E-2,2.1771157E0,-1.6881073E-1,2.0616789E-1,-1.7815094E0,-2.355669E-1,-1.0468407E0,8.8548385E-2,-4.113412E0,-7.950821E-1,5.3404372E-2,1.2063548E-1,-7.906757E-2,-8.4317304E-2,2.354129E0,4.23016E-2,2.3779614E0,-1.9110589E-1,1.3448542E-1,7.94124E-1,-3.0030725E0,-1.2272224E-1,-1.0778469E0,6.529744E-1,6.1704475E-2,-2.3800457E0,-5.124898E0,-9.5372564E-1,9.870803E-2,-1.5909165E0,-1.2995812E-2,2.044206E-2,8.83643E-3,-1.3402133E-2,2.4116565E-2,5.4113474E-2,1.4346612E-2,-1.1584056E-2,-0E0,7.782715E-2,-1.8879292E-3,-1.4417343E-2,2.4615633E-3,-3.497345E-2,1.4840244E-1,1.0652884E-2,-3.229207E-2,-1.10871516E-1,7.121325E-3,-1.5494631E-2,-0E0,-3.7347596E-2,3.4468397E-2,-6.4470093E-3,1.3949328E-2,-6.903995E-3,-3.2086924E-3,-4.8462402E-2,-0E0,-9.036982E-2,8.895175E-3,-2.9243652E-2,-3.3479437E-2,4.7456786E-2],"categories":[],"categories_nodes":[],"categories_segments":[],"categories_sizes":[],"default_left":[0,0,0,0,0,0,0,0,0,0,0,0,0,0,0,0,0,0,0,0,0,0,0,0,0,0,0,0,0,0,0,0,0,0,0,0,0,0,0,0,0,0,0,0,0,0,0,0,0,0,0,0,0,0,0,0,0,0,0,0,0,0,0,0,0,0,0,0,0,0,0,0,0,0,0,0,0,0,0,0,0],"id":7,"left_children":[1,3,5,7,9,11,13,15,17,19,21,-1,-1,23,25,27,29,-1,31,33,35,37,39,41,-1,43,45,-1,47,-1,49,51,53,55,57,59,61,63,65,67,69,71,73,75,77,-1,79,-1,-1,-1,-1,-1,-1,-1,-1,-1,-1,-1,-1,-1,-1,-1,-1,-1,-1,-1,-1,-1,-1,-1,-1,-1,-1,-1,-1,-1,-1,-1,-1,-1,-1],"loss_changes":[5.732539E2,1.7980353E2,3.3658038E2,1.3095984E2,1.6198938E2,1.5573615E2,1.12168915E2,1.4638704E2,7.17182E1,1.2111014E2,9.823509E1,0E0,0E0,2.4379109E2,2.1430841E2,4.6280968E1,1.5168039E2,0E0,2.8556671E1,6.5534744E1,1.2750435E2,1.4143579E2,7.8261856E1,8.58024E1,0E0,9.926129E1,2.808594E2,0E0,1.1795908E1,0E0,1.5925916E1,5.776886E1,6.345689E0,6.6844055E1,5.954895E1,1.4821875E2,3.0146466E2,1.3111298E2,1.7215792E1,7.448365E1,8.600763E1,1.3936993E1,3.6071167E1,8.79588E1,1.6636784E1,0E0,1.2045928E2,0E0,0E0,0E0,0E0,0E0,0E0,0E0,0E0,0E0,0E0,0E0,0E0,0E0,0E0,0E0,0E0,0E0,0E0,0E0,0E0,0E0,0E0,0E0,0E0,0E0,0E0,0E0,0E0,0E0,0E0,0E0,0E0,0E0,0E0],"parents":[2147483647,0,0,1,1,2,2,3,3,4,4,5,5,6,6,7,7,8,8,9,9,10,10,13,13,14,14,15,15,16,16,18,18,19,19,20,20,21,21,22,22,23,23,25,25,26,26,28,28,30,30,31,31,32,32,33,33,34,34,35,35,36,36,37,37,38,38,39,39,40,40,41,41,42,42,43,43,44,44,46,46],"right_children":[2,4,6,8,10,12,14,16,18,20,22,-1,-1,24,26,28,30,-1,32,34,36,38,40,42,-1,44,46,-1,48,-1,50,52,54,56,58,60,62,64,66,68,70,72,74,76,78,-1,80,-1,-1,-1,-1,-1,-1,-1,-1,-1,-1,-1,-1,-1,-1,-1,-1,-1,-1,-1,-1,-1,-1,-1,-1,-1,-1,-1,-1,-1,-1,-1,-1,-1,-1],"split_conditions":[5.156698E2,8.71047E1,-2.280008E-1,8.27835E1,1.756715E2,-2.4931967E-1,2.3326728E-1,7.82755E1,2.7773213E-1,-1.1396528E-1,3.4413617E2,-4.134698E-2,-1.8301514E-1,1.46927E2,1.4445E2,-8.639106E-2,6.3762826E-1,-2.1543961E-2,1.4496713E0,-1.8643329E0,1.5758229E2,-8.759722E-3,1.8026E2,1.371534E2,8.8548385E-2,1.139523E-1,1.4547118E2,5.3404372E-2,4.7279537E-1,-7.906757E-2,3.1772302E-3,-5.387703E-1,8.685E1,2.5100973E-1,-1.2567101E-1,4.7985828E2,1.565605E2,-1.0348051E-1,1.848E2,-6.116992E-2,1.831398E2,-3.4593504E-2,-6.813539E-2,-1.6297291E-1,2.1528526E-1,9.870803E-2,1.2363458E-1,-1.2995812E-2,2.044206E-2,8.83643E-3,-1.3402133E-2,2.4116565E-2,5.4113474E-2,1.4346612E-2,-1.1584056E-2,-0E0,7.782715E-2,-1.8879292E-3,-1.4417343E-2,2.4615633E-3,-3.497345E-2,1.4840244E-1,1.0652884E-2,-3.229207E-2,-1.10871516E-1,7.121325E-3,-1.5494631E-2,-0E0,-3.7347596E-2,3.4468397E-2,-6.4470093E-3,1.3949328E-2,-6.903995E-3,-3.2086924E-3,-4.8462402E-2,-0E0,-9.036982E-2,8.895175E-3,-2.9243652E-2,-3.3479437E-2,4.7456786E-2],"split_indices":[21,5,7,1,8,7,15,2,15,12,21,0,0,0,2,12,15,0,18,17,14,7,1,5,0,9,13,0,15,0,7,16,1,9,12,21,8,20,2,7,13,12,7,7,9,0,12,0,0,0,0,0,0,0,0,0,0,0,0,0,0,0,0,0,0,0,0,0,0,0,0,0,0,0,0,0,0,0,0,0,0],"split_type":[0,0,0,0,0,0,0,0,0,0,0,0,0,0,0,0,0,0,0,0,0,0,0,0,0,0,0,0,0,0,0,0,0,0,0,0,0,0,0,0,0,0,0,0,0,0,0,0,0,0,0,0,0,0,0,0,0,0,0,0,0,0,0,0,0,0,0,0,0,0,0,0,0,0,0,0,0,0,0,0,0],"sum_hessian":[4.717E3,4.566E3,1.51E2,1.43E2,4.423E3,9E0,1.42E2,5.5E1,8.8E1,4.25E3,1.73E2,5E0,4E0,6E1,8.2E1,1.9E1,3.6E1,5E0,8.3E1,1.195E3,3.055E3,7.1E1,1.02E2,5.5E1,5E0,3.4E1,4.8E1,1.1E1,8E0,7E0,2.9E1,7.6E1,7E0,9E0,1.186E3,2.726E3,3.29E2,4E1,3.1E1,5.3E1,4.9E1,3E1,2.5E1,2.5E1,9E0,4E0,4.4E1,4E0,4E0,1.5E1,1.4E1,4.6E1,3E1,4E0,3E0,5E0,4E0,1.085E3,1.01E2,2.701E3,2.5E1,3E0,3.26E2,3.4E1,6E0,1.8E1,1.3E1,3E1,2.3E1,2E1,2.9E1,1.2E1,1.8E1,7E0,1.8E1,3E0,2.2E1,3E0,6E0,4E1,4E0],"tree_param":{"num_deleted":"0","num_feature":"22","num_nodes":"81","size_leaf_vector":"1"}},{"base_weights":[1.1472294E-2,6.68515E-2,-1.5714478E0,1.2692393E0,2.694725E-2,-4.3756757E0,-1.0414137E0,1.7838975E0,-4.4579047E-1,-6.3725513E-1,6.0569037E-2,-8.253435E0,-2.235859E0,1.2762674E0,-1.7478911E0,1.1014549E0,2.9680784E0,-2.517955E0,7.941301E-1,-1.2990949E0,-2.6271817E-1,-2.8809078E-2,2.6349744E-1,-5.187927E-2,-1.6142318E-1,-4.6940544E-3,-5.3679567E-2,1.9068223E0,-4.943453E-2,-2.4073608E0,-4.33388E-2,-3.737904E-2,1.3051993E0,1.4274188E0,4.041056E0,-5.9313063E-2,-2.9122955E-3,1.05098635E-1,3.0950226E-2,-2.3086643E0,-7.6463413E-1,1.3351487E0,-5.9951246E-1,-1.4725383E-1,2.6111102E-1,4.0855193E-1,-1.2959655E-1,4.6103325E-1,4.3493104E0,-3.1396464E-2,-3.4075317E0,1.7691857E0,-1.8200349E0,3.0009845E-2,6.1959373E-3,3.1437237E-2,-1.2684242E-2,2.955834E-3,7.9451606E-2,-6.9641783E-3,1.5375391E-2,-5.496678E-2,-1.4366169E-2,1.3719115E-2,-1.4885533E-2,5.975819E-6,3.0644746E-2,-1.2078529E-2,9.155746E-3,1.4481651E-4,-9.519452E-3,9.212919E-3,-2.701129E-3,3.4048387E-3,1.3945747E-2,-2.7301759E-2,1.0110304E-3,2.2808203E-2,-2.0000884E-2,1.9109586E-2,8.3434634E-2,-9.276181E-3,1.8125312E-2,-7.26115E-2,-3.4004163E-2,-0E0,8.630821E-2,-3.7567772E-2,3.4038925E-3],"categories":[],"categories_nodes":[],"categories_segments":[],"categories_sizes":[],"default_left":[0,0,0,0,0,0,0,0,0,0,0,0,0,0,0,0,0,0,0,0,0,0,0,0,0,0,0,0,0,0,0,0,0,0,0,0,0,0,0,0,0,0,0,0,0,0,0,0,0,0,0,0,0,0,0,0,0,0,0,0,0,0,0,0,0,0,0,0,0,0,0,0,0,0,0,0,0,0,0,0,0,0,0,0,0,0,0,0,0],"id":8,"left_children":[1,3,5,7,9,11,13,15,17,19,21,23,25,27,29,31,33,35,37,39,41,43,45,-1,-1,-1,-1,47,-1,49,51,-1,53,55,57,-1,-1,59,-1,61,63,65,67,69,71,73,75,77,79,81,83,85,87,-1,-1,-1,-1,-1,-1,-1,-1,-1,-1,-1,-1,-1,-1,-1,-1,-1,-1,-1,-1,-1,-1,-1,-1,-1,-1,-1,-1,-1,-1,-1,-1,-1,-1,-1,-1],"loss_changes":[4.0193213E2,2.1191176E2,2.190315E2,1.27764725E2,9.556796E1,1.6774493E2,2.187791E2,8.05296E1,8.8770966E1,4.8724716E1,7.477923E1,3.1698792E1,3.3703156E1,9.084962E1,1.1136096E2,5.283133E1,5.189453E1,3.2937355E1,1.42886095E1,3.3743774E1,7.190324E1,9.765345E1,7.225043E1,0E0,0E0,0E0,0E0,9.06282E1,0E0,1.6884601E2,9.957505E1,0E0,3.498089E1,2.6699463E1,8.107623E1,0E0,0E0,8.363269E0,0E0,3.1563057E1,1.64244E1,1.6732445E1,2.3834988E1,1.4744318E2,1.182663E2,8.3617065E1,1.08672874E2,3.5048054E1,1.6348831E1,1.5340819E1,5.9552673E1,1.046091E2,2.2394032E1,0E0,0E0,0E0,0E0,0E0,0E0,0E0,0E0,0E0,0E0,0E0,0E0,0E0,0E0,0E0,0E0,0E0,0E0,0E0,0E0,0E0,0E0,0E0,0E0,0E0,0E0,0E0,0E0,0E0,0E0,0E0,0E0,0E0,0E0,0E0,0E0],"parents":[2147483647,0,0,1,1,2,2,3,3,4,4,5,5,6,6,7,7,8,8,9,9,10,10,11,11,12,12,13,13,14,14,15,15,16,16,17,17,18,18,19,19,20,20,21,21,22,22,27,27,29,29,30,30,32,32,33,33,34,34,37,37,39,39,40,40,41,41,42,42,43,43,44,44,45,45,46,46,47,47,48,48,49,49,50,50,51,51,52,52],"right_children":[2,4,6,8,10,12,14,16,18,20,22,24,26,28,30,32,34,36,38,40,42,44,46,-1,-1,-1,-1,48,-1,50,52,-1,54,56,58,-1,-1,60,-1,62,64,66,68,70,72,74,76,78,80,82,84,86,88,-1,-1,-1,-1,-1,-1,-1,-1,-1,-1,-1,-1,-1,-1,-1,-1,-1,-1,-1,-1,-1,-1,-1,-1,-1,-1,-1,-1,-1,-1,-1,-1,-1,-1,-1,-1],"split_conditions":[5.0981668E2,8.6842E1,-1.17827825E-1,1.072297E0,-3.761039E-1,-4.0723246E-2,-5.9081066E-2,-1.0921088E-2,1.2115761E0,1.2484796E2,3.88724E6,-8.843114E-1,-2.0459418E0,1.7674E2,7.0094675E-2,-3.2724562E-1,-1.115188E-1,8.25215E1,3.926899E-1,9.817881E-1,1.3353482E2,1.13420114E-1,1.356371E2,-5.187927E-2,-1.6142318E-1,-4.6940544E-3,-5.3679567E-2,1.455025E2,-4.943453E-2,1.371534E2,4.9456716E-2,-3.737904E-2,8.770184E1,-5.162319E-1,8.27835E1,-5.9313063E-2,-2.9122955E-3,1.3322748E-1,3.0950226E-2,1.1268E2,9.973064E-1,1.26518E2,3.3322226E-2,2.0730643E-1,2.3870748E-1,1.8031178E2,1.369888E2,1.367865E2,-1.7524645E-1,1.101598E-2,1.4445E2,6.279087E-1,1.64625E2,3.0009845E-2,6.1959373E-3,3.1437237E-2,-1.2684242E-2,2.955834E-3,7.9451606E-2,-6.9641783E-3,1.5375391E-2,-5.496678E-2,-1.4366169E-2,1.3719115E-2,-1.4885533E-2,5.975819E-6,3.0644746E-2,-1.2078529E-2,9.155746E-3,1.4481651E-4,-9.519452E-3,9.212919E-3,-2.701129E-3,3.4048387E-3,1.3945747E-2,-2.7301759E-2,1.0110304E-3,2.2808203E-2,-2.0000884E-2,1.9109586E-2,8.3434634E-2,-9.276181E-3,1.8125312E-2,-7.26115E-2,-3.4004163E-2,-0E0,8.630821E-2,-3.7567772E-2,3.4038925E-3],"split_indices":[21,2,12,18,12,6,12,7,16,13,4,16,18,0,12,12,16,0,9,15,14,7,14,0,0,0,0,0,0,5,7,0,14,18,1,0,0,11,0,1,15,1,16,9,7,21,14,0,6,7,2,16,2,0,0,0,0,0,0,0,0,0,0,0,0,0,0,0,0,0,0,0,0,0,0,0,0,0,0,0,0,0,0,0,0,0,0,0,0],"split_type":[0,0,0,0,0,0,0,0,0,0,0,0,0,0,0,0,0,0,0,0,0,0,0,0,0,0,0,0,0,0,0,0,0,0,0,0,0,0,0,0,0,0,0,0,0,0,0,0,0,0,0,0,0,0,0,0,0,0,0,0,0,0,0,0,0,0,0,0,0,0,0,0,0,0,0,0,0,0,0,0,0,0,0,0,0,0,0,0,0],"sum_hessian":[4.605E3,4.451E3,1.54E2,1.41E2,4.31E3,2.3E1,1.31E2,1.09E2,3.2E1,2.05E2,4.105E3,7E0,1.6E1,3E1,1.01E2,7.1E1,3.8E1,1.2E1,2E1,7.2E1,1.33E2,2.846E3,1.259E3,3E0,4E0,7E0,9E0,2.7E1,3E0,7.2E1,2.9E1,3E0,6.8E1,1.7E1,2.1E1,7E0,5E0,1.4E1,6E0,2.3E1,4.9E1,2.2E1,1.11E2,2.024E3,8.22E2,9.22E2,3.37E2,1.8E1,9E0,2.2E1,5E1,1.4E1,1.5E1,3.9E1,2.9E1,1.4E1,3E0,5E0,1.6E1,8E0,6E0,1.1E1,1.2E1,4E0,4.5E1,8E0,1.4E1,9.8E1,1.3E1,1.511E3,5.13E2,4.69E2,3.53E2,6.65E2,2.57E2,3.6E1,3.01E2,1.2E1,6E0,3E0,6E0,1.6E1,6E0,2.3E1,2.7E1,1E1,4E0,1.2E1,3E0],"tree_param":{"num_deleted":"0","num_feature":"22","num_nodes":"89","size_leaf_vector":"1"}},{"base_weights":[2.1732468E-2,8.517285E-2,-1.8010483E0,1.343579E0,3.9396975E-2,2.6110917E-1,-2.3084104E0,1.8596271E0,-3.924494E-1,6.966128E-2,-6.964421E-1,2.173725E-2,-2.8106716E-1,-3.585634E0,-1.1679932E0,1.3515912E0,2.7224817E0,-1.5317373E0,8.9483607E-1,-1.1000484E-1,2.2884698E-1,-1.5164912E0,-7.421892E-2,-9.6343654E-1,1.2307115E-2,-2.5763578E0,-6.804568E0,-3.7182264E0,-2.8985104E-1,6.2739365E-2,1.021051E0,2.9651906E0,-9.743508E-4,-2.551305E0,1.5086393E-1,3.1526845E-2,3.0000463E-1,-3.1014997E-1,1.3033402E-1,-1.1273811E0,2.7443835E-1,-5.283651E0,-9.4665575E-1,1.6549813E0,-3.0329308E-1,-1.9413965E-2,-0E0,-3.018104E0,1.0296025E-2,-1.4143296E-1,-1.8054385E-2,5.8656866E-3,-4.7161665E0,-1.6311986E0,2.0600998E0,-6.6606095E-4,2.228176E-2,1.3580874E-2,5.47199E-2,-5.244483E-2,-1.32217575E-2,2.1156602E-2,-9.059317E-3,-0E0,1.9371755E-2,1.6285025E-2,-5.613948E-3,6.71339E-3,-4.619599E-3,-0E0,-2.9284935E-2,2.8644383E-2,2.8847423E-3,-1.242245E-1,-0E0,-2.6595034E-2,3.9146347E-3,3.4614924E-2,-0E0,-8.840549E-3,1.8156454E-2,3.485332E-3,-5.1715445E-2,-2.7324924E-2,-1.13594845E-1,4.896909E-3,-3.7395008E-2,-2.6089963E-2,5.073033E-2],"categories":[],"categories_nodes":[],"categories_segments":[],"categories_sizes":[],"default_left":[0,0,0,0,0,0,0,0,0,0,0,0,0,0,0,0,0,0,0,0,0,0,0,0,0,0,0,0,0,0,0,0,0,0,0,0,0,0,0,0,0,0,0,0,0,0,0,0,0,0,0,0,0,0,0,0,0,0,0,0,0,0,0,0,0,0,0,0,0,0,0,0,0,0,0,0,0,0,0,0,0,0,0,0,0,0,0,0,0],"id":9,"left_children":[1,3,5,7,9,11,13,15,17,19,21,-1,23,25,27,29,31,33,35,37,39,41,43,45,-1,47,49,51,53,-1,55,57,-1,59,61,-1,63,65,67,69,71,73,75,77,79,-1,-1,81,-1,-1,-1,-1,83,85,87,-1,-1,-1,-1,-1,-1,-1,-1,-1,-1,-1,-1,-1,-1,-1,-1,-1,-1,-1,-1,-1,-1,-1,-1,-1,-1,-1,-1,-1,-1,-1,-1,-1,-1],"loss_changes":[5.3288086E2,2.557815E2,1.6531653E2,1.4228683E2,9.5379456E1,2.0788681E1,1.719231E2,4.4298798E1,5.484385E1,1.1883745E2,8.4060905E1,0E0,1.623804E1,1.5957849E2,1.4600916E2,5.927278E1,3.292917E1,3.7669216E1,7.7948494E0,9.387436E1,1.3547566E2,1.4171063E2,3.754351E1,3.9964352E0,0E0,7.060385E1,1.4207538E2,7.650337E1,1.6639684E2,0E0,3.295913E1,3.6771362E1,0E0,9.756073E0,8.746992E0,0E0,4.9209986E0,7.0937E1,1.1303353E2,6.10561E1,2.9553452E2,1.2714203E2,6.0275097E1,9.119053E0,3.3809303E1,0E0,0E0,4.3905518E1,0E0,0E0,0E0,0E0,8.2314575E1,5.38947E1,9.138126E1,0E0,0E0,0E0,0E0,0E0,0E0,0E0,0E0,0E0,0E0,0E0,0E0,0E0,0E0,0E0,0E0,0E0,0E0,0E0,0E0,0E0,0E0,0E0,0E0,0E0,0E0,0E0,0E0,0E0,0E0,0E0,0E0,0E0,0E0],"parents":[2147483647,0,0,1,1,2,2,3,3,4,4,5,5,6,6,7,7,8,8,9,9,10,10,12,12,13,13,14,14,15,15,16,16,17,17,18,18,19,19,20,20,21,21,22,22,23,23,25,25,26,26,27,27,28,28,30,30,31,31,33,33,34,34,36,36,37,37,38,38,39,39,40,40,41,41,42,42,43,43,44,44,47,47,52,52,53,53,54,54],"right_children":[2,4,6,8,10,12,14,16,18,20,22,-1,24,26,28,30,32,34,36,38,40,42,44,46,-1,48,50,52,54,-1,56,58,-1,60,62,-1,64,66,68,70,72,74,76,78,80,-1,-1,82,-1,-1,-1,-1,84,86,88,-1,-1,-1,-1,-1,-1,-1,-1,-1,-1,-1,-1,-1,-1,-1,-1,-1,-1,-1,-1,-1,-1,-1,-1,-1,-1,-1,-1,-1,-1,-1,-1,-1,-1],"split_conditions":[5.0981668E2,8.71047E1,1.3672078E2,1.1514652E0,1.756715E2,-5.717366E-2,1.44845E2,-1.4824619E-2,1.5698136E0,1.8280457E2,3.4413617E2,2.173725E-2,-6.581931E-4,1.437435E2,-1.3751961E-1,7.824868E1,8.702595E1,8.6123535E1,7.855E1,3.931097E6,8.994E1,5.476252E-1,3.4829364E2,1.4162605E-1,1.2307115E-2,1.438797E2,1.6200498E-1,2.3326728E-1,1.690045E6,6.2739365E-2,8.608797E1,8.27835E1,-9.743508E-4,8.269414E-1,8.651E1,3.1526845E-2,2.6148248E-1,8.806E1,1.0424776E0,-7.0586298E-3,1.045734E2,-8.759722E-3,3.526937E-2,8.4546834E-2,2.8002512E-1,-1.9413965E-2,-0E0,-2.4924871E-1,1.0296025E-2,-1.4143296E-1,-1.8054385E-2,5.8656866E-3,5.254188E2,5.254188E2,-2.4924871E-1,-6.6606095E-4,2.228176E-2,1.3580874E-2,5.47199E-2,-5.244483E-2,-1.32217575E-2,2.1156602E-2,-9.059317E-3,-0E0,1.9371755E-2,1.6285025E-2,-5.613948E-3,6.71339E-3,-4.619599E-3,-0E0,-2.9284935E-2,2.8644383E-2,2.8847423E-3,-1.242245E-1,-0E0,-2.6595034E-2,3.9146347E-3,3.4614924E-2,-0E0,-8.840549E-3,1.8156454E-2,3.485332E-3,-5.1715445E-2,-2.7324924E-2,-1.13594845E-1,4.896909E-3,-3.7395008E-2,-2.6089963E-2,5.073033E-2],"split_indices":[21,5,8,18,8,12,3,7,16,21,21,0,7,3,10,8,8,8,3,4,3,15,21,6,0,8,16,15,4,0,13,1,0,15,3,0,10,3,15,12,5,7,7,7,12,0,0,9,0,0,0,0,21,21,9,0,0,0,0,0,0,0,0,0,0,0,0,0,0,0,0,0,0,0,0,0,0,0,0,0,0,0,0,0,0,0,0,0,0],"split_type":[0,0,0,0,0,0,0,0,0,0,0,0,0,0,0,0,0,0,0,0,0,0,0,0,0,0,0,0,0,0,0,0,0,0,0,0,0,0,0,0,0,0,0,0,0,0,0,0,0,0,0,0,0,0,0,0,0,0,0,0,0,0,0,0,0,0,0,0,0,0,0,0,0,0,0,0,0,0,0,0,0,0,0,0,0,0,0,0,0],"sum_hessian":[4.625E3,4.471E3,1.54E2,1.55E2,4.316E3,3E1,1.24E2,1.2E2,3.5E1,4.148E3,1.68E2,1E1,2E1,5.7E1,6.7E1,7.8E1,4.2E1,1.9E1,1.6E1,1.945E3,2.203E3,7.1E1,9.7E1,1.3E1,7E0,4.5E1,1.2E1,1.6E1,5.1E1,7E0,7.1E1,3.9E1,3E0,1.2E1,7E0,4E0,1.2E1,1.064E3,8.81E2,7E1,2.133E3,8E0,6.3E1,1E1,8.7E1,1E1,3E0,4E1,5E0,8E0,4E0,3E0,1.3E1,3.3E1,1.8E1,1.9E1,5.2E1,9E0,3E1,7E0,5E0,3E0,4E0,9E0,3E0,3.6E1,1.028E3,5.19E2,3.62E2,2.8E1,4.2E1,1.14E2,2.019E3,5E0,3E0,3.9E1,2.4E1,7E0,3E0,7.5E1,1.2E1,3E0,3.7E1,7E0,6E0,9E0,2.4E1,4E0,1.4E1],"tree_param":{"num_deleted":"0","num_feature":"22","num_nodes":"89","size_leaf_vector":"1"}},{"base_weights":[-0E0,7.216413E-2,-2.0068202E0,1.1693615E0,2.682919E-2,-7.7763414E0,-1.6459838E0,1.6760242E0,-1.7904954E-1,6.713114E-2,-1.013126E0,-6.326873E-3,-1.7498396E-1,-2.7368054E0,-4.1147065E-1,2.2487702E0,3.7571007E-1,-1.3625802E0,1.007465E0,2.7939925E-2,9.957918E-1,-2.3251042E0,-5.233186E-1,9.982262E-2,-3.706101E0,-1.6234219E0,1.5490903E0,1.1797522E0,3.3636892E0,9.280455E-1,-4.3789145E-2,-3.0098207E0,5.614098E-1,3.530538E-2,3.9684457E-1,-2.5123757E-1,1.3993469E-1,7.3828536E-1,3.127127E0,-1.5680842E0,-8.955447E-2,-7.418096E-1,1.5389621E0,-8.4622E-3,8.503004E-1,-5.3040876E0,-2.540294E0,4.8341978E-1,-3.042536E0,-4.3769117E-2,2.9189773E0,4.042064E-2,-0E0,7.0185885E-2,3.5579145E-2,6.4438274E-3,2.6743876E-2,-1.1201449E-2,-5.8271404E-2,2.0962108E-2,-1.5923237E-2,-4.445086E-3,1.3562653E-2,-2.19154E-3,-1.2066418E-2,-1.0507725E-2,3.0509862E-3,2.0019967E-2,-2.1886337E-3,7.066416E-2,-0E0,-9.233284E-3,-4.1775383E-2,4.3718508E-3,-2.1086486E-2,-2.8232094E-3,3.700036E-2,1.9974874E-2,-0E0,-1.3422437E-1,-5.282564E-2,-4.5983985E-2,6.1169565E-3,2.5868643E-2,-3.5718032E-3,-1.8121375E-2,-6.4340964E-2,-3.0392412E-2,6.0158197E-2],"categories":[],"categories_nodes":[],"categories_segments":[],"categories_sizes":[],"default_left":[0,0,0,0,0,0,0,0,0,0,0,0,0,0,0,0,0,0,0,0,0,0,0,0,0,0,0,0,0,0,0,0,0,0,0,0,0,0,0,0,0,0,0,0,0,0,0,0,0,0,0,0,0,0,0,0,0,0,0,0,0,0,0,0,0,0,0,0,0,0,0,0,0,0,0,0,0,0,0,0,0,0,0,0,0,0,0,0,0],"id":10,"left_children":[1,3,5,7,9,11,13,15,17,19,21,-1,-1,23,25,27,29,31,33,35,37,39,41,43,45,47,49,51,53,55,-1,57,59,-1,61,63,65,67,69,71,-1,73,75,-1,77,79,81,83,85,-1,87,-1,-1,-1,-1,-1,-1,-1,-1,-1,-1,-1,-1,-1,-1,-1,-1,-1,-1,-1,-1,-1,-1,-1,-1,-1,-1,-1,-1,-1,-1,-1,-1,-1,-1,-1,-1,-1,-1],"loss_changes":[6.67284E2,2.1918616E2,3.0874628E2,1.2172902E2,1.7756326E2,2.0746252E2,1.995144E2,9.112283E1,6.909567E1,1.4813474E2,9.6692795E1,0E0,0E0,2.2480182E2,1.7582327E2,9.5227936E1,7.2028435E1,8.382014E1,1.4087637E1,1.2317263E2,8.337952E1,9.0473236E1,5.275955E1,1.0928014E1,8.881995E1,1.4206415E2,1.7462354E2,7.5190636E1,3.310916E1,1.1149954E1,0E0,1.4894592E1,1.6493359E1,0E0,6.7622643E0,6.3846268E1,1.2683673E2,7.288936E1,7.924704E1,3.3224182E1,0E0,6.8330826E1,1.8882519E1,0E0,5.106886E0,1.0849054E2,4.838153E1,1.8041183E1,4.547696E1,0E0,1.0953357E2,0E0,0E0,0E0,0E0,0E0,0E0,0E0,0E0,0E0,0E0,0E0,0E0,0E0,0E0,0E0,0E0,0E0,0E0,0E0,0E0,0E0,0E0,0E0,0E0,0E0,0E0,0E0,0E0,0E0,0E0,0E0,0E0,0E0,0E0,0E0,0E0,0E0,0E0],"parents":[2147483647,0,0,1,1,2,2,3,3,4,4,5,5,6,6,7,7,8,8,9,9,10,10,13,13,14,14,15,15,16,16,17,17,18,18,19,19,20,20,21,21,22,22,23,23,24,24,25,25,26,26,27,27,28,28,29,29,31,31,32,32,34,34,35,35,36,36,37,37,38,38,39,39,41,41,42,42,44,44,45,45,46,46,47,47,48,48,50,50],"right_children":[2,4,6,8,10,12,14,16,18,20,22,-1,-1,24,26,28,30,32,34,36,38,40,42,44,46,48,50,52,54,56,-1,58,60,-1,62,64,66,68,70,72,-1,74,76,-1,78,80,82,84,86,-1,88,-1,-1,-1,-1,-1,-1,-1,-1,-1,-1,-1,-1,-1,-1,-1,-1,-1,-1,-1,-1,-1,-1,-1,-1,-1,-1,-1,-1,-1,-1,-1,-1,-1,-1,-1,-1,-1,-1],"split_conditions":[5.0981668E2,8.73493E1,-2.280008E-1,1.072297E0,1.756715E2,-2.544103E-1,1.641533E6,8.770184E1,1.4190694E0,4.2153613E2,1.7706E2,-6.326873E-3,-1.7498396E-1,1.368899E2,1.45062E2,8.6123535E1,3.0404416E2,8.6123535E1,3.035028E6,-1.1396528E-1,9.778478E-2,1.9221422E-1,4.4244135E2,1.2253E2,1.44068E2,1.3711E2,-3.0977345E-1,-8.639106E-2,8.701172E1,3.915427E-2,-4.3789145E-2,9.4133606E1,8.6326965E1,3.530538E-2,2.0043652E0,4.173913E-1,8.994E1,-3.0809022E-2,9.593818E-1,1.7704224E2,-8.955447E-2,1.7977126E2,-5.231039E-2,-8.4622E-3,1.3677E2,-5.203955E-2,8.69338E-2,-6.0973864E-2,-1.1055873E-1,-4.3769117E-2,-3.4568098E-1,4.042064E-2,-0E0,7.0185885E-2,3.5579145E-2,6.4438274E-3,2.6743876E-2,-1.1201449E-2,-5.8271404E-2,2.0962108E-2,-1.5923237E-2,-4.445086E-3,1.3562653E-2,-2.19154E-3,-1.2066418E-2,-1.0507725E-2,3.0509862E-3,2.0019967E-2,-2.1886337E-3,7.066416E-2,-0E0,-9.233284E-3,-4.1775383E-2,4.3718508E-3,-2.1086486E-2,-2.8232094E-3,3.700036E-2,1.9974874E-2,-0E0,-1.3422437E-1,-5.282564E-2,-4.5983985E-2,6.1169565E-3,2.5868643E-2,-3.5718032E-3,-1.8121375E-2,-6.4340964E-2,-3.0392412E-2,6.0158197E-2],"split_indices":[21,0,7,18,8,11,4,14,16,21,1,0,0,2,2,8,21,8,4,12,12,12,21,0,0,2,10,11,13,9,0,21,13,0,16,6,3,12,16,14,0,8,6,0,2,11,12,9,6,0,9,0,0,0,0,0,0,0,0,0,0,0,0,0,0,0,0,0,0,0,0,0,0,0,0,0,0,0,0,0,0,0,0,0,0,0,0,0,0],"split_type":[0,0,0,0,0,0,0,0,0,0,0,0,0,0,0,0,0,0,0,0,0,0,0,0,0,0,0,0,0,0,0,0,0,0,0,0,0,0,0,0,0,0,0,0,0,0,0,0,0,0,0,0,0,0,0,0,0,0,0,0,0,0,0,0,0,0,0,0,0,0,0,0,0,0,0,0,0,0,0,0,0,0,0,0,0,0,0,0,0],"sum_hessian":[4.596E3,4.437E3,1.59E2,1.74E2,4.263E3,8E0,1.51E2,1.27E2,4.7E1,4.106E3,1.57E2,3E0,5E0,7.9E1,7.2E1,8.7E1,4E1,2.4E1,2.3E1,3.942E3,1.64E2,4.1E1,1.16E2,2E1,5.9E1,4.5E1,2.7E1,4.6E1,4.1E1,3.5E1,5E0,1.3E1,1.1E1,6E0,1.7E1,1.125E3,2.817E3,1.48E2,1.6E1,3.5E1,6E0,1.06E2,1E1,1E1,1E1,2.3E1,3.6E1,1.8E1,2.7E1,6E0,2.1E1,2E1,2.6E1,1.8E1,2.3E1,2.3E1,1.2E1,4E0,9E0,8E0,3E0,6E0,1.1E1,9.31E2,1.94E2,1.78E2,2.639E3,9.2E1,5.6E1,1.1E1,5E0,2E1,1.5E1,3.9E1,6.7E1,3E0,7E0,7E0,3E0,7E0,1.6E1,3.2E1,4E0,7E0,1.1E1,1.1E1,1.6E1,3E0,1.8E1],"tree_param":{"num_deleted":"0","num_feature":"22","num_nodes":"89","size_leaf_vector":"1"}},{"base_weights":[5.2062576E-3,7.189588E-2,-1.9262959E0,1.1473086E0,3.2013975E-2,-3.8490687E-2,-2.5122705E0,1.8258027E0,-5.3108454E-1,-6.312105E-1,8.554314E-2,1.3279642E0,-7.684142E-1,-3.060736E0,7.85821E-2,2.064756E0,-1.9506804E0,1.2069296E0,-1.8465222E0,6.971724E-2,-1.3191197E0,-7.155999E-1,1.378835E-1,3.091919E-3,2.8927486E-2,-4.5537867E-2,-3.1073728E-1,-7.344269E0,-2.5284567E0,-7.3467666E-1,6.366881E-2,1.0544206E0,2.5809553E0,-0E0,-5.4257736E-2,1.6569619E0,-0E0,-2.403183E0,4.4694007E-3,-1.2024587E-1,4.4249797E0,-8.151769E-1,-3.580618E0,-3.7712178E-1,-3.2726495E0,1.6005774E0,1.03260905E-1,-6.061421E-1,4.177731E-3,-1.7413379E-1,-6.22386E-2,-4.503362E0,-1.562347E0,-1.6137743E0,2.7684767E-3,8.569951E-3,3.6608934E-2,4.4526123E-2,-1.4215609E-3,2.981944E-3,3.2129765E-2,-0E0,-4.4226643E-2,-1.3141686E-2,7.5390623E-3,1.0330358E-1,1.3132801E-2,-1.7447134E-2,1.1446465E-2,-1.8216617E-2,-1.0633637E-1,-7.532864E-3,3.5802815E-2,1.1444994E-2,-6.957094E-2,-6.857379E-3,4.958561E-2,-1.5456941E-3,4.221417E-3,2.0746016E-3,-1.6125152E-2,-7.463748E-3,-8.278605E-2,-3.4579553E-2,3.6294907E-2,-4.062077E-2,2.965749E-3],"categories":[],"categories_nodes":[],"categories_segments":[],"categories_sizes":[],"default_left":[0,0,0,0,0,0,0,0,0,0,0,0,0,0,0,0,0,0,0,0,0,0,0,0,0,0,0,0,0,0,0,0,0,0,0,0,0,0,0,0,0,0,0,0,0,0,0,0,0,0,0,0,0,0,0,0,0,0,0,0,0,0,0,0,0,0,0,0,0,0,0,0,0,0,0,0,0,0,0,0,0,0,0,0,0,0,0],"id":11,"left_children":[1,3,5,7,9,11,13,15,17,19,21,23,25,27,29,31,33,35,37,39,41,43,45,-1,-1,-1,47,49,51,53,-1,55,57,-1,-1,59,-1,61,-1,63,65,67,69,71,73,75,77,79,-1,-1,-1,81,83,85,-1,-1,-1,-1,-1,-1,-1,-1,-1,-1,-1,-1,-1,-1,-1,-1,-1,-1,-1,-1,-1,-1,-1,-1,-1,-1,-1,-1,-1,-1,-1,-1,-1],"loss_changes":[5.9427185E2,1.9051001E2,1.669383E2,1.8359125E2,1.527179E2,3.8104397E1,1.7023816E2,1.0680347E2,1.07992355E2,1.5644357E2,1.6707936E2,4.710739E0,2.0527481E1,1.9074225E2,7.530824E1,4.905194E1,2.1300903E1,1.1985361E1,3.536669E1,1.3753131E2,1.772984E2,2.052875E2,1.8791864E2,0E0,0E0,0E0,4.5097485E0,6.564606E1,1.5334259E2,1.6506481E1,0E0,2.0479015E1,5.464737E1,0E0,0E0,5.546753E0,0E0,2.5417206E1,0E0,6.74551E1,3.9792465E1,6.4546585E1,2.0809088E2,5.9900917E1,1.405867E2,2.8128546E2,1.24472015E2,6.6354146E0,0E0,0E0,0E0,8.0316284E1,1.5958923E2,2.1315868E1,0E0,0E0,0E0,0E0,0E0,0E0,0E0,0E0,0E0,0E0,0E0,0E0,0E0,0E0,0E0,0E0,0E0,0E0,0E0,0E0,0E0,0E0,0E0,0E0,0E0,0E0,0E0,0E0,0E0,0E0,0E0,0E0,0E0],"parents":[2147483647,0,0,1,1,2,2,3,3,4,4,5,5,6,6,7,7,8,8,9,9,10,10,11,11,12,12,13,13,14,14,15,15,16,16,17,17,18,18,19,19,20,20,21,21,22,22,26,26,27,27,28,28,29,29,31,31,32,32,35,35,37,37,39,39,40,40,41,41,42,42,43,43,44,44,45,45,46,46,47,47,51,51,52,52,53,53],"right_children":[2,4,6,8,10,12,14,16,18,20,22,24,26,28,30,32,34,36,38,40,42,44,46,-1,-1,-1,48,50,52,54,-1,56,58,-1,-1,60,-1,62,-1,64,66,68,70,72,74,76,78,80,-1,-1,-1,82,84,86,-1,-1,-1,-1,-1,-1,-1,-1,-1,-1,-1,-1,-1,-1,-1,-1,-1,-1,-1,-1,-1,-1,-1,-1,-1,-1,-1,-1,-1,-1,-1,-1,-1],"split_conditions":[5.156698E2,8.73493E1,1.3732E2,7.722698E-1,-4.5543388E-1,-6.119121E-2,7.0094675E-2,2.709959E2,9.074666E1,1.430985E2,9.1131E1,1.21503E2,-9.610078E-2,-2.9405436E-1,1.6683E2,1.27122E2,8.6556E1,8.370388E1,2.766038E-1,1.413373E2,2.256016E-1,2.689991E2,9.368E1,3.091919E-3,2.8927486E-2,-4.5537867E-2,5.049259E-2,-1.0948168E-1,1.4386359E2,5.495811E2,6.366881E-2,-7.522109E-3,7.013296E-2,-0E0,-5.4257736E-2,2.9909E-3,-0E0,-1.0599879E-1,4.4694007E-3,-1.9389705E-1,1.42183E2,-7.335557E-1,-4.770304E-1,2.602586E2,-8.806473E-2,-7.0201755E-2,1.8280457E2,-3.9504603E-1,4.177731E-3,-1.7413379E-1,-6.22386E-2,-7.73919E-1,6.6120447E2,1.3317014E-1,2.7684767E-3,8.569951E-3,3.6608934E-2,4.4526123E-2,-1.4215609E-3,2.981944E-3,3.2129765E-2,-0E0,-4.4226643E-2,-1.3141686E-2,7.5390623E-3,1.0330358E-1,1.3132801E-2,-1.7447134E-2,1.1446465E-2,-1.8216617E-2,-1.0633637E-1,-7.532864E-3,3.5802815E-2,1.1444994E-2,-6.957094E-2,-6.857379E-3,4.958561E-2,-1.5456941E-3,4.221417E-3,2.0746016E-3,-1.6125152E-2,-7.463748E-3,-8.278605E-2,-3.4579553E-2,3.6294907E-2,-4.062077E-2,2.965749E-3],"split_indices":[21,0,0,18,20,12,12,21,21,13,3,0,11,9,0,21,0,21,9,1,10,21,0,0,0,0,20,12,13,21,0,20,11,0,0,20,0,10,0,6,1,18,16,21,12,12,21,20,0,0,0,16,21,12,0,0,0,0,0,0,0,0,0,0,0,0,0,0,0,0,0,0,0,0,0,0,0,0,0,0,0,0,0,0,0,0,0],"split_type":[0,0,0,0,0,0,0,0,0,0,0,0,0,0,0,0,0,0,0,0,0,0,0,0,0,0,0,0,0,0,0,0,0,0,0,0,0,0,0,0,0,0,0,0,0,0,0,0,0,0,0,0,0,0,0,0,0,0,0,0,0,0,0,0,0,0,0,0,0,0,0,0,0,0,0,0,0,0,0,0,0,0,0,0,0,0,0],"sum_hessian":[4.63E3,4.477E3,1.53E2,1.58E2,4.319E3,3.7E1,1.16E2,1.13E2,4.5E1,3.2E2,3.999E3,1.2E1,2.5E1,9.6E1,2E1,1.07E2,6E0,1.9E1,2.6E1,1.58E2,1.62E2,2.43E2,3.756E3,5E0,7E0,3E0,2.2E1,9E0,8.7E1,1.7E1,3E0,3.8E1,6.9E1,3E0,3E0,1.4E1,5E0,2.1E1,5E0,1.52E2,6E0,1.34E2,2.8E1,2.16E2,2.7E1,8.5E1,3.671E3,1.6E1,6E0,3E0,6E0,2.7E1,6E1,9E0,8E0,2.9E1,9E0,6.3E1,6E0,4E0,1E1,3E0,1.8E1,7E1,8.2E1,3E0,3E0,1.13E2,2.1E1,1.7E1,1.1E1,2.09E2,7E0,6E0,2.1E1,3.7E1,4.8E1,1.658E3,2.013E3,5E0,1.1E1,5E0,2.2E1,5.2E1,8E0,6E0,3E0],"tree_param":{"num_deleted":"0","num_feature":"22","num_nodes":"87","size_leaf_vector":"1"}},{"base_weights":[-2.6716953E-3,6.596264E-2,-1.3657314E0,1.1993614E0,2.9219963E-2,-6.205019E0,-1.1297085E0,1.8116255E0,-3.135497E-1,-1.2696837E-1,1.6283743E-1,-3.558574E-2,-1.7624332E-1,-1.3593526E-1,-1.7943944E0,1.3743765E0,3.2275295E0,-1.3717993E0,8.602919E-1,-4.2805538E-1,-1.3929321E-2,-1.4512036E0,2.1576488E-1,6.5729804E-2,-4.6171227E-1,-1.3627282E-1,-1.4932185E0,3.760787E0,1.1078731E0,-1.6183501E-2,4.022304E0,-2.649949E0,6.2277454E-1,3.5943363E-2,1.4724327E-3,-3.2558823E-1,-1.3326741E0,1.5707383E0,-4.6174705E-2,-8.853749E-1,-1.1650791E-1,1.7197331E0,1.2575206E-1,-1.6317526E-1,-5.4923728E-2,-2.2603734E0,1.4148448E-1,7.801017E-2,2.0188674E-2,-0E0,2.5024043E-2,1.0935874E-2,7.460952E-2,-4.8968434E-2,-5.240419E-3,-8.454684E-3,3.006962E-2,3.1061584E-2,-5.6386376E-3,-9.020989E-3,-3.8846415E-2,1.4353815E-2,5.6421187E-2,6.422127E-4,-9.99587E-3,-3.3417451E-3,-3.471468E-2,3.615956E-2,-6.3547017E-3,-1.4584634E-3,5.648507E-3,-1.05712805E-2,2.3274133E-2,-1.1382691E-2,-4.5291744E-2,-5.1911683E-3,4.867858E-2],"categories":[],"categories_nodes":[],"categories_segments":[],"categories_sizes":[],"default_left":[0,0,0,0,0,0,0,0,0,0,0,0,0,0,0,0,0,0,0,0,0,0,0,0,0,0,0,0,0,0,0,0,0,0,0,0,0,0,0,0,0,0,0,0,0,0,0,0,0,0,0,0,0,0,0,0,0,0,0,0,0,0,0,0,0,0,0,0,0,0,0,0,0,0,0,0,0],"id":12,"left_children":[1,3,5,7,9,11,13,15,17,19,21,-1,-1,23,25,27,29,31,33,35,37,39,41,-1,43,-1,45,47,49,-1,51,53,55,-1,-1,57,59,61,63,65,-1,67,69,71,-1,73,75,-1,-1,-1,-1,-1,-1,-1,-1,-1,-1,-1,-1,-1,-1,-1,-1,-1,-1,-1,-1,-1,-1,-1,-1,-1,-1,-1,-1,-1,-1],"loss_changes":[4.369548E2,1.8283107E2,2.3972507E2,1.3024438E2,8.9636444E1,1.568258E2,1.392779E2,5.11438E1,5.140463E1,6.6644226E1,1.9672925E2,0E0,0E0,1.21609406E2,2.4183472E2,3.937274E1,8.218912E1,6.0127438E1,1.7661808E1,4.714055E1,7.1692986E1,2.3125961E2,3.014768E2,0E0,7.044969E1,0E0,1.5846338E2,7.0119095E0,3.7542053E1,0E0,3.7524017E1,1.029126E1,1.63591E1,0E0,0E0,3.8621376E1,4.0910057E1,2.822631E1,7.412452E1,5.7494793E1,0E0,1.6333463E2,1.1018257E2,6.537989E1,0E0,7.679712E1,6.095879E1,0E0,0E0,0E0,0E0,0E0,0E0,0E0,0E0,0E0,0E0,0E0,0E0,0E0,0E0,0E0,0E0,0E0,0E0,0E0,0E0,0E0,0E0,0E0,0E0,0E0,0E0,0E0,0E0,0E0,0E0],"parents":[2147483647,0,0,1,1,2,2,3,3,4,4,5,5,6,6,7,7,8,8,9,9,10,10,13,13,14,14,15,15,16,16,17,17,18,18,19,19,20,20,21,21,22,22,24,24,26,26,27,27,28,28,30,30,31,31,32,32,35,35,36,36,37,37,38,38,39,39,41,41,42,42,43,43,45,45,46,46],"right_children":[2,4,6,8,10,12,14,16,18,20,22,-1,-1,24,26,28,30,32,34,36,38,40,42,-1,44,-1,46,48,50,-1,52,54,56,-1,-1,58,60,62,64,66,-1,68,70,72,-1,74,76,-1,-1,-1,-1,-1,-1,-1,-1,-1,-1,-1,-1,-1,-1,-1,-1,-1,-1,-1,-1,-1,-1,-1,-1,-1,-1,-1,-1,-1,-1],"split_conditions":[4.7985828E2,8.71665E1,-8.035876E-1,1.0280066E0,1.8280457E2,1.950239E6,-5.372731E-2,5.049259E-2,1.4190694E0,-1.4780448E-1,8.922148E1,-3.558574E-2,-1.7624332E-1,2.1351014E-1,-5.2875817E-1,7.824868E1,2.782404E6,8.6123535E1,3.035028E6,7.51592E-1,8.7885E1,8.95909E1,1.04505E2,6.5729804E-2,1.7674E2,-1.3627282E-1,3.0635694E-1,7.818194E1,8.27835E1,-1.6183501E-2,8.6123535E1,3.7517142E-1,3.7016068E-2,3.5943363E-2,1.4724327E-3,-1.6396958E0,9.561898E-1,8.820708E1,1.7033295E2,1.36196E0,-1.1650791E-1,5.3244993E-2,-1.0006059E-3,1.6307866E2,-5.4923728E-2,1.3753E2,1.8874937E-1,7.801017E-2,2.0188674E-2,-0E0,2.5024043E-2,1.0935874E-2,7.460952E-2,-4.8968434E-2,-5.240419E-3,-8.454684E-3,3.006962E-2,3.1061584E-2,-5.6386376E-3,-9.020989E-3,-3.8846415E-2,1.4353815E-2,5.6421187E-2,6.422127E-4,-9.99587E-3,-3.3417451E-3,-3.471468E-2,3.615956E-2,-6.3547017E-3,-1.4584634E-3,5.648507E-3,-1.05712805E-2,2.3274133E-2,-1.1382691E-2,-4.5291744E-2,-5.1911683E-3,4.867858E-2],"split_indices":[21,0,20,18,21,4,12,20,16,12,14,0,0,15,20,8,4,8,4,17,0,1,0,0,0,0,15,13,1,0,8,9,11,0,0,17,15,14,21,18,0,12,20,8,0,3,12,0,0,0,0,0,0,0,0,0,0,0,0,0,0,0,0,0,0,0,0,0,0,0,0,0,0,0,0,0,0],"split_type":[0,0,0,0,0,0,0,0,0,0,0,0,0,0,0,0,0,0,0,0,0,0,0,0,0,0,0,0,0,0,0,0,0,0,0,0,0,0,0,0,0,0,0,0,0,0,0,0,0,0,0,0,0,0,0,0,0,0,0,0,0,0,0,0,0,0,0,0,0,0,0,0,0,0,0,0,0],"sum_hessian":[4.651E3,4.428E3,2.23E2,1.37E2,4.291E3,9E0,2.14E2,9.8E1,3.9E1,1.974E3,2.317E3,6E0,3E0,8.7E1,1.27E2,7.7E1,2.1E1,2.1E1,1.8E1,5.35E2,1.439E3,7.2E1,2.245E3,5E0,8.2E1,4E0,1.23E2,6E0,7.1E1,3E0,1.8E1,1.3E1,8E0,5E0,1.3E1,4.83E2,5.2E1,2.7E1,1.412E3,6.7E1,5E0,1.25E2,2.12E3,7.6E1,6E0,8.4E1,3.9E1,3E0,3E0,2.3E1,4.8E1,4E0,1.4E1,1E1,3E0,4E0,4E0,6E0,4.77E2,3.3E1,1.9E1,2.2E1,5E0,1.23E3,1.82E2,4.6E1,2.1E1,9.8E1,2.7E1,1.097E3,1.023E3,5.9E1,1.7E1,2.6E1,5.8E1,3.4E1,5E0],"tree_param":{"num_deleted":"0","num_feature":"22","num_nodes":"77","size_leaf_vector":"1"}},{"base_weights":[7.0016496E-3,6.1494153E-2,-1.41995E0,1.0856847E0,2.5644857E-2,-6.546138E0,-1.1879957E0,1.7093841E0,-5.9804255E-1,-5.9649074E-1,7.7511646E-2,-1.2116314E-2,-1.6256323E-1,-1.9079732E0,4.921959E-2,-7.9759777E-1,1.8721484E0,-1.3658007E0,1.5067708E0,4.492173E-2,-1.3881085E0,4.3967437E-2,8.200919E-1,2.3311456E-1,-2.3389237E0,2.3793066E0,-8.019515E-1,1.977252E-2,-4.6738695E-2,-1.1054856E-2,2.0208018E0,-2.1162097E0,1.3995539E-2,3.4966007E-2,-0E0,5.1437944E-1,-6.426604E-1,-2.7459073E0,-8.237794E-1,-1.7793373E0,6.0523085E-2,2.6471028E0,5.5462164E-1,-1.1029522E-2,2.5922447E-2,-4.2806497E0,-1.5265431E0,-6.969794E-3,3.7044656E0,-1.5760866E0,2.3358417E0,1.5597492E-2,3.996607E-2,-6.609286E-2,-1.4484721E-2,1.8152604E-3,2.8569508E-2,-1.4259972E-2,3.8148407E-3,-5.3183623E-2,-1.5049633E-3,1.0010188E-2,-2.4707742E-2,-5.5250905E-2,-1.3266674E-2,1.2389603E-3,-2.042973E-2,7.23955E-2,2.2896422E-2,1.7449751E-2,2.78374E-4,-0E0,-7.677819E-2,-3.2752868E-2,6.18431E-3,3.293451E-3,9.370483E-2,-4.427019E-3,-4.6967275E-2,8.31772E-3,5.3549614E-2],"categories":[],"categories_nodes":[],"categories_segments":[],"categories_sizes":[],"default_left":[0,0,0,0,0,0,0,0,0,0,0,0,0,0,0,0,0,0,0,0,0,0,0,0,0,0,0,0,0,0,0,0,0,0,0,0,0,0,0,0,0,0,0,0,0,0,0,0,0,0,0,0,0,0,0,0,0,0,0,0,0,0,0,0,0,0,0,0,0,0,0,0,0,0,0,0,0,0,0,0,0],"id":13,"left_children":[1,3,5,7,9,11,13,15,17,19,21,-1,-1,23,25,27,29,31,33,35,37,39,41,43,45,47,49,-1,-1,-1,51,53,-1,-1,-1,55,57,59,61,63,65,67,69,-1,-1,71,73,-1,75,77,79,-1,-1,-1,-1,-1,-1,-1,-1,-1,-1,-1,-1,-1,-1,-1,-1,-1,-1,-1,-1,-1,-1,-1,-1,-1,-1,-1,-1,-1,-1],"loss_changes":[3.614679E2,1.6377101E2,1.859589E2,1.6091562E2,1.3974347E2,1.3316919E2,1.49405E2,4.8070038E1,6.795055E1,1.7083829E2,9.8941986E1,0E0,0E0,1.0005643E2,1.2471916E2,3.7350803E1,4.3302307E1,5.5916782E1,1.0028109E1,5.9527187E1,1.0817175E2,1.14022415E2,7.789817E1,2.6428673E1,1.2507794E2,6.92252E1,1.11712776E2,0E0,0E0,0E0,4.8136017E1,4.993363E1,0E0,0E0,0E0,5.54336E1,1.8852522E1,7.051471E1,1.2228478E2,4.7065254E1,9.706134E1,3.4940277E1,4.448529E1,0E0,0E0,7.4073E1,7.332509E1,0E0,8.683707E1,6.3418327E1,1.085487E1,0E0,0E0,0E0,0E0,0E0,0E0,0E0,0E0,0E0,0E0,0E0,0E0,0E0,0E0,0E0,0E0,0E0,0E0,0E0,0E0,0E0,0E0,0E0,0E0,0E0,0E0,0E0,0E0,0E0,0E0],"parents":[2147483647,0,0,1,1,2,2,3,3,4,4,5,5,6,6,7,7,8,8,9,9,10,10,13,13,14,14,15,15,16,16,17,17,18,18,19,19,20,20,21,21,22,22,23,23,24,24,25,25,26,26,30,30,31,31,35,35,36,36,37,37,38,38,39,39,40,40,41,41,42,42,45,45,46,46,48,48,49,49,50,50],"right_children":[2,4,6,8,10,12,14,16,18,20,22,-1,-1,24,26,28,30,32,34,36,38,40,42,44,46,48,50,-1,-1,-1,52,54,-1,-1,-1,56,58,60,62,64,66,68,70,-1,-1,72,74,-1,76,78,80,-1,-1,-1,-1,-1,-1,-1,-1,-1,-1,-1,-1,-1,-1,-1,-1,-1,-1,-1,-1,-1,-1,-1,-1,-1,-1,-1,-1,-1,-1],"split_conditions":[4.950484E2,8.6842E1,-2.4306114E-1,1.072297E0,-4.5543388E-1,1.215873E6,1.870285E6,-3.0479676E-1,4.0481928E-1,2.9423706E2,4.148839E2,-1.2116314E-2,-1.6256323E-1,1.36545E2,2.16505E6,-2.8168106E-1,2.7773213E-1,1.3322748E-1,1.2402341E-1,7.75299E-1,3.3877017E2,3.0635694E-1,1.14934E6,1.2298E2,1.438797E2,5.254188E2,1.51885E2,1.977252E-2,-4.6738695E-2,-1.1054856E-2,1.2087943E2,8.0305E1,1.3995539E-2,3.4966007E-2,-0E0,-1.690114E0,-4.6248057E-1,1.7674E2,3.7972488E2,9.072165E1,1.7977126E2,1.424E2,-4.3587726E-2,-1.1029522E-2,2.5922447E-2,-1.8003035E-1,7.0094675E-2,-6.969794E-3,1.44068E2,6.6885375E-3,1.6683E2,1.5597492E-2,3.996607E-2,-6.609286E-2,-1.4484721E-2,1.8152604E-3,2.8569508E-2,-1.4259972E-2,3.8148407E-3,-5.3183623E-2,-1.5049633E-3,1.0010188E-2,-2.4707742E-2,-5.5250905E-2,-1.3266674E-2,1.2389603E-3,-2.042973E-2,7.23955E-2,2.2896422E-2,1.7449751E-2,2.78374E-4,-0E0,-7.677819E-2,-3.2752868E-2,6.18431E-3,3.293451E-3,9.370483E-2,-4.427019E-3,-4.6967275E-2,8.31772E-3,5.3549614E-2],"split_indices":[21,2,7,18,20,4,4,11,9,21,21,0,0,0,4,7,15,11,7,15,21,15,4,0,8,21,0,0,0,0,21,0,0,0,0,18,7,0,21,8,8,0,12,0,0,7,12,0,0,11,0,0,0,0,0,0,0,0,0,0,0,0,0,0,0,0,0,0,0,0,0,0,0,0,0,0,0,0,0,0,0],"split_type":[0,0,0,0,0,0,0,0,0,0,0,0,0,0,0,0,0,0,0,0,0,0,0,0,0,0,0,0,0,0,0,0,0,0,0,0,0,0,0,0,0,0,0,0,0,0,0,0,0,0,0,0,0,0,0,0,0,0,0,0,0,0,0,0,0,0,0,0,0,0,0,0,0,0,0,0,0,0,0,0,0],"sum_hessian":[4.669E3,4.499E3,1.7E2,1.5E2,4.349E3,6E0,1.64E2,1.1E2,4E1,3.32E2,4.017E3,3E0,3E0,1.04E2,6E1,6E0,1.04E2,3E1,1E1,1.83E2,1.49E2,3.846E3,1.71E2,1.7E1,8.7E1,1.6E1,4.4E1,3E0,3E0,5E0,9.9E1,2.3E1,7E0,6E0,4E0,1.1E2,7.3E1,4.2E1,1.07E2,3.3E1,3.813E3,2E1,1.51E2,1E1,7E0,2.4E1,6.3E1,5E0,1.1E1,3.6E1,8E0,3.6E1,6.3E1,7E0,1.6E1,8.6E1,2.4E1,5.7E1,1.6E1,3.3E1,9E0,3.6E1,7.1E1,1E1,2.3E1,3.763E3,5E1,6E0,1.4E1,7.2E1,7.9E1,3E0,2.1E1,4.9E1,1.4E1,5E0,6E0,2E1,1.6E1,4E0,4E0],"tree_param":{"num_deleted":"0","num_feature":"22","num_nodes":"81","size_leaf_vector":"1"}},{"base_weights":[-1.9763835E-2,5.3953614E-2,-1.5281193E0,1.2552917E0,7.394396E-3,-4.1785946E0,-1.0068315E0,1.5685928E-1,1.8118517E0,4.188159E-2,-1.1053128E0,-2.451056E0,-1.061839E1,4.6754697E-1,-1.500296E0,2.4421558E0,-8.416003E-1,9.296454E-1,2.9119227E0,-2.1096057E-1,1.6452757E-1,-3.997573E0,-7.018326E-1,-0E0,-4.4879894E0,-7.942365E-2,-2.0707259E-1,1.6385362E0,-1.2153587E0,2.3717906E-2,-2.031088E0,5.431594E-2,-0E0,-6.755203E-2,-0E0,-6.4805186E-1,1.1987765E0,3.2984328E0,5.201783E-2,1.3984745E0,-2.5588727E-1,-6.718883E-1,2.1015862E-1,-1.5782588E0,-1.1219807E-1,7.403152E-2,-1.0976114E0,7.985886E-3,-1.4077557E-2,-6.291669E0,-3.689322E-3,1.5312324E-1,3.507829E0,1.3451026E-3,-1.9237093E0,8.1381077E-1,-1.1857989E0,-4.0486407E0,-9.163855E-1,1.240924E-2,-1.3191424E-2,2.1949492E-2,-3.3147845E-2,2.2421008E-2,-1.8299017E-2,6.117693E-2,1.3402332E-2,1.8180259E-2,-1.1686362E-2,7.490857E-3,5.655372E-2,-7.697733E-3,-1.0300163E-3,1.4589384E-2,-1.8621914E-2,2.6699033E-2,2.4939517E-3,-0E0,-3.4461327E-2,-2.3104304E-2,1.1336496E-2,-2.1877265E-2,2.3573317E-2,-3.794512E-2,-1.3938986E-1,1.287571E-2,-1.568836E-2,2.2271601E-2,8.056825E-2,-0E0,-3.792014E-2,1.8418815E-2,-3.2145302E-3,-3.6534462E-2,-2.3196146E-3,-8.1022516E-2,-1.3601813E-2,5.9070636E-2,-1.8863007E-2],"categories":[],"categories_nodes":[],"categories_segments":[],"categories_sizes":[],"default_left":[0,0,0,0,0,0,0,0,0,0,0,0,0,0,0,0,0,0,0,0,0,0,0,0,0,0,0,0,0,0,0,0,0,0,0,0,0,0,0,0,0,0,0,0,0,0,0,0,0,0,0,0,0,0,0,0,0,0,0,0,0,0,0,0,0,0,0,0,0,0,0,0,0,0,0,0,0,0,0,0,0,0,0,0,0,0,0,0,0,0,0,0,0,0,0,0,0,0,0],"id":14,"left_children":[1,3,5,7,9,11,13,15,17,19,21,23,25,27,29,31,33,35,37,39,41,43,45,47,49,-1,-1,51,53,55,57,-1,-1,-1,59,61,63,65,67,69,71,73,75,77,-1,79,81,-1,-1,83,-1,85,87,-1,89,91,93,95,97,-1,-1,-1,-1,-1,-1,-1,-1,-1,-1,-1,-1,-1,-1,-1,-1,-1,-1,-1,-1,-1,-1,-1,-1,-1,-1,-1,-1,-1,-1,-1,-1,-1,-1,-1,-1,-1,-1,-1,-1],"loss_changes":[5.1767206E2,2.4570668E2,2.891043E2,9.743555E1,1.6211404E2,3.4732916E2,1.3509712E2,1.3395383E2,9.726611E1,1.2813654E2,1.39455E2,1.4734947E2,1.4125122E1,9.298816E1,1.14212555E2,4.9807808E1,1.2065956E2,2.7749126E1,4.7438995E1,9.626846E1,1.059104E2,9.341484E1,3.6073456E1,6.6334167E0,1.1253183E2,0E0,0E0,7.240445E1,1.9985098E1,3.479552E1,2.2163998E2,0E0,0E0,0E0,2.2744823E1,3.0899424E1,3.2371437E1,5.2768494E1,7.557161E0,6.656339E1,5.8382195E1,1.2113113E2,1.972068E2,9.104094E0,0E0,3.8539978E1,6.213025E1,0E0,0E0,7.638342E1,0E0,1.3749847E1,2.5693268E1,0E0,1.082016E1,1.00555E1,1.3191303E1,1.1847168E2,9.441727E1,0E0,0E0,0E0,0E0,0E0,0E0,0E0,0E0,0E0,0E0,0E0,0E0,0E0,0E0,0E0,0E0,0E0,0E0,0E0,0E0,0E0,0E0,0E0,0E0,0E0,0E0,0E0,0E0,0E0,0E0,0E0,0E0,0E0,0E0,0E0,0E0,0E0,0E0,0E0,0E0],"parents":[2147483647,0,0,1,1,2,2,3,3,4,4,5,5,6,6,7,7,8,8,9,9,10,10,11,11,12,12,13,13,14,14,15,15,16,16,17,17,18,18,19,19,20,20,21,21,22,22,23,23,24,24,27,27,28,28,29,29,30,30,34,34,35,35,36,36,37,37,38,38,39,39,40,40,41,41,42,42,43,43,45,45,46,46,49,49,51,51,52,52,54,54,55,55,56,56,57,57,58,58],"right_children":[2,4,6,8,10,12,14,16,18,20,22,24,26,28,30,32,34,36,38,40,42,44,46,48,50,-1,-1,52,54,56,58,-1,-1,-1,60,62,64,66,68,70,72,74,76,78,-1,80,82,-1,-1,84,-1,86,88,-1,90,92,94,96,98,-1,-1,-1,-1,-1,-1,-1,-1,-1,-1,-1,-1,-1,-1,-1,-1,-1,-1,-1,-1,-1,-1,-1,-1,-1,-1,-1,-1,-1,-1,-1,-1,-1,-1,-1,-1,-1,-1,-1,-1],"split_conditions":[4.7985828E2,8.708E1,-1.2845501E-1,8.177235E1,1.7677174E2,-3.202505E-1,-6.823334E-2,7.82755E1,-5.387703E-1,-9.032863E-2,1.752958E2,5.254188E2,-2.998441E-1,-1.22322954E-1,1.3753E2,-4.7183186E-2,6.3762826E-1,3.6810544E-1,1.935963E-1,-9.923774E-1,8.994E1,-1.9984887E0,1.7977126E2,9.927785E-2,3.915427E-2,-7.942365E-2,-2.0707259E-1,1.467757E2,1.3635E2,1.2541902E-1,1.4445E2,5.431594E-2,-0E0,-6.755203E-2,3.1772302E-3,8.720783E1,8.989417E1,7.0094675E-2,8.62415E1,-1.0721996E0,1.7033295E2,8.6989395E1,9.32388E1,-5.5457616E-1,-1.1219807E-1,1.7577E2,4.4244135E2,7.985886E-3,-1.4077557E-2,-7.73919E-1,-3.689322E-3,1.44845E2,-1.0462539E-1,1.3451026E-3,-1.447597E-2,1.4162605E-1,1.9648801E0,5.3244993E-2,1.4549193E2,1.240924E-2,-1.3191424E-2,2.1949492E-2,-3.3147845E-2,2.2421008E-2,-1.8299017E-2,6.117693E-2,1.3402332E-2,1.8180259E-2,-1.1686362E-2,7.490857E-3,5.655372E-2,-7.697733E-3,-1.0300163E-3,1.4589384E-2,-1.8621914E-2,2.6699033E-2,2.4939517E-3,-0E0,-3.4461327E-2,-2.3104304E-2,1.1336496E-2,-2.1877265E-2,2.3573317E-2,-3.794512E-2,-1.3938986E-1,1.287571E-2,-1.568836E-2,2.2271601E-2,8.056825E-2,-0E0,-3.792014E-2,1.8418815E-2,-3.2145302E-3,-3.6534462E-2,-2.3196146E-3,-8.1022516E-2,-1.3601813E-2,5.9070636E-2,-1.8863007E-2],"split_indices":[21,2,7,8,8,16,12,2,16,12,5,21,6,16,3,11,15,15,20,9,3,16,8,6,10,0,0,2,2,16,2,0,0,0,7,8,14,12,2,16,21,14,2,7,0,2,21,0,0,16,0,3,12,0,16,10,18,12,8,0,0,0,0,0,0,0,0,0,0,0,0,0,0,0,0,0,0,0,0,0,0,0,0,0,0,0,0,0,0,0,0,0,0,0,0,0,0,0,0],"split_type":[0,0,0,0,0,0,0,0,0,0,0,0,0,0,0,0,0,0,0,0,0,0,0,0,0,0,0,0,0,0,0,0,0,0,0,0,0,0,0,0,0,0,0,0,0,0,0,0,0,0,0,0,0,0,0,0,0,0,0,0,0,0,0,0,0,0,0,0,0,0,0,0,0,0,0,0,0,0,0,0,0,0,0,0,0,0,0,0,0,0,0,0,0,0,0,0,0,0,0],"sum_hessian":[4.637E3,4.421E3,2.16E2,1.63E2,4.258E3,3.4E1,1.82E2,5.6E1,1.07E2,4.132E3,1.26E2,2.8E1,6E0,4.5E1,1.37E2,1.7E1,3.9E1,6.1E1,4.6E1,1.346E3,2.786E3,1.4E1,1.12E2,1.3E1,1.5E1,3E0,3E0,2.7E1,1.8E1,3.5E1,1.02E2,1.2E1,5E0,7E0,3.2E1,8E0,5.3E1,4E1,6E0,3.5E1,1.311E3,1.42E2,2.644E3,9E0,5E0,3.7E1,7.5E1,9E0,4E0,1E1,5E0,1.6E1,1.1E1,6E0,1.2E1,2.2E1,1.3E1,3.5E1,6.7E1,1.7E1,1.5E1,3E0,5E0,4.9E1,4E0,3.1E1,9E0,3E0,3E0,2.6E1,9E0,5.79E2,7.32E2,3.4E1,1.08E2,8.4E1,2.56E3,3E0,6E0,1E1,2.7E1,6.8E1,7E0,5E0,5E0,1.1E1,5E0,6E0,5E0,3E0,9E0,1.7E1,5E0,5E0,8E0,2.5E1,1E1,3E0,6.4E1],"tree_param":{"num_deleted":"0","num_feature":"22","num_nodes":"99","size_leaf_vector":"1"}},{"base_weights":[-1.11034615E-2,3.8275212E-2,-1.6068481E0,1.0749365E0,-1.6471491E-3,-4.630682E0,-9.946614E-1,1.5790516E0,-1.9121157E-1,3.2185536E-2,-8.324317E-1,-5.5584204E-1,-6.690035E0,-3.6935995E0,-5.8506376E-1,-5.352147E-2,1.7891889E0,-3.8753614E-2,3.6604887E-1,-7.2358125E-1,7.306646E-2,-2.1490672E0,-5.052855E-1,3.0969635E-3,-2.9384675E-2,-8.98428E0,-5.360443E-2,-1.0373532E-1,-8.6471164E-1,7.904683E-2,-2.0572517E0,9.124348E-1,2.4822028E0,-3.773065E-2,2.6145658E-2,-3.9801202E0,-4.8533076E-1,1.1600994E0,3.4849256E-2,-3.670645E0,-1.0498134E0,-7.7864194E-1,1.9052047E0,-6.374351E-2,-1.7027351E-1,-0E0,-3.1946518E-2,-2.6689465E0,5.842701E-1,-3.2859614E0,-2.832507E-1,-4.0478636E-2,1.8609583E-2,2.8964916E-2,8.170058E-2,-1.4463284E-2,1.2912562E-2,-1.4367237E-2,-9.3915634E-2,-1.1334617E-2,1.7138112E-2,1.31482845E-2,6.152472E-2,-2.486802E-3,2.9856171E-3,-7.831862E-2,-4.2176135E-3,5.027687E-3,-2.2899095E-2,-1.3891545E-3,-2.1620011E-2,8.377593E-3,6.2908374E-2,-7.872961E-3,-5.0941072E-2,-3.140576E-3,3.0952215E-2,-1.3089476E-2,-6.264474E-2,2.0122329E-2,-3.0951956E-2],"categories":[],"categories_nodes":[],"categories_segments":[],"categories_sizes":[],"default_left":[0,0,0,0,0,0,0,0,0,0,0,0,0,0,0,0,0,0,0,0,0,0,0,0,0,0,0,0,0,0,0,0,0,0,0,0,0,0,0,0,0,0,0,0,0,0,0,0,0,0,0,0,0,0,0,0,0,0,0,0,0,0,0,0,0,0,0,0,0,0,0,0,0,0,0,0,0,0,0,0,0],"id":15,"left_children":[1,3,5,7,9,11,13,15,17,19,21,23,25,27,29,-1,31,-1,33,35,37,39,41,-1,-1,43,-1,-1,45,47,49,51,53,55,-1,57,59,61,63,65,67,69,71,-1,-1,-1,-1,73,75,77,79,-1,-1,-1,-1,-1,-1,-1,-1,-1,-1,-1,-1,-1,-1,-1,-1,-1,-1,-1,-1,-1,-1,-1,-1,-1,-1,-1,-1,-1,-1],"loss_changes":[3.6736295E2,1.8748856E2,2.4747873E2,1.0926662E2,1.22756386E2,1.7976407E2,1.2285157E2,1.3102539E2,6.4821915E1,1.27743805E2,6.9198296E1,1.1473787E1,6.640259E1,1.0981175E2,1.0432294E2,0E0,6.455411E1,0E0,2.27511E1,1.568847E2,1.6248201E2,4.5397675E1,9.1523026E1,0E0,0E0,1.3455078E1,0E0,0E0,9.860733E0,9.870141E1,6.636195E1,5.4105743E1,9.192117E1,2.3891205E1,0E0,7.2807236E1,7.6187256E1,1.0818855E2,1.16040405E2,5.1277985E1,1.3917049E1,5.0688354E1,3.2666E1,0E0,0E0,0E0,0E0,7.709152E0,7.074431E1,2.4342804E1,4.3289825E1,0E0,0E0,0E0,0E0,0E0,0E0,0E0,0E0,0E0,0E0,0E0,0E0,0E0,0E0,0E0,0E0,0E0,0E0,0E0,0E0,0E0,0E0,0E0,0E0,0E0,0E0,0E0,0E0,0E0,0E0],"parents":[2147483647,0,0,1,1,2,2,3,3,4,4,5,5,6,6,7,7,8,8,9,9,10,10,11,11,12,12,13,13,14,14,16,16,18,18,19,19,20,20,21,21,22,22,25,25,28,28,29,29,30,30,31,31,32,32,33,33,35,35,36,36,37,37,38,38,39,39,40,40,41,41,42,42,47,47,48,48,49,49,50,50],"right_children":[2,4,6,8,10,12,14,16,18,20,22,24,26,28,30,-1,32,-1,34,36,38,40,42,-1,-1,44,-1,-1,46,48,50,52,54,56,-1,58,60,62,64,66,68,70,72,-1,-1,-1,-1,74,76,78,80,-1,-1,-1,-1,-1,-1,-1,-1,-1,-1,-1,-1,-1,-1,-1,-1,-1,-1,-1,-1,-1,-1,-1,-1,-1,-1,-1,-1,-1,-1],"split_conditions":[5.156698E2,8.73493E1,-2.4402522E-1,1.0280066E0,1.756715E2,1.431715E2,-1.2334758E-1,2.7351683E-1,4.3056127E-1,9.03548E1,1.7638066E2,-3.3861238E-1,-9.198432E-2,1.4167E2,2.535554E-2,-5.352147E-2,1.27122E2,-3.8753614E-2,3.926899E-1,3.2495454E-1,9.389463E1,1.832411E6,4.5332654E2,3.0969635E-3,-2.9384675E-2,-8.131098E-1,-5.360443E-2,-1.0373532E-1,1.9584803E-2,-1.1540204E0,8.708628E-2,6.8077064E-1,-1.115188E-1,1.2924366E-1,2.6145658E-2,8.806E1,3.4215096E-1,1.1553457E0,1.8280457E2,3.9157823E-1,2.177801E6,2.112385E6,9.4334584E-1,-6.374351E-2,-1.7027351E-1,-0E0,-3.1946518E-2,-1.1055873E-1,1.451581E2,1.3753E2,8.724955E-2,-4.0478636E-2,1.8609583E-2,2.8964916E-2,8.170058E-2,-1.4463284E-2,1.2912562E-2,-1.4367237E-2,-9.3915634E-2,-1.1334617E-2,1.7138112E-2,1.31482845E-2,6.152472E-2,-2.486802E-3,2.9856171E-3,-7.831862E-2,-4.2176135E-3,5.027687E-3,-2.2899095E-2,-1.3891545E-3,-2.1620011E-2,8.377593E-3,6.2908374E-2,-7.872961E-3,-5.0941072E-2,-3.140576E-3,3.0952215E-2,-1.3089476E-2,-6.264474E-2,2.0122329E-2,-3.0951956E-2],"split_indices":[21,0,9,18,8,0,11,15,15,5,14,20,20,0,11,0,21,0,9,15,14,4,21,0,0,16,0,0,6,17,11,15,16,20,0,3,20,17,21,16,4,4,16,0,0,0,0,9,5,3,7,0,0,0,0,0,0,0,0,0,0,0,0,0,0,0,0,0,0,0,0,0,0,0,0,0,0,0,0,0,0],"split_type":[0,0,0,0,0,0,0,0,0,0,0,0,0,0,0,0,0,0,0,0,0,0,0,0,0,0,0,0,0,0,0,0,0,0,0,0,0,0,0,0,0,0,0,0,0,0,0,0,0,0,0,0,0,0,0,0,0,0,0,0,0,0,0,0,0,0,0,0,0,0,0,0,0,0,0,0,0,0,0,0,0],"sum_hessian":[4.635E3,4.496E3,1.39E2,1.67E2,4.329E3,2.2E1,1.17E2,1.2E2,4.7E1,4.159E3,1.7E2,8E0,1.4E1,1.4E1,1.03E2,4E0,1.16E2,9E0,3.8E1,2.11E2,3.948E3,3.2E1,1.38E2,5E0,3E0,7E0,7E0,6E0,8E0,7.1E1,3.2E1,5.3E1,6.3E1,2.9E1,9E0,1.3E1,1.98E2,1.32E2,3.816E3,1.2E1,2E1,1.25E2,1.3E1,3E0,4E0,5E0,3E0,1E1,6.1E1,1.8E1,1.4E1,3E0,5E1,5.3E1,1E1,1.5E1,1.4E1,6E0,7E0,1.73E2,2.5E1,1.2E2,1.2E1,1.699E3,2.117E3,8E0,4E0,4E0,1.6E1,6E1,6.5E1,9E0,4E0,3E0,7E0,3.9E1,2.2E1,5E0,1.3E1,7E0,7E0],"tree_param":{"num_deleted":"0","num_feature":"22","num_nodes":"81","size_leaf_vector":"1"}},{"base_weights":[2.1500291E-2,8.418843E-2,-1.2672387E0,1.2814325E0,4.1031815E-2,-1.6590705E0,2.037665E-1,1.8796582E0,-3.5242805E-1,-8.672972E-1,8.479506E-2,-2.568657E-1,-2.7099733E0,6.2666893E-1,-6.260641E-2,2.296384E0,5.033014E-1,1.2227492E0,-1.357114E0,-1.9960788E0,-2.4652156E-1,1.2121166E-1,-8.17959E-1,-6.435245E-1,7.7985436E-2,-5.3155923E0,-1.9842976E0,1.5818818E-3,7.864591E-2,1.4790398E0,2.871015E0,-2.379128E-2,8.565766E-1,-0E0,2.603574E-2,-1.955224E0,2.0233309E-2,-1.5381359E0,-9.842087E-2,-5.916907E-2,-7.168559E-2,-1.6863301E-1,2.4464421E-1,-2.05153E0,-4.4753414E-1,3.7425238E-1,-1.7709893E0,-3.2334952E0,-1.6768563E-1,-0E0,-2.8230643E0,6.5913916E-1,-1.5598438E0,4.7020942E-2,4.617705E-3,5.6136005E-2,3.1422008E-2,1.5286943E-3,2.1164998E-2,-4.5920756E-2,-5.536798E-3,-3.5809547E-2,-3.8599488E-3,1.3871399E-2,-8.730364E-3,-1.3071374E-3,-1.4176077E-2,2.1785636E-2,3.0931304E-3,-1.8861812E-2,-8.975518E-2,1.0471941E-2,-1.587051E-2,1.9196713E-2,-2.229565E-3,-8.352605E-3,-4.3272514E-2,-0E0,-6.82445E-2,1.9648008E-2,-3.5689272E-2,-2.8180683E-2,-7.329355E-2,-3.8976888E-3,1.8274844E-2,-3.3521548E-2,-0E0],"categories":[],"categories_nodes":[],"categories_segments":[],"categories_sizes":[],"default_left":[0,0,0,0,0,0,0,0,0,0,0,0,0,0,0,0,0,0,0,0,0,0,0,0,0,0,0,0,0,0,0,0,0,0,0,0,0,0,0,0,0,0,0,0,0,0,0,0,0,0,0,0,0,0,0,0,0,0,0,0,0,0,0,0,0,0,0,0,0,0,0,0,0,0,0,0,0,0,0,0,0,0,0,0,0,0,0],"id":16,"left_children":[1,3,5,7,9,11,13,15,17,19,21,23,25,27,-1,29,31,33,35,37,39,41,43,45,-1,47,49,51,-1,53,55,-1,57,-1,-1,59,-1,61,-1,63,-1,65,67,69,71,73,75,77,-1,79,81,83,85,-1,-1,-1,-1,-1,-1,-1,-1,-1,-1,-1,-1,-1,-1,-1,-1,-1,-1,-1,-1,-1,-1,-1,-1,-1,-1,-1,-1,-1,-1,-1,-1,-1,-1],"loss_changes":[3.7101614E2,2.25492E2,1.2492905E2,1.5110687E2,1.6788889E2,2.444964E2,7.818111E1,5.952234E1,6.655587E1,1.3256175E2,1.324754E2,1.4770088E2,1.6204144E2,1.0924023E2,0E0,3.0285126E1,2.0407114E1,6.628557E0,4.4440735E1,1.1484888E2,9.716263E1,1.3962656E2,6.718381E1,8.2689514E1,0E0,1.7457172E2,1.26980835E2,3.878698E1,0E0,6.3783012E1,1.5776733E1,0E0,7.465498E0,0E0,0E0,2.946077E1,0E0,5.766382E1,0E0,5.8356018E1,0E0,7.160812E1,1.4410768E2,9.346481E1,7.875951E1,1.791326E1,3.6376656E1,6.174301E1,0E0,7.208831E1,8.642236E1,1.4461878E1,1.0036421E1,0E0,0E0,0E0,0E0,0E0,0E0,0E0,0E0,0E0,0E0,0E0,0E0,0E0,0E0,0E0,0E0,0E0,0E0,0E0,0E0,0E0,0E0,0E0,0E0,0E0,0E0,0E0,0E0,0E0,0E0,0E0,0E0,0E0,0E0],"parents":[2147483647,0,0,1,1,2,2,3,3,4,4,5,5,6,6,7,7,8,8,9,9,10,10,11,11,12,12,13,13,15,15,16,16,17,17,18,18,19,19,20,20,21,21,22,22,23,23,25,25,26,26,27,27,29,29,30,30,32,32,35,35,37,37,39,39,41,41,42,42,43,43,44,44,45,45,46,46,47,47,49,49,50,50,51,51,52,52],"right_children":[2,4,6,8,10,12,14,16,18,20,22,24,26,28,-1,30,32,34,36,38,40,42,44,46,-1,48,50,52,-1,54,56,-1,58,-1,-1,60,-1,62,-1,64,-1,66,68,70,72,74,76,78,-1,80,82,84,86,-1,-1,-1,-1,-1,-1,-1,-1,-1,-1,-1,-1,-1,-1,-1,-1,-1,-1,-1,-1,-1,-1,-1,-1,-1,-1,-1,-1,-1,-1,-1,-1,-1,-1],"split_conditions":[4.7985828E2,8.73499E1,3.194973E-1,1.0280066E0,8.994E1,2.4459285E-1,1.8504492E2,8.784833E1,9.074666E1,4.744705E-1,1.756715E2,1.472555E2,-2.3469208E-1,1.848E2,-6.260641E-2,8.6123535E1,2.9126775E-1,9.383552E-1,3.926899E-1,8.95909E1,9.072165E1,-1.0821688E-1,1.7706E2,1.3672078E2,7.7985436E-2,2.245936E6,-5.7666626E-2,1.7621E2,7.864591E-2,-7.393837E-2,8.702595E1,-2.379128E-2,8.68266E1,-0E0,2.603574E-2,8.25215E1,2.0233309E-2,8.836405E1,-9.842087E-2,8.80605E1,-7.168559E-2,3.3208676E2,9.368E1,2.0636867E-1,1.7977126E2,-5.717366E-2,-6.2342234E-2,-1.411087E-1,-1.6768563E-1,1.2759384E-2,2.112385E6,-2.5303575E-1,1.3390695E-1,4.7020942E-2,4.617705E-3,5.6136005E-2,3.1422008E-2,1.5286943E-3,2.1164998E-2,-4.5920756E-2,-5.536798E-3,-3.5809547E-2,-3.8599488E-3,1.3871399E-2,-8.730364E-3,-1.3071374E-3,-1.4176077E-2,2.1785636E-2,3.0931304E-3,-1.8861812E-2,-8.975518E-2,1.0471941E-2,-1.587051E-2,1.9196713E-2,-2.229565E-3,-8.352605E-3,-4.3272514E-2,-0E0,-6.82445E-2,1.9648008E-2,-3.5689272E-2,-2.8180683E-2,-7.329355E-2,-3.8976888E-3,1.8274844E-2,-3.3521548E-2,-0E0],"split_indices":[21,5,15,18,3,15,8,14,21,15,8,0,9,2,0,8,15,15,9,1,8,12,1,8,0,4,9,2,0,12,8,0,5,0,0,0,0,14,0,0,0,21,0,12,8,12,7,11,0,11,4,9,6,0,0,0,0,0,0,0,0,0,0,0,0,0,0,0,0,0,0,0,0,0,0,0,0,0,0,0,0,0,0,0,0,0,0],"split_type":[0,0,0,0,0,0,0,0,0,0,0,0,0,0,0,0,0,0,0,0,0,0,0,0,0,0,0,0,0,0,0,0,0,0,0,0,0,0,0,0,0,0,0,0,0,0,0,0,0,0,0,0,0,0,0,0,0,0,0,0,0,0,0,0,0,0,0,0,0,0,0,0,0,0,0,0,0,0,0,0,0,0,0,0,0,0,0],"sum_hessian":[4.609E3,4.397E3,2.12E2,1.51E2,4.246E3,1.68E2,4.4E1,1.11E2,4E1,1.93E2,4.053E3,7.3E1,9.5E1,4.1E1,3E0,8.4E1,2.7E1,1.5E1,2.5E1,6.7E1,1.26E2,3.898E3,1.55E2,6.9E1,4E0,1.9E1,7.6E1,3.7E1,4E0,3.7E1,4.7E1,3E0,2.4E1,5E0,1E1,2.1E1,4E0,6.2E1,5E0,1.22E2,4E0,1.161E3,2.737E3,3.4E1,1.21E2,3.6E1,3.3E1,1.5E1,4E0,2.3E1,5.3E1,2.7E1,1E1,1.5E1,2.2E1,2.3E1,2.4E1,1.1E1,1.3E1,1.2E1,9E0,3.8E1,2.4E1,4.1E1,8.1E1,1.044E3,1.17E2,1.04E2,2.633E3,2.9E1,5E0,4E1,8.1E1,1.4E1,2.2E1,1.6E1,1.7E1,4E0,1.1E1,1.5E1,8E0,3.6E1,1.7E1,9E0,1.8E1,7E0,3E0],"tree_param":{"num_deleted":"0","num_feature":"22","num_nodes":"87","size_leaf_vector":"1"}},{"base_weights":[-1.4190912E-2,-1.0279047E0,4.3278206E-2,2.3011631E-1,-2.4165022E0,9.9804646E-1,5.19315E-3,1.9561496E-2,1.0326077E-1,-1.3901392E-1,-2.1031034E0,1.438363E0,-1.4410806E-1,3.8461972E-2,-7.298159E-1,-2.4316318E0,4.054312E-1,-3.8614128E0,-9.263011E-1,1.0666183E0,2.832556E0,-2.0977473E0,9.233139E-1,1.7950684E-2,1.4084624E0,-1.670149E0,-1.9415101E-1,1.1228581E-2,-3.2502017E0,7.313433E-1,-1.3673027E0,-2.026864E0,-5.9994674E0,1.1868205E-1,-2.9915783E0,1.1688188E0,-2.0225767E-2,3.4117248E0,-0E0,-4.7264304E-2,-8.127727E-3,3.42968E-2,3.8777196E-1,-7.270714E-1,5.1908113E-2,1.8930588E0,-3.1532732E-1,-1.2526547E0,-7.3946826E-2,1.3830272E0,-4.18531E-1,-6.4831115E-2,-1.8040067E-2,5.2340515E-3,4.0453963E-2,-6.485616E-4,-4.2165834E-2,-4.915044E-2,2.009845E-2,-1.3775527E-1,-5.8124974E-2,-1.6106097E-2,2.2170702E-2,1.7274767E-2,-6.5486625E-2,2.1657322E-2,-0E0,6.7096003E-3,6.704312E-2,-0E0,2.4003055E-2,-4.4498844E-3,-3.7294373E-2,1.845066E-2,1.5395698E-4,4.4573613E-2,2.2394368E-2,3.4081836E-3,-1.8627005E-2,-4.93793E-2,-1.1932461E-2,-1.1692551E-2,5.9576236E-2,1.032951E-2,-1.2918632E-2],"categories":[],"categories_nodes":[],"categories_segments":[],"categories_sizes":[],"default_left":[0,0,0,0,0,0,0,0,0,0,0,0,0,0,0,0,0,0,0,0,0,0,0,0,0,0,0,0,0,0,0,0,0,0,0,0,0,0,0,0,0,0,0,0,0,0,0,0,0,0,0,0,0,0,0,0,0,0,0,0,0,0,0,0,0,0,0,0,0,0,0,0,0,0,0,0,0,0,0,0,0,0,0,0,0],"id":17,"left_children":[1,3,5,7,9,11,13,15,-1,-1,17,19,21,23,25,27,29,31,33,35,37,39,41,43,45,47,49,-1,51,53,55,57,59,61,63,65,-1,67,-1,-1,-1,-1,69,71,73,75,77,79,-1,81,83,-1,-1,-1,-1,-1,-1,-1,-1,-1,-1,-1,-1,-1,-1,-1,-1,-1,-1,-1,-1,-1,-1,-1,-1,-1,-1,-1,-1,-1,-1,-1,-1,-1,-1],"loss_changes":[2.6812006E2,4.3472592E2,1.5630151E2,1.661113E2,2.0801898E2,8.4811676E1,1.0110752E2,1.1841387E2,0E0,0E0,2.262457E2,5.4297226E1,9.916981E1,1.10322655E2,8.7439285E1,4.9189552E1,6.423715E1,1.5446307E2,1.5498679E2,2.4686226E1,4.0057053E1,1.8829239E1,1.6314243E1,9.87206E1,5.0998795E1,6.8591415E1,4.03468E1,0E0,1.5036224E1,6.538026E1,2.6364817E1,1.0279668E2,8.098956E1,7.222931E1,1.26614E2,2.5615662E1,0E0,4.478055E1,0E0,0E0,0E0,0E0,1.0624783E1,1.20797485E2,1.7742941E2,1.0875351E1,7.5681562E0,4.6724403E1,0E0,7.906467E1,4.6252876E1,0E0,0E0,0E0,0E0,0E0,0E0,0E0,0E0,0E0,0E0,0E0,0E0,0E0,0E0,0E0,0E0,0E0,0E0,0E0,0E0,0E0,0E0,0E0,0E0,0E0,0E0,0E0,0E0,0E0,0E0,0E0,0E0,0E0,0E0],"parents":[2147483647,0,0,1,1,2,2,3,3,4,4,5,5,6,6,7,7,10,10,11,11,12,12,13,13,14,14,15,15,16,16,17,17,18,18,19,19,20,20,21,21,22,22,23,23,24,24,25,25,26,26,28,28,29,29,30,30,31,31,32,32,33,33,34,34,35,35,37,37,42,42,43,43,44,44,45,45,46,46,47,47,49,49,50,50],"right_children":[2,4,6,8,10,12,14,16,-1,-1,18,20,22,24,26,28,30,32,34,36,38,40,42,44,46,48,50,-1,52,54,56,58,60,62,64,66,-1,68,-1,-1,-1,-1,70,72,74,76,78,80,-1,82,84,-1,-1,-1,-1,-1,-1,-1,-1,-1,-1,-1,-1,-1,-1,-1,-1,-1,-1,-1,-1,-1,-1,-1,-1,-1,-1,-1,-1,-1,-1,-1,-1,-1,-1],"split_conditions":[3.0635694E-1,1.371534E2,8.7197E1,1.15070105E-1,-2.280008E-1,1.0280066E0,1.756715E2,9.108982E1,1.0326077E-1,-1.3901392E-1,1.438797E2,4.4093434E-2,1.1165388E0,1.735025E2,1.7747E2,-1.2007198E-1,5.1852983E-1,1.4207901E2,1.4553469E-2,8.990855E1,8.7624E1,8.6123535E1,1.5403818E0,9.00257E1,1.7658E2,2.0636867E-1,4.0307513E-1,1.1228581E-2,2.8206843E-1,6.6938745E-3,2.4459285E-1,2.5787655E-1,-1.3259737E-1,1.832411E6,1.4468391E2,1.4544029E-2,-2.0225767E-2,8.608797E1,-0E0,-4.7264304E-2,-8.127727E-3,3.42968E-2,3.926899E-1,8.92084E1,9.389463E1,4.2078125E-1,1.767088E2,-3.0479676E-1,-7.3946826E-2,4.9358778E-2,1.7977126E2,-6.4831115E-2,-1.8040067E-2,5.2340515E-3,4.0453963E-2,-6.485616E-4,-4.2165834E-2,-4.915044E-2,2.009845E-2,-1.3775527E-1,-5.8124974E-2,-1.6106097E-2,2.2170702E-2,1.7274767E-2,-6.5486625E-2,2.1657322E-2,-0E0,6.7096003E-3,6.704312E-2,-0E0,2.4003055E-2,-4.4498844E-3,-3.7294373E-2,1.845066E-2,1.5395698E-4,4.4573613E-2,2.2394368E-2,3.4081836E-3,-1.8627005E-2,-4.93793E-2,-1.1932461E-2,-1.1692551E-2,5.9576236E-2,1.032951E-2,-1.2918632E-2],"split_indices":[15,5,2,12,7,18,8,13,0,0,8,20,16,5,3,7,16,13,12,13,1,8,18,5,1,12,15,0,15,7,15,15,12,4,14,20,0,13,0,0,0,0,9,3,14,15,5,12,0,12,8,0,0,0,0,0,0,0,0,0,0,0,0,0,0,0,0,0,0,0,0,0,0,0,0,0,0,0,0,0,0,0,0,0,0],"split_type":[0,0,0,0,0,0,0,0,0,0,0,0,0,0,0,0,0,0,0,0,0,0,0,0,0,0,0,0,0,0,0,0,0,0,0,0,0,0,0,0,0,0,0,0,0,0,0,0,0,0,0,0,0,0,0,0,0,0,0,0,0,0,0,0,0,0,0,0,0,0,0,0,0,0,0,0,0,0,0,0,0,0,0,0,0],"sum_hessian":[4.579E3,2.46E2,4.333E3,1.29E2,1.17E2,1.64E2,4.169E3,1.26E2,3E0,4E0,1.13E2,1.19E2,4.5E1,3.991E3,1.78E2,1.6E1,1.1E2,4.4E1,6.9E1,9.6E1,2.3E1,1.6E1,2.9E1,3.934E3,5.7E1,6.3E1,1.15E2,3E0,1.3E1,9.4E1,1.6E1,2.5E1,1.9E1,4.6E1,2.3E1,9.3E1,3E0,1.9E1,4E0,9E0,7E0,7E0,2.2E1,1.69E2,3.765E3,4.5E1,1.2E1,5.7E1,6E0,1.3E1,1.02E2,8E0,5E0,7.9E1,1.5E1,9E0,7E0,1.9E1,6E0,7E0,1.2E1,2.4E1,2.2E1,5E0,1.8E1,7.9E1,1.4E1,5E0,1.4E1,1.7E1,5E0,1.35E2,3.4E1,1.33E2,3.632E3,1.2E1,3.3E1,7E0,5E0,1E1,4.7E1,7E0,6E0,2.7E1,7.5E1],"tree_param":{"num_deleted":"0","num_feature":"22","num_nodes":"85","size_leaf_vector":"1"}},{"base_weights":[-3.9294526E-2,9.9667795E-3,-1.7760303E0,9.5070535E-1,-1.956658E-2,-8.023235E0,-1.3987161E0,1.5341039E0,-8.5877615E-1,-7.885156E-1,2.0942183E-2,-2.0440935E-1,-1.0828637E-2,3.009801E-1,-2.1204765E0,-2.8360717E-2,1.7299042E0,-3.009429E0,3.8884574E-1,-4.5373178E-1,-3.9026914E0,1.1041515E0,-2.2296092E-2,-6.247834E-1,1.0975398E0,-3.8085022E0,-6.4530843E-1,2.791125E0,1.2257266E0,-6.1219614E-2,-8.137442E-3,1.8636864E-2,-4.066827E-1,4.391839E-1,-9.6547556E-1,-2.2800057E0,-1.0417238E-1,2.8914413E0,4.596418E-1,1.3805903E0,-3.4967583E-2,-0E0,-1.691344E-2,2.196926E-2,-3.9217784E-3,-1.2906405E0,-4.678527E0,5.078131E-2,-4.3148103E0,7.256645E-2,3.136655E-2,1.162683E-2,3.6751024E-2,2.036921E-3,-2.094157E-2,1.5146346E-2,-7.091033E-3,-1.2604185E-2,-7.031133E-2,-4.7269814E-2,3.2667413E-3,-8.575766E-3,9.533742E-2,-5.4340013E-3,1.7878003E-2,4.5843404E-2,-5.6455582E-3,-1.1746986E-2,-1.9139699E-4,-5.190844E-2,-0E0,-5.3454008E-2,-1.0881348E-1,5.219484E-2,-5.572912E-3,-2.5086453E-2,-8.408564E-2],"categories":[],"categories_nodes":[],"categories_segments":[],"categories_sizes":[],"default_left":[0,0,0,0,0,0,0,0,0,0,0,0,0,0,0,0,0,0,0,0,0,0,0,0,0,0,0,0,0,0,0,0,0,0,0,0,0,0,0,0,0,0,0,0,0,0,0,0,0,0,0,0,0,0,0,0,0,0,0,0,0,0,0,0,0,0,0,0,0,0,0,0,0,0,0,0,0],"id":18,"left_children":[1,3,5,7,9,11,13,15,17,19,21,-1,-1,23,25,-1,27,29,31,33,35,37,39,41,43,45,47,49,51,-1,-1,-1,53,55,57,59,-1,61,63,65,67,-1,-1,-1,-1,69,71,73,75,-1,-1,-1,-1,-1,-1,-1,-1,-1,-1,-1,-1,-1,-1,-1,-1,-1,-1,-1,-1,-1,-1,-1,-1,-1,-1,-1,-1],"loss_changes":[4.0001703E2,1.2681796E2,2.8120956E2,1.488009E2,1.3752518E2,2.321854E2,1.5377185E2,7.23999E1,9.556823E1,2.2308862E2,1.9638696E2,0E0,0E0,2.8506111E1,2.0847049E2,0E0,4.561078E1,2.1784294E1,1.55341625E1,9.290092E1,6.829886E1,1.7984291E2,6.947956E1,5.070161E0,1.0583784E1,7.412262E1,1.2815564E2,2.7522675E1,3.2869957E1,0E0,0E0,0E0,7.2208786E0,3.571584E1,6.178103E1,3.2087692E1,0E0,4.7474762E2,6.7865944E1,9.911899E1,6.3684925E1,0E0,0E0,0E0,0E0,3.4859364E1,4.7205505E1,5.9977886E1,5.896469E0,0E0,0E0,0E0,0E0,0E0,0E0,0E0,0E0,0E0,0E0,0E0,0E0,0E0,0E0,0E0,0E0,0E0,0E0,0E0,0E0,0E0,0E0,0E0,0E0,0E0,0E0,0E0,0E0],"parents":[2147483647,0,0,1,1,2,2,3,3,4,4,5,5,6,6,7,7,8,8,9,9,10,10,13,13,14,14,16,16,17,17,18,18,19,19,20,20,21,21,22,22,23,23,24,24,25,25,26,26,27,27,28,28,32,32,33,33,34,34,35,35,37,37,38,38,39,39,40,40,45,45,46,46,47,47,48,48],"right_children":[2,4,6,8,10,12,14,16,18,20,22,-1,-1,24,26,-1,28,30,32,34,36,38,40,42,44,46,48,50,52,-1,-1,-1,54,56,58,60,-1,62,64,66,68,-1,-1,-1,-1,70,72,74,76,-1,-1,-1,-1,-1,-1,-1,-1,-1,-1,-1,-1,-1,-1,-1,-1,-1,-1,-1,-1,-1,-1,-1,-1,-1,-1,-1,-1],"split_conditions":[5.254188E2,8.6842E1,-2.280008E-1,6.4232004E-1,8.994E1,-1.3751961E-1,1.371534E2,2.7773213E-1,8.269414E-1,2.6524536E2,9.420506E1,-2.0440935E-1,-1.0828637E-2,1.2298E2,1.44705E2,-2.8360717E-2,4.5201898E-1,8.25215E1,6.645354E1,8.75178E1,6.573059E-2,4.637738E-1,2.7773213E-1,-6.813539E-2,5.823089E-1,-5.121309E-1,3.2652076E-2,-3.9615467E-1,-1.0921088E-2,-6.1219614E-2,-8.137442E-3,1.8636864E-2,8.0158356E1,3.8336534E-2,9.072165E1,8.803792E1,-1.0417238E-1,-5.3675063E-2,1.1051356E-1,1.2226695E2,-6.295195E-1,-0E0,-1.691344E-2,2.196926E-2,-3.9217784E-3,1.398705E2,1.437435E2,2.1351014E-1,1.7746E2,7.256645E-2,3.136655E-2,1.162683E-2,3.6751024E-2,2.036921E-3,-2.094157E-2,1.5146346E-2,-7.091033E-3,-1.2604185E-2,-7.031133E-2,-4.7269814E-2,3.2667413E-3,-8.575766E-3,9.533742E-2,-5.4340013E-3,1.7878003E-2,4.5843404E-2,-5.6455582E-3,-1.1746986E-2,-1.9139699E-4,-5.190844E-2,-0E0,-5.3454008E-2,-1.0881348E-1,5.219484E-2,-5.572912E-3,-2.5086453E-2,-8.408564E-2],"split_indices":[21,2,7,16,3,10,5,15,15,21,14,0,0,0,2,0,15,0,21,2,11,15,15,11,16,16,7,9,7,0,0,0,8,20,8,14,0,11,7,14,20,0,0,0,0,0,3,15,0,0,0,0,0,0,0,0,0,0,0,0,0,0,0,0,0,0,0,0,0,0,0,0,0,0,0,0,0],"split_type":[0,0,0,0,0,0,0,0,0,0,0,0,0,0,0,0,0,0,0,0,0,0,0,0,0,0,0,0,0,0,0,0,0,0,0,0,0,0,0,0,0,0,0,0,0,0,0,0,0,0,0,0,0,0,0,0,0,0,0,0,0,0,0,0,0,0,0,0,0,0,0,0,0,0,0,0,0],"sum_hessian":[4.648E3,4.52E3,1.28E2,1.38E2,4.382E3,6E0,1.22E2,1.05E2,3.3E1,2.2E2,4.162E3,3E0,3E0,3.6E1,8.6E1,5E0,1E2,1.2E1,2.1E1,2E2,2E1,1.6E2,4.002E3,1.6E1,2E1,3.9E1,4.7E1,3E1,7E1,8E0,4E0,1.1E1,1E1,7.2E1,1.28E2,1.4E1,6E0,4.1E1,1.19E2,3.4E1,3.968E3,7E0,9E0,1.7E1,3E0,1.1E1,2.8E1,4E1,7E0,7E0,2.3E1,5.1E1,1.9E1,6E0,4E0,4.6E1,2.6E1,1.24E2,4E0,1.1E1,3E0,2E1,2.1E1,5.4E1,6.5E1,1.8E1,1.6E1,1.19E2,3.849E3,4E0,7E0,2E1,8E0,4E0,3.6E1,3E0,4E0],"tree_param":{"num_deleted":"0","num_feature":"22","num_nodes":"77","size_leaf_vector":"1"}},{"base_weights":[-4.244084E-3,4.9069665E-2,-1.8444381E0,9.5591587E-1,2.0494474E-2,-6.1102047E0,-1.1890097E0,1.4697812E0,-7.203269E-1,1.2959546E-1,-1.6249032E-1,-1.6881743E-1,-3.1732507E0,9.450979E-1,-1.8373177E0,1.136594E0,4.114164E0,-2.5477753E0,5.934197E-1,5.6807797E-2,1.156444E0,-3.7377688E-1,3.532703E-1,-1.043684E-1,-1.7821807E-2,-2.4534576E-4,5.31311E-2,6.3694143E-1,-2.5363631E0,-2.7988803E-2,1.332666E0,9.455571E-2,3.0933028E-2,-5.171153E-2,-4.066398E-3,-0E0,1.6420875E-2,2.5953773E-1,-1.7502068E-1,7.091413E-2,1.0476027E0,-1.5225389E0,-2.6824206E-1,7.195353E-1,-9.147639E-2,2.236255E-2,-8.965327E-3,-5.0794535E0,-1.537613E0,-3.3947933E-2,2.3288287E-2,1.5247693E-2,2.1096214E-4,-5.7155145E-3,5.3120153E-3,4.9024466E-3,2.2515658E-2,2.0913478E-2,-3.5310578E-2,8.33063E-4,-1.1334797E-2,3.2130128E-3,2.1621138E-2,1.0562604E-2,-5.3149937E-3,-3.1810366E-2,-1.09357946E-1,3.4708954E-2,-3.4317818E-2],"categories":[],"categories_nodes":[],"categories_segments":[],"categories_sizes":[],"default_left":[0,0,0,0,0,0,0,0,0,0,0,0,0,0,0,0,0,0,0,0,0,0,0,0,0,0,0,0,0,0,0,0,0,0,0,0,0,0,0,0,0,0,0,0,0,0,0,0,0,0,0,0,0,0,0,0,0,0,0,0,0,0,0,0,0,0,0,0,0],"id":19,"left_children":[1,3,5,7,9,11,13,15,17,19,21,-1,23,25,27,29,31,33,35,37,39,41,43,-1,-1,-1,-1,45,47,-1,49,-1,-1,-1,-1,-1,-1,51,53,-1,55,57,59,61,63,-1,-1,65,67,-1,-1,-1,-1,-1,-1,-1,-1,-1,-1,-1,-1,-1,-1,-1,-1,-1,-1,-1,-1],"loss_changes":[4.5622922E2,1.1523433E2,3.4986075E2,1.1906987E2,8.703907E1,1.8376141E2,1.6183508E2,8.1292114E1,8.06496E1,2.0294675E2,1.7722798E2,0E0,6.801094E1,6.807912E1,1.5782132E2,5.622902E1,2.3677399E1,1.9028214E1,4.3427033E0,1.20371544E2,5.465294E1,1.3733533E2,7.758342E1,0E0,0E0,0E0,0E0,2.1119904E1,1.6176022E2,0E0,5.2554993E1,0E0,0E0,0E0,0E0,0E0,0E0,2.4017844E2,1.1751596E2,0E0,4.830768E1,2.0732437E2,1.5704913E2,8.6598114E1,4.0348957E1,0E0,0E0,8.5927155E1,1.3385303E2,0E0,0E0,0E0,0E0,0E0,0E0,0E0,0E0,0E0,0E0,0E0,0E0,0E0,0E0,0E0,0E0,0E0,0E0,0E0,0E0],"parents":[2147483647,0,0,1,1,2,2,3,3,4,4,5,5,6,6,7,7,8,8,9,9,10,10,12,12,13,13,14,14,15,15,16,16,17,17,18,18,19,19,20,20,21,21,22,22,27,27,28,28,30,30,37,37,38,38,40,40,41,41,42,42,43,43,44,44,47,47,48,48],"right_children":[2,4,6,8,10,12,14,16,18,20,22,-1,24,26,28,30,32,34,36,38,40,42,44,-1,-1,-1,-1,46,48,-1,50,-1,-1,-1,-1,-1,-1,52,54,-1,56,58,60,62,64,-1,-1,66,68,-1,-1,-1,-1,-1,-1,-1,-1,-1,-1,-1,-1,-1,-1,-1,-1,-1,-1,-1,-1],"split_conditions":[5.254188E2,8.6842E1,-1.2845501E-1,1.1514652E0,1.363503E2,-1.3751961E-1,-3.279063E-1,7.3307E-2,8.269414E-1,1.3447797E2,1.9657134E-1,-1.6881743E-1,1.417875E2,1.676951E6,1.3672078E2,2.7773213E-1,6.283695E-1,8.6123535E1,5.7776142E-2,1.8432012E-1,-9.440135E-1,1.3782974E2,2.2706147E-1,-1.043684E-1,-1.7821807E-2,-2.4534576E-4,5.31311E-2,3.3368582E-1,-3.9552033E-2,-2.7988803E-2,-3.1614766E-1,9.455571E-2,3.0933028E-2,-5.171153E-2,-4.066398E-3,-0E0,1.6420875E-2,5.219953E-1,1.21935E2,7.091413E-2,-2.6012238E-2,4.457041E-1,3.1261353E2,5.29559E-1,5.7255435E-1,2.236255E-2,-8.965327E-3,9.0936646E-2,-9.6655905E-2,-3.3947933E-2,2.3288287E-2,1.5247693E-2,2.1096214E-4,-5.7155145E-3,5.3120153E-3,4.9024466E-3,2.2515658E-2,2.0913478E-2,-3.5310578E-2,8.33063E-4,-1.1334797E-2,3.2130128E-3,2.1621138E-2,1.0562604E-2,-5.3149937E-3,-3.1810366E-2,-1.09357946E-1,3.4708954E-2,-3.4317818E-2],"split_indices":[21,2,7,18,13,10,20,7,15,8,20,0,1,4,8,15,15,8,9,16,9,13,7,0,0,0,0,16,7,0,12,0,0,0,0,0,0,15,2,0,11,15,21,15,15,0,0,16,20,0,0,0,0,0,0,0,0,0,0,0,0,0,0,0,0,0,0,0,0],"split_type":[0,0,0,0,0,0,0,0,0,0,0,0,0,0,0,0,0,0,0,0,0,0,0,0,0,0,0,0,0,0,0,0,0,0,0,0,0,0,0,0,0,0,0,0,0,0,0,0,0,0,0,0,0,0,0,0,0,0,0,0,0,0,0,0,0,0,0,0,0],"sum_hessian":[4.625E3,4.495E3,1.3E2,1.35E2,4.36E3,1.6E1,1.14E2,1.04E2,3.1E1,2.736E3,1.624E3,5E0,1.1E1,2.6E1,8.8E1,9.4E1,1E1,1.3E1,1.8E1,2.557E3,1.79E2,1.154E3,4.7E2,3E0,8E0,1.9E1,7E0,1.9E1,6.9E1,5E0,8.9E1,4E0,6E0,9E0,4E0,9E0,9E0,1.367E3,1.19E3,4E0,1.75E2,9.5E1,1.059E3,2.59E2,2.11E2,1.2E1,7E0,1.8E1,5.1E1,3E0,8.6E1,3.47E2,1.02E3,8.7E2,3.2E2,6.3E1,1.12E2,1.9E1,7.6E1,6.21E2,4.38E2,1.48E2,1.11E2,5E1,1.61E2,8E0,1E1,7E0,4.4E1],"tree_param":{"num_deleted":"0","num_feature":"22","num_nodes":"69","size_leaf_vector":"1"}},{"base_weights":[-1.8141728E-2,4.497044E-2,-1.638843E0,1.1684237E0,-1.5592475E-3,2.7863967E-1,-2.2418036E0,1.6575527E0,-1.2657629E-1,3.3653025E-2,-8.9711404E-1,-3.8298927E-2,5.8191407E-1,-3.532895E0,-1.2419248E0,2.1863883E0,5.08113E-1,1.3060337E0,-1.7273318E0,-1.7791493E-1,1.3705526E-1,-2.0210946E0,-3.7120047E-1,2.235854E-2,-1.46372365E-2,-0E0,-4.353126E0,-1.22189105E-1,-6.6290367E-1,1.0970296E0,2.9318461E0,-4.2013645E-2,8.445646E-1,1.2722085E-3,1.6061467E0,-2.1740093E0,1.1432378E-2,-2.2747695E-1,1.0351197E0,-7.616457E-1,1.9304645E-1,-1.6108565E0,-9.6600085E-2,5.905628E-1,-7.7416253E-1,8.790426E-3,-6.012202E-1,-6.2173786E0,-2.4958162E0,-2.414274E0,1.9733709E0,3.8151298E-2,-7.198538E-4,6.0599983E-2,2.4263935E-2,6.4368895E-3,3.361858E-2,-0E0,3.0176234E-2,-5.526858E-2,-1.8020846E-2,1.794473E-2,-4.142041E-3,1.9181076E-3,4.4262484E-2,-5.6663506E-2,-5.73166E-3,2.8718699E-2,2.210752E-3,-3.0725027E-2,-0E0,-3.4603573E-2,1.5372089E-2,-3.4485895E-2,-2.8254362E-3,-1.978503E-2,2.6511417E-3,-3.1451028E-2,-1.3106169E-1,-4.113344E-3,-4.4460498E-2,-4.730121E-2,-0E0,6.0358696E-2,-0E0],"categories":[],"categories_nodes":[],"categories_segments":[],"categories_sizes":[],"default_left":[0,0,0,0,0,0,0,0,0,0,0,0,0,0,0,0,0,0,0,0,0,0,0,0,0,0,0,0,0,0,0,0,0,0,0,0,0,0,0,0,0,0,0,0,0,0,0,0,0,0,0,0,0,0,0,0,0,0,0,0,0,0,0,0,0,0,0,0,0,0,0,0,0,0,0,0,0,0,0,0,0,0,0,0,0],"id":20,"left_children":[1,3,5,7,9,11,13,15,17,19,21,-1,23,25,27,29,31,33,35,37,39,41,43,-1,45,-1,47,-1,49,51,53,-1,55,-1,57,59,-1,61,63,65,67,69,-1,71,