{"learner":{"attributes":{},"feature_names":[],"feature_types":[],"gradient_booster":{"model":{"cats":{"enc":[],"feature_segments":[],"sorted_idx":[]},"gbtree_model_param":{"num_parallel_tree":"1","num_trees":"1200"},"iteration_indptr":[0,1,2,3,4,5,6,7,8,9,10,11,12,13,14,15,16,17,18,19,20,21,22,23,24,25,26,27,28,29,30,31,32,33,34,35,36,37,38,39,40,41,42,43,44,45,46,47,48,49,50,51,52,53,54,55,56,57,58,59,60,61,62,63,64,65,66,67,68,69,70,71,72,73,74,75,76,77,78,79,80,81,82,83,84,85,86,87,88,89,90,91,92,93,94,95,96,97,98,99,100,101,102,103,104,105,106,107,108,109,110,111,112,113,114,115,116,117,118,119,120,121,122,123,124,125,126,127,128,129,130,131,132,133,134,135,136,137,138,139,140,141,142,143,144,145,146,147,148,149,150,151,152,153,154,155,156,157,158,159,160,161,162,163,164,165,166,167,168,169,170,171,172,173,174,175,176,177,178,179,180,181,182,183,184,185,186,187,188,189,190,191,192,193,194,195,196,197,198,199,200,201,202,203,204,205,206,207,208,209,210,211,212,213,214,215,216,217,218,219,220,221,222,223,224,225,226,227,228,229,230,231,232,233,234,235,236,237,238,239,240,241,242,243,244,245,246,247,248,249,250,251,252,253,254,255,256,257,258,259,260,261,262,263,264,265,266,267,268,269,270,271,272,273,274,275,276,277,278,279,280,281,282,283,284,285,286,287,288,289,290,291,292,293,294,295,296,297,298,299,300,301,302,303,304,305,306,307,308,309,310,311,312,313,314,315,316,317,318,319,320,321,322,323,324,325,326,327,328,329,330,331,332,333,334,335,336,337,338,339,340,341,342,343,344,345,346,347,348,349,350,351,352,353,354,355,356,357,358,359,360,361,362,363,364,365,366,367,368,369,370,371,372,373,374,375,376,377,378,379,380,381,382,383,384,385,386,387,388,389,390,391,392,393,394,395,396,397,398,399,400,401,402,403,404,405,406,407,408,409,410,411,412,413,414,415,416,417,418,419,420,421,422,423,424,425,426,427,428,429,430,431,432,433,434,435,436,437,438,439,440,441,442,443,444,445,446,447,448,449,450,451,452,453,454,455,456,457,458,459,460,461,462,463,464,465,466,467,468,469,470,471,472,473,474,475,476,477,478,479,480,481,482,483,484,485,486,487,488,489,490,491,492,493,494,495,496,497,498,499,500,501,502,503,504,505,506,507,508,509,510,511,512,513,514,515,516,517,518,519,520,521,522,523,524,525,526,527,528,529,530,531,532,533,534,535,536,537,538,539,540,541,542,543,544,545,546,547,548,549,550,551,552,553,554,555,556,557,558,559,560,561,562,563,564,565,566,567,568,569,570,571,572,573,574,575,576,577,578,579,580,581,582,583,584,585,586,587,588,589,590,591,592,593,594,595,596,597,598,599,600,601,602,603,604,605,606,607,608,609,610,611,612,613,614,615,616,617,618,619,620,621,622,623,624,625,626,627,628,629,630,631,632,633,634,635,636,637,638,639,640,641,642,643,644,645,646,647,648,649,650,651,652,653,654,655,656,657,658,659,660,661,662,663,664,665,666,667,668,669,670,671,672,673,674,675,676,677,678,679,680,681,682,683,684,685,686,687,688,689,690,691,692,693,694,695,696,697,698,699,700,701,702,703,704,705,706,707,708,709,710,711,712,713,714,715,716,717,718,719,720,721,722,723,724,725,726,727,728,729,730,731,732,733,734,735,736,737,738,739,740,741,742,743,744,745,746,747,748,749,750,751,752,753,754,755,756,757,758,759,760,761,762,763,764,765,766,767,768,769,770,771,772,773,774,775,776,777,778,779,780,781,782,783,784,785,786,787,788,789,790,791,792,793,794,795,796,797,798,799,800,801,802,803,804,805,806,807,808,809,810,811,812,813,814,815,816,817,818,819,820,821,822,823,824,825,826,827,828,829,830,831,832,833,834,835,836,837,838,839,840,841,842,843,844,845,846,847,848,849,850,851,852,853,854,855,856,857,858,859,860,861,862,863,864,865,866,867,868,869,870,871,872,873,874,875,876,877,878,879,880,881,882,883,884,885,886,887,888,889,890,891,892,893,894,895,896,897,898,899,900,901,902,903,904,905,906,907,908,909,910,911,912,913,914,915,916,917,918,919,920,921,922,923,924,925,926,927,928,929,930,931,932,933,934,935,936,937,938,939,940,941,942,943,944,945,946,947,948,949,950,951,952,953,954,955,956,957,958,959,960,961,962,963,964,965,966,967,968,969,970,971,972,973,974,975,976,977,978,979,980,981,982,983,984,985,986,987,988,989,990,991,992,993,994,995,996,997,998,999,1000,1001,1002,1003,1004,1005,1006,1007,1008,1009,1010,1011,1012,1013,1014,1015,1016,1017,1018,1019,1020,1021,1022,1023,1024,1025,1026,1027,1028,1029,1030,1031,1032,1033,1034,1035,1036,1037,1038,1039,1040,1041,1042,1043,1044,1045,1046,1047,1048,1049,1050,1051,1052,1053,1054,1055,1056,1057,1058,1059,1060,1061,1062,1063,1064,1065,1066,1067,1068,1069,1070,1071,1072,1073,1074,1075,1076,1077,1078,1079,1080,1081,1082,1083,1084,1085,1086,1087,1088,1089,1090,1091,1092,1093,1094,1095,1096,1097,1098,1099,1100,1101,1102,1103,1104,1105,1106,1107,1108,1109,1110,1111,1112,1113,1114,1115,1116,1117,1118,1119,1120,1121,1122,1123,1124,1125,1126,1127,1128,1129,1130,1131,1132,1133,1134,1135,1136,1137,1138,1139,1140,1141,1142,1143,1144,1145,1146,1147,1148,1149,1150,1151,1152,1153,1154,1155,1156,1157,1158,1159,1160,1161,1162,1163,1164,1165,1166,1167,1168,1169,1170,1171,1172,1173,1174,1175,1176,1177,1178,1179,1180,1181,1182,1183,1184,1185,1186,1187,1188,1189,1190,1191,1192,1193,1194,1195,1196,1197,1198,1199,1200],"tree_info":[0,0,0,0,0,0,0,0,0,0,0,0,0,0,0,0,0,0,0,0,0,0,0,0,0,0,0,0,0,0,0,0,0,0,0,0,0,0,0,0,0,0,0,0,0,0,0,0,0,0,0,0,0,0,0,0,0,0,0,0,0,0,0,0,0,0,0,0,0,0,0,0,0,0,0,0,0,0,0,0,0,0,0,0,0,0,0,0,0,0,0,0,0,0,0,0,0,0,0,0,0,0,0,0,0,0,0,0,0,0,0,0,0,0,0,0,0,0,0,0,0,0,0,0,0,0,0,0,0,0,0,0,0,0,0,0,0,0,0,0,0,0,0,0,0,0,0,0,0,0,0,0,0,0,0,0,0,0,0,0,0,0,0,0,0,0,0,0,0,0,0,0,0,0,0,0,0,0,0,0,0,0,0,0,0,0,0,0,0,0,0,0,0,0,0,0,0,0,0,0,0,0,0,0,0,0,0,0,0,0,0,0,0,0,0,0,0,0,0,0,0,0,0,0,0,0,0,0,0,0,0,0,0,0,0,0,0,0,0,0,0,0,0,0,0,0,0,0,0,0,0,0,0,0,0,0,0,0,0,0,0,0,0,0,0,0,0,0,0,0,0,0,0,0,0,0,0,0,0,0,0,0,0,0,0,0,0,0,0,0,0,0,0,0,0,0,0,0,0,0,0,0,0,0,0,0,0,0,0,0,0,0,0,0,0,0,0,0,0,0,0,0,0,0,0,0,0,0,0,0,0,0,0,0,0,0,0,0,0,0,0,0,0,0,0,0,0,0,0,0,0,0,0,0,0,0,0,0,0,0,0,0,0,0,0,0,0,0,0,0,0,0,0,0,0,0,0,0,0,0,0,0,0,0,0,0,0,0,0,0,0,0,0,0,0,0,0,0,0,0,0,0,0,0,0,0,0,0,0,0,0,0,0,0,0,0,0,0,0,0,0,0,0,0,0,0,0,0,0,0,0,0,0,0,0,0,0,0,0,0,0,0,0,0,0,0,0,0,0,0,0,0,0,0,0,0,0,0,0,0,0,0,0,0,0,0,0,0,0,0,0,0,0,0,0,0,0,0,0,0,0,0,0,0,0,0,0,0,0,0,0,0,0,0,0,0,0,0,0,0,0,0,0,0,0,0,0,0,0,0,0,0,0,0,0,0,0,0,0,0,0,0,0,0,0,0,0,0,0,0,0,0,0,0,0,0,0,0,0,0,0,0,0,0,0,0,0,0,0,0,0,0,0,0,0,0,0,0,0,0,0,0,0,0,0,0,0,0,0,0,0,0,0,0,0,0,0,0,0,0,0,0,0,0,0,0,0,0,0,0,0,0,0,0,0,0,0,0,0,0,0,0,0,0,0,0,0,0,0,0,0,0,0,0,0,0,0,0,0,0,0,0,0,0,0,0,0,0,0,0,0,0,0,0,0,0,0,0,0,0,0,0,0,0,0,0,0,0,0,0,0,0,0,0,0,0,0,0,0,0,0,0,0,0,0,0,0,0,0,0,0,0,0,0,0,0,0,0,0,0,0,0,0,0,0,0,0,0,0,0,0,0,0,0,0,0,0,0,0,0,0,0,0,0,0,0,0,0,0,0,0,0,0,0,0,0,0,0,0,0,0,0,0,0,0,0,0,0,0,0,0,0,0,0,0,0,0,0,0,0,0,0,0,0,0,0,0,0,0,0,0,0,0,0,0,0,0,0,0,0,0,0,0,0,0,0,0,0,0,0,0,0,0,0,0,0,0,0,0,0,0,0,0,0,0,0,0,0,0,0,0,0,0,0,0,0,0,0,0,0,0,0,0,0,0,0,0,0,0,0,0,0,0,0,0,0,0,0,0,0,0,0,0,0,0,0,0,0,0,0,0,0,0,0,0,0,0,0,0,0,0,0,0,0,0,0,0,0,0,0,0,0,0,0,0,0,0,0,0,0,0,0,0,0,0,0,0,0,0,0,0,0,0,0,0,0,0,0,0,0,0,0,0,0,0,0,0,0,0,0,0,0,0,0,0,0,0,0,0,0,0,0,0,0,0,0,0,0,0,0,0,0,0,0,0,0,0,0,0,0,0,0,0,0,0,0,0,0,0,0,0,0,0,0,0,0,0,0,0,0,0,0,0,0,0,0,0,0,0,0,0,0,0,0,0,0,0,0,0,0,0,0,0,0,0,0,0,0,0,0,0,0,0,0,0,0,0,0,0,0,0,0,0,0,0,0,0,0,0,0,0,0,0,0,0,0,0,0,0,0,0,0,0,0,0,0,0,0,0,0,0,0,0,0,0,0,0,0,0,0,0,0,0,0,0,0,0,0,0,0,0,0,0,0,0,0,0,0,0,0,0,0,0,0,0,0,0,0,0,0,0,0,0,0,0,0,0,0,0,0,0,0,0,0,0,0,0,0,0,0,0,0,0,0,0,0,0,0,0,0,0,0,0,0,0,0,0,0,0,0,0,0,0,0,0,0,0,0,0,0,0,0,0,0,0,0,0,0,0,0,0,0,0,0,0,0,0,0,0,0,0,0,0,0,0,0,0,0,0,0,0,0,0,0,0,0,0,0,0,0,0,0,0,0,0,0,0,0,0,0,0,0,0,0,0,0,0,0,0,0,0,0,0,0,0,0,0,0,0,0,0,0,0,0,0,0,0,0,0,0,0,0,0,0,0,0,0,0,0,0,0,0,0,0,0,0,0,0,0,0],"trees":[{"base_weights":[9.980945E-3,3.254669E-1,3.841885E-3,5.958101E-1,-3.214256E-2,8.171089E-3,-3.7664723E-1,4.6171248E-1,2.223907E-1,1.5971059E-1,-4.026039E-1,2.7699944E-2,-6.1380904E-2,-2.0123615E0,-1.4985871E-1,2.7662206E-1,1.1882238E0,1.2966101E-1,2.4350232E-2,-1.253324E-1,-3.6745279E-3,2.1198533E-2,3.9034155E-1,-1.2634221E-2,-4.1918904E-1,-3.466828E-1,-1.1787862E-1,-1.3343529E0,9.550051E-2,3.586588E-1,-7.1127415E-2,5.3574882E-2,2.5523335E-1,3.9094526E-2,-2.665553E-2,2.7037244E-2,-3.4452176E-1,2.0644559E-1,2.6906592E-1,-4.937153E-3,-1.6804332E-1,-1.2757254E0,-3.1227198E-1,2.6705561E-2,-2.7716267E-1,1.2975146E0,-2.1682614E-1,-5.2414473E-2,5.45434E-2,2.9060484E-3,8.453444E-2,-1.232107E-1,1.04060965E-2,-4.067137E-3,1.845219E-1,-3.1925254E-3,3.2390054E-2,-1.1059896E-3,-1.9551526E-1,-7.782717E-2,-1.2344279E-4,2.2781627E-1,7.288161E-2,-5.44791E-2,1.3084981E-1],"categories":[],"categories_nodes":[],"categories_segments":[],"categories_sizes":[],"default_left":[0,0,0,0,0,0,0,0,0,0,0,0,0,0,0,0,0,0,0,0,0,0,0,0,0,0,0,0,0,0,0,0,0,0,0,0,0,0,0,0,0,0,0,0,0,0,0,0,0,0,0,0,0,0,0,0,0,0,0,0,0,0,0,0,0],"id":0,"left_children":[1,3,5,7,9,11,13,15,-1,17,19,21,23,25,27,29,31,-1,33,-1,-1,35,37,39,41,-1,-1,43,45,47,-1,-1,-1,-1,-1,49,51,53,-1,55,-1,57,59,-1,-1,61,63,-1,-1,-1,-1,-1,-1,-1,-1,-1,-1,-1,-1,-1,-1,-1,-1,-1,-1],"loss_changes":[1.1786962E1,1.1234351E1,9.834161E0,1.1322981E1,3.5762813E0,8.018331E0,2.4862936E1,8.03435E0,0E0,4.2199473E0,4.2113147E0,1.0865038E1,2.2571318E1,7.2027893E0,1.7217325E1,3.5148444E0,8.56852E0,0E0,2.2618012E0,0E0,0E0,9.670258E0,2.8196417E1,1.2398386E1,1.4142107E1,0E0,0E0,1.6264193E1,1.850501E1,3.743897E0,0E0,0E0,0E0,0E0,0E0,7.2613626E0,2.1635159E1,2.4325983E1,0E0,7.0358615E0,0E0,8.353895E0,1.4989832E1,0E0,0E0,4.19409E0,1.2867647E1,0E0,0E0,0E0,0E0,0E0,0E0,0E0,0E0,0E0,0E0,0E0,0E0,0E0,0E0,0E0,0E0,0E0,0E0],"parents":[2147483647,0,0,1,1,2,2,3,3,4,4,5,5,6,6,7,7,9,9,10,10,11,11,12,12,13,13,14,14,15,15,16,16,18,18,21,21,22,22,23,23,24,24,27,27,28,28,29,29,35,35,36,36,37,37,39,39,41,41,42,42,45,45,46,46],"right_children":[2,4,6,8,10,12,14,16,-1,18,20,22,24,26,28,30,32,-1,34,-1,-1,36,38,40,42,-1,-1,44,46,48,-1,-1,-1,-1,-1,50,52,54,-1,56,-1,58,60,-1,-1,62,64,-1,-1,-1,-1,-1,-1,-1,-1,-1,-1,-1,-1,-1,-1,-1,-1,-1,-1],"split_conditions":[8.690282E1,8.978511E0,2.64259E2,1.7674829E0,3.4715334E-1,3.19979E-1,-3.888025E-1,4.0534368E-1,2.223907E-1,3.0102145E-2,-2.971287E-1,2.3278658E0,9.523962E1,3.0768762E0,-1.7568617E0,1.8672874E2,9.470104E-2,1.2966101E-1,-2.704115E-1,-1.253324E-1,-3.6745279E-3,2.1867297E0,1.844508E-1,1.0037439E0,4.5399976E-1,-3.466828E-1,-1.1787862E-1,1.3825296E-1,-3.5272393E-2,-9.203609E-1,-7.1127415E-2,5.3574882E-2,2.5523335E-1,3.9094526E-2,-2.665553E-2,2.135292E0,1.1923728E-1,1.7618128E0,2.6906592E-1,1.7088464E0,-1.6804332E-1,9.032935E-2,7.361049E-1,2.6705561E-2,-2.7716267E-1,-7.733921E-1,3.517118E0,-5.2414473E-2,5.45434E-2,2.9060484E-3,8.453444E-2,-1.232107E-1,1.04060965E-2,-4.067137E-3,1.845219E-1,-3.1925254E-3,3.2390054E-2,-1.1059896E-3,-1.9551526E-1,-7.782717E-2,-1.2344279E-4,2.2781627E-1,7.288161E-2,-5.44791E-2,1.3084981E-1],"split_indices":[16,26,38,42,8,6,7,32,0,22,36,42,38,40,37,39,30,0,14,0,0,40,6,22,9,0,0,6,14,28,0,0,0,0,0,40,22,10,0,42,0,14,11,0,0,37,37,0,0,0,0,0,0,0,0,0,0,0,0,0,0,0,0,0,0],"split_type":[0,0,0,0,0,0,0,0,0,0,0,0,0,0,0,0,0,0,0,0,0,0,0,0,0,0,0,0,0,0,0,0,0,0,0,0,0,0,0,0,0,0,0,0,0,0,0,0,0,0,0,0,0,0,0,0,0,0,0,0,0,0,0,0,0],"sum_hessian":[6.086E3,1.16E2,5.97E3,6.6E1,5E1,5.903E3,6.7E1,6E1,6E0,3.3E1,1.7E1,4.609E3,1.294E3,8E0,5.9E1,4.8E1,1.2E1,4E0,2.9E1,6E0,1.1E1,4.528E3,8.1E1,1.139E3,1.55E2,4E0,4E0,1E1,4.9E1,4.4E1,4E0,7E0,5E0,1.3E1,1.6E1,4.457E3,7.1E1,7.4E1,7E0,1.133E3,6E0,1.7E1,1.38E2,4E0,6E0,1E1,3.9E1,5E0,3.9E1,4.442E3,1.5E1,2.7E1,4.4E1,6.3E1,1.1E1,1.05E3,8.3E1,4E0,1.3E1,6.5E1,7.3E1,5E0,5E0,3.3E1,6E0],"tree_param":{"num_deleted":"0","num_feature":"43","num_nodes":"65","size_leaf_vector":"1"}},{"base_weights":[-1.0098963E-2,-4.168978E-3,-5.2172786E-1,9.862989E-2,-2.33056E-2,-1.2300934E0,-1.7197408E-1,6.5717325E-2,7.285105E-1,1.6821858E-2,-6.684133E-2,-2.133967E-1,-2.14648E0,2.0101216E-1,-4.5269036E-1,9.611773E-2,-4.9895233E-1,-3.806222E-1,1.108824E0,-2.2443557E-2,1.3773169E-1,-3.1976514E-2,-2.55891E-1,-1.1733969E-1,5.2766517E-2,-3.1304875E-1,-1.6107182E-1,1.4667825E-1,-1.0781591E0,6.527022E-2,4.9042258E-1,-1.7435944E0,-2.3050699E-1,5.823674E-2,-1.1810469E-1,2.0224664E0,1.3125733E-1,1.0676616E-3,-3.5564998E-1,7.327193E-2,4.9218863E-1,-4.2441856E-2,3.9769882E-1,-4.03528E-1,1.3219503E-1,7.9677105E-2,-1.8370561E-1,-2.9936123E-1,-5.6781816E-1,1.4424054E-1,6.6177733E-3,4.1739535E-2,2.7908754E-1,-9.9843815E-2,-3.0266663E-1,8.47167E-2,-5.272213E-2,9.7772375E-2,3.4706828E-1,-3.5438295E-2,1.75774E-1,-8.283647E-4,7.314277E-2,-5.8491535E-2,6.28849E-2,-3.445093E-3,2.2234613E-2,7.05508E-4,1.3055249E-1,7.6760864E-3,-9.008183E-3,-1.3588774E-1,6.802879E-2,-6.2225197E-2,2.7917834E-2,1.3405867E-1,-1.4257623E-2,-9.857734E-2,1.3701771E-2,-1.7209339E-1,-1.230543E-2],"categories":[],"categories_nodes":[],"categories_segments":[],"categories_sizes":[],"default_left":[0,0,0,0,0,0,0,0,0,0,0,0,0,0,0,0,0,0,0,0,0,0,0,0,0,0,0,0,0,0,0,0,0,0,0,0,0,0,0,0,0,0,0,0,0,0,0,0,0,0,0,0,0,0,0,0,0,0,0,0,0,0,0,0,0,0,0,0,0,0,0,0,0,0,0,0,0,0,0,0,0],"id":1,"left_children":[1,3,5,7,9,11,13,15,17,19,21,23,25,-1,27,29,31,33,35,37,39,41,43,-1,-1,-1,-1,45,47,49,51,53,55,-1,-1,57,59,61,63,65,67,69,71,73,75,-1,77,-1,79,-1,-1,-1,-1,-1,-1,-1,-1,-1,-1,-1,-1,-1,-1,-1,-1,-1,-1,-1,-1,-1,-1,-1,-1,-1,-1,-1,-1,-1,-1,-1,-1],"loss_changes":[1.8579365E1,1.1910171E1,1.7346834E1,1.968892E1,8.917116E0,2.1503525E1,2.500209E1,1.5511232E1,1.9965118E1,1.2610999E1,1.6134567E1,5.856823E0,4.245632E0,0E0,1.5459185E1,1.0419964E1,1.53556795E1,6.7070827E0,3.1360428E1,1.5709168E1,1.4871263E1,9.297722E0,2.1848272E1,0E0,0E0,0E0,0E0,3.7265234E0,1.4823866E1,8.353093E0,1.5745979E1,5.6823235E0,7.926667E0,0E0,0E0,1.96194E1,1.0174622E1,9.411625E0,1.6628428E1,6.530246E0,3.0017931E1,7.397629E0,1.3839408E1,2.2113335E1,2.6824198E1,0E0,2.5979383E0,0E0,6.2510395E0,0E0,0E0,0E0,0E0,0E0,0E0,0E0,0E0,0E0,0E0,0E0,0E0,0E0,0E0,0E0,0E0,0E0,0E0,0E0,0E0,0E0,0E0,0E0,0E0,0E0,0E0,0E0,0E0,0E0,0E0,0E0,0E0],"parents":[2147483647,0,0,1,1,2,2,3,3,4,4,5,5,6,6,7,7,8,8,9,9,10,10,11,11,12,12,14,14,15,15,16,16,17,17,18,18,19,19,20,20,21,21,22,22,27,27,28,28,29,29,30,30,31,31,32,32,35,35,36,36,37,37,38,38,39,39,40,40,41,41,42,42,43,43,44,44,46,46,48,48],"right_children":[2,4,6,8,10,12,14,16,18,20,22,24,26,-1,28,30,32,34,36,38,40,42,44,-1,-1,-1,-1,46,48,50,52,54,56,-1,-1,58,60,62,64,66,68,70,72,74,76,-1,78,-1,80,-1,-1,-1,-1,-1,-1,-1,-1,-1,-1,-1,-1,-1,-1,-1,-1,-1,-1,-1,-1,-1,-1,-1,-1,-1,-1,-1,-1,-1,-1,-1,-1],"split_conditions":[2.64259E2,4.1803837E-2,-1.4726283E-1,1.9000179E0,5.8843635E-2,-3.9744213E-2,-4.4925514E-1,1.22053444E2,-9.711119E-1,1.4612761E-1,7.2173355E1,-1.0408167E0,-4.4607714E-1,2.0101216E-1,3.8394928E-1,5.358119E1,-3.0116022E-1,9.965084E-1,1.3469303E0,3.8701275E-1,9.523962E1,2.0176811E2,2.7224308E-1,-1.1733969E-1,5.2766517E-2,-3.1304875E-1,-1.6107182E-1,1.2611E2,-1.0522323E0,3.0528542E-1,1.9744E2,7.361182E-1,1.1337692E0,5.823674E-2,-1.1810469E-1,6.555315E-1,8.384891E-1,2.7391412E0,7.063307E-1,1.807952E-1,-3.0559775E-1,-9.4952804E-1,-3.0416684E0,9.322656E1,5.3614885E-1,7.9677105E-2,6.8514484E-1,-2.9936123E-1,1.0434686E0,1.4424054E-1,6.6177733E-3,4.1739535E-2,2.7908754E-1,-9.9843815E-2,-3.0266663E-1,8.47167E-2,-5.272213E-2,9.7772375E-2,3.4706828E-1,-3.5438295E-2,1.75774E-1,-8.283647E-4,7.314277E-2,-5.8491535E-2,6.28849E-2,-3.445093E-3,2.2234613E-2,7.05508E-4,1.3055249E-1,7.6760864E-3,-9.008183E-3,-1.3588774E-1,6.802879E-2,-6.2225197E-2,2.7917834E-2,1.3405867E-1,-1.4257623E-2,-9.857734E-2,1.3701771E-2,-1.7209339E-1,-1.230543E-2],"split_indices":[38,23,28,40,28,8,30,38,29,10,38,30,35,0,35,38,8,24,29,34,38,39,32,0,0,0,0,0,37,41,0,40,41,0,0,9,32,40,14,23,6,37,37,19,9,0,24,0,35,0,0,0,0,0,0,0,0,0,0,0,0,0,0,0,0,0,0,0,0,0,0,0,0,0,0,0,0,0,0,0,0],"split_type":[0,0,0,0,0,0,0,0,0,0,0,0,0,0,0,0,0,0,0,0,0,0,0,0,0,0,0,0,0,0,0,0,0,0,0,0,0,0,0,0,0,0,0,0,0,0,0,0,0,0,0,0,0,0,0,0,0,0,0,0,0,0,0,0,0,0,0,0,0,0,0,0,0,0,0,0,0,0,0,0,0],"sum_hessian":[6.124E3,6.054E3,7E1,9.5E2,5.104E3,2.3E1,4.7E1,9.03E2,4.7E1,2.656E3,2.448E3,1.1E1,1.2E1,6E0,4.1E1,8.57E2,4.6E1,1.2E1,3.5E1,2.005E3,6.51E2,2.067E3,3.81E2,5E0,6E0,7E0,5E0,2.1E1,2E1,7.95E2,6.2E1,8E0,3.8E1,5E0,7E0,1.8E1,1.7E1,1.873E3,1.32E2,5.51E2,1E2,2.018E3,4.9E1,2.76E2,1.05E2,8E0,1.3E1,5E0,1.5E1,6E0,7.89E2,5.8E1,4E0,4E0,4E0,7E0,3.1E1,8E0,1E1,1.3E1,4E0,1.849E3,2.4E1,1.14E2,1.8E1,2.92E2,2.59E2,5.6E1,4.4E1,4.85E2,1.533E3,5E0,4.4E1,2.31E2,4.5E1,2.1E1,8.4E1,4E0,9E0,5E0,1E1],"tree_param":{"num_deleted":"0","num_feature":"43","num_nodes":"81","size_leaf_vector":"1"}},{"base_weights":[4.1007754E-4,2.8661367E-1,-5.0838864E-3,2.3322052E-1,1.6677181E-1,-8.044247E-4,-3.51682E-1,3.4751073E-1,-1.7584248E-1,3.1723417E-2,-4.1597173E-2,-1.5848066E0,-1.7463778E-1,1.761736E-1,1.0345143E0,1.8303605E-2,-7.209956E-1,2.2251382E-2,6.986579E-1,-2.3155084E-2,-3.0806875E-1,-2.6348498E-1,-8.390958E-2,5.568338E-1,-6.140365E-1,1.3543727E-1,9.731284E-2,1.467788E0,-2.202701E-3,-1.674462E-1,-1.5613404E-2,1.0060825E-2,2.3630847E-1,-2.755697E-1,1.0819482E0,-3.1328518E-2,4.9543628E-1,-5.4925394E-1,1.7025156E-1,1.94087E-1,2.5790253E-1,-2.2116841E-1,-3.829607E-1,4.809135E-2,-1.0622451E-2,9.076423E-2,2.112157E-1,2.3456397E-3,-4.8553027E-2,4.995933E-3,8.97705E-2,8.674261E-2,-1.0721292E-1,1.700977E-1,2.8051326E-2,-6.545227E-4,-1.963177E-2,2.513198E-1,3.4535035E-2,-7.597092E-2,1.3330173E-1,7.361516E-2,-7.163028E-2,-9.660369E-2,6.492084E-2,-8.5629284E-2,8.568354E-2],"categories":[],"categories_nodes":[],"categories_segments":[],"categories_sizes":[],"default_left":[0,0,0,0,0,0,0,0,0,0,0,0,0,0,0,0,0,0,0,0,0,0,0,0,0,0,0,0,0,0,0,0,0,0,0,0,0,0,0,0,0,0,0,0,0,0,0,0,0,0,0,0,0,0,0,0,0,0,0,0,0,0,0,0,0,0,0],"id":2,"left_children":[1,3,5,7,-1,9,11,13,15,17,19,21,23,25,27,-1,29,31,33,35,37,-1,-1,39,41,-1,43,45,-1,-1,-1,47,49,51,53,55,57,59,61,-1,63,-1,65,-1,-1,-1,-1,-1,-1,-1,-1,-1,-1,-1,-1,-1,-1,-1,-1,-1,-1,-1,-1,-1,-1,-1,-1],"loss_changes":[9.614478E0,6.889329E0,8.897766E0,5.1606646E0,0E0,7.863659E0,1.5925239E1,1.0110775E1,4.38313E0,2.0825424E1,1.2918871E1,4.951252E0,2.0679193E1,5.2921476E0,7.8390884E0,0E0,3.7466397E0,8.483114E0,1.7288403E1,1.0425529E1,1.964668E1,0E0,0E0,7.8107443E0,1.161081E1,0E0,3.749254E0,2.5319996E0,0E0,0E0,0E0,1.2808932E1,1.7857655E1,8.569789E0,1.0084549E1,8.446653E0,1.2537865E1,1.8360794E1,2.0306261E1,0E0,6.136647E0,0E0,1.314617E1,0E0,0E0,0E0,0E0,0E0,0E0,0E0,0E0,0E0,0E0,0E0,0E0,0E0,0E0,0E0,0E0,0E0,0E0,0E0,0E0,0E0,0E0,0E0,0E0],"parents":[2147483647,0,0,1,1,2,2,3,3,5,5,6,6,7,7,8,8,9,9,10,10,11,11,12,12,13,13,14,14,16,16,17,17,18,18,19,19,20,20,23,23,24,24,26,26,27,27,31,31,32,32,33,33,34,34,35,35,36,36,37,37,38,38,40,40,42,42],"right_children":[2,4,6,8,-1,10,12,14,16,18,20,22,24,26,28,-1,30,32,34,36,38,-1,-1,40,42,-1,44,46,-1,-1,-1,48,50,52,54,56,58,60,62,-1,64,-1,66,-1,-1,-1,-1,-1,-1,-1,-1,-1,-1,-1,-1,-1,-1,-1,-1,-1,-1,-1,-1,-1,-1,-1,-1],"split_conditions":[8.69083E1,2.3278658E0,2.64259E2,6.85196E-1,1.6677181E-1,4.0178566E0,-3.888025E-1,5.123577E-1,-2.2491683E-1,2.0960526E2,1.3649545E2,3.0768762E0,-3.6822323E-2,3.230922E-2,3.2974455E-1,1.8303605E-2,5.4277634E1,8.683863E1,-1.7791785E-1,2.7289648E2,1.5862311E0,-2.6348498E-1,-8.390958E-2,-1.2749234E0,1.0488E2,1.3543727E-1,-2.2003716E-1,-4.76307E-1,-2.202701E-3,-1.674462E-1,-1.5613404E-2,8.233134E1,6.255885E1,1.6405689E0,3.2519358E-1,5.651544E-1,6.2206817E0,2.6852182E1,1.8672874E2,1.94087E-1,-4.241614E-1,-2.2116841E-1,2.6737967E-1,4.809135E-2,-1.0622451E-2,9.076423E-2,2.112157E-1,2.3456397E-3,-4.8553027E-2,4.995933E-3,8.97705E-2,8.674261E-2,-1.0721292E-1,1.700977E-1,2.8051326E-2,-6.545227E-4,-1.963177E-2,2.513198E-1,3.4535035E-2,-7.597092E-2,1.3330173E-1,7.361516E-2,-7.163028E-2,-9.660369E-2,6.492084E-2,-8.5629284E-2,8.568354E-2],"split_indices":[15,42,38,21,0,26,7,21,14,38,38,40,33,21,33,0,18,20,33,39,40,0,0,36,0,0,30,11,0,0,0,19,38,40,33,40,27,26,39,0,33,0,22,0,0,0,0,0,0,0,0,0,0,0,0,0,0,0,0,0,0,0,0,0,0,0,0],"split_type":[0,0,0,0,0,0,0,0,0,0,0,0,0,0,0,0,0,0,0,0,0,0,0,0,0,0,0,0,0,0,0,0,0,0,0,0,0,0,0,0,0,0,0,0,0,0,0,0,0,0,0,0,0,0,0,0,0,0,0,0,0,0,0,0,0,0,0],"sum_hessian":[6.114E3,1.15E2,5.999E3,1.1E2,5E0,5.926E3,7.3E1,8.6E1,2.4E1,3.297E3,2.629E3,9E0,6.4E1,6.9E1,1.7E1,1.5E1,9E0,3.251E3,4.6E1,2.459E3,1.7E2,5E0,4E0,2.4E1,4E1,5E0,6.4E1,1.2E1,5E0,4E0,5E0,3.076E3,1.75E2,1.3E1,3.3E1,2.421E3,3.8E1,1.13E2,5.7E1,5E0,1.9E1,6E0,3.4E1,2.4E1,4E1,4E0,8E0,3.006E3,7E1,1.28E2,4.7E1,5E0,8E0,2.3E1,1E1,2.034E3,3.87E2,4E0,3.4E1,1.07E2,6E0,3.6E1,2.1E1,4E0,1.5E1,2.6E1,8E0],"tree_param":{"num_deleted":"0","num_feature":"43","num_nodes":"67","size_leaf_vector":"1"}},{"base_weights":[-4.158452E-3,8.3793566E-2,-2.237463E-2,1.2329081E0,7.250663E-2,-2.7404863E-1,-1.6397482E-2,2.770735E-1,-5.573168E-2,5.7241425E-2,8.8202894E-1,-1.5363199E-1,-7.615469E-1,-2.96109E-2,1.4280277E-1,1.3418347E-1,-4.6124812E-2,2.4416256E-1,1.6833515E-1,-7.860596E-2,-1.2514576E-1,-3.7910618E-2,-3.243446E-1,-1.9167906E-2,-2.2860004E-1,-7.1499854E-1,2.0386183E-1,-1.7955431E-1,1.784353E-1,-2.5708026E-3,-6.092846E-1,1.1925193E-1,-5.2282028E-2,1.4078591E-2,-8.67863E-1,-2.366697E-2,4.2762554E-1,-8.71088E-2,-1.08592E0,1.1336696E-1,-1.1389157E0,2.7431008E-1,1.7841154E-1,-1.1573646E-2,-1.7693026E-1,1.9000947E-2,1.4454535E-1,-5.546898E-3,5.2936472E-2,-4.257571E-2,-2.5918198E-1,-2.577136E-2,3.203624E-2,-1.7675269E-1,-3.8799845E-2,-2.4354372E-3,-7.361228E-2,-8.019689E-4,1.9701888E-1,-8.147094E-2,3.2701849E-3,-2.405048E-2,-1.816475E-1,-6.1982457E-2,-2.195757E-1,-1.1883901E-1,2.4346815E-2],"categories":[],"categories_nodes":[],"categories_segments":[],"categories_sizes":[],"default_left":[0,0,0,0,0,0,0,0,0,0,0,0,0,0,0,0,0,0,0,0,0,0,0,0,0,0,0,0,0,0,0,0,0,0,0,0,0,0,0,0,0,0,0,0,0,0,0,0,0,0,0,0,0,0,0,0,0,0,0,0,0,0,0,0,0,0,0],"id":3,"left_children":[1,3,5,7,9,11,13,-1,-1,15,17,19,21,23,25,27,29,-1,31,33,-1,-1,-1,35,37,39,41,43,45,47,49,-1,-1,51,53,55,57,59,61,-1,63,-1,65,-1,-1,-1,-1,-1,-1,-1,-1,-1,-1,-1,-1,-1,-1,-1,-1,-1,-1,-1,-1,-1,-1,-1,-1],"loss_changes":[9.768796E0,1.3552302E1,7.597307E0,1.9607943E1,1.2794881E1,6.857442E0,1.03799515E1,0E0,0E0,8.090856E0,1.6234459E1,6.4072404E0,2.0143044E1,9.466853E0,1.9830214E1,8.10161E0,1.0648056E1,0E0,6.363499E0,6.3793836E0,0E0,0E0,0E0,8.703409E0,2.7538673E1,1.8077404E1,1.9032944E1,7.732462E0,9.125536E0,8.119896E0,1.2154298E1,0E0,0E0,4.7065268E0,3.0399098E0,7.693561E0,2.3358498E1,1.3562201E1,1.2894596E1,0E0,8.799248E0,0E0,1.1783642E1,0E0,0E0,0E0,0E0,0E0,0E0,0E0,0E0,0E0,0E0,0E0,0E0,0E0,0E0,0E0,0E0,0E0,0E0,0E0,0E0,0E0,0E0,0E0,0E0],"parents":[2147483647,0,0,1,1,2,2,3,3,4,4,5,5,6,6,9,9,10,10,11,11,12,12,13,13,14,14,15,15,16,16,18,18,19,19,23,23,24,24,25,25,26,26,27,27,28,28,29,29,30,30,33,33,34,34,35,35,36,36,37,37,38,38,40,40,42,42],"right_children":[2,4,6,8,10,12,14,-1,-1,16,18,20,22,24,26,28,30,-1,32,34,-1,-1,-1,36,38,40,42,44,46,48,50,-1,-1,52,54,56,58,60,62,-1,64,-1,66,-1,-1,-1,-1,-1,-1,-1,-1,-1,-1,-1,-1,-1,-1,-1,-1,-1,-1,-1,-1,-1,-1,-1,-1],"split_conditions":[4.537548E-2,9.194557E-3,6.0943227E0,1.541862E0,9.966134E6,-2.2649765E0,6.736556E6,2.770735E-1,-5.573168E-2,3.6102763E-1,1.1080836E0,1.2529871E2,1.5421048E2,1.7206055E0,6.837809E-2,-3.9538877E0,1.1446117E0,2.4416256E-1,1.1480726E7,7.486053E-1,-1.2514576E-1,-3.7910618E-2,-3.243446E-1,2.0074586E2,8.588443E1,9.4245E1,3.9738792E-1,1.6752672E2,1.793631E0,9.408557E-1,8.7202515E1,1.1925193E-1,-5.2282028E-2,-2.7380261E0,4.4634247E1,1.8403587E2,4.9071524E-2,1.353744E1,-9.825506E-2,1.1336696E-1,1.8821371E0,2.7431008E-1,1.438435E-2,-1.1573646E-2,-1.7693026E-1,1.9000947E-2,1.4454535E-1,-5.546898E-3,5.2936472E-2,-4.257571E-2,-2.5918198E-1,-2.577136E-2,3.203624E-2,-1.7675269E-1,-3.8799845E-2,-2.4354372E-3,-7.361228E-2,-8.019689E-4,1.9701888E-1,-8.147094E-2,3.2701849E-3,-2.405048E-2,-1.816475E-1,-6.1982457E-2,-2.195757E-1,-1.1883901E-1,2.4346815E-2],"split_indices":[23,21,20,36,4,37,4,0,0,11,24,38,39,41,23,37,9,0,4,11,0,0,0,38,20,3,24,39,9,21,38,0,0,39,39,38,31,20,31,0,41,0,21,0,0,0,0,0,0,0,0,0,0,0,0,0,0,0,0,0,0,0,0,0,0,0,0],"split_type":[0,0,0,0,0,0,0,0,0,0,0,0,0,0,0,0,0,0,0,0,0,0,0,0,0,0,0,0,0,0,0,0,0,0,0,0,0,0,0,0,0,0,0,0,0,0,0,0,0,0,0,0,0,0,0,0,0,0,0,0,0,0,0,0,0,0,0],"sum_hessian":[6.097E3,1.046E3,5.051E3,1E1,1.036E3,1.17E2,4.934E3,6E0,4E0,1.017E3,1.9E1,9.4E1,2.3E1,4.556E3,3.78E2,5.83E2,4.34E2,7E0,1.2E1,8.7E1,7E0,1.9E1,4E0,4.329E3,2.27E2,2.5E1,3.53E2,7.2E1,5.11E2,4.03E2,3.1E1,5E0,7E0,7.8E1,9E0,4.286E3,4.3E1,1.95E2,3.2E1,5E0,2E1,4E0,3.49E2,6.8E1,4E0,5.03E2,8E0,3.67E2,3.6E1,2.7E1,4E0,4.1E1,3.7E1,4E0,5E0,4.265E3,2.1E1,3.2E1,1.1E1,3.1E1,1.64E2,1.1E1,2.1E1,1.1E1,9E0,8E0,3.41E2],"tree_param":{"num_deleted":"0","num_feature":"43","num_nodes":"67","size_leaf_vector":"1"}},{"base_weights":[-3.1116215E-4,2.6883316E-1,-5.9023434E-3,1.5198241E-1,9.957301E-1,-3.5511178E-3,-5.6195E-1,1.279E-2,5.8276516E-1,2.2197641E-1,2.1844985E-2,-1.0071547E-1,6.2648924E-3,-9.4468164E-1,7.568339E-2,8.329042E-2,-1.2095204E-1,4.4615054E-1,1.5150571E-1,-7.094485E-2,-6.4779663E-1,-1.6785089E-2,5.093499E-2,-3.2904074E-1,-1.62611E-1,1.4614417E-1,-7.467555E-2,2.8576164E-2,1.13947935E-1,-1.16704926E-1,2.4193367E-1,-1.3698423E0,8.736065E-1,-1.1505466E-2,-2.586654E-1,1.6151093E-1,-1.06673026E-4,3.0064741E-2,-1.0606876E-1,2.4580128E-2,-5.993905E-2,-9.136694E-3,-7.384298E-2,4.326047E-2,-1.4731929E-1,-3.6693648E-1,-6.300133E-2,-5.0674535E-2,2.2345003E-1,-6.924954E-2,-1.097731E-3,-1.15391076E-1,-1.2677988E-2,1.0545862E-2,8.7266296E-2,-3.2155667E-2,7.2524184E-3],"categories":[],"categories_nodes":[],"categories_segments":[],"categories_sizes":[],"default_left":[0,0,0,0,0,0,0,0,0,0,0,0,0,0,0,0,0,0,0,0,0,0,0,0,0,0,0,0,0,0,0,0,0,0,0,0,0,0,0,0,0,0,0,0,0,0,0,0,0,0,0,0,0,0,0,0,0],"id":4,"left_children":[1,3,5,7,9,11,13,15,17,-1,-1,19,21,23,-1,25,-1,27,-1,29,31,33,35,37,-1,39,-1,-1,-1,41,43,45,47,49,51,53,55,-1,-1,-1,-1,-1,-1,-1,-1,-1,-1,-1,-1,-1,-1,-1,-1,-1,-1,-1,-1],"loss_changes":[9.181156E0,1.0519932E1,7.8134265E0,6.4237394E0,1.23066845E1,5.6772027E0,1.1702328E1,5.9632125E0,2.4190292E0,0E0,0E0,8.88684E0,5.566615E0,5.069309E0,0E0,3.4490418E0,0E0,2.3117352E0,0E0,7.423212E0,3.1136536E1,4.5532746E0,1.0386066E1,2.7660189E0,0E0,2.8939815E0,0E0,0E0,0E0,9.018065E0,1.2464025E1,2.7657852E1,1.2371342E1,4.3924966E0,8.276129E0,2.4223755E1,2.120656E1,0E0,0E0,0E0,0E0,0E0,0E0,0E0,0E0,0E0,0E0,0E0,0E0,0E0,0E0,0E0,0E0,0E0,0E0,0E0,0E0],"parents":[2147483647,0,0,1,1,2,2,3,3,4,4,5,5,6,6,7,7,8,8,11,11,12,12,13,13,15,15,17,17,19,19,20,20,21,21,22,22,23,23,25,25,29,29,30,30,31,31,32,32,33,33,34,34,35,35,36,36],"right_children":[2,4,6,8,10,12,14,16,18,-1,-1,20,22,24,-1,26,-1,28,-1,30,32,34,36,38,-1,40,-1,-1,-1,42,44,46,48,50,52,54,56,-1,-1,-1,-1,-1,-1,-1,-1,-1,-1,-1,-1,-1,-1,-1,-1,-1,-1,-1,-1],"split_conditions":[8.690282E1,7.180659E6,2.7971122E0,8.6635956E1,-1.05606206E-1,1.6723223E-2,7.405122E1,1.0343494E2,3.23089E-1,2.2197641E-1,2.1844985E-2,1.9000179E0,9.560574E0,-1.9416791E0,7.568339E-2,3.3135974E0,-1.2095204E-1,1.1021212E0,1.5150571E-1,1.2715767E2,1.4649868E-1,1.6443077E0,-1.1319354E0,1.050858E7,-1.62611E-1,1.862707E0,-7.467555E-2,2.8576164E-2,1.13947935E-1,7.952867E1,9.088932E1,2.050979E0,5.2692777E-1,-5.792027E0,1.7206055E0,-1.5526328E0,1.5702201E-2,3.0064741E-2,-1.0606876E-1,2.4580128E-2,-5.993905E-2,-9.136694E-3,-7.384298E-2,4.326047E-2,-1.4731929E-1,-3.6693648E-1,-6.300133E-2,-5.0674535E-2,2.2345003E-1,-6.924954E-2,-1.097731E-3,-1.15391076E-1,-1.2677988E-2,1.0545862E-2,8.7266296E-2,-3.2155667E-2,7.2524184E-3],"split_indices":[16,4,24,15,28,22,20,38,31,0,0,40,38,29,0,12,0,36,0,39,33,41,37,4,0,30,0,0,0,38,20,41,9,12,41,37,37,0,0,0,0,0,0,0,0,0,0,0,0,0,0,0,0,0,0,0,0],"split_type":[0,0,0,0,0,0,0,0,0,0,0,0,0,0,0,0,0,0,0,0,0,0,0,0,0,0,0,0,0,0,0,0,0,0,0,0,0,0,0,0,0,0,0,0,0,0,0,0,0,0,0,0,0,0,0,0,0],"sum_hessian":[6.101E3,1.24E2,5.977E3,1.07E2,1.7E1,5.952E3,2.5E1,8.1E1,2.6E1,8E0,9E0,5.46E2,5.406E3,1.9E1,6E0,7.6E1,5E0,2.2E1,4E0,5.18E2,2.8E1,3.566E3,1.84E3,8E0,1.1E1,7E1,6E0,1.6E1,6E0,4.52E2,6.6E1,1.9E1,9E0,3.49E3,7.6E1,5.81E2,1.259E3,4E0,4E0,6.4E1,6E0,4.2E2,3.2E1,6.1E1,5E0,6E0,1.3E1,4E0,5E0,1.3E1,3.477E3,1.3E1,6.3E1,5.17E2,6.4E1,2.32E2,1.027E3],"tree_param":{"num_deleted":"0","num_feature":"43","num_nodes":"57","size_leaf_vector":"1"}},{"base_weights":[-1.1061384E-2,6.916925E-2,-2.7247615E-2,5.0141454E-2,8.2946646E-1,-2.0664196E-2,-2.6069817E-1,5.7103194E-2,-1.9158155E-1,1.5054234E0,-4.7364207E-3,-3.2584645E-2,1.5910156E-1,-1.2068357E0,-1.1068459E-1,4.0083E-2,6.9169897E-1,7.618011E-2,2.7428883E-1,-2.360241E-2,-4.0368414E-1,2.778788E-1,-1.5382801E-1,-1.7083052E0,2.4341349E-2,-4.7950712E-1,4.4992763E-1,-1.5315829E-1,8.350778E-2,9.131167E-1,-6.0499787E-2,-1.8063707E-2,-3.039931E-1,-2.529126E-1,-3.1739664E-1,2.2090407E-1,1.0086907E0,-2.3635107E-1,1.7196727E-1,-2.292511E0,-7.265606E-2,-1.7347953E-1,-1.6480205E0,9.582099E-1,-1.0537458E-1,-4.2316946E-3,-6.2868364E-2,-6.0023223E-3,1.6657433E-2,8.039569E-2,2.2159788E-1,-2.7062749E-3,2.838204E-2,1.7972102E-2,-5.9585184E-2,-2.142006E-2,-1.0445721E-1,3.0361963E-2,-1.1725872E-1,5.5016495E-2,1.5552013E-1,8.261519E-2,-4.1797623E-2,-1.663674E-1,-3.8775033E-1,-6.070474E-2,5.5958275E-2,-3.401702E-2,-3.3059517E-1,2.2940214E-1,4.5596585E-2,-1.2849246E-1,5.0213628E-2],"categories":[],"categories_nodes":[],"categories_segments":[],"categories_sizes":[],"default_left":[0,0,0,0,0,0,0,0,0,0,0,0,0,0,0,0,0,0,0,0,0,0,0,0,0,0,0,0,0,0,0,0,0,0,0,0,0,0,0,0,0,0,0,0,0,0,0,0,0,0,0,0,0,0,0,0,0,0,0,0,0,0,0,0,0,0,0,0,0,0,0,0,0],"id":5,"left_children":[1,3,5,7,9,11,13,15,-1,17,-1,19,21,23,25,27,29,-1,-1,31,33,35,37,39,-1,41,43,45,47,49,-1,51,53,-1,55,57,59,61,-1,63,-1,65,67,69,71,-1,-1,-1,-1,-1,-1,-1,-1,-1,-1,-1,-1,-1,-1,-1,-1,-1,-1,-1,-1,-1,-1,-1,-1,-1,-1,-1,-1],"loss_changes":[7.976662E0,1.4909624E1,7.854104E0,1.1760134E1,1.4805304E1,1.0653336E1,1.9870312E1,1.081879E1,0E0,9.765961E0,0E0,1.5538277E1,1.1498493E1,1.3644623E1,2.5088219E1,8.193455E0,7.0611315E0,0E0,0E0,7.0681844E0,1.6462889E1,9.295456E0,1.139936E1,8.794235E0,0E0,2.6113968E1,1.361213E1,7.991852E0,6.2130303E0,4.732254E0,0E0,5.688107E0,8.144784E0,0E0,8.089314E0,9.39286E0,2.6268063E0,9.06788E0,0E0,7.29311E0,0E0,1.2944328E1,2.375739E1,1.4096001E1,1.22203245E1,0E0,0E0,0E0,0E0,0E0,0E0,0E0,0E0,0E0,0E0,0E0,0E0,0E0,0E0,0E0,0E0,0E0,0E0,0E0,0E0,0E0,0E0,0E0,0E0,0E0,0E0,0E0,0E0],"parents":[2147483647,0,0,1,1,2,2,3,3,4,4,5,5,6,6,7,7,9,9,11,11,12,12,13,13,14,14,15,15,16,16,19,19,20,20,21,21,22,22,23,23,25,25,26,26,27,27,28,28,29,29,31,31,32,32,34,34,35,35,36,36,37,37,39,39,41,41,42,42,43,43,44,44],"right_children":[2,4,6,8,10,12,14,16,-1,18,-1,20,22,24,26,28,30,-1,-1,32,34,36,38,40,-1,42,44,46,48,50,-1,52,54,-1,56,58,60,62,-1,64,-1,66,68,70,72,-1,-1,-1,-1,-1,-1,-1,-1,-1,-1,-1,-1,-1,-1,-1,-1,-1,-1,-1,-1,-1,-1,-1,-1,-1,-1,-1,-1],"split_conditions":[4.3663356E-2,9.31526E6,2.4036887E0,2.7391412E0,2.2984731E-1,6.736556E6,8.812857E-2,2.1086578E2,-1.9158155E-1,-5.9910387E-1,-4.7364207E-3,1.7766204E0,1.1387833E0,2.8869808E-1,1.1396666E0,3.068426E-3,1.0988691E0,7.618011E-2,2.7428883E-1,6.276594E6,2.8119606E-1,7.5703514E-1,2.33607E0,2.5541058E0,2.4341349E-2,-2.8901505E-1,2.0559566E0,3.87542E6,-1.8533534E-1,2.8972247E-1,-6.0499787E-2,1.7088464E0,-1.3236042E0,-2.529126E-1,8.203651E1,9.193972E1,-1.9390666E-1,-1.1194558E0,1.7196727E-1,6.304285E-1,-7.265606E-2,2.9088812E0,1.3453332E-1,8.7791497E-1,1.6610588E-1,-4.2316946E-3,-6.2868364E-2,-6.0023223E-3,1.6657433E-2,8.039569E-2,2.2159788E-1,-2.7062749E-3,2.838204E-2,1.7972102E-2,-5.9585184E-2,-2.142006E-2,-1.0445721E-1,3.0361963E-2,-1.1725872E-1,5.5016495E-2,1.5552013E-1,8.261519E-2,-4.1797623E-2,-1.663674E-1,-3.8775033E-1,-6.070474E-2,5.5958275E-2,-3.401702E-2,-3.3059517E-1,2.2940214E-1,4.5596585E-2,-1.2849246E-1,5.0213628E-2],"split_indices":[23,4,40,40,34,4,23,15,0,33,0,40,14,34,37,23,11,0,0,4,24,14,40,41,0,30,36,4,32,33,0,42,35,0,19,19,7,33,0,9,0,40,33,24,22,0,0,0,0,0,0,0,0,0,0,0,0,0,0,0,0,0,0,0,0,0,0,0,0,0,0,0,0],"split_type":[0,0,0,0,0,0,0,0,0,0,0,0,0,0,0,0,0,0,0,0,0,0,0,0,0,0,0,0,0,0,0,0,0,0,0,0,0,0,0,0,0,0,0,0,0,0,0,0,0,0,0,0,0,0,0,0,0,0,0,0,0,0,0,0,0,0,0,0,0,0,0,0,0],"sum_hessian":[6.142E3,1.031E3,5.111E3,1.006E3,2.5E1,4.971E3,1.4E2,1.002E3,4E0,1.4E1,1.1E1,4.662E3,3.09E2,1.9E1,1.21E2,9.76E2,2.6E1,7E0,7E0,4.552E3,1.1E2,2.24E2,8.5E1,1.4E1,5E0,7.3E1,4.8E1,1.79E2,7.97E2,2.2E1,4E0,4.464E3,8.8E1,5E0,1.05E2,2.08E2,1.6E1,8.1E1,4E0,9E0,5E0,5.8E1,1.5E1,2.5E1,2.3E1,1.37E2,4.2E1,2.4E2,5.57E2,1.8E1,4E0,4.381E3,8.3E1,2.7E1,6.1E1,8.5E1,2E1,2.02E2,6E0,6E0,1E1,9E0,7.2E1,5E0,4E0,3.8E1,2E1,7E0,8E0,9E0,1.6E1,8E0,1.5E1],"tree_param":{"num_deleted":"0","num_feature":"43","num_nodes":"73","size_leaf_vector":"1"}},{"base_weights":[-5.852884E-4,3.3800015E-3,-3.5502207E-1,-1.8593625E-3,2.3979202E-1,-1.6681351E-1,-2.276232E-1,8.2648726E-4,-8.676819E-1,9.767298E-1,-1.21332295E-2,3.5209396E-1,-6.139818E-1,-1.2279612E-3,5.6721175E-1,-2.3107284E-1,-3.0117887E-1,3.1768356E-2,1.9701371E0,-9.2104614E-2,1.6665219E-1,-2.9740404E-2,9.520904E-1,-1.9604222E-1,-3.523478E-1,2.2467215E-1,-6.261559E-3,1.5370327E-1,2.6097238E-1,-8.365371E-1,8.94949E-2,-1.7565472E-1,6.7820525E-1,3.0966344E-1,1.2732007E-1,9.272223E-2,-5.349758E-1,1.626096E-1,8.665838E-3,-1.2094824E0,4.0011585E-2,3.835844E-2,-4.0931042E-2,1.8625971E-4,-1.8832957E-2,1.08252175E-1,1.350354E-3,-1.9015393E-1,-2.9419314E-3,1.2154889E-2,1.7122641E-1,6.4145885E-2,-1.6450314E-2,-1.9836552E-1,-3.0983774E-2,-2.0962907E-1,-5.3432643E-2,6.794456E-2,-2.2850908E-2],"categories":[],"categories_nodes":[],"categories_segments":[],"categories_sizes":[],"default_left":[0,0,0,0,0,0,0,0,0,0,0,0,0,0,0,0,0,0,0,0,0,0,0,0,0,0,0,0,0,0,0,0,0,0,0,0,0,0,0,0,0,0,0,0,0,0,0,0,0,0,0,0,0,0,0,0,0,0,0],"id":6,"left_children":[1,3,5,7,9,-1,11,13,15,17,19,21,23,25,27,-1,29,31,33,35,-1,-1,37,-1,39,41,43,-1,45,47,-1,-1,49,-1,-1,51,53,-1,-1,55,57,-1,-1,-1,-1,-1,-1,-1,-1,-1,-1,-1,-1,-1,-1,-1,-1,-1,-1],"loss_changes":[8.531944E0,7.4361997E0,9.027981E0,1.3659132E1,2.4168665E1,0E0,1.3511415E1,6.813989E0,1.1162969E1,3.111948E1,1.111044E1,8.806908E0,9.843179E0,6.6339135E0,4.725252E0,0E0,7.0151434E0,1.7068338E1,9.004036E0,7.5528064E0,0E0,0E0,4.5633116E0,0E0,9.817622E0,7.372822E0,6.878703E0,0E0,2.4877205E0,5.1475353E0,0E0,0E0,5.3996396E0,0E0,0E0,6.858591E0,8.413809E0,0E0,0E0,3.816554E0,2.5531719E0,0E0,0E0,0E0,0E0,0E0,0E0,0E0,0E0,0E0,0E0,0E0,0E0,0E0,0E0,0E0,0E0,0E0,0E0],"parents":[2147483647,0,0,1,1,2,2,3,3,4,4,6,6,7,7,8,8,9,9,10,10,11,11,12,12,13,13,14,14,16,16,17,17,18,18,19,19,22,22,24,24,25,25,26,26,28,28,29,29,32,32,35,35,36,36,39,39,40,40],"right_children":[2,4,6,8,10,-1,12,14,16,18,20,22,24,26,28,-1,30,32,34,36,-1,-1,38,-1,40,42,44,-1,46,48,-1,-1,50,-1,-1,52,54,-1,-1,56,58,-1,-1,-1,-1,-1,-1,-1,-1,-1,-1,-1,-1,-1,-1,-1,-1,-1,-1],"split_conditions":[2.64259E2,2.2624323E0,-3.888025E-1,2.185554E0,9.120359E-1,-1.6681351E-1,-2.5464732E-2,3.5093295E2,6.02354E-1,-7.088499E-1,1.2933496E0,-2.1652292E-1,1.0531E2,8.67778E1,3.719379E-1,-2.3107284E-1,6.511699E1,1.0134103E-1,1.2800819E-2,1.8838322E-1,1.6665219E-1,-2.9740404E-2,1.437314E-1,-1.9604222E-1,6.685982E-2,9.329684E-1,1.5016467E2,1.5370327E-1,-1.2884463E-1,9.523962E1,8.94949E-2,-1.7565472E-1,-2.492494E-1,3.0966344E-1,1.2732007E-1,1.1661795E0,2.292198E-2,1.626096E-1,8.665838E-3,2.7716537E0,4.724358E-1,3.835844E-2,-4.0931042E-2,1.8625971E-4,-1.8832957E-2,1.08252175E-1,1.350354E-3,-1.9015393E-1,-2.9419314E-3,1.2154889E-2,1.7122641E-1,6.4145885E-2,-1.6450314E-2,-1.9836552E-1,-3.0983774E-2,-2.0962907E-1,-5.3432643E-2,6.794456E-2,-2.2850908E-2],"split_indices":[38,41,7,41,24,0,33,39,24,37,7,33,1,2,21,0,19,21,7,8,0,0,23,0,33,29,38,0,8,38,0,0,7,0,0,24,23,0,0,37,9,0,0,0,0,0,0,0,0,0,0,0,0,0,0,0,0,0,0],"split_type":[0,0,0,0,0,0,0,0,0,0,0,0,0,0,0,0,0,0,0,0,0,0,0,0,0,0,0,0,0,0,0,0,0,0,0,0,0,0,0,0,0,0,0,0,0,0,0,0,0,0,0,0,0,0,0,0,0,0,0],"sum_hessian":[6.07E3,6.003E3,6.7E1,5.873E3,1.3E2,7E0,6E1,5.855E3,1.8E1,3.3E1,9.7E1,2.4E1,3.6E1,5.834E3,2.1E1,6E0,1.2E1,1.7E1,1.6E1,9.2E1,5E0,1.2E1,1.2E1,7E0,2.9E1,1.27E2,5.707E3,6E0,1.5E1,8E0,4E0,5E0,1.2E1,9E0,7E0,6.5E1,2.7E1,8E0,4E0,9E0,2E1,1.08E2,1.9E1,5.43E3,2.77E2,4E0,1.1E1,4E0,4E0,7E0,5E0,2.2E1,4.3E1,5E0,2.2E1,5E0,4E0,6E0,1.4E1],"tree_param":{"num_deleted":"0","num_feature":"43","num_nodes":"59","size_leaf_vector":"1"}},{"base_weights":[5.007779E-3,-1.8645119E-2,4.818746E-2,-1.1246921E-2,-1.2567987E-1,3.682827E-2,4.8541796E-1,-3.257617E-1,-8.675831E-3,-1.0272943E0,-9.229592E-2,6.803719E-2,-1.2517266E-1,1.4317088E-1,1.1270274E0,8.660957E-3,-6.951355E-2,5.4128513E-2,-2.1977486E-2,-4.2126946E-2,-1.8067372E-1,-1.13271445E-1,-6.639437E-2,9.23186E-2,-1.9014286E-1,1.7319056E-1,-2.2662078E-1,2.7499972E-3,1.251372E-1,1.6052239E0,-2.5923742E-2,8.443207E-1,4.0201183E-2,-1.9144617E-2,-4.6919414E-1,6.1300106E-2,-2.7295882E-1,2.5716475E-3,1.9279271E-1,-2.245534E-1,-1.4199694E-1,1.7840953E-1,1.05641484E-1,-1.144609E0,-1.8072827E-1,3.0191612E-1,8.4897244E-1,2.3056914E-1,-1.3007548E-1,-4.8583433E-2,6.4836172E-3,3.4863144E-2,-2.7157317E-3,1.6968172E-2,-8.83925E-2,7.979451E-4,1.05274595E-1,6.398072E-2,-3.7780087E-2,1.8415205E-2,-1.177379E-2,2.692375E-2,-4.0475998E-2,-3.4201596E-2,2.3650656E-2,2.6268922E-2,-6.1407547E-2,-2.1682744E-1,-1.666028E-2,-6.1050564E-2,-7.099203E-3,3.3648297E-2,1.6231853E-1],"categories":[],"categories_nodes":[],"categories_segments":[],"categories_sizes":[],"default_left":[0,0,0,0,0,0,0,0,0,0,0,0,0,0,0,0,0,0,0,0,0,0,0,0,0,0,0,0,0,0,0,0,0,0,0,0,0,0,0,0,0,0,0,0,0,0,0,0,0,0,0,0,0,0,0,0,0,0,0,0,0,0,0,0,0,0,0,0,0,0,0,0,0],"id":7,"left_children":[1,3,5,7,9,11,13,15,17,19,21,23,25,27,29,-1,-1,31,33,-1,-1,-1,35,37,39,41,43,-1,-1,45,-1,47,49,51,53,55,57,59,61,-1,63,-1,65,67,69,-1,71,-1,-1,-1,-1,-1,-1,-1,-1,-1,-1,-1,-1,-1,-1,-1,-1,-1,-1,-1,-1,-1,-1,-1,-1,-1,-1],"loss_changes":[6.2886505E0,3.1497524E0,1.0819373E1,3.0081947E0,7.7234354E0,1.0740832E1,1.2085276E1,3.1941319E0,3.083758E0,3.0180082E0,5.5777035E0,1.1168832E1,1.0393554E1,3.9786997E0,1.2405809E1,0E0,0E0,7.0934534E0,3.8570802E0,0E0,0E0,0E0,6.3642573E0,1.4681214E1,1.2612336E1,7.8720884E0,1.0756131E1,0E0,0E0,9.906048E0,0E0,2.4587317E1,4.2689924E0,3.7381077E0,3.3261786E0,6.769991E0,3.6291842E0,1.3570322E1,1.4783106E1,0E0,7.6005993E0,0E0,6.1430116E0,8.455448E0,9.925232E0,0E0,2.367529E0,0E0,0E0,0E0,0E0,0E0,0E0,0E0,0E0,0E0,0E0,0E0,0E0,0E0,0E0,0E0,0E0,0E0,0E0,0E0,0E0,0E0,0E0,0E0,0E0,0E0,0E0],"parents":[2147483647,0,0,1,1,2,2,3,3,4,4,5,5,6,6,7,7,8,8,9,9,10,10,11,11,12,12,13,13,14,14,17,17,18,18,22,22,23,23,24,24,25,25,26,26,29,29,31,31,32,32,33,33,34,34,35,35,36,36,37,37,38,38,40,40,42,42,43,43,44,44,46,46],"right_children":[2,4,6,8,10,12,14,16,18,20,22,24,26,28,30,-1,-1,32,34,-1,-1,-1,36,38,40,42,44,-1,-1,46,-1,48,50,52,54,56,58,60,62,-1,64,-1,66,68,70,-1,72,-1,-1,-1,-1,-1,-1,-1,-1,-1,-1,-1,-1,-1,-1,-1,-1,-1,-1,-1,-1,-1,-1,-1,-1,-1,-1],"split_conditions":[8.403466E0,1.3748909E0,1.4770739E0,-5.301732E0,8.7026E1,7.292873E-1,1.6948755E0,9.5194477E-1,4.4350814E-2,1.14036446E2,4.996411E-1,7.03036E1,-6.367741E-1,1.5541476E0,7.165372E1,8.660957E-3,-6.951355E-2,1.2536162E-2,2.4602979E2,-4.2126946E-2,-1.8067372E-1,-1.13271445E-1,2.8076333E-1,1.6838136E-1,9.216509E-1,9.2932427E-1,-5.270202E-1,2.7499972E-3,1.251372E-1,1.003E2,-2.5923742E-2,4.6666873E-1,2.2656557E-3,-5.1878977E-1,1.0460251E-1,2.5706193E-1,9.127165E1,-1.1319354E0,9.209582E-1,-2.245534E-1,2.1632536E-1,1.7840953E-1,1.5011145E0,1.1636966E0,8.388257E-1,3.0191612E-1,8.382186E1,2.3056914E-1,-1.3007548E-1,-4.8583433E-2,6.4836172E-3,3.4863144E-2,-2.7157317E-3,1.6968172E-2,-8.83925E-2,7.979451E-4,1.05274595E-1,6.398072E-2,-3.7780087E-2,1.8415205E-2,-1.177379E-2,2.692375E-2,-4.0475998E-2,-3.4201596E-2,2.3650656E-2,2.6268922E-2,-6.1407547E-2,-2.1682744E-1,-1.666028E-2,-6.1050564E-2,-7.099203E-3,3.3648297E-2,1.6231853E-1],"split_indices":[38,42,33,12,3,21,42,42,23,39,24,18,34,24,18,0,0,21,17,0,0,0,22,12,30,24,34,0,0,0,0,10,22,31,21,22,15,37,33,0,22,0,37,9,21,0,19,0,0,0,0,0,0,0,0,0,0,0,0,0,0,0,0,0,0,0,0,0,0,0,0,0,0],"split_type":[0,0,0,0,0,0,0,0,0,0,0,0,0,0,0,0,0,0,0,0,0,0,0,0,0,0,0,0,0,0,0,0,0,0,0,0,0,0,0,0,0,0,0,0,0,0,0,0,0,0,0,0,0,0,0,0,0,0,0,0,0,0,0,0,0,0,0,0,0,0,0,0,0],"sum_hessian":[6.157E3,3.978E3,2.179E3,3.721E3,2.57E2,2.124E3,5.5E1,3E1,3.691E3,9E0,2.48E2,1.781E3,3.43E2,3.6E1,1.9E1,1.2E1,1.8E1,6.45E2,3.046E3,4E0,5E0,7E0,2.41E2,1.628E3,1.53E2,8.7E1,2.56E2,3.2E1,4E0,1.4E1,5E0,1.1E1,6.34E2,3.027E3,1.9E1,1.49E2,9.2E1,8.6E2,7.68E2,4E0,1.49E2,4E0,8.3E1,1.2E1,2.44E2,6E0,8E0,7E0,4E0,2E1,6.14E2,3.7E1,2.99E3,6E0,1.3E1,1.4E2,9E0,5E0,8.7E1,3.44E2,5.16E2,7.2E2,4.8E1,1.04E2,4.5E1,7E1,1.3E1,7E0,5E0,6.4E1,1.8E2,4E0,4E0],"tree_param":{"num_deleted":"0","num_feature":"43","num_nodes":"73","size_leaf_vector":"1"}},{"base_weights":[6.3163424E-3,-3.4057172E-3,9.8603226E-2,-1.2498933E-2,1.662058E-1,1.6905096E-1,-1.7651805E-1,-5.7917777E-3,-1.8213977E-1,4.6008065E-1,-7.138059E-2,1.4982291E-2,2.8833547E-1,-3.1533217E-1,5.504517E-1,-7.7525913E-3,4.8459458E-1,-7.183681E-1,-8.31681E-2,8.085544E-2,8.380877E-1,-8.183086E-1,2.0819351E-2,-7.922238E-2,2.1470179E-1,3.7333572E-1,-1.6946553E-1,-8.977417E-1,-6.419088E-2,-1.0586884E-1,1.0726393E0,-5.0410116E-3,-6.5106964E-1,8.460672E-1,-1.1037692E-1,6.0523003E-1,-1.1798352E0,2.6354393E-1,-2.2901914E-1,-1.3183892E-2,1.6651624E-1,3.9717445E-1,6.573321E-1,-2.1613376E-1,-2.8801113E-2,-2.9629636E-1,2.914986E-1,-3.9398992E-1,4.0826265E-2,2.832333E-1,-6.950916E-2,5.435823E-1,2.771425E-2,-9.717025E-3,-1.8701668E-1,-1.941885E0,-1.9030042E-1,1.475192E-1,-9.8281115E-1,-2.8731199E-2,1.7954971E0,-8.904445E-4,4.2740963E-2,-1.2621243E-1,1.3051856E-1,2.1446598E-1,5.896189E-2,-4.605772E-3,1.4437431E-1,-2.3137301E-1,-1.695788E-2,5.6908626E-2,-6.017216E-2,4.2167965E-2,-4.0154617E-2,-9.0681076E-2,2.1437077E-2,2.6005098E-1,5.598794E-2,-1.9293933E-1,-1.4980898E-2,1.2874566E-1,4.223296E-3,-2.9704787E-2,-1.3222684E-1,-3.7434702E-3,1.1591756E-1,1.6480817E-2,9.969728E-2,5.7322517E-2,2.930408E-1,6.475616E-2,-2.5139302E-2,-2.478517E-2,6.2039364E-2,-1.334408E-1,-4.0632656E-1,-1.7711824E-1,3.855002E-2,-4.2625774E-2,6.765695E-2,-1.8459566E-1,-3.1617673E-3,3.1599095E-1,7.33958E-2],"categories":[],"categories_nodes":[],"categories_segments":[],"categories_sizes":[],"default_left":[0,0,0,0,0,0,0,0,0,0,0,0,0,0,0,0,0,0,0,0,0,0,0,0,0,0,0,0,0,0,0,0,0,0,0,0,0,0,0,0,0,0,0,0,0,0,0,0,0,0,0,0,0,0,0,0,0,0,0,0,0,0,0,0,0,0,0,0,0,0,0,0,0,0,0,0,0,0,0,0,0,0,0,0,0,0,0,0,0,0,0,0,0,0,0,0,0,0,0,0,0,0,0,0,0],"id":8,"left_children":[1,3,5,7,9,11,13,15,17,19,21,23,25,27,29,31,33,35,37,39,41,43,45,47,49,51,53,55,57,-1,59,61,63,65,-1,67,69,71,73,75,-1,-1,77,-1,-1,79,81,83,85,87,-1,89,91,93,-1,95,97,99,101,-1,103,-1,-1,-1,-1,-1,-1,-1,-1,-1,-1,-1,-1,-1,-1,-1,-1,-1,-1,-1,-1,-1,-1,-1,-1,-1,-1,-1,-1,-1,-1,-1,-1,-1,-1,-1,-1,-1,-1,-1,-1,-1,-1,-1,-1],"loss_changes":[5.499382E0,8.552522E0,1.1326975E1,5.9880447E0,1.9706818E1,8.547681E0,1.2053529E1,4.868501E0,1.0612121E1,1.8073277E1,1.0758386E1,3.8254137E0,1.021232E1,1.464E1,1.4664171E1,8.795911E0,1.0494236E1,1.9153227E1,8.56423E0,7.923886E0,2.8569176E1,9.939284E0,1.1959591E1,5.2239876E0,3.6218808E0,1.3010271E1,9.324303E0,2.221794E1,1.3670587E1,0E0,1.3554693E1,4.6581287E0,1.5860939E1,5.2909956E0,0E0,3.2751186E0,1.8784996E1,8.577148E0,7.8534684E0,8.765842E0,0E0,0E0,1.6514729E1,0E0,0E0,1.4523947E1,1.5398136E1,3.8943696E0,6.8691072E0,4.8357744E0,0E0,1.616706E1,9.234592E0,4.0209227E0,0E0,1.4192101E1,1.2435736E1,1.2471067E1,7.349762E0,0E0,9.258642E0,0E0,0E0,0E0,0E0,0E0,0E0,0E0,0E0,0E0,0E0,0E0,0E0,0E0,0E0,0E0,0E0,0E0,0E0,0E0,0E0,0E0,0E0,0E0,0E0,0E0,0E0,0E0,0E0,0E0,0E0,0E0,0E0,0E0,0E0,0E0,0E0,0E0,0E0,0E0,0E0,0E0,0E0,0E0,0E0],"parents":[2147483647,0,0,1,1,2,2,3,3,4,4,5,5,6,6,7,7,8,8,9,9,10,10,11,11,12,12,13,13,14,14,15,15,16,16,17,17,18,18,19,19,20,20,21,21,22,22,23,23,24,24,25,25,26,26,27,27,28,28,30,30,31,31,32,32,33,33,35,35,36,36,37,37,38,38,39,39,42,42,45,45,46,46,47,47,48,48,49,49,51,51,52,52,53,53,55,55,56,56,57,57,58,58,60,60],"right_children":[2,4,6,8,10,12,14,16,18,20,22,24,26,28,30,32,34,36,38,40,42,44,46,48,50,52,54,56,58,-1,60,62,64,66,-1,68,70,72,74,76,-1,-1,78,-1,-1,80,82,84,86,88,-1,90,92,94,-1,96,98,100,102,-1,104,-1,-1,-1,-1,-1,-1,-1,-1,-1,-1,-1,-1,-1,-1,-1,-1,-1,-1,-1,-1,-1,-1,-1,-1,-1,-1,-1,-1,-1,-1,-1,-1,-1,-1,-1,-1,-1,-1,-1,-1,-1,-1,-1,-1],"split_conditions":[6.363634E6,1.7402876E2,2.4845514E0,5.5801E6,1.32599E2,4.497823E1,1.549181E0,1.8821371E0,1.12606846E-1,9.3366234E1,1.6723223E-2,3.949859E-1,6.6887827E0,8.634519E6,6.351327E-2,1.7852283E0,5.7799183E1,2.9406097E1,9.430149E-2,1.949432E0,3.792243E6,2.1870469E-1,1.9220516E-1,-5.6125927E-1,2.25821E0,1.8672874E2,1.332341E0,2.0176811E2,4.103932E-1,-1.0586884E-1,3.3008095E-2,2.0960526E2,6.85196E-1,-1.1073584E-1,-1.1037692E-1,1.4786158E1,1.298242E2,1.5862311E0,1.9295357E-1,9.506E1,1.6651624E-1,3.9717445E-1,-4.4778597E-1,-2.1613376E-1,-2.8801113E-2,7.04595E-2,6.2339944E-1,2.135292E0,2.0759156E0,1.9564539E1,-6.950916E-2,9.394265E1,3.6656193E1,2.6369E-1,-1.8701668E-1,6.975868E1,-7.487536E-2,-3.9019424E-1,7.392007E-1,-2.8731199E-2,1.445E2,-8.904445E-4,4.2740963E-2,-1.2621243E-1,1.3051856E-1,2.1446598E-1,5.896189E-2,-4.605772E-3,1.4437431E-1,-2.3137301E-1,-1.695788E-2,5.6908626E-2,-6.017216E-2,4.2167965E-2,-4.0154617E-2,-9.0681076E-2,2.1437077E-2,2.6005098E-1,5.598794E-2,-1.9293933E-1,-1.4980898E-2,1.2874566E-1,4.223296E-3,-2.9704787E-2,-1.3222684E-1,-3.7434702E-3,1.1591756E-1,1.6480817E-2,9.969728E-2,5.7322517E-2,2.930408E-1,6.475616E-2,-2.5139302E-2,-2.478517E-2,6.2039364E-2,-1.334408E-1,-4.0632656E-1,-1.7711824E-1,3.855002E-2,-4.2625774E-2,6.765695E-2,-1.8459566E-1,-3.1617673E-3,3.1599095E-1,7.33958E-2],"split_indices":[4,39,40,4,1,38,12,41,21,38,22,23,37,4,22,41,18,39,23,40,4,21,14,7,40,39,34,39,33,0,23,38,21,8,0,39,15,40,21,2,0,0,8,0,0,21,37,40,40,38,0,20,18,7,0,20,7,34,37,0,0,0,0,0,0,0,0,0,0,0,0,0,0,0,0,0,0,0,0,0,0,0,0,0,0,0,0,0,0,0,0,0,0,0,0,0,0,0,0,0,0,0,0,0,0],"split_type":[0,0,0,0,0,0,0,0,0,0,0,0,0,0,0,0,0,0,0,0,0,0,0,0,0,0,0,0,0,0,0,0,0,0,0,0,0,0,0,0,0,0,0,0,0,0,0,0,0,0,0,0,0,0,0,0,0,0,0,0,0,0,0,0,0,0,0,0,0,0,0,0,0,0,0,0,0,0,0,0,0,0,0,0,0,0,0,0,0,0,0,0,0,0,0,0,0,0,0,0,0,0,0,0,0],"sum_hessian":[6.129E3,5.545E3,5.84E2,5.263E3,2.82E2,4.65E2,1.19E2,5.063E3,2E2,1.26E2,1.56E2,2.03E2,2.62E2,1E2,1.9E1,5.043E3,2E1,3.1E1,1.69E2,6.3E1,6.3E1,1.7E1,1.39E2,1.38E2,6.5E1,2.21E2,4.1E1,3E1,7E1,5E0,1.4E1,5.022E3,2.1E1,1.6E1,4E0,8E0,2.3E1,5E1,1.19E2,5.9E1,4E0,4E0,5.9E1,6E0,1.1E1,6.4E1,7.5E1,3.8E1,1E2,6E1,5E0,1.48E2,7.3E1,3.7E1,4E0,1.2E1,1.8E1,5.7E1,1.3E1,5E0,9E0,4.988E3,3.4E1,1.7E1,4E0,4E0,1.2E1,4E0,4E0,1.3E1,1E1,3.9E1,1.1E1,1.9E1,1E2,1.2E1,4.7E1,6E0,5.3E1,7E0,5.7E1,1.8E1,5.7E1,3.2E1,6E0,9.3E1,7E0,4.8E1,1.2E1,1.44E2,4E0,2.3E1,5E1,2.7E1,1E1,8E0,4E0,5E0,1.3E1,2.6E1,3.1E1,8E0,5E0,5E0,4E0],"tree_param":{"num_deleted":"0","num_feature":"43","num_nodes":"105","size_leaf_vector":"1"}},{"base_weights":[3.5200743E-3,-7.775259E-2,1.5219423E-2,-1.3993157E-2,-2.1535495E-1,8.261505E-2,-6.203425E-3,1.4416698E-1,-2.3847591E-2,-1.3384615E-1,-1.0730767E0,3.0204989E-2,2.7452254E-1,9.4378114E-1,-8.81957E-3,-1.5899338E-1,6.685691E-2,-1.6890763E-1,5.3430384E-1,-7.4176663E-1,-2.1894847E-1,4.399152E-2,-1.3335173E0,2.4983403E-1,2.3930423E-1,3.758581E-2,1.5132234E-1,-5.460949E-2,2.9425683E-2,-9.7076066E-2,-8.5419875E-1,4.4913113E-2,1.9937012E-1,-1.261847E-1,-1.6348587E-1,-7.7238604E-2,1.4296658E-1,-1.90901E-2,-1.3168192E-1,4.8318487E-1,3.0861199E-2,-2.6305035E-1,6.0557537E-3,-6.8634063E-1,3.1715238E-1,-4.1136444E-2,-4.6118477E-1,1.049754E-1,-4.674527E-2,-1.7111585E-2,9.109082E-2,-1.3855617E-1,-7.933132E-3,8.664426E-3,-1.19310915E-1,-2.110641E-2,4.5942508E-2,3.2262992E-2,1.19601294E-1,3.356026E-2,1.5983857E-3,3.2913893E-2,-2.0445934E-1,2.0877292E-2,8.529383E-2,-4.4494877E-3,-1.7354973E-1,-1.8986496E-1,-1.9154852E-2,9.660623E-3,8.611888E-2,-1.04981266E-1,-4.5762686E-3],"categories":[],"categories_nodes":[],"categories_segments":[],"categories_sizes":[],"default_left":[0,0,0,0,0,0,0,0,0,0,0,0,0,0,0,0,0,0,0,0,0,0,0,0,0,0,0,0,0,0,0,0,0,0,0,0,0,0,0,0,0,0,0,0,0,0,0,0,0,0,0,0,0,0,0,0,0,0,0,0,0,0,0,0,0,0,0,0,0,0,0,0,0],"id":9,"left_children":[1,3,5,7,9,11,13,-1,15,17,19,21,23,25,27,29,31,33,35,37,-1,39,41,-1,43,-1,-1,45,47,49,51,53,-1,55,-1,-1,-1,-1,-1,57,59,-1,-1,61,63,65,67,69,71,-1,-1,-1,-1,-1,-1,-1,-1,-1,-1,-1,-1,-1,-1,-1,-1,-1,-1,-1,-1,-1,-1,-1,-1],"loss_changes":[5.8269978E0,6.7649703E0,7.7348933E0,6.435722E0,1.7044777E1,1.2994669E1,1.0103267E1,0E0,6.4149914E0,5.2422695E0,5.2826614E0,1.9094034E1,1.7942722E1,2.3099298E0,7.1001406E0,9.031684E0,1.1160203E1,1.1022071E1,9.163963E0,3.277587E0,0E0,5.793399E0,1.269483E1,0E0,1.964738E1,0E0,0E0,1.0103668E1,1.2713951E1,8.128918E0,4.339447E0,9.387533E0,0E0,5.6305666E0,0E0,0E0,0E0,0E0,0E0,3.201325E0,4.28759E0,0E0,0E0,2.1542997E1,1.4280558E1,8.566566E0,2.0285612E1,1.5924882E1,7.3203993E0,0E0,0E0,0E0,0E0,0E0,0E0,0E0,0E0,0E0,0E0,0E0,0E0,0E0,0E0,0E0,0E0,0E0,0E0,0E0,0E0,0E0,0E0,0E0,0E0],"parents":[2147483647,0,0,1,1,2,2,3,3,4,4,5,5,6,6,8,8,9,9,10,10,11,11,12,12,13,13,14,14,15,15,16,16,17,17,18,18,19,19,21,21,22,22,24,24,27,27,28,28,29,29,30,30,31,31,33,33,39,39,40,40,43,43,44,44,45,45,46,46,47,47,48,48],"right_children":[2,4,6,8,10,12,14,-1,16,18,20,22,24,26,28,30,32,34,36,38,-1,40,42,-1,44,-1,-1,46,48,50,52,54,-1,56,-1,-1,-1,-1,-1,58,60,-1,-1,62,64,66,68,70,72,-1,-1,-1,-1,-1,-1,-1,-1,-1,-1,-1,-1,-1,-1,-1,-1,-1,-1,-1,-1,-1,-1,-1,-1],"split_conditions":[-1.787036E1,-4.1024634E-1,-7.5105774E-1,1.295336E6,1.6609029E0,1.311762E0,1.353744E1,1.4416698E-1,7.314995E-1,1.4011014E0,-2.4414577E0,1.6593604E2,1.3213452E0,1.7458999E-1,1.0537779E0,2.047321E0,1.9155E2,1.2732607E0,-2.8930945E0,1.7742363E-1,-2.1894847E-1,8.690282E1,6.2962785E-2,2.4983403E-1,4.5156777E-1,3.758581E-2,1.5132234E-1,1.9435134E0,1.1552132E1,1.906962E0,7.733354E-2,-1.718358E0,1.9937012E-1,2.1156307E1,-1.6348587E-1,-7.7238604E-2,1.4296658E-1,-1.90901E-2,-1.3168192E-1,9.700837E-1,-1.6277805E1,-2.6305035E-1,6.0557537E-3,5.379874E-1,1.4614E2,4.4579864E0,2.050979E0,9.459355E1,-5.9834076E1,-1.7111585E-2,9.109082E-2,-1.3855617E-1,-7.933132E-3,8.664426E-3,-1.19310915E-1,-2.110641E-2,4.5942508E-2,3.2262992E-2,1.19601294E-1,3.356026E-2,1.5983857E-3,3.2913893E-2,-2.0445934E-1,2.0877292E-2,8.529383E-2,-4.4494877E-3,-1.7354973E-1,-1.8986496E-1,-1.9154852E-2,9.660623E-3,8.611888E-2,-1.04981266E-1,-4.5762686E-3],"split_indices":[27,28,36,4,41,41,20,0,9,42,35,38,41,21,36,42,3,42,12,22,0,16,35,0,24,0,0,41,26,41,8,26,0,38,0,0,0,0,0,24,27,0,0,9,1,35,41,20,38,0,0,0,0,0,0,0,0,0,0,0,0,0,0,0,0,0,0,0,0,0,0,0,0],"split_type":[0,0,0,0,0,0,0,0,0,0,0,0,0,0,0,0,0,0,0,0,0,0,0,0,0,0,0,0,0,0,0,0,0,0,0,0,0,0,0,0,0,0,0,0,0,0,0,0,0,0,0,0,0,0,0,0,0,0,0,0,0,0,0,0,0,0,0,0,0,0,0,0,0],"sum_hessian":[6.128E3,7.71E2,5.357E3,5.27E2,2.44E2,1.292E3,4.065E3,4E0,5.23E2,2.23E2,2.1E1,1.015E3,2.77E2,1.1E1,4.054E3,2.1E2,3.13E2,2.12E2,1.1E1,1.5E1,6E0,1.005E3,1E1,5E0,2.72E2,4E0,7E0,1.845E3,2.209E3,1.93E2,1.7E1,3.09E2,4E0,2.05E2,7E0,4E0,7E0,6E0,9E0,2.9E1,9.76E2,6E0,4E0,2.1E1,2.51E2,1.786E3,5.9E1,1.109E3,1.1E3,1.83E2,1E1,1.2E1,5E0,3.01E2,8E0,1.86E2,1.9E1,2.1E1,8E0,6.2E1,9.14E2,1.1E1,1E1,1.87E2,6.4E1,1.782E3,4E0,1.2E1,4.7E1,1.07E3,3.9E1,1E1,1.09E3],"tree_param":{"num_deleted":"0","num_feature":"43","num_nodes":"73","size_leaf_vector":"1"}},{"base_weights":[-2.7777273E-3,-9.0585824E-4,-5.1534694E-1,-4.973898E-3,2.8160816E-1,1.087009E-1,-1.21285684E-1,-9.658875E-4,-3.477212E-1,-4.5874068E-1,3.6895248E-1,1.2350612E-1,-6.2302876E-2,-1.0029819E-2,1.5743092E-1,2.240325E-1,-8.410505E-1,-1.8075816E-1,4.986376E-2,5.2310556E-1,-2.0589074E-2,-3.2731325E-3,-2.7887607E-1,2.9323918E-1,-5.176976E-2,-1.4850251E-1,4.4235677E-1,1.0874686E-2,-1.3560687E0,1.3403153E-1,8.3915687E-1,2.661166E-3,-4.451035E-3,-2.3589825E-2,-2.0013426E-1,1.34718E-2,1.1039605E-1,-1.2981477E-1,4.7361986E-3,-7.742198E-2,8.060355E-2,-7.927254E-2,1.079601E-1,-2.2789067E-2,-2.0731914E-1,-8.323721E-2,5.0844584E-2,1.4676E-1,3.2797746E-2],"categories":[],"categories_nodes":[],"categories_segments":[],"categories_sizes":[],"default_left":[0,0,0,0,0,0,0,0,0,0,0,0,0,0,0,0,0,0,0,0,0,0,0,0,0,0,0,0,0,0,0,0,0,0,0,0,0,0,0,0,0,0,0,0,0,0,0,0,0],"id":10,"left_children":[1,3,5,7,9,11,-1,13,15,17,19,-1,-1,21,23,25,27,-1,-1,29,-1,31,33,35,37,-1,39,41,43,45,47,-1,-1,-1,-1,-1,-1,-1,-1,-1,-1,-1,-1,-1,-1,-1,-1,-1,-1],"loss_changes":[5.844441E0,6.9761715E0,7.137254E0,8.220137E0,5.59954E0,6.186034E0,0E0,8.492452E0,1.9540485E1,8.809152E0,6.483962E0,0E0,0E0,1.0163145E1,9.099064E0,1.0519299E1,1.6310333E1,0E0,0E0,7.378475E0,0E0,4.8753376E0,1.5248774E1,2.2351166E1,1.2201606E1,0E0,7.5736394E0,8.879113E0,1.0833149E1,6.850493E0,7.5103836E0,0E0,0E0,0E0,0E0,0E0,0E0,0E0,0E0,0E0,0E0,0E0,0E0,0E0,0E0,0E0,0E0,0E0,0E0],"parents":[2147483647,0,0,1,1,2,2,3,3,4,4,5,5,7,7,8,8,9,9,10,10,13,13,14,14,15,15,16,16,19,19,21,21,22,22,23,23,24,24,26,26,27,27,28,28,29,29,30,30],"right_children":[2,4,6,8,10,12,-1,14,16,18,20,-1,-1,22,24,26,28,-1,-1,30,-1,32,34,36,38,-1,40,42,44,46,48,-1,-1,-1,-1,-1,-1,-1,-1,-1,-1,-1,-1,-1,-1,-1,-1,-1,-1],"split_conditions":[2.7971122E0,1.050858E7,1.7047679E2,2.58574E0,-1.2291784E0,2.0626018E0,-1.21285684E-1,6.736556E6,1.5161234E-1,2.9088812E0,1.6139986E2,1.2350612E-1,-6.2302876E-2,1.8326657E0,4.5933053E-1,-1.2111896E0,6.193825E-1,-1.8075816E-1,4.986376E-2,-2.492494E-1,-2.0589074E-2,2.9789186E-1,3.1380816E0,-1.7712623E-1,4.996411E-1,-1.4850251E-1,9.6405E1,5.1288384E-1,-3.0875204E1,1.3150858E1,1.8675253E1,2.661166E-3,-4.451035E-3,-2.3589825E-2,-2.0013426E-1,1.34718E-2,1.1039605E-1,-1.2981477E-1,4.7361986E-3,-7.742198E-2,8.060355E-2,-7.927254E-2,1.079601E-1,-2.2789067E-2,-2.0731914E-1,-8.323721E-2,5.0844584E-2,1.4676E-1,3.2797746E-2],"split_indices":[24,4,39,40,11,21,0,4,22,40,16,0,0,41,29,14,9,0,0,7,0,21,36,29,24,0,0,9,26,20,27,0,0,0,0,0,0,0,0,0,0,0,0,0,0,0,0,0,0],"split_type":[0,0,0,0,0,0,0,0,0,0,0,0,0,0,0,0,0,0,0,0,0,0,0,0,0,0,0,0,0,0,0,0,0,0,0,0,0,0,0,0,0,0,0,0,0,0,0,0,0],"sum_hessian":[6.092E3,6.07E3,2.2E1,5.984E3,8.6E1,1E1,1.2E1,5.915E3,6.9E1,9E0,7.7E1,4E0,6E0,5.595E3,3.2E2,3.2E1,3.7E1,4E0,5E0,6E1,1.7E1,5.458E3,1.37E2,1.94E2,1.26E2,4E0,2.8E1,1.4E1,2.3E1,2.7E1,3.3E1,3.12E3,2.338E3,1.3E2,7E0,1.52E2,4.2E1,1E1,1.16E2,5E0,2.3E1,8E0,6E0,6E0,1.7E1,7E0,2E1,1.9E1,1.4E1],"tree_param":{"num_deleted":"0","num_feature":"43","num_nodes":"49","size_leaf_vector":"1"}},{"base_weights":[3.237576E-3,1.1268338E-2,-1.103895E-1,4.1255236E-2,-1.6500624E-2,-9.180021E-1,-8.723015E-2,3.0896426E-3,1.1931647E-1,-2.6607139E-3,-1.5589958E-1,-3.4211606E-2,-1.6710176E-1,-2.115222E-1,-1.3571641E-2,6.067591E-1,-3.6233661E-3,8.0898024E-2,4.3877095E-1,-7.850656E-3,5.4511595E-1,-3.2071957E-1,1.9316884E-2,-1.4779373E-1,-1.2777637E0,2.3403969E-2,-7.86391E-3,1.4429514E-1,3.894348E-1,3.0037484E-1,-1.3519134E-2,-1.03538714E-1,1.16702855E-1,8.8111E-1,-2.382633E-2,3.3686202E-2,-5.748785E-2,2.72164E-1,1.6238482E-1,-7.7235955E-1,-1.5260634E-1,9.1479145E-2,-7.446188E-1,2.5052392E-1,-3.1220803E-1,-7.063022E-2,-2.2433273E-1,1.2645413E-1,4.154221E-3,2.3906281E-2,1.1482237E-1,1.6305085E-3,-1.6102381E-2,4.783885E-3,-4.4163864E-2,1.889127E-2,-4.415085E-3,1.2764892E-1,-1.0380736E-1,-4.747621E-2,5.738695E-2,-9.826198E-3,9.921923E-3,-9.178174E-3,3.7728228E-2,6.890242E-2,-4.7479488E-2,-2.8274659E-2,-1.3811043E-1,-6.9127195E-2,-1.153074E-2,3.091347E-2,-1.7594388E-2,-2.824529E-2,-1.8645045E-1,4.1284215E-2,-5.163429E-2,-2.9404117E-2,-1.6694123E-1],"categories":[],"categories_nodes":[],"categories_segments":[],"categories_sizes":[],"default_left":[0,0,0,0,0,0,0,0,0,0,0,0,0,0,0,0,0,0,0,0,0,0,0,0,0,0,0,0,0,0,0,0,0,0,0,0,0,0,0,0,0,0,0,0,0,0,0,0,0,0,0,0,0,0,0,0,0,0,0,0,0,0,0,0,0,0,0,0,0,0,0,0,0,0,0,0,0,0,0],"id":11,"left_children":[1,3,5,7,9,11,13,15,17,19,21,-1,-1,23,25,27,29,31,33,35,37,39,41,43,45,-1,-1,-1,47,49,51,53,55,57,59,61,63,65,-1,67,69,71,73,75,77,-1,-1,-1,-1,-1,-1,-1,-1,-1,-1,-1,-1,-1,-1,-1,-1,-1,-1,-1,-1,-1,-1,-1,-1,-1,-1,-1,-1,-1,-1,-1,-1,-1,-1],"loss_changes":[5.545559E0,4.7267156E0,7.488793E0,8.13065E0,5.685594E0,3.4396887E0,3.5712488E0,7.429948E0,1.0992052E1,7.62235E0,7.688025E0,0E0,0E0,9.8309765E0,2.771552E0,2.6301317E0,5.454822E0,5.286069E0,1.9682209E1,5.4767585E0,5.6634135E0,1.0393829E1,7.1308136E0,8.99571E0,3.2808018E0,0E0,0E0,0E0,3.667886E0,3.7210913E0,5.922126E0,5.0974827E0,4.5188694E0,1.7737144E1,9.177128E0,8.566927E0,9.356027E0,4.0893536E0,0E0,7.87315E0,2.369303E0,4.87494E0,4.661479E0,2.7939668E0,6.6540346E0,0E0,0E0,0E0,0E0,0E0,0E0,0E0,0E0,0E0,0E0,0E0,0E0,0E0,0E0,0E0,0E0,0E0,0E0,0E0,0E0,0E0,0E0,0E0,0E0,0E0,0E0,0E0,0E0,0E0,0E0,0E0,0E0,0E0,0E0],"parents":[2147483647,0,0,1,1,2,2,3,3,4,4,5,5,6,6,7,7,8,8,9,9,10,10,13,13,14,14,15,15,16,16,17,17,18,18,19,19,20,20,21,21,22,22,23,23,24,24,28,28,29,29,30,30,31,31,32,32,33,33,34,34,35,35,36,36,37,37,39,39,40,40,41,41,42,42,43,43,44,44],"right_children":[2,4,6,8,10,12,14,16,18,20,22,-1,-1,24,26,28,30,32,34,36,38,40,42,44,46,-1,-1,-1,48,50,52,54,56,58,60,62,64,66,-1,68,70,72,74,76,78,-1,-1,-1,-1,-1,-1,-1,-1,-1,-1,-1,-1,-1,-1,-1,-1,-1,-1,-1,-1,-1,-1,-1,-1,-1,-1,-1,-1,-1,-1,-1,-1,-1,-1],"split_conditions":[7.198519E1,1.381347E-1,2.93745E-1,5.11239E-1,7.845106E-1,1.1645963E-1,2.1052094E0,8.690282E1,5.695754E6,1.050858E7,6.697887E-3,-3.4211606E-2,-1.6710176E-1,6.836098E6,6.16175E-1,-6.728978E-2,-7.140593E0,1.935335E-2,6.0320774E1,4.718168E-2,2.7391412E0,9.0265083E-1,2.1848633E0,1.26286E2,7.65135E-2,2.3403969E-2,-7.86391E-3,1.4429514E-1,-7.5507313E-1,6.051647E-1,1.2665672E0,8.244108E-1,4.215484E-1,5.680896E-1,1.0222933E0,2.0200855E-1,2.0670786E2,-4.2171817E-2,1.6238482E-1,-3.999985E-1,6.193825E-1,1.5702201E-2,2.1345916E-1,3.0645922E-1,6.8914247E-1,-7.063022E-2,-2.2433273E-1,1.2645413E-1,4.154221E-3,2.3906281E-2,1.1482237E-1,1.6305085E-3,-1.6102381E-2,4.783885E-3,-4.4163864E-2,1.889127E-2,-4.415085E-3,1.2764892E-1,-1.0380736E-1,-4.747621E-2,5.738695E-2,-9.826198E-3,9.921923E-3,-9.178174E-3,3.7728228E-2,6.890242E-2,-4.7479488E-2,-2.8274659E-2,-1.3811043E-1,-6.9127195E-2,-1.153074E-2,3.091347E-2,-1.7594388E-2,-2.824529E-2,-1.8645045E-1,4.1284215E-2,-5.163429E-2,-2.9404117E-2,-1.6694123E-1],"split_indices":[18,23,9,10,21,21,30,16,4,4,8,0,0,4,9,11,37,23,18,8,40,21,42,2,22,0,0,0,10,40,42,42,7,22,24,23,39,11,0,14,9,37,22,8,9,0,0,0,0,0,0,0,0,0,0,0,0,0,0,0,0,0,0,0,0,0,0,0,0,0,0,0,0,0,0,0,0,0,0],"split_type":[0,0,0,0,0,0,0,0,0,0,0,0,0,0,0,0,0,0,0,0,0,0,0,0,0,0,0,0,0,0,0,0,0,0,0,0,0,0,0,0,0,0,0,0,0,0,0,0,0,0,0,0,0,0,0,0,0,0,0,0,0,0,0,0,0,0,0,0,0,0,0,0,0,0,0,0,0,0,0],"sum_hessian":[6.077E3,5.676E3,4.01E2,2.729E3,2.947E3,1.1E1,3.9E2,1.833E3,8.96E2,2.681E3,2.66E2,5E0,6E0,1.45E2,2.45E2,2E1,1.813E3,8E2,9.6E1,2.656E3,2.5E1,1.37E2,1.29E2,1.37E2,8E0,4.9E1,1.96E2,5E0,1.5E1,5.7E1,1.756E3,1.3E2,6.7E2,4.9E1,4.7E1,1.446E3,1.21E3,1.9E1,6E0,3.7E1,1E2,1.18E2,1.1E1,4E1,9.7E1,4E0,4E0,5E0,1E1,5E1,7E0,1.437E3,3.19E2,8.5E1,4.5E1,5.22E2,1.48E2,4.4E1,5E0,2.7E1,2E1,4.36E2,1.01E3,1.148E3,6.2E1,1.3E1,6E0,1.6E1,2.1E1,1.1E1,8.9E1,6.9E1,4.9E1,7E0,4E0,3.5E1,5E0,9.2E1,5E0],"tree_param":{"num_deleted":"0","num_feature":"43","num_nodes":"79","size_leaf_vector":"1"}},{"base_weights":[1.1236067E-3,6.524015E-2,-1.6571507E-2,5.342196E-2,5.72669E-1,5.9724353E-2,-3.1654082E-2,4.496119E-2,5.6271017E-1,3.9003843E-1,1.700562E-1,4.021378E-3,3.6566225E-1,-4.0901753E-1,-2.8124414E-2,5.282066E-2,-3.6223146E-1,1.7288092E-1,9.815082E-2,9.784442E-2,2.078903E-2,2.6868442E-1,-2.6376605E-2,1.1398206E0,1.2265878E-1,-7.248047E-1,1.756439E-1,-2.5791613E-2,-5.3600514E-1,-4.740415E-2,9.443241E-2,7.533252E-2,-6.99052E-1,7.864154E-2,-2.6435185E-2,4.414078E-1,-4.2574424E-3,-1.1560779E-1,7.902092E-2,1.4577771E0,-1.0029439E-2,1.952658E-1,-1.6915934E-1,-2.2509301E-2,-1.1682374E0,9.628205E-2,-1.40224835E-2,2.5543636E-2,-4.518614E-2,3.7130293E-2,-9.1872536E-2,2.3965342E-3,-3.711168E-2,3.3711183E-3,3.0756742E-2,4.6033356E-2,-1.462651E-1,3.842117E-2,1.3451499E-1,-8.4336195E-3,-9.215116E-2,7.348106E-2,1.1408887E-3,6.417366E-2,2.1755649E-1,-8.870405E-3,6.371679E-2,-4.4108994E-2,-2.148112E-1,1.032887E-3,5.0680805E-2,-2.4821283E-3,-1.6344763E-2],"categories":[],"categories_nodes":[],"categories_segments":[],"categories_sizes":[],"default_left":[0,0,0,0,0,0,0,0,0,0,0,0,0,0,0,0,0,0,0,0,0,0,0,0,0,0,0,0,0,0,0,0,0,0,0,0,0,0,0,0,0,0,0,0,0,0,0,0,0,0,0,0,0,0,0,0,0,0,0,0,0,0,0,0,0,0,0,0,0,0,0,0,0],"id":12,"left_children":[1,3,5,7,9,11,13,15,17,19,-1,21,23,25,27,29,31,-1,33,-1,-1,35,37,39,41,43,45,47,49,51,53,-1,55,-1,-1,57,-1,59,61,63,-1,65,-1,-1,67,-1,-1,69,71,-1,-1,-1,-1,-1,-1,-1,-1,-1,-1,-1,-1,-1,-1,-1,-1,-1,-1,-1,-1,-1,-1,-1,-1],"loss_changes":[6.956352E0,7.9470057E0,5.5297585E0,5.580166E0,4.7055845E0,1.3516098E1,5.3415985E0,4.083666E0,8.875891E0,2.3430243E0,0E0,5.401153E0,2.2957287E1,6.883258E0,4.7066965E0,5.2188163E0,8.228446E0,0E0,2.6285222E0,0E0,0E0,3.644847E0,5.6647525E0,1.1381554E1,1.0591026E1,5.679796E0,2.5076401E0,3.9400592E0,3.816636E0,6.662139E0,9.700302E0,0E0,1.0831617E1,0E0,0E0,3.5008326E0,0E0,9.558863E0,1.0432788E1,8.071064E0,0E0,8.350647E0,0E0,0E0,6.7377777E0,0E0,0E0,7.367078E0,6.4812093E0,0E0,0E0,0E0,0E0,0E0,0E0,0E0,0E0,0E0,0E0,0E0,0E0,0E0,0E0,0E0,0E0,0E0,0E0,0E0,0E0,0E0,0E0,0E0,0E0],"parents":[2147483647,0,0,1,1,2,2,3,3,4,4,5,5,6,6,7,7,8,8,9,9,11,11,12,12,13,13,14,14,15,15,16,16,18,18,21,21,22,22,23,23,24,24,25,25,26,26,27,27,28,28,29,29,30,30,32,32,35,35,37,37,38,38,39,39,41,41,44,44,47,47,48,48],"right_children":[2,4,6,8,10,12,14,16,18,20,-1,22,24,26,28,30,32,-1,34,-1,-1,36,38,40,42,44,46,48,50,52,54,-1,56,-1,-1,58,-1,60,62,64,-1,66,-1,-1,68,-1,-1,70,72,-1,-1,-1,-1,-1,-1,-1,-1,-1,-1,-1,-1,-1,-1,-1,-1,-1,-1,-1,-1,-1,-1,-1,-1],"split_conditions":[5.6104727E-2,2.1082275E2,-4.1194645E-1,9.966134E6,3.236712E6,1.07973785E2,5.08409E0,8.45046E6,1.1080836E0,-1.0259461E1,1.700562E-1,-5.846638E0,1.3174555E-1,8.099348E-1,2.5098026E2,-1.892251E-1,-4.0591353E-1,1.7288092E-1,1.1480726E7,9.784442E-2,2.078903E-2,1.2512335E0,4.357053E1,3.301169E-1,3.2128822E1,1.1965E2,-1.7012228E-1,-1.2251779E0,3.5037312E-1,2.1156307E1,2.3371267E1,7.533252E-2,1.8821371E0,7.864154E-2,-2.6435185E-2,2.901299E1,-4.2574424E-3,4.295782E1,5.5235367E1,1.3034619E0,-1.0029439E-2,2.0013187E1,-1.6915934E-1,-2.2509301E-2,-3.295534E1,9.628205E-2,-1.40224835E-2,2.0074586E2,5.733996E1,3.7130293E-2,-9.1872536E-2,2.3965342E-3,-3.711168E-2,3.3711183E-3,3.0756742E-2,4.6033356E-2,-1.462651E-1,3.842117E-2,1.3451499E-1,-8.4336195E-3,-9.215116E-2,7.348106E-2,1.1408887E-3,6.417366E-2,2.1755649E-1,-8.870405E-3,6.371679E-2,-4.4108994E-2,-2.148112E-1,1.032887E-3,5.0680805E-2,-2.4821283E-3,-1.6344763E-2],"split_indices":[23,17,8,4,4,39,20,4,24,27,0,37,23,9,17,32,32,0,4,0,0,9,19,29,26,1,8,37,9,38,38,0,41,0,0,38,0,38,20,41,0,19,0,0,26,0,0,38,38,0,0,0,0,0,0,0,0,0,0,0,0,0,0,0,0,0,0,0,0,0,0,0,0],"split_type":[0,0,0,0,0,0,0,0,0,0,0,0,0,0,0,0,0,0,0,0,0,0,0,0,0,0,0,0,0,0,0,0,0,0,0,0,0,0,0,0,0,0,0,0,0,0,0,0,0,0,0,0,0,0,0,0,0,0,0,0,0,0,0,0,0,0,0,0,0,0,0,0,0],"sum_hessian":[6.131E3,1.326E3,4.805E3,1.296E3,3E1,7.93E2,4.012E3,1.275E3,2.1E1,2.5E1,5E0,6.71E2,1.22E2,3.7E1,3.975E3,1.251E3,2.4E1,7E0,1.4E1,8E0,1.7E1,6.9E1,6.02E2,2.9E1,9.3E1,2.4E1,1.3E1,3.957E3,1.8E1,3.67E2,8.84E2,6E0,1.8E1,5E0,9E0,4.4E1,2.5E1,3.26E2,2.76E2,2.3E1,6E0,8.9E1,4E0,1.1E1,1.3E1,4E0,9E0,1.085E3,2.872E3,4E0,1.4E1,2.93E2,7.4E1,6.34E2,2.5E2,6E0,1.2E1,3.8E1,6E0,3.06E2,2E1,3.1E1,2.45E2,7E0,1.6E1,5E1,3.9E1,6E0,7E0,1.042E3,4.3E1,2.284E3,5.88E2],"tree_param":{"num_deleted":"0","num_feature":"43","num_nodes":"73","size_leaf_vector":"1"}},{"base_weights":[-2.2204577E-3,-4.4377233E-4,-5.1582617E-1,-1.1795964E-2,1.0076164E-1,1.6393378E-2,-1.1047151E0,8.184967E-3,-1.2973018E-1,2.567868E-1,1.1132898E-2,-2.115737E-1,-5.8333408E-2,6.2555093E-3,1.117923E0,1.8643701E-1,-2.1420422E-1,5.8289254E-3,4.238717E-1,7.471611E-2,-3.0231503E-1,8.77509E-3,-5.251901E-1,2.8388062E-2,2.2967206E-1,-6.0224637E-2,7.6687497E-1,-2.7003348E-1,1.9171575E-1,1.606495E-1,-6.5408367E-1,8.5265535E-1,1.6236626E-1,1.0710644E-1,-6.3989836E-1,-4.9686155E-1,4.175731E-1,-5.6551833E-4,8.515596E-3,9.990658E-2,-9.837897E-2,1.449387E-1,-1.9845821E-2,2.1316993E-1,3.6897212E-2,-3.9874908E-2,2.9846003E-2,1.0509197E-1,-1.3443384E-2,6.490822E-2,-8.207683E-3,-1.10146925E-1,3.0682383E-2,5.7514537E-2,2.0160566E-1,-1.30667845E-2,5.4438524E-2,4.4710697E-3,1.0157604E-1,1.1354497E-2,-1.3932486E-1,-1.2897992E-1,-2.0757547E-2,1.2588444E-1,-9.716605E-3],"categories":[],"categories_nodes":[],"categories_segments":[],"categories_sizes":[],"default_left":[0,0,0,0,0,0,0,0,0,0,0,0,0,0,0,0,0,0,0,0,0,0,0,0,0,0,0,0,0,0,0,0,0,0,0,0,0,0,0,0,0,0,0,0,0,0,0,0,0,0,0,0,0,0,0,0,0,0,0,0,0,0,0,0,0],"id":13,"left_children":[1,3,5,7,9,-1,11,13,15,17,19,-1,-1,21,23,25,27,29,31,33,35,37,39,-1,-1,41,43,45,47,49,51,53,55,57,59,61,63,-1,-1,-1,-1,-1,-1,-1,-1,-1,-1,-1,-1,-1,-1,-1,-1,-1,-1,-1,-1,-1,-1,-1,-1,-1,-1,-1,-1],"loss_changes":[5.6022735E0,7.030405E0,8.190573E0,1.296583E1,8.629808E0,0E0,4.5579643E0,1.0072016E1,2.1297203E1,9.44045E0,7.8192573E0,0E0,0E0,6.289668E0,5.8790464E0,2.4084923E1,1.4266872E1,9.228532E0,1.5131779E1,7.560151E0,9.300638E0,4.0333123E0,9.561219E0,0E0,0E0,1.6554556E1,2.364182E1,1.9872322E1,1.6342001E1,6.5888295E0,4.4565735E0,1.5875019E1,6.908308E0,1.629829E1,5.6857557E0,9.974151E0,4.630043E0,0E0,0E0,0E0,0E0,0E0,0E0,0E0,0E0,0E0,0E0,0E0,0E0,0E0,0E0,0E0,0E0,0E0,0E0,0E0,0E0,0E0,0E0,0E0,0E0,0E0,0E0,0E0,0E0],"parents":[2147483647,0,0,1,1,2,2,3,3,4,4,6,6,7,7,8,8,9,9,10,10,13,13,14,14,15,15,16,16,17,17,18,18,19,19,20,20,21,21,22,22,25,25,26,26,27,27,28,28,29,29,30,30,31,31,32,32,33,33,34,34,35,35,36,36],"right_children":[2,4,6,8,10,-1,12,14,16,18,20,-1,-1,22,24,26,28,30,32,34,36,38,40,-1,-1,42,44,46,48,50,52,54,56,58,60,62,64,-1,-1,-1,-1,-1,-1,-1,-1,-1,-1,-1,-1,-1,-1,-1,-1,-1,-1,-1,-1,-1,-1,-1,-1,-1,-1,-1,-1],"split_conditions":[1.0037439E0,6.2283E6,1.941245E-2,5.733996E1,1.1297032E2,1.6393378E-2,-1.3860655E-1,2.1848633E0,-2.505847E-1,-3.5105288E-1,9.0790236E-1,-2.115737E-1,-5.8333408E-2,1.8853066E0,-8.755558E-2,2.7393672E-1,3.926899E-1,3.6102763E-1,7.4165857E-1,7.3826766E-1,8.2557553E-1,9.560574E0,-1.4542676E0,2.8388062E-2,2.2967206E-1,8.852427E1,8.372779E-1,1.3814894E0,4.9655986E-1,-5.580683E-1,1.0803958E2,4.889512E-1,2.6490813E-1,4.0208367E-1,-3.885669E-1,1.33678E2,2.7242002E0,-5.6551833E-4,8.515596E-3,9.990658E-2,-9.837897E-2,1.449387E-1,-1.9845821E-2,2.1316993E-1,3.6897212E-2,-3.9874908E-2,2.9846003E-2,1.0509197E-1,-1.3443384E-2,6.490822E-2,-8.207683E-3,-1.10146925E-1,3.0682383E-2,5.7514537E-2,2.0160566E-1,-1.30667845E-2,5.4438524E-2,4.4710697E-3,1.0157604E-1,1.1354497E-2,-1.3932486E-1,-1.2897992E-1,-2.0757547E-2,1.2588444E-1,-9.716605E-3],"split_indices":[22,4,6,38,16,0,7,42,33,29,34,0,0,42,7,10,32,11,29,8,8,38,10,0,0,16,12,14,24,33,17,34,22,8,6,0,34,0,0,0,0,0,0,0,0,0,0,0,0,0,0,0,0,0,0,0,0,0,0,0,0,0,0,0,0],"split_type":[0,0,0,0,0,0,0,0,0,0,0,0,0,0,0,0,0,0,0,0,0,0,0,0,0,0,0,0,0,0,0,0,0,0,0,0,0,0,0,0,0,0,0,0,0,0,0,0,0,0,0,0,0,0,0,0,0,0,0,0,0,0,0,0,0],"sum_hessian":[6.14E3,6.119E3,2.1E1,5.502E3,6.17E2,1E1,1.1E1,4.705E3,7.97E2,2.25E2,3.92E2,5E0,6E0,4.697E3,8E0,1.68E2,6.29E2,9E1,1.35E2,3.26E2,6.6E1,4.675E3,2.2E1,4E0,4E0,1.18E2,5E1,5.53E2,7.6E1,7.3E1,1.7E1,5.1E1,8.4E1,3.12E2,1.4E1,5.2E1,1.4E1,3.852E3,8.23E2,4E0,1.8E1,9E0,1.09E2,1.5E1,3.5E1,4.89E2,6.4E1,2.3E1,5.3E1,2.7E1,4.6E1,1.3E1,4E0,3.6E1,1.5E1,4.4E1,4E1,2.86E2,2.6E1,6E0,8E0,1.8E1,3.4E1,6E0,8E0],"tree_param":{"num_deleted":"0","num_feature":"43","num_nodes":"65","size_leaf_vector":"1"}},{"base_weights":[9.693888E-3,-1.0249998E-3,7.197508E-2,6.7097787E-3,-1.6552296E-1,1.555391E-1,-3.033251E-1,8.381038E-3,-5.4279876E-1,6.216328E-2,-4.4229257E-1,1.8259186E-1,1.4181453E-1,-7.43161E-1,5.0199527E-2,5.3071287E-3,2.9356068E-1,-1.2867786E-2,-1.380882E-1,-4.1668333E-2,9.7771424E-1,-1.2422992E0,-2.0611145E-1,-8.795096E-2,2.3032236E-1,-1.4538618E0,-2.972362E-1,-1.370739E-1,1.2289419E-1,6.823875E-2,-4.928795E-3,-5.6866135E-2,3.940486E-1,-3.521928E-1,2.483028E-1,2.3579422E-1,3.0975118E-1,-7.212938E-1,-2.8990635E-1,-1.4602835E0,-4.853621E-2,-2.5427717E-1,4.2014638E-1,4.4401534E-2,3.9172468E-1,8.8200286E-2,-2.0557966E0,-1.2972099E0,3.0930161E-2,5.3318954E-1,-5.5849284E-2,5.4937988E-3,7.250648E-2,-2.996296E-5,-2.84547E-2,3.732781E-2,1.3860254E-1,-8.238113E-2,2.1880435E-2,1.7619375E-2,1.8477726E-1,-5.8543917E-2,1.3009451E-1,-2.14922E-1,-4.274921E-2,-7.521782E-2,-2.851157E-1,1.2159914E-2,-1.4829451E-1,-1.4824663E-1,-1.8796379E-2,2.2886933E-1,2.8780147E-2,-1.9033326E-2,6.459669E-2,5.6477483E-2,-5.1345445E-2,-8.094193E-2,-2.7683678E-1,-2.5267212E-2,-2.2333962E-1,-3.846816E-2,1.3853987E-1,1.695459E-1,2.2331884E-2,-9.6719794E-2,3.6992803E-3],"categories":[],"categories_nodes":[],"categories_segments":[],"categories_sizes":[],"default_left":[0,0,0,0,0,0,0,0,0,0,0,0,0,0,0,0,0,0,0,0,0,0,0,0,0,0,0,0,0,0,0,0,0,0,0,0,0,0,0,0,0,0,0,0,0,0,0,0,0,0,0,0,0,0,0,0,0,0,0,0,0,0,0,0,0,0,0,0,0,0,0,0,0,0,0,0,0,0,0,0,0,0,0,0,0,0,0],"id":14,"left_children":[1,3,5,7,9,11,13,15,17,19,21,-1,23,25,27,29,31,-1,-1,33,35,37,39,41,43,45,47,-1,49,51,53,-1,55,57,59,-1,61,63,-1,65,67,69,71,73,75,-1,77,79,81,83,85,-1,-1,-1,-1,-1,-1,-1,-1,-1,-1,-1,-1,-1,-1,-1,-1,-1,-1,-1,-1,-1,-1,-1,-1,-1,-1,-1,-1,-1,-1,-1,-1,-1,-1,-1,-1],"loss_changes":[4.0971856E0,6.662655E0,2.82695E1,4.592962E0,1.482429E1,1.4075193E1,2.5533436E1,4.3703003E0,4.1178045E0,1.2286708E1,2.0015373E1,0E0,1.4852175E1,2.311383E1,8.068888E0,3.1779027E0,4.1792917E0,0E0,0E0,1.0474314E1,8.904714E0,1.5057602E1,1.6224197E1,1.718674E1,1.5815739E1,3.7599865E1,1.4829311E1,0E0,6.3246174E0,8.150731E0,4.694466E0,0E0,2.7825418E0,1.0518414E1,7.800872E0,0E0,5.328308E0,6.6760044E0,0E0,6.9761086E0,1.3469655E1,1.4530666E1,1.3349689E1,2.5479885E1,2.0557941E1,0E0,8.67968E0,7.174721E0,1.4059228E1,8.101894E0,4.024149E0,0E0,0E0,0E0,0E0,0E0,0E0,0E0,0E0,0E0,0E0,0E0,0E0,0E0,0E0,0E0,0E0,0E0,0E0,0E0,0E0,0E0,0E0,0E0,0E0,0E0,0E0,0E0,0E0,0E0,0E0,0E0,0E0,0E0,0E0,0E0,0E0],"parents":[2147483647,0,0,1,1,2,2,3,3,4,4,5,5,6,6,7,7,8,8,9,9,10,10,12,12,13,13,14,14,15,15,16,16,19,19,20,20,21,21,22,22,23,23,24,24,25,25,26,26,28,28,29,29,30,30,32,32,33,33,34,34,36,36,37,37,39,39,40,40,41,41,42,42,43,43,44,44,46,46,47,47,48,48,49,49,50,50],"right_children":[2,4,6,8,10,12,14,16,18,20,22,-1,24,26,28,30,32,-1,-1,34,36,38,40,42,44,46,48,-1,50,52,54,-1,56,58,60,-1,62,64,-1,66,68,70,72,74,76,-1,78,80,82,84,86,-1,-1,-1,-1,-1,-1,-1,-1,-1,-1,-1,-1,-1,-1,-1,-1,-1,-1,-1,-1,-1,-1,-1,-1,-1,-1,-1,-1,-1,-1,-1,-1,-1,-1,-1,-1],"split_conditions":[8.539999E1,5.733996E1,4.0208367E-1,1.0037439E0,4.90172E-1,-9.440135E-1,7.912653E-1,7.087202E-1,-2.5577566E-1,6.0164837E1,1.4444318E-1,1.8259186E-1,-1.6571017E-1,5.38446E6,4.446725E-1,3.9579776E-1,-4.2460423E1,-1.2867786E-2,-1.380882E-1,6.865385E-1,1.6405689E0,3.19979E-1,9.2331845E-1,1.0510036E0,1.5345949E-1,1.57404E-2,1.5657963E-1,-1.370739E-1,1.5270572E0,1.1632915E0,1.7766204E0,-5.6866135E-2,1.1702477E0,1.8821391E-1,4.764367E-1,2.3579422E-1,4.437487E-1,1.111199E-1,-2.8990635E-1,-2.5120085E-2,3.8243243E-1,1.6849658E-1,3.7448585E-1,1.5695E2,1.2682035E0,8.8200286E-2,6.67921E-1,1.2524106E2,1.6593604E2,-9.555097E-1,1.588143E0,5.4937988E-3,7.250648E-2,-2.996296E-5,-2.84547E-2,3.732781E-2,1.3860254E-1,-8.238113E-2,2.1880435E-2,1.7619375E-2,1.8477726E-1,-5.8543917E-2,1.3009451E-1,-2.14922E-1,-4.274921E-2,-7.521782E-2,-2.851157E-1,1.2159914E-2,-1.4829451E-1,-1.4824663E-1,-1.8796379E-2,2.2886933E-1,2.8780147E-2,-1.9033326E-2,6.459669E-2,5.6477483E-2,-5.1345445E-2,-8.094193E-2,-2.7683678E-1,-2.5267212E-2,-2.2333962E-1,-3.846816E-2,1.3853987E-1,1.695459E-1,2.2331884E-2,-9.6719794E-2,3.6992803E-3],"split_indices":[38,38,6,22,14,8,11,22,31,18,21,0,31,4,6,9,38,0,0,9,40,8,37,9,21,40,31,0,42,40,40,0,7,23,22,0,11,22,0,7,23,21,21,2,14,0,9,39,38,12,42,0,0,0,0,0,0,0,0,0,0,0,0,0,0,0,0,0,0,0,0,0,0,0,0,0,0,0,0,0,0,0,0,0,0,0,0],"split_type":[0,0,0,0,0,0,0,0,0,0,0,0,0,0,0,0,0,0,0,0,0,0,0,0,0,0,0,0,0,0,0,0,0,0,0,0,0,0,0,0,0,0,0,0,0,0,0,0,0,0,0,0,0,0,0,0,0,0,0,0,0,0,0,0,0,0,0,0,0,0,0,0,0,0,0,0,0,0,0,0,0,0,0,0,0,0,0],"sum_hessian":[6.137E3,5.236E3,9.01E2,5.001E3,2.35E2,7.37E2,1.64E2,4.986E3,1.5E1,1.29E2,1.06E2,7E0,7.3E2,7.3E1,9.1E1,4.933E3,5.3E1,9E0,6E0,1.16E2,1.3E1,2.4E1,8.2E1,2.03E2,5.27E2,2.8E1,4.5E1,5E0,8.6E1,6.9E2,4.243E3,6E0,4.7E1,5.6E1,6E1,5E0,8E0,1.7E1,7E0,9E0,7.3E1,1.53E2,5E1,2.45E2,2.82E2,6E0,2.2E1,1.1E1,3.4E1,2.6E1,6E1,6.64E2,2.6E1,4.161E3,8.2E1,4.3E1,4E0,3.4E1,2.2E1,5.6E1,4E0,4E0,4E0,4E0,1.3E1,5E0,4E0,6.5E1,8E0,1.3E1,1.4E2,5E0,4.5E1,1.74E2,7.1E1,2.55E2,2.7E1,4E0,1.8E1,4E0,7E0,2.6E1,8E0,7E0,1.9E1,6E0,5.4E1],"tree_param":{"num_deleted":"0","num_feature":"43","num_nodes":"87","size_leaf_vector":"1"}},{"base_weights":[4.3928283E-3,8.3978865E-3,-3.0873835E-1,1.7942381E-3,1.3631168E-1,6.54309E-1,-4.7049296E-1,-5.799819E-2,1.5019658E-2,3.0558798E-1,-2.6385145E-2,1.6818953E-1,-1.3308594E-3,-1.1952741E0,-2.7218285E-1,-7.669085E-3,-2.6133865E-1,2.3198342E-1,4.199412E-3,2.610728E-1,1.3623257E-1,6.549631E-3,-9.438208E-2,-2.4393143E-1,-8.00719E-2,-5.558378E-1,4.951598E-1,-3.251053E-2,5.561827E-1,-1.0148893E-1,-7.853412E-1,1.8630242E-1,1.0965581E0,-1.4476097E-3,2.6982474E-1,3.0444044E-1,-1.01888895E-1,5.224517E-1,-4.916041E-2,-1.5590805E-1,-3.4486714E-1,1.71275E-1,-2.8136829E-2,-2.6810414E-3,-1.1478044E-1,-2.4259266E-2,9.2082E-2,-3.8236536E-2,4.1578636E-2,-1.9727382E-1,-3.427301E-2,1.5288215E-2,1.0241762E-1,-1.0205324E-2,2.0718087E-1,4.990179E-5,-9.4975576E-2,4.4777066E-2,-1.2531048E-1,2.7938804E-2,1.1416349E-1,1.0697199E-1,-5.179602E-2,-4.0459108E-2,1.6430962E-3,2.3442987E-2,-7.25767E-2],"categories":[],"categories_nodes":[],"categories_segments":[],"categories_sizes":[],"default_left":[0,0,0,0,0,0,0,0,0,0,0,0,0,0,0,0,0,0,0,0,0,0,0,0,0,0,0,0,0,0,0,0,0,0,0,0,0,0,0,0,0,0,0,0,0,0,0,0,0,0,0,0,0,0,0,0,0,0,0,0,0,0,0,0,0,0,0],"id":15,"left_children":[1,3,5,7,9,11,13,15,17,19,21,-1,-1,23,25,27,29,31,33,35,-1,37,-1,-1,-1,39,41,43,45,47,49,51,53,55,57,59,-1,61,63,-1,65,-1,-1,-1,-1,-1,-1,-1,-1,-1,-1,-1,-1,-1,-1,-1,-1,-1,-1,-1,-1,-1,-1,-1,-1,-1,-1],"loss_changes":[7.662836E0,5.095977E0,1.2070813E1,4.5369205E0,8.158275E0,5.7556906E0,9.454477E0,1.0634063E1,1.1028942E1,5.449438E0,3.860764E0,0E0,0E0,6.1599903E0,1.1399442E1,1.1672321E1,1.7254393E1,8.778515E0,6.713132E0,6.7911596E0,0E0,4.177008E0,0E0,0E0,0E0,6.1072035E0,1.003328E1,7.3223786E0,6.0780983E0,1.606677E1,2.1103119E1,8.169085E0,8.782642E0,6.603212E0,1.3787466E1,5.910596E0,0E0,5.326725E0,2.4384298E0,0E0,4.4744463E0,0E0,0E0,0E0,0E0,0E0,0E0,0E0,0E0,0E0,0E0,0E0,0E0,0E0,0E0,0E0,0E0,0E0,0E0,0E0,0E0,0E0,0E0,0E0,0E0,0E0,0E0],"parents":[2147483647,0,0,1,1,2,2,3,3,4,4,5,5,6,6,7,7,8,8,9,9,10,10,13,13,14,14,15,15,16,16,17,17,18,18,19,19,21,21,25,25,26,26,27,27,28,28,29,29,30,30,31,31,32,32,33,33,34,34,35,35,37,37,38,38,40,40],"right_children":[2,4,6,8,10,12,14,16,18,20,22,-1,-1,24,26,28,30,32,34,36,-1,38,-1,-1,-1,40,42,44,46,48,50,52,54,56,58,60,-1,62,64,-1,66,-1,-1,-1,-1,-1,-1,-1,-1,-1,-1,-1,-1,-1,-1,-1,-1,-1,-1,-1,-1,-1,-1,-1,-1,-1,-1],"split_conditions":[2.64259E2,5.374716E-1,4.551692E6,1.9338057E1,1.5702201E-2,4.284789E-1,1.0488E2,4.295782E1,2.2987574E1,1.621723E2,1.7200644E2,1.6818953E-1,-1.3308594E-3,3.834071E1,2.814398E0,3.2081337E1,1.514393E1,1.4754541E2,2.1250062E0,1.22053444E2,1.3623257E-1,4.813183E-1,-9.438208E-2,-2.4393143E-1,-8.00719E-2,-1.4197906E1,1.4105E2,2.133501E0,2.4292E6,8.775148E-1,5.982864E-1,6.470615E6,-1.1365014E1,2.4036887E0,1.798895E2,5.5445404E1,-1.01888895E-1,1.3648845E0,4.7661236E1,-1.5590805E-1,-3.0147225E-1,1.71275E-1,-2.8136829E-2,-2.6810414E-3,-1.1478044E-1,-2.4259266E-2,9.2082E-2,-3.8236536E-2,4.1578636E-2,-1.9727382E-1,-3.427301E-2,1.5288215E-2,1.0241762E-1,-1.0205324E-2,2.0718087E-1,4.990179E-5,-9.4975576E-2,4.4777066E-2,-1.2531048E-1,2.7938804E-2,1.1416349E-1,1.0697199E-1,-5.179602E-2,-4.0459108E-2,1.6430962E-3,2.3442987E-2,-7.25767E-2],"split_indices":[38,23,4,19,37,24,0,38,19,38,38,0,0,20,42,38,19,38,42,38,0,9,0,0,0,27,0,41,4,9,9,4,27,40,17,38,0,24,20,0,35,0,0,0,0,0,0,0,0,0,0,0,0,0,0,0,0,0,0,0,0,0,0,0,0,0,0],"split_type":[0,0,0,0,0,0,0,0,0,0,0,0,0,0,0,0,0,0,0,0,0,0,0,0,0,0,0,0,0,0,0,0,0,0,0,0,0,0,0,0,0,0,0,0,0,0,0,0,0,0,0,0,0,0,0,0,0,0,0,0,0,0,0,0,0,0,0],"sum_hessian":[6.11E3,6.033E3,7.7E1,5.737E3,2.96E2,1.1E1,6.6E1,1.039E3,4.698E3,1.45E2,1.51E2,5E0,6E0,1.4E1,5.2E1,8.33E2,2.06E2,2.23E2,4.475E3,1.38E2,7E0,1.45E2,6E0,5E0,9E0,3.8E1,1.4E1,7.98E2,3.5E1,1.58E2,4.8E1,2.12E2,1.1E1,4.382E3,9.3E1,1.33E2,5E0,1.4E1,1.31E2,8E0,3E1,6E0,8E0,7.9E2,8E0,8E0,2.7E1,1.06E2,5.2E1,1.7E1,3.1E1,1.96E2,1.6E1,4E0,7E0,4.372E3,1E1,8.6E1,7E0,1.21E2,1.2E1,1E1,4E0,2.3E1,1.08E2,1E1,2E1],"tree_param":{"num_deleted":"0","num_feature":"43","num_nodes":"67","size_leaf_vector":"1"}},{"base_weights":[5.7408693E-3,1.4033403E-2,-1.088822E-1,1.0704509E-2,4.1274893E-1,-6.824686E-1,-4.6928518E-2,-4.5376E-3,6.633553E-2,7.51637E-1,-1.005785E0,-9.960464E-1,3.959805E-1,1.0442437E-1,-4.11739E-1,2.850328E-3,-2.3780349E-1,-9.58785E-2,1.05039716E-1,3.5947418E-1,1.6946362E0,-2.0049512E-1,-1.1971634E-2,-5.429779E-1,-1.6962664E0,-3.3397842E-2,1.097092E-1,4.5709E-1,-9.854772E-2,-1.6194122E0,-2.1652079E-1,-2.4126628E-3,4.3985197E-1,2.2528371E-1,-3.0528966E-1,2.7447978E-1,-1.6785924E-1,1.5532191E-1,-5.4570854E-2,2.2799486E-2,1.7729892E-1,2.7509746E-1,6.169325E-2,-1.0105076E0,3.0984052E-2,-3.2690707E-1,-1.0349007E-1,-1.9018379E-1,5.979369E-1,-1.9493335E-1,1.1321363E0,-1.0121989E0,-3.25338E-1,5.5311537E-1,-4.6655986E-1,2.6731668E-2,-8.301738E-4,-1.7373215E-1,8.239388E-2,2.1582084E-2,-6.373812E-2,1.6520003E-2,1.0030016E-1,-2.547689E-2,6.693093E-2,5.552124E-2,1.4239555E-2,-2.9446548E-2,6.396767E-3,-5.400267E-2,7.789828E-2,-6.868905E-2,-2.128947E-1,-1.1232806E-2,1.0534493E-1,5.1596917E-2,-3.9438788E-2,2.114023E-1,2.0726783E-2,-2.409705E-2,-2.1047251E-1,2.26302E-2,1.8172528E-1,-1.6383894E-1,-2.7798677E-2],"categories":[],"categories_nodes":[],"categories_segments":[],"categories_sizes":[],"default_left":[0,0,0,0,0,0,0,0,0,0,0,0,0,0,0,0,0,0,0,0,0,0,0,0,0,0,0,0,0,0,0,0,0,0,0,0,0,0,0,0,0,0,0,0,0,0,0,0,0,0,0,0,0,0,0,0,0,0,0,0,0,0,0,0,0,0,0,0,0,0,0,0,0,0,0,0,0,0,0,0,0,0,0,0,0],"id":16,"left_children":[1,3,5,7,9,11,13,15,17,19,21,23,25,27,29,31,33,35,37,39,41,-1,-1,43,45,-1,-1,47,49,51,53,55,57,-1,59,61,63,65,67,69,-1,-1,-1,71,-1,-1,-1,-1,73,75,77,79,-1,81,83,-1,-1,-1,-1,-1,-1,-1,-1,-1,-1,-1,-1,-1,-1,-1,-1,-1,-1,-1,-1,-1,-1,-1,-1,-1,-1,-1,-1,-1,-1],"loss_changes":[5.8069825E0,7.560453E0,1.4640356E1,4.791098E0,2.2796967E1,1.36483135E1,2.0556574E1,7.6437707E0,7.630908E0,1.40106735E1,5.7425327E0,9.732462E0,3.380331E0,1.8845522E1,2.5676498E1,9.888557E0,1.9858711E1,6.24994E0,7.87593E0,1.0474222E1,8.179169E0,0E0,0E0,7.2671785E0,1.0331127E1,0E0,0E0,2.822282E1,1.9864109E1,1.0062912E1,1.8163204E1,4.5191646E0,2.5628136E1,0E0,1.5253066E1,2.9354153E0,7.022199E0,8.105392E0,5.0083237E0,6.5572853E0,0E0,0E0,0E0,3.9671822E0,0E0,0E0,0E0,0E0,1.8558662E1,1.37739935E1,7.65726E0,6.2995977E0,0E0,8.226917E0,1.511249E1,0E0,0E0,0E0,0E0,0E0,0E0,0E0,0E0,0E0,0E0,0E0,0E0,0E0,0E0,0E0,0E0,0E0,0E0,0E0,0E0,0E0,0E0,0E0,0E0,0E0,0E0,0E0,0E0,0E0,0E0],"parents":[2147483647,0,0,1,1,2,2,3,3,4,4,5,5,6,6,7,7,8,8,9,9,10,10,11,11,12,12,13,13,14,14,15,15,16,16,17,17,18,18,19,19,20,20,23,23,24,24,27,27,28,28,29,29,30,30,31,31,32,32,34,34,35,35,36,36,37,37,38,38,39,39,43,43,48,48,49,49,50,50,51,51,53,53,54,54],"right_children":[2,4,6,8,10,12,14,16,18,20,22,24,26,28,30,32,34,36,38,40,42,-1,-1,44,46,-1,-1,48,50,52,54,56,58,-1,60,62,64,66,68,70,-1,-1,-1,72,-1,-1,-1,-1,74,76,78,80,-1,82,84,-1,-1,-1,-1,-1,-1,-1,-1,-1,-1,-1,-1,-1,-1,-1,-1,-1,-1,-1,-1,-1,-1,-1,-1,-1,-1,-1,-1,-1,-1],"split_conditions":[1.5016467E2,1.4281026E2,1.353744E1,4.368914E6,6.27816E1,9.988519E-2,3.5515606E-1,9.777112E1,-1.8365233E0,1.6854556E-1,1.086273E-1,-1.6159295E0,1.920852E-1,4.808168E6,3.8994E6,8.539999E1,-6.09279E-1,-9.1851705E-1,2.0928665E-1,2.9540925E0,5.181381E-1,-2.0049512E-1,-1.1971634E-2,2.0960526E2,-3.0500957E-1,-3.3397842E-2,1.097092E-1,-3.0559775E-1,1.844508E-1,1.8403587E2,-1.3314313E-1,-1.7610333E0,2.49452E6,2.2528371E-1,3.5567388E-1,3.2081337E1,7.3826766E-1,9.3102325E1,-1.15485564E-1,-3.9833668E-1,1.7729892E-1,2.7509746E-1,6.169325E-2,-3.766778E0,3.0984052E-2,-3.2690707E-1,-1.0349007E-1,-1.9018379E-1,-5.4196733E-1,-1.0779579E0,6.438316E-2,8.2383174E-1,-3.25338E-1,8.5264134E-1,1.621723E2,2.6731668E-2,-8.301738E-4,-1.7373215E-1,8.239388E-2,2.1582084E-2,-6.373812E-2,1.6520003E-2,1.0030016E-1,-2.547689E-2,6.693093E-2,5.552124E-2,1.4239555E-2,-2.9446548E-2,6.396767E-3,-5.400267E-2,7.789828E-2,-6.868905E-2,-2.128947E-1,-1.1232806E-2,1.0534493E-1,5.1596917E-2,-3.9438788E-2,2.114023E-1,2.0726783E-2,-2.409705E-2,-2.1047251E-1,2.26302E-2,1.8172528E-1,-1.6383894E-1,-2.7798677E-2],"split_indices":[38,38,20,4,18,8,11,38,10,7,34,10,22,4,4,38,8,8,31,37,29,0,0,38,11,0,0,7,6,38,34,29,4,0,40,38,7,16,8,35,0,0,0,12,0,0,0,0,12,35,31,11,0,6,38,0,0,0,0,0,0,0,0,0,0,0,0,0,0,0,0,0,0,0,0,0,0,0,0,0,0,0,0,0,0],"split_type":[0,0,0,0,0,0,0,0,0,0,0,0,0,0,0,0,0,0,0,0,0,0,0,0,0,0,0,0,0,0,0,0,0,0,0,0,0,0,0,0,0,0,0,0,0,0,0,0,0,0,0,0,0,0,0,0,0,0,0,0,0,0,0,0,0,0,0,0,0,0,0,0,0,0,0,0,0,0,0,0,0,0,0,0,0],"sum_hessian":[6.109E3,5.697E3,4.12E2,5.65E3,4.7E1,4E1,3.72E2,4.435E3,1.215E3,3.8E1,9E0,3.1E1,9E0,2.63E2,1.09E2,4.299E3,1.36E2,2.34E2,9.81E2,2.7E1,1.1E1,5E0,4E0,1.9E1,1.2E1,4E0,5E0,9.6E1,1.67E2,1.5E1,9.4E1,4.248E3,5.1E1,4E0,1.32E2,3.8E1,1.96E2,7.46E2,2.35E2,2.1E1,6E0,7E0,4E0,1.2E1,7E0,5E0,7E0,6E0,9E1,1.55E2,1.2E1,1E1,5E0,2.3E1,7.1E1,8.4E1,4.164E3,6E0,4.5E1,4.3E1,8.9E1,3.1E1,7E0,1.84E2,1.2E1,7.3E1,6.73E2,8.4E1,1.51E2,1.2E1,9E0,8E0,4E0,2.7E1,6.3E1,2.8E1,1.27E2,7E0,5E0,5E0,5E0,1.7E1,6E0,1.4E1,5.7E1],"tree_param":{"num_deleted":"0","num_feature":"43","num_nodes":"85","size_leaf_vector":"1"}},{"base_weights":[-8.7504525E-4,-1.5432843E-2,4.103999E-2,-3.678989E-2,4.4992857E-2,9.711204E-3,2.61426E-1,-6.0720136E-3,-1.4359544E-1,7.272214E-3,2.7819774E-1,6.580591E-2,-8.639118E-2,5.509856E-1,-3.7599828E-2,-2.4339177E-3,-3.6266348E-1,9.801379E-2,-2.8495023E-1,1.5827921E-1,-3.749273E-2,5.2789044E-1,8.9860195E-3,-8.963459E-2,1.1334006E-1,-4.778399E-2,-8.2397693E-1,1.111541E0,6.250841E-2,1.1584698E-1,-4.9565202E-1,-1.6455059E-1,5.2549294E-3,-1.432092E-1,-1.9956417E-1,2.1106659E-2,7.999692E-1,-3.188274E-1,8.949739E-1,3.0643214E-2,3.6290786E-1,-2.15433E-1,-1.6936073E-3,2.1718816E-1,8.918764E-1,-4.5204014E-2,1.2565102E-1,-1.2657088E-1,6.445303E-2,1.6330005E-1,1.0527728E-1,-5.809558E-2,1.3369478E-1,-2.0396231E-1,-4.5830113E-1,2.0064281E-1,1.4304837E0,-1.6998738E-1,7.047261E-1,1.9316085E-3,1.8764055E-1,5.6931656E-2,-1.0416478E0,1.0834773E-2,-3.7825357E-2,1.7735723E-3,-1.5045152E-2,4.0400725E-2,-4.7640566E-2,1.575701E-2,-4.623834E-2,8.096712E-3,2.174751E-1,-5.7146274E-2,-7.630599E-3,2.7860504E-1,-6.2759174E-3,-5.24187E-4,1.14088856E-1,8.172973E-2,-5.166207E-3,-5.7561287E-5,-1.0327269E-1,-9.987075E-4,1.2417339E-1,4.27335E-2,-2.882699E-2,2.5544983E-1,7.6542825E-2,9.2399985E-2,-4.45039E-3,-1.8620391E-3,-4.0317588E-2,1.4424986E-2,-5.2064054E-2,-4.9277674E-3,-1.528952E-1,5.4568123E-2,-8.52648E-2,-4.702336E-2,1.6124642E-1,2.0986816E-1,5.1696856E-2,1.9106442E-2,-9.753959E-2,1.9075745E-1,2.0752627E-2,1.0699201E-1,-6.8095257E-3,8.2859E-2,-3.225545E-2,-1.8566607E-1,5.6555537E-3],"categories":[],"categories_nodes":[],"categories_segments":[],"categories_sizes":[],"default_left":[0,0,0,0,0,0,0,0,0,0,0,0,0,0,0,0,0,0,0,0,0,0,0,0,0,0,0,0,0,0,0,0,0,0,0,0,0,0,0,0,0,0,0,0,0,0,0,0,0,0,0,0,0,0,0,0,0,0,0,0,0,0,0,0,0,0,0,0,0,0,0,0,0,0,0,0,0,0,0,0,0,0,0,0,0,0,0,0,0,0,0,0,0,0,0,0,0,0,0,0,0,0,0,0,0,0,0,0,0,0,0,0,0],"id":17,"left_children":[1,3,5,7,9,11,13,15,17,19,21,23,25,27,29,31,33,35,37,39,41,43,45,47,49,51,53,55,57,59,61,63,65,-1,67,69,71,73,75,77,79,81,83,85,87,-1,89,91,-1,-1,93,95,-1,-1,97,99,101,103,105,107,-1,109,111,-1,-1,-1,-1,-1,-1,-1,-1,-1,-1,-1,-1,-1,-1,-1,-1,-1,-1,-1,-1,-1,-1,-1,-1,-1,-1,-1,-1,-1,-1,-1,-1,-1,-1,-1,-1,-1,-1,-1,-1,-1,-1,-1,-1,-1,-1,-1,-1,-1,-1],"loss_changes":[3.7119596E0,5.8271465E0,1.0826496E1,1.0945078E1,1.0371969E1,7.4034095E0,1.6902548E1,3.3609238E0,2.5454151E1,6.8634634E0,1.10336685E1,6.408945E0,1.4405964E1,2.7140066E1,6.7690125E0,3.1978064E0,3.6002147E0,1.4850986E1,1.8839783E1,6.0613136E0,4.988491E0,9.598034E0,3.6358435E0,4.790656E0,6.7929726E0,5.8794336E0,8.222382E0,1.336253E1,7.9585247E0,1.2143897E1,7.301645E0,4.6739626E0,3.1947286E0,0E0,2.4883866E0,1.1580171E1,2.0768988E1,1.9324413E1,1.8385477E1,4.7156763E0,1.2015912E1,1.8649624E1,4.675044E0,3.1220696E0,1.1865419E1,0E0,6.5937586E0,4.591685E0,0E0,0E0,6.230338E0,9.606085E0,0E0,0E0,4.504689E0,8.619974E0,1.178112E1,8.588688E0,6.801398E0,3.6485486E0,0E0,2.6348348E0,7.105974E0,0E0,0E0,0E0,0E0,0E0,0E0,0E0,0E0,0E0,0E0,0E0,0E0,0E0,0E0,0E0,0E0,0E0,0E0,0E0,0E0,0E0,0E0,0E0,0E0,0E0,0E0,0E0,0E0,0E0,0E0,0E0,0E0,0E0,0E0,0E0,0E0,0E0,0E0,0E0,0E0,0E0,0E0,0E0,0E0,0E0,0E0,0E0,0E0,0E0,0E0],"parents":[2147483647,0,0,1,1,2,2,3,3,4,4,5,5,6,6,7,7,8,8,9,9,10,10,11,11,12,12,13,13,14,14,15,15,16,16,17,17,18,18,19,19,20,20,21,21,22,22,23,23,24,24,25,25,26,26,27,27,28,28,29,29,30,30,31,31,32,32,34,34,35,35,36,36,37,37,38,38,39,39,40,40,41,41,42,42,43,43,44,44,46,46,47,47,50,50,51,51,54,54,55,55,56,56,57,57,58,58,59,59,61,61,62,62],"right_children":[2,4,6,8,10,12,14,16,18,20,22,24,26,28,30,32,34,36,38,40,42,44,46,48,50,52,54,56,58,60,62,64,66,-1,68,70,72,74,76,78,80,82,84,86,88,-1,90,92,-1,-1,94,96,-1,-1,98,100,102,104,106,108,-1,110,112,-1,-1,-1,-1,-1,-1,-1,-1,-1,-1,-1,-1,-1,-1,-1,-1,-1,-1,-1,-1,-1,-1,-1,-1,-1,-1,-1,-1,-1,-1,-1,-1,-1,-1,-1,-1,-1,-1,-1,-1,-1,-1,-1,-1,-1,-1,-1,-1,-1,-1],"split_conditions":[2.5921372E-1,1.5124142E0,1.4652838E2,4.295782E1,1.2346378E2,1.7323239E0,9.120359E-1,2.047321E0,-1.1319354E0,7.52987E-1,1.8672874E2,-2.0233095E0,9.777112E1,1.031493E1,2.4424827E0,-5.1002296E1,7.375899E0,-1.4612199E0,1.5784336E0,2.0160912E1,1.0736351E0,9.777112E1,2.0670786E2,1.4222574E0,-1.9877943E0,8.539999E1,9.372769E-1,-4.4743446E-1,8.036619E-1,2.33607E0,8.205324E1,-2.5120085E-2,2.3879595E-1,-1.432092E-1,1.5161234E-1,6.3110836E-2,6.600719E-1,1.588143E0,8.094626E-1,5.8399034E0,2.29006E0,5.5657963E1,2.33607E0,5.700293E0,1.6891509E0,-4.5204014E-2,5.144448E6,9.172671E-2,6.445303E-2,1.6330005E-1,1.5016467E2,1.5862311E0,1.3369478E-1,-2.0396231E-1,4.348857E-1,2.2789846E-1,2.7511835E-1,1.00975586E2,5.62775E-1,1.1327585E1,1.8764055E-1,2.6891096E-2,1.3219E2,1.0834773E-2,-3.7825357E-2,1.7735723E-3,-1.5045152E-2,4.0400725E-2,-4.7640566E-2,1.575701E-2,-4.623834E-2,8.096712E-3,2.174751E-1,-5.7146274E-2,-7.630599E-3,2.7860504E-1,-6.2759174E-3,-5.24187E-4,1.14088856E-1,8.172973E-2,-5.166207E-3,-5.7561287E-5,-1.0327269E-1,-9.987075E-4,1.2417339E-1,4.27335E-2,-2.882699E-2,2.5544983E-1,7.6542825E-2,9.2399985E-2,-4.45039E-3,-1.8620391E-3,-4.0317588E-2,1.4424986E-2,-5.2064054E-2,-4.9277674E-3,-1.528952E-1,5.4568123E-2,-8.52648E-2,-4.702336E-2,1.6124642E-1,2.0986816E-1,5.1696856E-2,1.9106442E-2,-9.753959E-2,1.9075745E-1,2.0752627E-2,1.0699201E-1,-6.8095257E-3,8.2859E-2,-3.225545E-2,-1.8566607E-1,5.6555537E-3],"split_indices":[7,36,39,38,39,37,24,42,37,30,39,36,38,26,42,38,20,37,9,39,30,38,39,32,36,38,30,29,9,40,38,6,32,0,22,7,9,42,24,37,36,39,40,37,36,0,4,34,0,0,38,40,0,0,40,21,11,38,33,20,0,6,0,0,0,0,0,0,0,0,0,0,0,0,0,0,0,0,0,0,0,0,0,0,0,0,0,0,0,0,0,0,0,0,0,0,0,0,0,0,0,0,0,0,0,0,0,0,0,0,0,0,0],"split_type":[0,0,0,0,0,0,0,0,0,0,0,0,0,0,0,0,0,0,0,0,0,0,0,0,0,0,0,0,0,0,0,0,0,0,0,0,0,0,0,0,0,0,0,0,0,0,0,0,0,0,0,0,0,0,0,0,0,0,0,0,0,0,0,0,0,0,0,0,0,0,0,0,0,0,0,0,0,0,0,0,0,0,0,0,0,0,0,0,0,0,0,0,0,0,0,0,0,0,0,0,0,0,0,0,0,0,0,0,0,0,0,0,0],"sum_hessian":[6.083E3,4.515E3,1.568E3,3.336E3,1.179E3,1.373E3,1.95E2,2.591E3,7.45E2,1.015E3,1.64E2,8.67E2,5.06E2,9.9E1,9.6E1,2.565E3,2.6E1,2.75E2,4.7E2,2.32E2,7.83E2,8.5E1,7.9E1,2.03E2,6.64E2,4.81E2,2.5E1,4.6E1,5.3E1,7.2E1,2.4E1,1.16E2,2.449E3,4E0,2.2E1,2.48E2,2.7E1,4.57E2,1.3E1,1.43E2,8.9E1,1.31E2,6.52E2,4.6E1,3.9E1,1.8E1,6.1E1,1.92E2,1.1E1,4E0,6.6E2,4.77E2,4E0,7E0,1.8E1,1.2E1,3.4E1,3.9E1,1.4E1,6.7E1,5E0,1.2E1,1.2E1,4.4E1,7.2E1,2.281E3,1.68E2,6E0,1.6E1,1.95E2,5.3E1,1.6E1,1.1E1,2.76E2,1.81E2,5E0,8E0,1.38E2,5E0,4.9E1,4E1,9.9E1,3.2E1,6.48E2,4E0,3.5E1,1.1E1,6E0,3.3E1,1.2E1,4.9E1,1.27E2,6.5E1,6.4E2,2E1,4.71E2,6E0,4E0,1.4E1,8E0,4E0,2.5E1,9E0,2.6E1,1.3E1,5E0,9E0,4E0,6.3E1,4E0,8E0,8E0,4E0],"tree_param":{"num_deleted":"0","num_feature":"43","num_nodes":"113","size_leaf_vector":"1"}},{"base_weights":[-1.8858972E-3,-3.8744118E-2,1.3785193E-2,1.897271E-2,-1.0965262E-1,1.0514225E-1,-9.971632E-4,-2.1717448E-2,1.9109948E-1,-6.2837854E-2,-3.454212E-1,6.504505E-2,4.3990877E-1,-6.268272E-2,2.6760649E-2,-1.7581104E-1,2.3736602E-2,3.1744102E-1,-2.625637E-1,-5.5644557E-2,-1.0064279E-1,-9.09045E-1,-1.8473211E-1,1.3919325E-1,-6.0527083E-2,-3.626713E-1,1.2402822E0,-1.7303947E-2,-2.462365E-1,8.02738E-2,-2.303965E-2,2.6813567E-1,-2.2654186E-1,1.7555746E-1,-2.550658E-3,7.427008E-1,1.2437489E-1,8.69794E-2,-6.447019E-1,-4.523667E-1,-4.101863E-2,-5.5568117E-1,-1.8498831E0,-2.9766878E-1,4.9612972E-1,7.57739E-2,8.6242825E-1,3.269471E-3,-8.0336404E-1,3.3366096E-1,-1.1469983E0,1.9909089E0,4.7696194E-1,-5.0633583E-2,7.751085E-2,-1.9989347E-1,-2.638693E-1,4.41836E-2,3.1689364E-1,-5.859841E-3,-5.457418E-1,7.2135283E-3,1.190058E-1,-6.462158E-3,-4.75759E-2,8.417413E-3,8.892278E-2,1.2390147E-2,-5.3933207E-3,5.701326E-2,1.5108256E-1,-3.4471005E-2,4.9272303E-2,1.3230985E-1,-1.7826475E-2,2.9788682E-2,-1.2105502E-1,-1.9121335E-1,-2.4340784E-2,-6.087128E-3,5.2192234E-2,-1.4279139E-1,1.2866527E-2,-3.1697047E-1,-1.1007912E-1,-2.2722168E-2,-1.4496629E-1,1.5811712E-1,-9.664301E-3,-1.904194E-3,3.534694E-2,-1.9735493E-1,1.5458305E-1,-3.5728312E-1,-9.709234E-3,-3.2202303E-2,1.1877126E-1,3.1195134E-2,-1.9511417E-1,3.258229E-1,1.587957E-1,5.6488602E-3,2.014797E-1,-2.5792304E-2,-2.353762E-3,9.437695E-2,3.7813217E-3,6.1004558E-3,-4.5924645E-2,3.7157524E-3,1.4621428E-1,6.958379E-2,-4.55441E-3,-2.446088E-3,9.081206E-2,-1.1320744E-1,2.4088675E-2],"categories":[],"categories_nodes":[],"categories_segments":[],"categories_sizes":[],"default_left":[0,0,0,0,0,0,0,0,0,0,0,0,0,0,0,0,0,0,0,0,0,0,0,0,0,0,0,0,0,0,0,0,0,0,0,0,0,0,0,0,0,0,0,0,0,0,0,0,0,0,0,0,0,0,0,0,0,0,0,0,0,0,0,0,0,0,0,0,0,0,0,0,0,0,0,0,0,0,0,0,0,0,0,0,0,0,0,0,0,0,0,0,0,0,0,0,0,0,0,0,0,0,0,0,0,0,0,0,0,0,0,0,0,0,0,0,0],"id":18,"left_children":[1,3,5,7,9,11,13,15,17,19,21,23,25,27,29,31,33,35,37,39,-1,41,43,45,47,49,51,53,55,57,59,61,63,65,67,69,71,73,75,77,79,81,83,85,87,89,91,-1,93,95,97,99,101,103,105,107,-1,109,111,113,115,-1,-1,-1,-1,-1,-1,-1,-1,-1,-1,-1,-1,-1,-1,-1,-1,-1,-1,-1,-1,-1,-1,-1,-1,-1,-1,-1,-1,-1,-1,-1,-1,-1,-1,-1,-1,-1,-1,-1,-1,-1,-1,-1,-1,-1,-1,-1,-1,-1,-1,-1,-1,-1,-1,-1,-1],"loss_changes":[3.5473096E0,7.498803E0,5.8195643E0,7.075962E0,9.070489E0,8.050752E0,6.351362E0,5.7244525E0,1.1085279E1,3.8991492E0,1.2303104E1,4.9936876E0,4.129196E1,9.587508E0,6.8178144E0,4.2026825E0,2.5192516E0,1.2394754E1,5.64201E0,3.9429004E0,0E0,9.8562355E0,8.187441E0,1.5452762E1,1.3067038E1,1.7630615E1,1.826981E1,2.9179404E0,2.1012611E1,1.0528019E1,1.1898616E1,2.9319727E0,5.0883646E0,5.6096635E0,2.508942E0,6.483856E0,1.2795237E1,5.5055428E0,6.981395E0,6.896252E0,3.3941665E0,9.704338E0,5.870796E0,8.869265E0,7.4425497E0,6.400175E0,3.1407927E1,0E0,3.3988968E1,7.0795584E0,1.09908085E1,7.439041E0,8.541013E0,3.5244079E0,7.888011E0,1.06811695E1,0E0,1.6176786E1,1.59009495E1,1.4869517E1,1.3181106E1,0E0,0E0,0E0,0E0,0E0,0E0,0E0,0E0,0E0,0E0,0E0,0E0,0E0,0E0,0E0,0E0,0E0,0E0,0E0,0E0,0E0,0E0,0E0,0E0,0E0,0E0,0E0,0E0,0E0,0E0,0E0,0E0,0E0,0E0,0E0,0E0,0E0,0E0,0E0,0E0,0E0,0E0,0E0,0E0,0E0,0E0,0E0,0E0,0E0,0E0,0E0,0E0,0E0,0E0,0E0,0E0],"parents":[2147483647,0,0,1,1,2,2,3,3,4,4,5,5,6,6,7,7,8,8,9,9,10,10,11,11,12,12,13,13,14,14,15,15,16,16,17,17,18,18,19,19,21,21,22,22,23,23,24,24,25,25,26,26,27,27,28,28,29,29,30,30,31,31,32,32,33,33,34,34,35,35,36,36,37,37,38,38,39,39,40,40,41,41,42,42,43,43,44,44,45,45,46,46,48,48,49,49,50,50,51,51,52,52,53,53,54,54,55,55,57,57,58,58,59,59,60,60],"right_children":[2,4,6,8,10,12,14,16,18,20,22,24,26,28,30,32,34,36,38,40,-1,42,44,46,48,50,52,54,56,58,60,62,64,66,68,70,72,74,76,78,80,82,84,86,88,90,92,-1,94,96,98,100,102,104,106,108,-1,110,112,114,116,-1,-1,-1,-1,-1,-1,-1,-1,-1,-1,-1,-1,-1,-1,-1,-1,-1,-1,-1,-1,-1,-1,-1,-1,-1,-1,-1,-1,-1,-1,-1,-1,-1,-1,-1,-1,-1,-1,-1,-1,-1,-1,-1,-1,-1,-1,-1,-1,-1,-1,-1,-1,-1,-1,-1,-1],"split_conditions":[-1.9954649E-1,-4.1194645E-1,-8.2963295E-2,2.4423445E1,8.205324E1,1.2529871E2,0E0,-1.714523E-1,8.113908E-1,2.0123231E0,7.616204E-2,5.1427646E0,-2.4050093E0,4.497823E1,8.754773E0,5.519608E-1,4.5899826E-1,1.3043478E-1,1.3107396E0,3.068426E-3,-1.0064279E-1,3.4555754E-1,2.1793733E2,7.381151E1,7.673021E1,-1.14255E-1,4.718168E-2,5.021761E-1,2.2903085E-2,1.5588604E0,1.9100223E2,-2.5859353E-1,-1.7640663E1,2.1725576E0,-8.753552E-1,1.1396666E0,7.269464E1,-1.2621633E0,1.0588E2,1.4787789E-1,1.2333368E0,-2.8004184E-1,-2.0004655E-1,1.9100223E2,-1.2749234E0,-9.74081E-2,4.1972977E-1,3.269471E-3,3.878189E-1,-1.5549226E1,1.5016467E2,4.8869042E0,1.6593866E2,1.0223E2,3.9260212E-1,-1.1594415E-1,-2.638693E-1,2.4209727E2,4.5992872E-1,2.25821E0,6.7694557E-1,7.2135283E-3,1.190058E-1,-6.462158E-3,-4.75759E-2,8.417413E-3,8.892278E-2,1.2390147E-2,-5.3933207E-3,5.701326E-2,1.5108256E-1,-3.4471005E-2,4.9272303E-2,1.3230985E-1,-1.7826475E-2,2.9788682E-2,-1.2105502E-1,-1.9121335E-1,-2.4340784E-2,-6.087128E-3,5.2192234E-2,-1.4279139E-1,1.2866527E-2,-3.1697047E-1,-1.1007912E-1,-2.2722168E-2,-1.4496629E-1,1.5811712E-1,-9.664301E-3,-1.904194E-3,3.534694E-2,-1.9735493E-1,1.5458305E-1,-3.5728312E-1,-9.709234E-3,-3.2202303E-2,1.1877126E-1,3.1195134E-2,-1.9511417E-1,3.258229E-1,1.587957E-1,5.6488602E-3,2.014797E-1,-2.5792304E-2,-2.353762E-3,9.437695E-2,3.7813217E-3,6.1004558E-3,-4.5924645E-2,3.7157524E-3,1.4621428E-1,6.958379E-2,-4.55441E-3,-2.446088E-3,9.081206E-2,-1.1320744E-1,2.4088675E-2],"split_indices":[8,8,8,38,38,38,33,31,21,11,23,26,27,38,26,41,9,23,40,23,0,14,38,38,38,31,7,21,7,41,38,11,26,37,8,37,39,33,2,11,21,8,11,38,36,10,9,0,29,27,38,27,16,1,9,14,0,39,21,40,14,0,0,0,0,0,0,0,0,0,0,0,0,0,0,0,0,0,0,0,0,0,0,0,0,0,0,0,0,0,0,0,0,0,0,0,0,0,0,0,0,0,0,0,0,0,0,0,0,0,0,0,0,0,0,0,0],"split_type":[0,0,0,0,0,0,0,0,0,0,0,0,0,0,0,0,0,0,0,0,0,0,0,0,0,0,0,0,0,0,0,0,0,0,0,0,0,0,0,0,0,0,0,0,0,0,0,0,0,0,0,0,0,0,0,0,0,0,0,0,0,0,0,0,0,0,0,0,0,0,0,0,0,0,0,0,0,0,0,0,0,0,0,0,0,0,0,0,0,0,0,0,0,0,0,0,0,0,0,0,0,0,0,0,0,0,0,0,0,0,0,0,0,0,0,0,0],"sum_hessian":[6.141E3,1.832E3,4.309E3,1.01E3,8.22E2,6E2,3.709E3,8.17E2,1.93E2,6.86E2,1.36E2,5.36E2,6.4E1,1.151E3,2.558E3,1.86E2,6.31E2,1.51E2,4.2E1,6.8E2,6E0,3E1,1.06E2,3.37E2,1.99E2,3.2E1,3.2E1,9.23E2,2.28E2,1.233E3,1.325E3,1.9E1,1.67E2,9.3E1,5.38E2,4.7E1,1.04E2,2.2E1,2E1,2.4E1,6.56E2,2.2E1,8E0,9.1E1,1.5E1,3.1E2,2.7E1,1.78E2,2.1E1,1.7E1,1.5E1,1.6E1,1.6E1,6.83E2,2.4E2,2.23E2,5E0,1.07E3,1.63E2,1.283E3,4.2E1,1.5E1,4E0,8.5E1,8.2E1,7.9E1,1.4E1,1.54E2,3.84E2,3.2E1,1.5E1,4.3E1,6.1E1,4E0,1.8E1,6E0,1.4E1,4E0,2E1,6.42E2,1.4E1,1.1E1,1.1E1,4E0,4E0,8.2E1,9E0,6E0,9E0,2.2E2,9E1,4E0,2.3E1,5E0,1.6E1,9E0,8E0,4E0,1.1E1,7E0,9E0,1.2E1,4E0,1.05E2,5.78E2,1.4E1,2.26E2,9.6E1,1.27E2,1.059E3,1.1E1,9.2E1,7.1E1,1.259E3,2.4E1,2.7E1,1.5E1],"tree_param":{"num_deleted":"0","num_feature":"43","num_nodes":"117","size_leaf_vector":"1"}},{"base_weights":[-5.816062E-4,1.2674932E-3,-4.463042E-1,-7.8025297E-3,8.1049144E-2,-8.603064E-2,-9.3005095E-3,2.9081162E-3,-7.253993E-2,1.6098368E-1,-1.3347672E-1,-3.9757625E-3,1.3890421E-1,-6.2309843E-1,-3.6762923E-2,1.7058254E0,1.3246055E-1,-3.576796E-1,5.2027516E-2,4.052577E-3,-2.6822692E-1,-3.011392E-2,8.945485E-1,-3.2061747E-1,-1.8714397E0,9.1648924E-1,-5.4352477E-2,8.306535E-2,3.1072527E-1,2.7339378E-1,-2.3993442E-2,-2.0858973E-1,-1.068466E0,-3.107509E-1,1.9537723E-1,-5.958808E-4,1.1128504E-2,-1.5671149E-2,-2.024071E-1,6.651405E-2,-2.3687826E-2,-1.6050337E-1,1.3466918E-1,-1.0371365E-1,5.3058576E-2,-2.8601784E-1,-1.3024701E-1,3.4670418E-4,2.3005392E-1,3.4323484E-2,-1.25168925E-2,1.724914E-2,9.434148E-2,-9.667718E-3,5.5275675E-2,-6.3186646E-2,1.0049565E-3,-1.7287958E-1,-4.739563E-2,2.6740598E-2,-9.057234E-2,5.1041213E-3,6.10274E-2],"categories":[],"categories_nodes":[],"categories_segments":[],"categories_sizes":[],"default_left":[0,0,0,0,0,0,0,0,0,0,0,0,0,0,0,0,0,0,0,0,0,0,0,0,0,0,0,0,0,0,0,0,0,0,0,0,0,0,0,0,0,0,0,0,0,0,0,0,0,0,0,0,0,0,0,0,0,0,0,0,0,0,0],"id":19,"left_children":[1,3,5,7,9,-1,-1,11,13,15,17,19,21,23,25,27,29,31,33,35,37,39,41,43,45,47,49,-1,-1,51,53,55,57,59,61,-1,-1,-1,-1,-1,-1,-1,-1,-1,-1,-1,-1,-1,-1,-1,-1,-1,-1,-1,-1,-1,-1,-1,-1,-1,-1,-1,-1],"loss_changes":[5.020108E0,4.3890843E0,2.6169472E0,3.7763853E0,1.0621014E1,0E0,0E0,4.3751955E0,1.5224639E1,1.98404E1,6.9975185E0,9.437302E0,2.8763023E1,1.7707706E1,1.2182842E1,7.308796E0,9.772993E0,8.03289E0,4.8027577E0,3.5585475E0,2.5674217E1,1.8758413E1,2.3399002E1,1.6550528E1,3.4634552E0,1.24687605E1,1.2814429E1,0E0,0E0,1.5596563E1,6.030661E0,4.4995403E0,3.403819E0,6.479634E0,3.2432575E0,0E0,0E0,0E0,0E0,0E0,0E0,0E0,0E0,0E0,0E0,0E0,0E0,0E0,0E0,0E0,0E0,0E0,0E0,0E0,0E0,0E0,0E0,0E0,0E0,0E0,0E0,0E0,0E0],"parents":[2147483647,0,0,1,1,2,2,3,3,4,4,7,7,8,8,9,9,10,10,11,11,12,12,13,13,14,14,15,15,16,16,17,17,18,18,19,19,20,20,21,21,22,22,23,23,24,24,25,25,26,26,29,29,30,30,31,31,32,32,33,33,34,34],"right_children":[2,4,6,8,10,-1,-1,12,14,16,18,20,22,24,26,28,30,32,34,36,38,40,42,44,46,48,50,-1,-1,52,54,56,58,60,62,-1,-1,-1,-1,-1,-1,-1,-1,-1,-1,-1,-1,-1,-1,-1,-1,-1,-1,-1,-1,-1,-1,-1,-1,-1,-1,-1,-1],"split_conditions":[2.7971122E0,6.05496E6,2.8585908E-1,1.3213452E0,1.1387833E0,-8.603064E-2,-9.3005095E-3,8.539999E1,3.3667326E-1,3.9738792E-1,1.1015397E2,5.5445404E1,3.517118E0,5.156858E-1,3.4898034E-1,6.736556E6,1.8523241E0,8.9801865E1,1.4877476E0,2.7109852E-1,1.2654283E0,-2.574466E-1,2.67084E6,7.109005E-2,1.37122E2,4.7021067E-1,2.2859756E-2,8.306535E-2,3.1072527E-1,1.483112E0,7.695143E-1,3.2430094E-1,4.0745544E0,1.348876E-1,2.050979E0,-5.958808E-4,1.1128504E-2,-1.5671149E-2,-2.024071E-1,6.651405E-2,-2.3687826E-2,-1.6050337E-1,1.3466918E-1,-1.0371365E-1,5.3058576E-2,-2.8601784E-1,-1.3024701E-1,3.4670418E-4,2.3005392E-1,3.4323484E-2,-1.25168925E-2,1.724914E-2,9.434148E-2,-9.667718E-3,5.5275675E-2,-6.3186646E-2,1.0049565E-3,-1.7287958E-1,-4.739563E-2,2.6740598E-2,-9.057234E-2,5.1041213E-3,6.10274E-2],"split_indices":[24,4,7,41,14,0,0,38,24,24,39,38,37,9,24,4,41,39,36,40,41,33,4,22,1,9,22,0,0,40,14,21,36,10,41,0,0,0,0,0,0,0,0,0,0,0,0,0,0,0,0,0,0,0,0,0,0,0,0,0,0,0,0],"split_type":[0,0,0,0,0,0,0,0,0,0,0,0,0,0,0,0,0,0,0,0,0,0,0,0,0,0,0,0,0,0,0,0,0,0,0,0,0,0,0,0,0,0,0,0,0,0,0,0,0,0,0,0,0,0,0,0,0,0,0,0,0,0,0],"sum_hessian":[6.09E3,6.065E3,2.5E1,5.446E3,6.19E2,1.4E1,1.1E1,4.673E3,7.73E2,4.51E2,1.68E2,4.448E3,2.25E2,4.7E1,7.26E2,8E0,4.43E2,7.6E1,9.2E1,4.317E3,1.31E2,1.84E2,4.1E1,3.8E1,9E0,1.3E1,7.13E2,4E0,4E0,2.33E2,2.1E2,6.3E1,1.3E1,2.6E1,6.6E1,3.922E3,3.95E2,1.2E2,1.1E1,4.1E1,1.43E2,4E0,3.7E1,2.2E1,1.6E1,5E0,4E0,7E0,6E0,9.3E1,6.2E2,1.88E2,4.5E1,1.88E2,2.2E1,2.5E1,3.8E1,8E0,5E0,1.2E1,1.4E1,4.5E1,2.1E1],"tree_param":{"num_deleted":"0","num_feature":"43","num_nodes":"63","size_leaf_vector":"1"}},{"base_weights":[-7.6055457E-3,3.7239885E-1,-9.4289025E-3,1.223075E-1,2.2005032E-1,-9.189074E-4,-6.923125E-2,3.371669E-1,-8.481688E-2,1.2013292E-3,-3.72871E-1,-2.1387437E-2,-1.9210786E-1,1.112578E-1,1.4896152E-2,-2.2614563E-2,3.879321E-2,-2.4356714E-2,-1.19359754E-1,4.4800898E-1,-3.940635E-2,-2.0161016E-1,-1.540589E-1,-1.4778376E-2,-1.722508E-1,3.05219E-3,1.656196E-1,8.912499E-2,-1.5255173E-2,1.7741412E-2,-7.211976E-2,-3.486796E-1,5.0418E-2,3.5474144E-2,-2.1950381E-3,-1.2259051E-1,-1.6197372E-2,-1.5714865E-2,5.8221905E-3,5.0866757E-2,4.317748E-3,-1.3082402E-2,1.0270283E-2,-5.4912426E-2,6.6708654E-2,-5.274923E-2,1.31948395E-2],"categories":[],"categories_nodes":[],"categories_segments":[],"categories_sizes":[],"default_left":[0,0,0,0,0,0,0,0,0,0,0,0,0,0,0,0,0,0,0,0,0,0,0,0,0,0,0,0,0,0,0,0,0,0,0,0,0,0,0,0,0,0,0,0,0,0,0],"id":20,"left_children":[1,3,5,7,-1,9,11,13,-1,15,17,19,21,-1,-1,23,25,-1,-1,27,29,-1,31,33,35,37,39,-1,-1,-1,41,43,45,-1,-1,-1,-1,-1,-1,-1,-1,-1,-1,-1,-1,-1,-1],"loss_changes":[4.2316494E0,1.0872944E1,3.093182E0,4.594951E0,0E0,4.1969776E0,4.4503226E0,2.560118E0,0E0,4.7372622E0,3.1728816E0,4.6133666E0,1.2224024E1,0E0,0E0,3.797505E0,9.301959E0,0E0,0E0,3.6135316E0,3.2669563E0,0E0,8.247483E0,3.7568817E0,4.834152E0,1.0139698E1,1.5491854E1,0E0,0E0,0E0,2.7846506E0,1.1471665E1,3.1149526E0,0E0,0E0,0E0,0E0,0E0,0E0,0E0,0E0,0E0,0E0,0E0,0E0,0E0,0E0],"parents":[2147483647,0,0,1,1,2,2,3,3,5,5,6,6,7,7,9,9,10,10,11,11,12,12,15,15,16,16,19,19,20,20,22,22,23,23,24,24,25,25,26,26,30,30,31,31,32,32],"right_children":[2,4,6,8,-1,10,12,14,-1,16,18,20,22,-1,-1,24,26,-1,-1,28,30,-1,32,34,36,38,40,-1,-1,-1,42,44,46,-1,-1,-1,-1,-1,-1,-1,-1,-1,-1,-1,-1,-1,-1],"split_conditions":[1.7476816E-1,3.4157836E-1,6.808633E1,8.451387E-1,2.2005032E-1,2.8881636E0,1.3525703E0,-3.2392163E-2,-8.481688E-2,3.8502374E0,7.577838E-1,3.301169E-1,9.675642E-1,1.112578E-1,1.4896152E-2,1.4375739E2,1.4877476E0,-2.4356714E-2,-1.19359754E-1,9.51636E-2,3.3063647E-1,-2.0161016E-1,2.761883E0,-1.3507146E0,8.7951775E1,1.4444318E-1,2.5525463E-1,8.912499E-2,-1.5255173E-2,1.7741412E-2,5.8004528E1,2.2624323E0,6.2744984E1,3.5474144E-2,-2.1950381E-3,-1.2259051E-1,-1.6197372E-2,-1.5714865E-2,5.8221905E-3,5.0866757E-2,4.317748E-3,-1.3082402E-2,1.0270283E-2,-5.4912426E-2,6.6708654E-2,-5.274923E-2,1.31948395E-2],"split_indices":[24,8,18,35,0,30,41,6,0,38,6,29,30,0,0,39,36,0,0,11,24,0,30,7,16,21,29,0,0,0,39,41,20,0,0,0,0,0,0,0,0,0,0,0,0,0,0],"split_type":[0,0,0,0,0,0,0,0,0,0,0,0,0,0,0,0,0,0,0,0,0,0,0,0,0,0,0,0,0,0,0,0,0,0,0,0,0,0,0,0,0,0,0,0,0,0,0],"sum_hessian":[6.107E3,2.9E1,6.078E3,2.5E1,4E0,5.321E3,7.57E2,2E1,5E0,5.291E3,3E1,5.45E2,2.12E2,5E0,1.5E1,3.239E3,2.052E3,2.4E1,